tree
version=v3
num_class=1
num_tree_per_iteration=1
label_index=0
max_feature_idx=45
objective=binary sigmoid:1
feature_names=age income price hist_trans_count hist_default_sum hist_default_avg hist_late_sum hist_late_avg hist_price_sum hist_price_avg default_lst_01_sum late_lst_01_sum price_lst_01_sum default_lst_01_avg late_lst_01_avg price_lst_01_avg default_lst_03_sum late_lst_03_sum price_lst_03_sum default_lst_03_avg late_lst_03_avg price_lst_03_avg default_lst_06_sum late_lst_06_sum price_lst_06_sum default_lst_06_avg late_lst_06_avg price_lst_06_avg default_lst_09_sum late_lst_09_sum price_lst_09_sum default_lst_09_avg late_lst_09_avg price_lst_09_avg default_lst_12_sum late_lst_12_sum price_lst_12_sum default_lst_12_avg late_lst_12_avg price_lst_12_avg cat__sex cat__residentialAddress_clean cat__postalAddress_clean cat__geo_risk_rank cat__shopID cat__same_address
feature_infos=[5:89] [0:100000] [3:200] [1:14] [0:9] [0:1] [0:10] [0:1] [3:1763] [3:200] [0:1] [0:1] [3:200] [0:1] [0:1] [3:200] [0:3] [0:3] [3:599] [0:1] [0:1] [3:200] [0:6] [0:6] [3:1094] [0:1] [0:1] [3:200] [0:8] [0:9] [3:1487] [0:1] [0:1] [3:200] [0:9] [0:10] [3:1763] [0:1] [0:1] [3:200] [1:3] [1:13260] [1:13261] [0:5] [100:999] [0:1]
tree_sizes=10418 10473 10512 10542 10573 10525 10575

Tree=0
num_leaves=99
num_cat=0
split_feature=45 5 40 42 40 31 5 42 5 3 42 5 40 42 3 22 22 40 43 5 2 3 40 5 0 5 24 0 44 18 18 27 44 24 44 27 18 5 30 18 7 5 18 0 44 16 1 42 27 27 44 30 30 43 1 44 33 2 3 20 24 24 1 1 2 44 44 27 42 30 25 0 24 24 0 5 1 24 1 7 1 27 2 20 42 44 24 24 27 30 24 21 33 32 1 18 1 43
split_gain=13506.9 5518.02 2112.97 1852.49 753.745 530.945 429.145 348.72 164.144 147.605 139.436 117.29 108.452 97.3574 48.9826 46.6346 38.7263 36.249 34.8207 33.801 29.4054 24.8485 24.4962 23.3815 22.9184 30.852 27.3654 23.566 23.6359 22.4972 31.1351 26.9092 33.6701 21.8986 21.692 27.0027 21.4561 21.2118 20.083 21.1816 19.5712 18.3475 17.4407 16.9441 16.6927 16.5643 23.247 23.0559 16.4553 16.4308 16.1447 16.101 15.4214 15.0493 14.6526 14.4875 14.1108 14.0941 13.9099 13.369 13.0766 12.9758 14.6202 14.8835 12.6523 16.4674 15.9316 12.7482 12.4796 12.4201 12.2508 12.1495 11.5398 18.7827 11.2425 12.3019 17.6333 13.6266 10.7329 12.9567 10.3032 10.2537 10.0904 12.825 13.9824 10.9191 13.1344 11.8602 12.8336 11.6574 12.5519 10.6011 12.1214 10.9927 15.6465 9.96366 9.87417 9.79284
threshold=1.0000000180025095e-35 0.37980769230769235 1.5000000000000002 153.50000000000003 1.5000000000000002 0.18333333333333338 0.095454545454545472 153.50000000000003 0.13392857142857145 1.5000000000000002 153.50000000000003 0.78888888888888908 1.5000000000000002 152.50000000000003 3.5000000000000004 1.5000000000000002 1.5000000000000002 1.5000000000000002 4.5000000000000009 0.81666666666666676 9.5000000000000018 2.5000000000000004 1.5000000000000002 0.19090909090909094 31.500000000000004 0.43650793650793657 288.50000000000006 22.500000000000004 890.50000000000011 409.50000000000006 269.50000000000006 72.291666666666671 384.50000000000006 547.50000000000011 714.50000000000011 101.08333333333336 325.50000000000006 0.44949494949494956 510.50000000000006 288.50000000000006 0.21111111111111114 0.22649572649572652 94.500000000000014 49.500000000000007 725.50000000000011 1.5000000000000002 38350.000000000007 3344.5000000000005 120.55000000000001 103.55000000000001 284.50000000000006 233.50000000000003 193.50000000000003 3.5000000000000004 59150.000000000007 791.50000000000011 123.52777777777779 13.500000000000002 3.5000000000000004 0.58333333333333337 228.50000000000003 189.50000000000003 78750.000000000015 18550.000000000004 105.50000000000001 768.50000000000011 884.50000000000011 89.083333333333357 9378.5000000000018 291.50000000000006 0.55000000000000016 51.500000000000007 432.50000000000006 320.50000000000006 68.500000000000014 0.89444444444444449 45250.000000000007 675.50000000000011 58750.000000000007 0.10555555555555557 19050.000000000004 111.08333333333336 141.50000000000003 0.58333333333333337 13024.500000000002 872.50000000000011 292.50000000000006 547.50000000000011 88.083333333333357 343.50000000000006 507.50000000000006 138.83333333333334 152.05555555555557 0.2678571428571429 37550.000000000007 17.500000000000004 11750.000000000002 1.5000000000000002
decision_type=2 10 2 2 2 8 10 2 10 10 2 10 2 2 10 10 10 2 2 10 2 10 2 10 2 10 10 2 2 10 10 10 2 10 2 10 10 10 10 10 10 10 10 2 2 10 8 2 10 10 2 10 10 2 10 2 10 2 10 10 10 10 8 10 2 2 2 10 2 10 10 2 10 10 2 10 10 10 10 10 8 10 2 10 2 2 10 10 10 10 10 10 10 10 8 8 8 2
left_child=1 3 8 13 10 9 52 19 58 22 15 37 29 -1 -14 -3 82 23 24 -6 -18 -11 -5 -15 27 -26 64 44 45 30 31 32 41 -31 35 69 50 -9 39 -32 -36 -7 -24 -17 70 47 -47 -29 -37 -41 -28 -23 61 -48 -49 80 -40 -53 -2 96 -13 95 63 -63 65 67 -67 -27 -51 -20 -12 78 73 -52 75 77 -77 -22 -39 -80 -34 -66 83 84 85 87 -87 88 -8 -88 -91 93 -93 -89 -95 -4 -19 -84
right_child=2 4 6 5 7 12 16 11 -10 21 18 60 14 17 -16 43 20 59 34 -21 74 51 42 -25 25 26 36 28 -30 33 38 -33 55 -35 40 48 -38 71 56 49 -42 -43 -44 -45 -46 46 53 54 -50 68 72 57 -54 -55 -56 -57 -58 -59 -60 -61 -62 62 -64 -65 81 66 -68 -69 -70 -71 -72 -73 -74 -75 -76 76 -78 -79 79 -81 -82 -83 97 -85 -86 86 89 91 -90 90 -92 92 -94 94 -96 -97 -98 -99
leaf_value=-1.62062841496657 -2.3965310953912033 -2.0529056611071042 -2.3452051575033694 -1.6841135986513818 -1.8982493750912708 -1.1619030441984159 -2.1542654409139308 -1.2101975548802175 -2.3354127205878061 -1.8646461461988271 -1.6424798602819102 -0.46336644350665446 -0.93990374216643158 -2.3991469414910829 -1.4893587200093152 -1.7122054455111875 -1.6429367564545996 -2.3758894286952863 -0.9118051791430597 -1.2157652491685909 -2.0961988551856576 -1.8028882648091207 -1.6616536367877397 -2.188677569986818 -1.6180093715272708 -1.2110807814947202 -0.65505730796942263 -0.72851776627611797 -1.4636508514616049 -0.95903876649139441 -1.9225172748561397 -1.2364206308297554 -2.0118493528922596 -1.5209192645452525 -1.4955065810000407 -1.376128976556537 -1.2658962872424027 -0.49069755519215796 -2.051104299263288 -1.2651829891959037 -0.95768812722696794 -1.6506079897613346 -1.1488066376805037 -1.1242867311554048 -1.0109488811415719 -1.1424500134813902 -0.41300972299669603 -1.0912560559976403 -0.90813386703165677 -1.5135934818612022 -0.94157494025760302 -1.7530941032500476 -2.2735529155003547 -0.9642214796917985 -1.5842075538914862 -1.4511955126295804 -1.6270255608119473 -2.0702479676927066 -2.4128881064701959 -2.4250208939715745 -0.23771369155705013 -1.8612169193695329 -1.8367994773032796 -2.2738166135244895 -1.3194237708607535 -1.9691571484608876 -1.4182064642168655 -1.5306225245487926 -1.9206075324157827 -0.45103668440386846 -1.2509685999295239 -0.83937181653215398 -0.87094417643461974 -1.4438435857079734 -1.8135122985615562 -2.1102756102991016 -1.6684875017448806 -1.9383099019922416 -0.583091480761873 -1.0851353641749877 -1.655999712739372 -1.0225144582298173 -2.1769746021156982 -2.2237011155038449 -1.7920286291757404 -2.3231938163470516 -1.8968728452481756 -2.2036975377148424 -2.0760721416113572 -2.2985321066530964 -2.0636219381147263 -2.3938954753232609 -2.0621722259276063 -1.7291703999820225 -2.1568735551902356 -2.2428190274272266 -2.1451108632534166 -2.0752985000440081
leaf_weight=11.940339446067808 9950.9462239146233 15.671695522964002 60.530887469649315 95.854391664266586 12.437853589653971 21.476027198135856 233.91456650942564 7.0481170341372481 2735.0840043649077 97.761529214680195 10.613635063171388 47.098005592823029 38.557346127927303 327.53014452755451 15.091262355446814 7.1310360580682737 11.691582374274729 13.018286757171152 11.028230182826521 7.6285502016544333 248.8399908170104 18.988456480205059 8.3748214170336741 36.152694433927536 16.086290642619133 22.802731581032276 8.3748214170336706 7.6285502016544369 7.5456311777234069 10.11612091958523 9.4527687281370145 32.006743237376213 6.9651980102062216 9.6186067759990674 10.779473111033441 10.11612091958523 44.942110970616341 28.192468136548996 12.272015541791918 14.593748211860655 8.8723355606198293 7.4627121537923804 10.945311158895491 6.7993599623441696 10.613635063171385 10.199039943516256 10.779473111033441 11.359906278550627 13.101205781102179 21.558946222066883 9.7015257999300974 9.6186067759990674 2458.6319785788655 7.0481170341372481 7.4627121537923804 22.802731581032276 9.1210926324129087 149.66883819550276 4912.2888157218695 15.671695522963999 52.902337267994881 6.8822789862751952 9.7015257999300939 27.280358873307705 33.333447620272636 6.8822789862751943 7.4627121537923813 16.169209666550159 7.1310360580682746 10.0332018956542 13.681638948619364 36.318532481789589 12.520772613584993 12.272015541791914 12.686610661447046 11.691582374274732 12.023258469998835 41.127835869789124 9.9502828717231768 7.9602262973785392 34.162637859582901 13.267043828964232 77.28053030371666 114.75992912054062 7.5456311777234069 40.215726606547832 10.199039943516253 66.666895240545273 319.56991823017597 30.845876902341843 26.285330586135387 26.865763753652573 9.1210926324129087 8.4577404409647006 16.003371618688107 1675.2959595024586 80.265615165233612 307.54665976017714
leaf_count=144 120008 189 730 1156 150 259 2821 85 32985 1179 128 568 465 3950 182 86 141 157 133 92 3001 229 101 436 194 275 101 92 91 122 114 386 84 116 130 122 542 340 148 176 107 90 132 82 128 123 130 137 158 260 117 116 29651 85 90 275 110 1805 59242 189 638 83 117 329 402 83 90 195 86 121 165 438 151 148 153 141 145 496 120 96 412 160 932 1384 91 485 123 804 3854 372 317 324 110 102 193 20204 968 3709
internal_value=-2.29853 -1.63046 -2.34838 -1.95157 -1.02006 -1.68085 -2.21882 -0.637024 -2.39161 -1.86745 -1.22397 -0.532063 -1.41324 -2.32219 -1.0923 -1.75049 -2.11019 -2.34012 -1.1815 -1.63337 -2.03464 -1.967 -1.62968 -2.37803 -1.21909 -1.27028 -1.24103 -1.11276 -1.01482 -1.49252 -1.51948 -1.44139 -1.51329 -1.22681 -1.00669 -0.903112 -1.13434 -0.745844 -1.65243 -1.56758 -1.24646 -1.28425 -1.36539 -1.41722 -1.2903 -0.954723 -0.807091 -1.11623 -1.10671 -1.49215 -0.999364 -2.02362 -2.2607 -0.622798 -1.28069 -1.61874 -1.86599 -2.05051 -2.40194 -2.21425 -0.342344 -2.24299 -2.10849 -2.18819 -1.33601 -1.42896 -1.67576 -1.34076 -1.61156 -0.685239 -1.41752 -0.707643 -1.08718 -1.21643 -2.04898 -2.0588 -1.88258 -2.07351 -0.607032 -0.798448 -1.71419 -1.23216 -2.12997 -2.14462 -2.1333 -2.13669 -2.21187 -2.12491 -2.10898 -2.1444 -2.19009 -2.19487 -2.30772 -2.14958 -2.00536 -2.24643 -2.17807 -2.09552
internal_weight=0 1752 23470 1148.18 603.816 663.601 5871.66 209.536 17598.3 391.212 394.28 189.47 272.389 484.579 53.6486 29.6021 1633.34 472.638 364.678 20.0664 338.061 276.037 115.175 363.683 300.747 203.815 187.729 96.9323 62.0234 218.74 199.006 124.876 92.8693 19.7347 63.9306 44.2788 87.8112 89.4696 74.1296 52.7365 19.6518 28.9387 19.3201 13.9304 34.9089 54.4778 28.0266 26.4512 23.2173 43.2837 42.8691 178.276 4238.32 17.8276 18.8226 63.9306 21.3931 159.287 14863.2 108.956 100 1779.69 43.8642 34.1626 99.9174 53.3169 14.345 38.9719 28.69 21.0614 24.2953 82.4215 34.4943 21.9735 326.369 313.683 23.7148 289.968 46.103 17.9105 41.1278 46.6005 1295.28 910.451 795.691 788.145 107.546 680.599 553.484 67.3302 57.1312 127.115 35.9869 91.128 24.4611 1735.83 93.2839 384.827
internal_count=304176 21129 283047 13847 7282 8003 70812 2527 212235 4718 4755 2285 3285 5844 647 357 19698 5700 4398 242 4077 3329 1389 4386 3627 2458 2264 1169 748 2638 2400 1506 1120 238 771 534 1059 1079 894 636 237 349 233 168 421 657 338 319 280 522 517 2150 51114 215 227 771 258 1921 179250 1314 1206 21463 529 412 1205 643 173 470 346 254 293 994 416 265 3936 3783 286 3497 556 216 496 562 15621 10980 9596 9505 1297 8208 6675 812 689 1533 434 1099 295 20934 1125 4641
is_linear=0
shrinkage=1


Tree=1
num_leaves=99
num_cat=0
split_feature=45 40 31 5 5 3 5 6 30 41 18 0 3 3 22 12 18 22 26 9 0 30 12 0 44 21 0 44 18 44 41 0 2 2 22 0 12 1 7 9 9 1 44 31 9 41 44 44 2 30 30 0 21 18 41 11 1 2 12 1 44 1 12 9 33 44 5 44 41 44 9 21 2 44 5 0 12 41 44 0 9 41 44 5 19 12 9 12 12 12 41 18 2 1 0 36 9 9
split_gain=3248.98 1249.75 380.11 172.148 115.98 40.0362 26.4258 12.2743 11.9244 13.9406 11.1315 11.1289 11.0961 10.6505 10.4166 9.27373 11.3626 9.26399 9.63427 9.2349 8.93011 9.40955 9.36486 8.92881 7.76577 8.40033 9.80442 7.60063 8.41578 7.54231 10.7114 10.3647 8.38712 7.4183 7.39556 7.38576 7.71328 8.35395 12.5047 11.212 13.4628 10.6455 9.78822 12.4786 7.5357 7.49894 7.28446 9.05784 10.8184 8.63397 14.3742 11.7715 7.21168 16.6415 15.6445 9.32842 8.2429 10.3792 11.305 13.4095 7.27088 7.95688 7.89493 7.64237 7.11517 14.8751 13.3399 7.01988 6.92641 7.45055 8.43202 11.5248 12.5893 10.8161 7.20958 8.46802 13.1158 7.84082 8.56117 7.90174 7.9401 6.89503 8.05818 6.88878 10.327 12.2687 13.1069 6.83456 12.172 7.99361 6.73618 7.31624 9.45274 7.29623 6.88096 6.72769 7.09604 14.4619
threshold=1.0000000180025095e-35 1.5000000000000002 0.18333333333333338 0.095454545454545472 0.13392857142857145 2.5000000000000004 0.43650793650793657 1.5000000000000002 1008.5000000000001 5032.5000000000009 277.50000000000006 16.500000000000004 7.5000000000000009 3.5000000000000004 1.5000000000000002 17.500000000000004 117.50000000000001 1.5000000000000002 0.55000000000000016 79.050000000000011 38.500000000000007 103.50000000000001 196.50000000000003 35.500000000000007 983.50000000000011 129.16666666666671 27.500000000000004 216.50000000000003 128.50000000000003 809.50000000000011 5126.5000000000009 51.500000000000007 112.50000000000001 18.500000000000004 3.5000000000000004 68.500000000000014 195.50000000000003 43250.000000000007 0.31666666666666671 131.05000000000004 124.05555555555557 36350.000000000007 839.50000000000011 0.23611111111111113 147.29166666666671 3561.5000000000005 212.50000000000003 328.50000000000006 102.50000000000001 291.50000000000006 237.50000000000003 59.500000000000007 69.833333333333357 199.50000000000003 6103.5000000000009 1.0000000180025095e-35 27850.000000000004 189.50000000000003 182.50000000000003 16850.000000000004 593.50000000000011 60750.000000000007 51.500000000000007 57.354166666666679 92.944444444444457 276.50000000000006 0.10555555555555557 296.50000000000006 1813.5000000000002 809.50000000000011 83.050000000000011 116.83333333333336 123.50000000000001 492.50000000000006 0.68333333333333346 37.500000000000007 103.50000000000001 3278.5000000000005 168.50000000000003 25.500000000000004 121.52777777777779 841.50000000000011 872.50000000000011 0.16025641025641027 1.0000000180025095e-35 134.50000000000003 109.95000000000002 95.500000000000014 147.50000000000003 42.500000000000007 4639.5000000000009 207.50000000000003 85.500000000000014 83150.000000000015 64.500000000000014 809.50000000000011 95.527777777777786 109.95000000000002
decision_type=2 2 8 10 10 10 10 10 10 2 10 2 10 10 10 8 10 10 10 10 2 10 10 2 2 10 2 2 10 2 2 2 2 2 10 2 10 10 10 10 10 8 2 8 10 2 2 2 2 8 10 2 10 10 2 10 10 2 10 10 2 8 10 10 10 2 10 2 2 2 10 10 2 2 10 2 10 2 2 2 10 2 2 10 10 10 10 10 10 10 2 10 2 8 2 10 10 10
left_child=2 4 5 12 13 29 35 19 11 -10 -9 -5 15 -2 20 -3 -17 18 90 27 22 -22 23 33 -18 26 -26 -7 -29 -1 32 -32 -31 -13 -8 36 37 38 42 40 45 87 43 -4 -41 67 -47 48 -48 50 -49 -51 53 55 -55 60 57 58 83 -60 63 62 -62 -23 65 -21 81 -39 69 70 -16 72 -72 -73 77 -76 -77 79 -79 -70 -81 -66 -83 -54 85 86 -85 89 -89 -40 91 92 94 -94 -6 96 -35 -98
right_child=1 3 6 8 17 7 34 10 9 -11 -12 14 -14 -15 68 16 24 -19 -20 64 21 52 -24 -25 25 -27 -28 28 -30 30 31 -33 -34 95 -36 -37 -38 39 41 44 -42 -43 -44 -45 -46 46 47 49 -50 51 -52 -53 56 54 -56 -57 -58 -59 59 -61 61 -63 -64 -65 66 -67 -68 -69 74 -71 71 73 -74 -75 75 76 -78 78 -80 80 -82 82 -84 84 -86 -87 -88 88 -90 -91 -92 -93 93 -95 -96 -97 97 -99
leaf_value=0.17223589161891317 -0.08079369904585873 -0.014187372155070111 0.035392181262532622 -0.074512573661187673 0.064401248998650837 0.40988111952613698 0.31227588782789462 -0.081108659598761318 0.54133191158589578 0.078856256706080832 0.049496676584009414 0.018865905309036628 -0.089129140424026976 -0.095775092650343896 -0.033345289873897996 0.054046697502830678 0.02216376861018159 0.010914255762839704 -0.071104835804311331 0.24523957281763772 0.00037975950001193802 0.3445647752499772 0.37502967201982218 0.3341445735842587 0.38326499744278975 -0.031388928987606098 0.092795764031847347 0.35331671162516326 0.088478981927687064 0.28510056742559142 -0.070218168799597247 0.13900626573711675 0.066985055007377392 0.10233215236778549 0.36542208472275295 0.4212122268783246 0.047219506102529021 0.051243832429438099 0.25085279508779323 0 0.46806985916891891 0.56907386628316881 0.13704399873625417 0.30214083505527123 0.23584685633940941 0.38831119911362694 0.24877387511111268 0.29139265258168273 -0.069871559765946126 0.32569210705917628 -0.061209917371344416 0.099488597038885809 -0.066746148700272623 0.61699821560128076 0.12824315256158189 -0.0058843998682138049 0.072667612010679061 0.36356161566630169 0.13328821154423642 0.53532894353496863 0.30392022322216294 -0.053620573171242074 0.021727620185761607 0.1436514337885228 -0.093216786504331198 -0.10797924910850944 0.35641901661188841 0.21262956463417299 0.46479530910918687 -0.068581704127590529 0.41065569939221269 -0.1499452763973988 0.031039534127794109 0.21788183755711765 0.09259662670010306 0.5138921326562228 0.15295897721077664 0.29734841238140208 0.12095961060147938 0.13734010686893555 0.41592272899633204 0.10717720710391627 -0.0656233681590917 0.18917291966548547 0.080842272821053801 0 0.59435592584606223 0.090102772485307125 0.38549218372631905 0.50374598342941812 -0.039971632231578159 -0.025081945314333588 0.010631441687387024 -0.13544428109845724 0.31534200161765136 -0.022550636720448772 0.26030194770378123 0.12442132736767905
leaf_weight=379.49856655299664 9177.7041199207306 290.89643067121506 12.381842404603956 18.564858339726925 95.732315108180046 7.4491441696882239 1097.9064725115895 66.085736341774464 8.9736672118306178 8.1106344088911992 105.04408395290375 39.945680037140846 50.013550110161304 4469.1651023775339 15.305677846074103 1055.8716062530875 2926.3119172677398 320.66303195059299 371.18395118415356 9.3783669248223287 65.022033296525478 19.463998928666115 10.158906906843184 13.276097834110258 11.230319559574125 14.594459772109984 22.837160438299179 9.2877767682075483 45.116365790367126 24.684423521161079 32.355187244713306 26.70973514765501 21.54531417042017 185.58072086423635 215.46083337068558 18.60764741897583 11.685175888240336 22.282736286520958 14.222036994993685 21.288439117372036 16.987663507461548 15.136361263692377 37.237393379211426 154.35656527429819 14.458054259419439 27.410495534539223 14.510243855416777 16.483514383435253 11.668422535061834 111.62829165160656 12.232983335852621 17.519186303019524 14.300808437168596 8.8041344806551951 8.3907392323017103 27.725524045526981 536.05620259791613 11.486186265945433 14.917770288884642 8.4499764889478666 12.705671176314356 16.944843553006649 13.04431978613138 35.215316481888294 15.269719444215296 34.00893396884203 10.431934900581835 86.886922061443329 8.9028832688927633 15.426997579634188 17.148567460477356 9.8966761603951472 8.548251733183859 9.7740522995591146 12.334943182766436 14.485851369798185 12.292877048254011 19.227752968668938 222.00981787592173 32.545409239828587 8.4347137510776502 113.734797924757 19.148402273654938 14.736878126859667 144.35010284930468 9.7230697870254499 8.1592452302575094 17.240951851010323 19.147304967045784 22.703669980168343 1107.598751604557 608.58400318771601 116.48772460222244 25.823590882122517 7.4816010966897002 15.827332727611063 74.646027691662312 151.65535049140453
leaf_count=3543 120008 3446 96 193 1190 78 5822 738 90 82 1191 424 591 59242 151 12174 34332 3986 4614 104 696 206 107 139 132 171 268 96 483 237 301 251 198 1968 1005 131 83 156 106 144 123 101 268 1112 88 181 101 117 84 799 85 128 147 95 89 300 5627 117 156 88 137 182 139 371 172 372 108 630 89 149 169 95 85 92 115 127 111 190 2194 323 81 1263 214 155 1503 104 85 121 132 167 13768 7565 1448 321 93 169 774 1584
internal_value=0 -0.0400141 0.239189 0.0545701 -0.0764254 0.106261 0.299994 0.0510806 0.117206 0.326609 -0.000551736 0.115264 0.0272944 -0.0857052 0.11719 0.0286585 0.0317675 -0.0286744 -0.0341452 0.084823 0.107198 0.0930801 0.13492 0.129668 0.0238367 0.122916 0.19096 0.1697 0.135221 0.155618 0.0950271 0.0232836 0.185098 0.123683 0.32106 0.260128 0.255573 0.259124 0.291718 0.233377 0.247578 0.371912 0.256528 0.282756 0.0971982 0.235613 0.263774 0.244757 0.104294 0.267579 0.13898 0.295583 0.0996687 0.151923 0.383496 0.11941 0.0898148 0.130139 0.11725 0.282401 0.155767 0.0760308 0.16392 0.21666 0.0584578 -0.0298716 0.0830538 0.180349 0.15292 0.0832193 0.12296 0.177167 0.287316 0.0294664 0.168762 0.271691 0.351329 0.154655 0.135359 0.246384 0.196771 0.0632334 0.0817505 0.0966495 0.110252 0.237999 0.337503 0.329921 0.247714 0.408651 -0.0271156 -0.0103632 0.0258412 -0.0154363 0.0833924 0.13331 0.139466 0.169589
internal_weight=0 22574.8 2929.19 6274.33 16300.4 919.748 2009.44 434.955 1902.57 17.0843 171.13 1885.49 4371.76 13646.9 1866.92 4321.74 4030.85 2653.55 2332.89 263.825 1460.59 969.497 491.09 480.931 2974.97 48.6619 34.0675 61.8533 54.4041 484.793 105.295 59.0649 46.2297 467.655 1313.37 696.076 677.468 665.783 292.426 373.357 337.61 88.4503 203.976 166.738 35.7465 320.623 211.453 184.043 26.1787 157.864 28.7165 129.147 904.475 142.295 17.1949 125.1 762.18 226.124 214.638 23.3677 97.3741 42.6948 25.75 54.6793 201.972 43.3873 158.585 109.17 406.334 76.1002 60.6732 45.3675 25.6968 19.6707 330.234 39.1137 26.7787 291.121 241.238 49.883 40.9801 148.153 132.883 191.27 176.969 32.6192 22.8961 73.314 36.3883 36.9257 1961.71 854.109 245.525 142.311 103.214 427.709 411.882 226.301
internal_count=304176 283047 21129 70812 212235 9349 11780 4819 19698 172 1929 19526 51114 179250 19333 50523 47077 32985 28999 2890 15362 10197 5165 5058 34903 571 400 657 579 4530 987 552 435 4919 6827 4953 4822 4739 2103 2636 2404 627 1476 1208 232 2281 1495 1314 185 1129 202 927 9501 1519 184 1335 7982 2355 2238 244 1035 458 276 577 2233 476 1757 786 3971 741 592 441 254 187 3230 353 238 2877 2384 493 404 1649 1477 1994 1847 344 240 526 253 273 24385 10617 3052 1769 1283 4495 4326 2358
is_linear=0
shrinkage=0.249421


Tree=2
num_leaves=99
num_cat=0
split_feature=45 42 37 42 28 34 16 19 26 3 37 25 3 41 8 2 2 2 44 2 18 16 12 12 2 44 21 21 44 8 44 9 21 41 2 12 12 18 18 12 24 42 44 44 12 2 41 44 42 0 18 9 21 41 42 24 36 6 27 44 9 28 44 12 18 18 43 27 18 44 44 2 41 12 12 44 44 21 0 2 44 27 11 33 42 44 44 44 44 44 0 43 42 9 0 12 24 24
split_gain=1629.74 402.129 274.881 80.8838 31.0253 19.0126 16.6791 13.6343 13.1835 12.4262 14.5386 11.5979 11.2717 10.8853 10.1513 8.65172 8.20459 7.94332 7.6149 8.04334 7.80309 7.50809 12.3382 7.35234 7.01983 6.73452 7.54711 6.80472 7.24818 10.8706 15.4265 10.669 10.0394 9.7476 10.0956 6.71976 11.3034 10.6538 7.87454 7.57087 6.54113 6.4766 6.46903 8.54579 6.46109 6.45735 7.83566 7.10257 6.3007 10.4428 8.15427 13.1709 8.20532 7.66692 7.46919 6.85926 6.0627 5.94382 5.90338 7.18944 7.09588 5.88276 5.72336 9.01652 12.7249 5.70816 5.69542 9.7777 5.97446 5.75921 5.55383 6.42132 6.07145 6.91013 5.45082 5.44119 6.51811 6.23358 5.39383 5.38108 5.27655 6.13132 5.22219 7.6695 5.18866 7.91991 6.52248 5.17926 8.83476 5.14732 7.09425 5.71766 8.33513 8.46259 5.53149 5.13241 8.07332 11.4388
threshold=1.0000000180025095e-35 153.50000000000003 0.17424242424242428 152.50000000000003 2.5000000000000004 1.5000000000000002 1.0000000180025095e-35 0.83333333333333337 0.55000000000000016 1.5000000000000002 0.095454545454545472 0.18333333333333338 5.5000000000000009 631.50000000000011 477.50000000000006 26.500000000000004 186.50000000000003 4.5000000000000009 959.50000000000011 190.50000000000003 371.50000000000006 1.0000000180025095e-35 68.500000000000014 198.50000000000003 29.500000000000004 396.50000000000006 138.83333333333334 125.83333333333336 635.50000000000011 671.50000000000011 774.50000000000011 118.05555555555557 162.16666666666671 6103.5000000000009 114.50000000000001 87.500000000000014 46.500000000000007 192.50000000000003 274.50000000000006 188.50000000000003 534.50000000000011 2840.5000000000005 514.50000000000011 340.50000000000006 164.50000000000003 18.500000000000004 766.50000000000011 236.50000000000003 5510.5000000000009 54.500000000000007 267.50000000000006 73.77500000000002 81.833333333333357 7416.5000000000009 5000.5000000000009 456.50000000000006 982.50000000000011 2.5000000000000004 80.63333333333334 554.50000000000011 128.5277777777778 3.5000000000000004 484.50000000000006 160.50000000000003 329.50000000000006 455.50000000000006 3.5000000000000004 87.550000000000011 201.50000000000003 292.50000000000006 956.50000000000011 108.50000000000001 1391.5000000000002 38.500000000000007 136.50000000000003 120.50000000000001 180.50000000000003 123.83333333333336 48.500000000000007 92.500000000000014 542.50000000000011 100.55000000000001 1.0000000180025095e-35 113.05555555555557 3611.5000000000005 292.50000000000006 758.50000000000011 635.50000000000011 800.50000000000011 574.50000000000011 26.500000000000004 3.5000000000000004 8554.5000000000018 43.775000000000006 49.500000000000007 192.50000000000003 304.50000000000006 296.50000000000006
decision_type=2 2 10 2 10 10 8 8 10 10 10 10 10 2 10 2 2 2 2 2 10 10 10 8 2 2 10 10 2 10 2 10 10 2 2 10 10 10 10 10 10 2 2 2 10 2 2 2 2 2 10 10 10 2 2 10 10 10 10 2 10 8 2 10 10 10 2 10 10 2 2 2 2 10 10 2 2 8 2 2 2 10 8 10 2 2 2 2 2 2 2 2 2 10 2 10 10 10
left_child=1 3 9 7 11 8 14 78 13 15 12 70 57 21 -3 45 -15 -8 19 20 42 22 -4 -12 -16 26 48 61 32 31 -31 -30 33 79 -35 36 -21 -38 -39 -37 44 -26 43 -18 -33 47 -47 -2 54 50 51 -50 -53 -52 66 -55 -14 95 59 -13 80 -27 63 64 -43 -28 67 69 -68 -7 71 72 73 -5 -24 -10 77 -77 -1 -29 81 -60 83 -69 86 -86 -48 -64 -89 91 -91 92 93 -87 -92 -11 97 -97
right_child=2 6 5 4 -6 25 17 -9 75 10 23 58 56 16 24 -17 18 -19 -20 35 -22 -23 74 -25 41 27 65 28 29 30 -32 40 -34 34 -36 39 37 38 -40 -41 -42 62 -44 -45 -46 46 84 -49 49 -51 53 52 -54 55 -56 -57 -58 -59 60 -61 -62 -63 87 -65 -66 -67 68 82 -70 -71 -72 -73 -74 -75 -76 76 -78 -79 -80 -81 -82 -83 -84 -85 85 89 -88 88 -90 90 94 -93 -94 -95 -96 96 -98 -99
leaf_value=0.083329688071980726 0.057973017746515247 0.17855684262398006 0.43724474524680074 0.17498353929873153 0.33244275711521065 0.073971542844204083 0.36673236917268492 0.51495089645346437 -0.21256423758882848 -0.047843463299760601 -0.016471570133545655 -0.19599968556129987 -0.068219123283669261 0.015820262296977205 0.25263434518804873 -0.038085117856367916 0.063695957185957233 0.2093545563532454 0.30297275289228642 -0.016865265334490901 0.36310276389703289 0.06047814812918665 -0.052116411492769195 0.22691185686690407 0.17951033006482719 0.055228934851263706 -0.16030588318943223 0 0.20317331870242178 -0.032594991031825955 0.31554902476762897 0.123129861688969 -0.045486202589407332 0.50782361598767578 0.1551001316670087 -0.054033881896170977 0.41300800505439028 -0.10160747773456906 0.24449844843564081 0.19882195118323354 -0.20216647021712889 0 0 0.39056829492613115 -0.14327285990708311 0.19817408108726867 0.00059623028712830128 -0.038066177857574234 -0.050932799274253794 -0.10014585339385534 -0.18957721947651041 0.13399323288260348 0.45185275284925641 -0.11128782306645088 0.27882259535776632 0.13423108016835081 -0.14091204621963521 -0.06856256163059328 0.032008089429808186 0.024749800111353432 -0.064270949980249167 0.25603926734635368 -0.15502168433059213 -0.085703660975209428 0.39129086433332699 0.022656058077521857 0.16655502302965725 0.036617937037183801 -0.05310722025582499 -0.18470670656536078 -0.20712217387652876 -0.03598408718834871 -0.11634627220266561 -0.072353285002659778 0.21704120078740885 0.023540884422808019 -0.027659615191583324 0.29368023087115158 0.30139568373724274 0.23469846352155185 0.017648967921338934 0.25848652580527048 0.34698341862479704 0.27877864518004081 -0.079897264892020176 -0.071844723481260087 -0.20633509972345085 0.20468908203400546 -0.094900203069908692 -0.1247808337822362 0.20382210101891349 0 0.36461319529655539 0.28106996906560805 0.013038343234158161 0.014355657171593404 -0.038963063905750529 0.30436570593092321
leaf_weight=13.848466306924822 55.652666628360748 540.84602697938681 9.2868169099092501 9.7369232922792417 12.983119405806063 13.78468180447817 21.379693269729614 13.408973366022108 9.2621871978044492 9753.9073848128319 676.75962319225073 16.829843305051327 1316.5254628434777 2424.6165488064289 15.118138432502745 4110.3584628850222 13.644505240023138 1971.4007147997618 8.4306425228714925 27.932926990091801 8.4220268130302411 171.46140087395906 9.1181600019335765 7.7289393469691268 23.888345509767532 413.29616835713387 21.160731144249439 11.293902583420278 12.219109013676642 12.133843645453451 21.041254319250584 13.886988028883936 8.6389620602130872 12.836006306111814 9.5224111303687078 64.840048976242542 9.9639731422066706 7.5119895488023749 8.4507463797926885 8.1929109096527082 13.665018767118452 10.519557490944868 22.29079757630825 8.4241422861814481 9.4157284721732122 16.273362815380096 35.380013935267925 325.11238150298595 13.118625693023203 39.668844804167747 11.599002681672571 14.236664049327375 8.7086703032255155 10.593741089105608 11.352118745446203 20.158743612468243 77.552587315440178 853.09949309378862 14.219035133719446 19.081007771193981 27.354522742331028 9.4448210299015027 14.267860710620878 9.7226144447922689 10.67559529095888 20.086368873715401 9.8097778558731061 22.324012093245983 34.926751494407654 8.5586145743727666 19.565647967159748 197.23669262975454 186.9823062568903 24.826835282146931 8.9294176474213582 21.533158428967003 380.18557873368263 7.3205587416887274 17.149441123008728 13.290005102753637 36.048983551561832 17.549137838184834 9.3516971543431264 13.526902385056017 25.009492859244347 9.0624038353562408 12.579985864460467 10.661192767322065 13.977926917374132 14.045644380152224 14.504471048712729 11.225496433675287 11.999615490436552 7.5226600468158713 29.478228271007538 89.506030045449734 309.10367241501808 9.3785276412963849
leaf_count=92 731 4094 104 107 74 141 106 75 113 130937 8067 128 18139 27595 114 54196 151 9588 93 313 94 1916 101 87 202 4286 221 112 129 119 209 138 85 133 96 728 109 86 97 91 144 87 250 91 94 215 464 4287 131 403 119 148 89 106 111 205 1083 11871 117 151 209 84 119 81 86 200 101 222 351 91 238 2273 2142 290 103 266 4684 91 107 131 291 149 94 131 330 119 167 88 121 186 191 150 157 101 388 1191 4165 125
internal_value=0 0.157037 -0.0317815 -0.0224705 -0.0473206 0.0266477 0.199644 0.301607 0.0179083 -0.0451779 -0.0491321 -0.0561269 -0.0510861 0.0240668 0.164427 -0.0340958 0.0197504 0.211086 0.0700301 0.058641 0.140687 0.0804348 0.202799 -0.0136078 0.093534 0.060022 0.0282623 0.0759254 0.124488 0.0760832 0.186313 0.000243591 0.194861 0.24054 0.361311 0.0239368 0.0910044 0.209645 0.0775717 -0.0246224 -0.0651803 0.0670221 0.0965687 0.192142 0.012502 -0.00509876 0.0326884 -0.023845 0.0452608 0.00344877 0.0567513 0.144022 0.258306 -0.0160431 0.0846292 0.0474053 -0.0723167 -0.0483927 0.00849997 -0.0769454 0.0414776 0.0599058 0.027465 0.108029 0.200087 -0.0696432 0.0642757 0.110001 -0.00329136 -0.0222729 -0.0756064 -0.0692758 -0.0985933 -0.000562068 0.077533 -0.0233201 -0.0188435 0.0948175 0.206452 0.127435 0.0851487 0.159462 0.176836 0.13014 0.0164713 0.0439317 -0.0524255 -0.0348684 0.0321308 0.0763034 0.0274224 0.145726 0.204898 0.0845103 0.0776567 -0.0466924 -0.0190041 0.0426874
internal_weight=0 3269.28 21845.2 626.821 582.414 4073.47 2642.46 44.4069 3229.82 17771.8 13093.6 569.431 12409.1 2811.52 649.677 4678.2 2612.72 1992.78 188.105 179.674 52.7815 198.796 27.3344 684.489 108.831 843.65 282.966 560.684 137.943 82.3619 33.1751 49.1868 55.5813 46.9423 22.3584 126.893 53.8596 25.9267 15.9627 73.033 36.9677 93.7131 44.3594 22.0686 23.3027 567.846 187.081 380.765 241.719 118.084 78.4154 36.064 22.9453 42.3515 123.635 30.7525 1394.08 11015 131.083 35.9109 95.1717 422.741 69.8247 30.9178 21.1952 41.2471 112.282 67.5459 44.7365 22.3433 438.348 418.783 221.546 34.5638 18.0476 418.301 409.039 28.8537 30.9979 24.5839 67.8172 31.7682 45.2026 35.8509 170.808 122.848 47.96 38.907 24.6391 97.8385 58.0283 39.8102 28.5847 16.5851 43.9827 10161.9 407.988 98.8846
internal_count=304176 21129 283047 6443 6169 45700 14686 274 37076 237347 175665 6095 167511 31922 4992 61682 29698 9694 2103 2010 586 2224 308 8154 898 8624 2864 5760 1390 833 328 505 557 472 229 1424 605 292 183 819 376 784 492 242 232 7486 2468 5018 2443 1201 798 368 237 430 1242 311 19222 148289 1045 279 766 4370 582 254 173 421 1131 679 452 232 5050 4812 2539 397 204 5154 5041 357 199 243 557 266 447 353 2253 1622 631 328 209 1292 765 527 377 220 579 136418 5481 1316
is_linear=0
shrinkage=0.249421


Tree=3
num_leaves=99
num_cat=0
split_feature=45 40 42 5 42 5 40 22 40 5 44 18 17 3 3 2 2 12 24 42 21 43 9 12 12 21 24 41 12 41 12 9 2 9 18 2 18 41 5 36 42 41 41 18 42 36 44 44 33 27 24 44 27 41 24 2 42 18 7 12 42 24 27 41 18 24 18 20 24 21 12 21 12 44 24 44 7 9 42 24 43 5 43 41 41 9 12 27 18 27 2 42 2 27 2 2 42 2
split_gain=865.648 710.825 197.573 40.9089 39.63 31.9794 23.7572 18.3264 13.6776 9.87446 8.54326 12.4243 7.07799 6.9162 6.73999 6.65503 15.3101 27.323 15.7098 12.192 9.86369 14.2866 9.53546 9.13391 8.65181 8.63486 7.67876 7.58999 9.52834 8.94764 10.1966 7.39511 6.79226 6.67465 12.9376 6.62522 9.69983 6.48989 6.41611 10.5696 7.59184 7.30694 12.8272 7.38771 10.2705 6.36877 7.30441 8.2567 12.666 8.13062 7.6401 7.52727 6.28295 6.98812 6.73754 10.4126 6.24686 6.31892 6.29939 6.21541 9.65912 6.15555 9.55166 8.6783 6.14518 7.26394 6.12725 8.12833 7.48686 5.92168 11.1603 6.81956 5.88156 5.91601 6.49224 8.44968 7.29341 11.2752 7.2651 7.08163 8.48412 5.87731 5.85168 7.92094 11.4305 7.22495 6.71665 10.5493 5.83866 8.49839 5.80322 5.79015 8.85656 5.76553 7.44 5.75645 5.8473 5.7113
threshold=1.0000000180025095e-35 1.5000000000000002 153.50000000000003 0.13392857142857145 152.50000000000003 0.19090909090909094 1.5000000000000002 2.5000000000000004 1.5000000000000002 0.10555555555555557 111.50000000000001 274.50000000000006 2.5000000000000004 7.5000000000000009 5.5000000000000009 168.50000000000003 141.50000000000003 107.50000000000001 258.50000000000006 7167.5000000000009 52.416666666666679 3.5000000000000004 107.04545454545456 177.50000000000003 199.50000000000003 127.16666666666667 300.50000000000006 8229.5000000000018 121.50000000000001 1560.5000000000002 143.50000000000003 165.07142857142858 139.50000000000003 104.05555555555557 353.50000000000006 197.50000000000003 274.50000000000006 8457.5000000000018 0.14835164835164838 543.50000000000011 733.50000000000011 8288.5000000000018 9705.5000000000018 117.50000000000001 1532.5000000000002 453.50000000000006 280.50000000000006 348.50000000000006 111.52777777777779 103.55000000000001 621.50000000000011 308.50000000000006 21.708333333333339 1477.5000000000002 27.500000000000004 63.500000000000007 3385.5000000000005 349.50000000000006 0.5634920634920636 180.50000000000003 702.50000000000011 263.50000000000006 106.08333333333336 3944.5000000000005 235.50000000000003 687.50000000000011 360.50000000000006 0.58333333333333337 106.50000000000001 81.833333333333357 129.50000000000003 96.833333333333357 19.500000000000004 428.50000000000006 528.50000000000011 488.50000000000006 0.42261904761904767 90.527777777777786 7281.5000000000009 501.50000000000006 1.5000000000000002 0.19090909090909094 2.5000000000000004 3508.5000000000005 6356.5000000000009 112.52777777777779 83.500000000000014 84.083333333333357 168.50000000000003 65.083333333333357 50.500000000000007 2508.5000000000005 196.50000000000003 120.08333333333336 82.500000000000014 161.50000000000003 3705.5000000000005 106.50000000000001
decision_type=2 2 2 10 2 10 2 10 2 10 2 8 10 8 10 2 2 8 8 2 10 2 10 8 10 8 10 2 10 2 10 10 2 10 10 2 10 2 8 10 2 2 2 10 2 10 2 2 10 10 10 2 8 2 8 2 2 8 10 10 2 8 8 2 10 10 8 10 10 10 10 10 10 2 10 2 10 10 2 10 2 10 2 2 2 10 10 10 10 10 2 2 2 10 2 2 2 2
left_child=2 3 4 14 81 10 38 8 9 -6 11 -3 15 -13 -2 16 24 19 22 82 21 -21 -19 27 26 -25 52 29 -29 30 -20 -24 45 -30 -35 -7 -37 66 39 41 61 43 -43 44 -4 88 49 48 51 -47 72 -48 53 -12 55 -54 91 -58 -59 60 -45 -40 -63 -64 -52 -66 67 68 -10 -44 71 -71 -49 -74 75 -75 77 -76 -78 80 -77 -1 83 85 86 -18 87 -85 -28 -90 -16 -17 -93 -50 -95 -84 -97 -81
right_child=1 5 6 -5 7 35 -8 -9 37 -11 12 13 -14 -15 90 56 17 18 23 20 -22 -23 31 25 -26 -27 32 28 33 -31 -32 -33 -34 34 -36 36 -38 -39 40 -41 -42 42 69 59 -46 46 47 50 93 -51 64 -53 54 -55 -56 -57 57 58 -60 -61 -62 62 63 -65 65 -67 -68 -69 -70 70 -72 -73 73 74 76 79 78 -79 -80 97 -82 -83 95 84 -86 -87 -88 -89 89 -91 -92 92 -94 94 -96 96 -98 -99
leaf_value=0.075696943389508164 -0.059089543407795972 0.02142579532529033 -0.034809056551251071 -0.026620644207108697 -0.092085407503449956 0.069801563770905725 0.17362005944010969 0.23993426970491782 0.22262303849938281 0.00023801072855834983 0.15270567752875988 0.17078651654621696 -0.052944080119519427 0.4671458270933011 -0.11252456864052746 0.022214945245218748 -0.092131645865086625 -0.10140057216518925 0.50523534441814399 0.08955073223179473 0.038665705154965369 0.48360659560280511 0.13997388918406942 -0.062893235467190681 0.22427750153000567 0.13464060785427537 -0.11531811403768416 0.042486809018693311 0.16152572435188772 0.11451780127347576 0.12126275419826597 -0.044838866091736998 -0.14088829921913817 0.65682586227778572 0.25573859753601363 0.32509891613810937 0.035753274578774044 -0.062161273100595417 0.10082983756531587 -0.013601497551149753 0.12659596945572787 0.27031545441487281 0.028094088697092009 0.26105741261694132 0.18267707417261653 -0.11485210027437612 0.099758569145772288 -0.074145049457414139 -0.15976030348299222 0.02221445764668431 0.2206578299483406 0.40818680065796858 0.42061300140446584 -0.075396508079629193 0.040750090299943559 0.0082411480164101911 0.011922905433886011 -0.065437952865857435 0.17379555010191655 0.16814133332777639 0.036241933767122869 0.36078979601762623 0.29426778820497101 0.059425753282907862 -0.082682669053061236 0.02833661658090111 0.15510582154488672 -0.19433841171438898 0.0080867067520864876 0.40301381344837406 0.040021330210088767 0.1634096806643936 -0.022893341159357056 0.2261344453707323 0.36720053378635042 -0.053269451947220249 0.38906290244897429 0.06826956416929067 0.059113682453124955 -0.12346470599713617 0.11569584593256431 0.25694810244245303 -0.10721248542927918 0.087557041726479434 -0.11559394975445557 0.18054902786971194 -0.030589049531786108 0.41663807420151899 0.23527692589073773 -0.00069464509608819548 -0.069384117161890177 0.072460333397461565 0.36431397238903218 0.24731110346566723 -0.04778934257198416 0.14942202357804327 -0.11662686440417416 0.09264290456333113
leaf_weight=19.00983452796936 11109.130549039692 35.007298797369003 15.514129795134066 2631.9055105596781 300.33156891167164 1852.2308085635304 814.68853165954351 14.24841785430908 12.335436910390852 92.892697256058455 9.7642814517021161 22.198247075080875 59.937747299671173 6.9213358238339415 262.88678662106395 195.8365386724472 39.884981237351894 23.427190721035004 9.1509824767708796 19.612789995968345 83.94182100892067 8.4227433204650861 44.26540532708168 15.576095253229139 14.262308716773985 94.565435633063316 27.027153640985489 7.633280284702777 8.3881555721163767 61.256814703345299 9.2526661828160268 18.634695775806904 17.216532170772552 9.7967922911047953 12.066203840076922 15.683169841766359 14.405091896653174 44.301514387130737 29.639888405799866 46.294918313622475 1390.2319809570909 44.156555980443954 38.653909295797348 12.736992999911307 82.937064006924629 38.982874698936939 9.0786241441965121 18.901205994188786 7.1676937192678478 85.216721825301647 6.8485997170209876 12.985201910138128 7.3875327780842772 51.946755670011044 1745.6885923370719 8.5248095691204053 350.33388962596655 124.82787614315748 7.0584561079740515 32.597983159124851 201.88203624635935 26.600593186914921 18.074921026825905 23.353481538593769 64.753997705876827 83.231927573680878 26.531175170093775 9.8716715350747091 59.604374524205923 12.295226626098154 30.373198412358761 22.930411286652088 37.81407967209816 14.274056285619734 8.756367012858389 26.210653118789196 11.865038804709913 87.40860553085804 7.222758248448371 28.40291690826416 59.167248770594597 32.141196355223656 64.071205504238605 14.930366553366186 11.40414574742317 6.9471653401851645 7.4244767352938643 11.037677913904188 9.5995137691497785 563.13005784898996 835.07438594102859 48.564296178519726 7.662329100072383 10.35931482166052 10.204536214470862 12.731544971466066 8.3227285444736463 9.9872553721070272
leaf_count=109 162529 408 97 32985 3816 17008 3668 69 107 805 121 264 725 79 4002 2302 471 279 109 230 989 99 520 183 163 1089 323 91 99 729 110 215 203 117 144 136 127 424 138 404 6679 309 264 93 518 449 104 223 86 1011 77 150 84 648 20323 97 4117 1453 85 229 1478 126 91 116 754 972 261 120 567 92 217 167 448 170 97 314 138 1019 84 336 704 165 749 177 135 83 88 130 112 6784 12719 573 90 125 123 149 98 120
internal_value=0 -0.0248427 0.109771 -0.0548712 -0.0187737 0.0443723 0.137434 -0.0380721 -0.0454744 -0.0701056 0.0330419 0.123771 0.0317297 0.244235 -0.0609564 0.0328911 0.0372076 0.0736509 0.124604 0.0179896 0.082495 0.211005 0.0329804 0.159029 0.0300836 0.106073 0.0291585 0.208006 0.302082 0.162253 0.316719 0.0841504 0.0140652 0.365167 0.439652 0.0717498 0.189114 0.0175348 0.122862 0.0990453 0.131462 0.109738 0.156654 0.0893788 0.147715 0.0162795 0.0336143 0.0467557 0.143696 -0.0202892 0.0362107 0.284861 0.0395161 -0.0381108 0.042275 0.204663 0.0110698 -0.00543866 -0.0520586 0.0658472 0.0499581 0.19993 0.242004 0.163754 -0.00865275 -0.0197946 0.050763 0.0160213 0.0459454 0.107755 0.153604 0.249419 0.0588346 0.0677133 0.0815098 0.0442342 0.125529 0.0963713 0.26824 0.0226245 0.0630283 0.191054 -0.0225034 0.0206658 0.096118 -0.0500837 0.170517 0.230574 -0.002073 0.00316204 -0.0797798 0.0429162 0.113728 0.028628 0.0978152 -0.0697529 0.0410076 -0.0654297
internal_weight=0 21275.8 3454.23 14839 611.268 6436.8 2842.96 560.117 545.868 393.224 4554.48 64.1269 4490.35 29.1196 12207.1 4430.42 3696.13 602.745 314.014 288.732 111.977 28.0355 86.3273 227.686 3093.39 110.142 3079.12 117.545 37.8844 79.6605 18.4036 62.9001 1255.81 30.2512 21.863 1882.32 30.0883 152.644 2028.27 540.372 1487.9 494.078 148.409 345.668 98.4512 1238.6 638.84 514.64 49.7954 124.2 464.845 22.0638 1823.31 61.711 1761.6 15.9123 734.283 482.22 131.886 247.217 214.619 97.6689 68.029 41.4284 154.835 147.986 108.343 81.8115 71.9398 104.253 65.5988 35.2256 310.01 291.109 253.295 138.042 115.253 96.165 19.0878 123.768 85.3779 51.151 176.754 91.6288 44.7967 46.8321 33.3925 25.968 599.757 572.73 1097.96 252.063 56.2266 27.7315 20.5639 85.1255 21.0543 38.3902
internal_count=304176 283047 21129 212235 6443 70812 14686 6169 6100 4621 53541 751 52790 343 179250 52065 43445 7083 3685 3398 1318 329 1014 2671 36362 1272 36199 1399 451 948 219 735 14926 360 261 17271 263 1479 11018 3868 7150 3464 1049 2415 615 14723 7504 6044 588 1460 5456 254 21273 769 20504 181 8620 5655 1538 1800 1571 471 333 207 1803 1726 1055 794 674 740 476 259 3653 3430 2982 1644 1338 1116 222 1474 1018 274 2080 1084 530 554 395 307 7219 6896 16721 2965 663 334 248 996 247 456
is_linear=0
shrinkage=0.249421


Tree=4
num_leaves=99
num_cat=0
split_feature=45 37 37 25 26 24 0 29 2 0 18 18 30 9 1 41 22 41 41 24 12 1 21 12 41 21 41 9 27 1 27 21 43 27 9 2 2 12 24 27 2 2 24 1 24 2 43 27 30 1 1 27 2 0 0 1 1 41 21 26 18 0 17 12 2 9 2 0 2 30 41 1 0 41 4 41 0 31 0 12 21 0 1 2 12 43 1 12 2 0 2 27 12 41 27 0 25 24
split_gain=477.133 95.7457 53.0555 12.1496 8.59835 10.2864 9.04026 8.05222 9.00588 7.71722 8.2684 9.72429 7.5468 7.38697 15.7366 7.37148 6.91713 7.09095 8.28096 8.19424 8.00203 6.91397 6.35153 8.05696 7.71263 8.60784 12.9388 7.36191 6.70925 6.35013 7.14933 11.9726 9.4427 7.0942 10.148 7.13816 7.0152 9.76381 6.78029 9.97621 8.75852 6.89749 6.38262 7.369 12.1434 6.24194 6.98054 6.22854 6.10721 20.2385 10.3649 10.2162 8.70731 6.01559 5.89409 5.87106 7.40095 5.90436 11.6527 7.93868 5.85843 5.75656 10.1278 5.72838 8.30809 5.79157 5.55737 5.60871 5.52518 15.036 7.14682 5.5557 5.4602 5.45854 7.10225 6.49086 5.40898 6.46628 5.3816 9.12683 5.36941 6.51677 5.35121 9.08436 5.50982 5.34483 6.88145 5.87051 6.36988 6.27149 6.33134 5.34059 11.8079 7.16411 8.51933 7.01814 6.24976 7.1522
threshold=1.0000000180025095e-35 0.17424242424242428 0.31666666666666671 0.55000000000000016 0.55000000000000016 775.50000000000011 16.500000000000004 2.5000000000000004 20.500000000000004 16.500000000000004 111.50000000000001 156.50000000000003 146.50000000000003 134.53571428571431 96850.000000000015 2811.5000000000005 1.5000000000000002 4120.5000000000009 4274.5000000000009 754.50000000000011 3.5000000000000004 37550.000000000007 92.166666666666671 170.50000000000003 3892.5000000000005 89.166666666666671 6161.5000000000009 96.522727272727295 106.91666666666667 96550.000000000015 116.55000000000001 138.16666666666671 1.5000000000000002 118.55000000000001 122.52777777777779 15.500000000000002 144.50000000000003 95.500000000000014 247.50000000000003 65.083333333333357 15.500000000000002 21.500000000000004 379.50000000000006 79550.000000000015 507.50000000000006 198.50000000000003 1.5000000000000002 106.08333333333336 242.50000000000003 97450.000000000015 77550.000000000015 65.083333333333357 129.50000000000003 64.500000000000014 68.500000000000014 18050.000000000004 24950.000000000004 3845.5000000000005 92.166666666666671 0.22500000000000003 421.50000000000006 19.500000000000004 1.0000000180025095e-35 192.50000000000003 118.50000000000001 167.10000000000002 68.500000000000014 53.500000000000007 19.500000000000004 489.50000000000006 4533.5000000000009 16850.000000000004 50.500000000000007 3702.5000000000005 3.5000000000000004 6257.5000000000009 66.500000000000014 0.23611111111111113 45.500000000000007 188.50000000000003 90.166666666666671 26.500000000000004 59950.000000000007 115.50000000000001 179.50000000000003 2.5000000000000004 87850.000000000015 156.50000000000003 180.50000000000003 28.500000000000004 51.500000000000007 83.550000000000011 127.50000000000001 10251.500000000002 75.77500000000002 58.500000000000007 0.18333333333333338 185.50000000000003
decision_type=2 10 8 10 10 10 2 10 2 2 8 8 10 10 10 2 10 2 2 10 10 10 10 10 2 10 2 10 10 8 10 10 2 10 10 2 2 10 10 10 2 2 10 10 10 2 2 10 10 8 8 10 2 2 2 10 10 2 10 10 10 2 10 10 2 10 2 2 2 10 2 10 2 2 10 2 2 10 2 8 10 2 8 2 8 2 8 8 2 2 2 10 10 2 10 2 10 10
left_child=2 9 7 85 6 63 -3 55 -9 10 -2 21 13 -11 15 -15 17 19 -19 20 -8 -12 23 45 -25 27 -27 82 -29 33 32 -32 -31 38 -35 -36 -37 -38 -22 72 47 -42 -43 -44 -45 53 -47 -41 49 -20 51 -50 -51 80 61 76 57 59 -59 -57 -10 62 -18 65 -65 -6 -34 -68 69 -63 -71 -70 -40 -5 75 -75 77 -1 79 -52 -14 -82 83 84 -26 86 87 88 -4 -89 -91 93 96 94 -58 -96 97 -93
right_child=1 4 3 73 5 -7 16 8 60 12 11 -13 22 14 -16 -17 54 18 48 -21 29 -23 -24 24 25 26 -28 28 -30 30 31 -33 66 34 35 36 37 -39 39 40 41 42 43 44 -46 46 -48 -49 50 52 78 -53 -54 -55 -56 56 91 58 -60 -61 -62 68 -64 64 -66 -67 67 -69 71 70 -72 -73 -74 74 -76 -77 -78 -79 -80 -81 81 -83 -84 -85 -86 -87 -88 89 -90 90 -92 92 -94 -95 95 -97 -98 -99
leaf_value=-0.012318781047111588 -0.11020456580323788 -0.10872299248047008 0.13659340308114137 0.14653170186489556 -0.023160286775439413 0.28497866300105168 0.27785563385504031 0.19167984930308901 -0.07037208166050575 -0.022025448364727924 0.45212010005268699 0.024099008251344204 -0.044124753220917641 -0.070937155186133541 0.42880946306633561 0.047943453723430951 0 -0.11748606698384374 0.017459217650767911 0.26042269280858704 0.005912612580499306 0.10051169152753689 -0.027981078954116494 -0.056247505896284487 0.4541596173699507 0.52244502916579805 0.069147240653900516 -0.23991449559411412 0.078527624269740956 0.28028664951483828 0.394894865787008 0.012874334558754023 0.12092987377058513 -0.12250960469953705 0.14723674077012186 -0.031206234240070931 0.26159017404443563 0.019459898163085628 0.090265456388964993 -0.16313176937769622 0.2320248669078431 0.081303776575932463 -0.005342427957653796 0.031262974167126707 0.39015802237862407 0.23302234557193624 -0.006443129820018937 0.094374938091507293 -0.14697614175288334 0.13197594824894485 -0.022585178968604878 0.013827528581893633 0.45276214671762 -0.0086072650682313886 0.15049248075126215 0.088922440976061293 0.061194169950141056 0.21909838574044324 -0.027994750044005839 0.35964391314089067 0.1007537672024892 -0.019054483757729158 0.32797959507252883 -0.022662245688938144 0.30552992276812668 -0.2349865549660583 -0.18590825311756595 0.058444678007379965 -0.022068074929952879 0.34202963271409603 0.10814485853719909 0.036014161193195351 0.37656900583387315 0.053355217287598962 0.15564967395418564 0.11329793592473802 0.16193413406810545 0.11663731763370676 -0.073659042523316509 0.25759621031826141 -0.0075068092811344071 -0.11004240961997211 -0.021597558209659827 -0.0066335794341428594 0.13148850055705122 0.070783732041870565 0.18658034728509951 -0.012620220565337625 -0.0018575026399306599 -0.0010933022404163713 0.12165274631624032 0.1450804890446287 0.02534611438330011 -0.069055395072497111 -0.0018242974457635167 -0.23181351414843399 0.163429930257176 0.048161047397554689
leaf_weight=209.88577512279153 23.741242229938507 34.412368282675743 193.67154520004988 382.56941287219524 454.38333851471543 6.8377515636384478 7.8488129973411551 10.816169783473013 89.385790776461363 4536.1900346279144 5.7461921796202686 126.84409135207534 3062.2419156208634 44.005057275295258 5.922636277973651 120.94341289252043 11.456864841282369 34.320461638271809 511.75499478727579 9.4387251883745176 320.10749696940184 10.56889747828245 8008.5480415709317 51.51149295270443 6.4189446680247793 5.8588982112705734 13.015448696911333 10.64045048877597 6.2458180822432032 8.3174804225563985 11.342720553278925 9.9416556656360608 12.25370182096958 43.213993117213249 20.879891291260719 185.12243873625994 12.227336227893828 72.052763774991035 9.2217399179935473 20.02913132309914 13.466482043266295 191.17705163359642 157.81374253332615 22.997092045843605 8.0692129433155042 10.250651858747004 26.684004321694374 7.8444961458444586 25.193948186933994 15.61746294796467 105.24605695903301 867.9347650334239 8.7194831445813161 282.4427699893713 29.444851085543633 15.071266263723375 188.21294647827744 20.043530225753784 28.029470037668943 13.609895624220369 14.121289744973181 33.13292220979929 11.235553510487078 11.062620230019094 7.9799932166934004 8.2098932564258558 14.076698683202268 9.3733067810535413 125.7884329110384 15.474056258797644 19.719609588384628 523.81222040951252 8.9385928288102132 169.74519333988428 158.06682856380939 366.82569383084774 13.990388363599775 27.265517354011536 169.6878849118948 7.7102717682719222 52.492148037999868 162.30346987769008 20.354240037500858 12.570043064653872 8.5089518241584301 694.64728805422783 59.273039869964123 51.191981747746468 22.060635961592197 34.255279801785946 97.246152456849813 67.875237952917814 293.00947711616755 46.908414825797081 35.894017901271582 10.914935626089571 67.923339731991291 169.51988016441464
leaf_count=1785 335 391 928 1635 5552 71 79 97 825 63386 83 1827 44297 617 80 1685 107 378 5661 93 3462 152 115216 739 93 84 187 154 93 91 126 104 130 467 229 2027 126 773 98 220 144 2082 1692 250 89 148 382 89 284 175 1168 9631 94 4087 246 121 1448 153 237 109 128 303 110 133 93 101 154 102 1211 136 178 4969 93 733 668 1588 112 150 1906 82 762 2339 295 183 123 3433 291 280 109 180 515 481 2373 382 298 90 384 1596
internal_value=0 -0.0195137 0.0793867 0.102883 0.0140494 -0.0169928 0.0181369 0.039721 -0.0231463 -0.0280326 0.0251087 0.0480536 -0.0285761 -0.020099 0.0306386 0.0158049 0.0193392 0.0137612 0.003634 0.0287431 0.0267989 0.2295 -0.031969 -0.0405092 0.0189294 0.0660616 0.214454 0.0216178 -0.118236 0.0250274 0.100817 0.220089 0.0414228 0.0204332 -0.0097335 0.00683956 -0.00381502 0.0555276 0.0337657 0.0538922 0.0458749 0.0555534 0.0490922 0.0161165 0.127142 -0.0427615 0.0584051 -0.0881898 0.00610532 0.0281823 -0.00390367 0.00920747 0.250384 -0.0438312 0.0404142 0.0457268 0.0546526 0.129441 0.073737 0.220152 -0.0463325 0.0359362 0.160236 -0.0214499 0.111751 -0.0270914 -0.0126363 -0.0854298 0.0319018 0.0996738 0.213246 0.0246618 0.235561 0.122075 0.108498 0.0944682 0.0114393 0.00224249 -0.0455682 -0.00275392 -0.0468461 -0.0853083 0.0724596 0.14446 0.275822 0.0848787 0.106112 0.0939488 0.122124 0.0602829 0.0891736 0.0480473 0.0614358 0.0193869 0.0373391 -0.0570926 0.0958383 0.0761827
internal_weight=0 20828.9 3552.03 2229.55 4214.89 488.474 3726.42 1322.48 114.323 16614 166.9 143.159 16447.1 4707.06 170.871 164.948 3692 2921.94 1746.19 1175.75 1166.32 16.3151 11740.1 3731.54 135.124 83.6128 18.8743 64.7384 16.8863 1158.47 65.3056 21.2844 44.0212 1093.16 333.496 290.282 269.403 84.2801 759.665 439.558 421.397 393.524 380.057 188.88 31.0663 3596.41 36.9347 27.8736 1711.86 536.092 1175.77 893.129 24.3369 3559.48 770.065 1208.15 957.012 76.7542 48.073 28.6812 103.507 740.62 22.6924 481.636 19.0426 462.593 35.7037 23.45 717.927 68.3266 35.1937 649.601 18.1603 1077.21 694.638 536.571 251.142 237.151 282.644 112.956 3277.04 214.796 47.8522 27.4979 14.9279 1152.35 457.699 398.426 215.732 182.693 131.501 880.258 598.328 281.93 235.022 46.809 305.318 237.395
internal_count=304176 283047 21129 10360 45700 5950 39750 10769 1050 237347 2397 2062 234950 65768 2382 2302 39359 32099 19379 12720 12627 235 169182 53966 1951 1212 271 941 247 12548 707 230 477 11841 3622 3155 2926 899 8219 4757 4566 4257 4113 2031 339 52015 530 309 19001 5930 13071 9915 269 51485 7260 9719 7672 620 390 230 953 7014 217 5879 226 5653 386 256 6797 617 314 6180 191 4624 2989 2321 2047 1935 3156 1250 47398 3101 694 399 216 5736 2303 2012 1037 975 695 7052 4834 2218 1836 388 2461 2077
is_linear=0
shrinkage=0.249421


Tree=5
num_leaves=99
num_cat=0
split_feature=40 45 45 5 5 24 5 1 5 41 21 8 30 44 7 43 11 1 1 44 44 21 44 15 4 41 5 7 0 15 44 1 41 7 15 41 6 44 15 44 27 8 41 41 0 24 27 7 8 24 5 0 0 41 41 1 0 44 41 9 26 8 24 0 1 21 9 15 1 8 4 21 0 21 15 0 1 44 44 15 26 43 44 44 21 21 15 21 44 24 41 15 44 41 9 27 21 24
split_gain=383.922 257.632 40.146 18.0019 14.3838 12.7058 12.3062 9.88044 6.34855 6.2011 7.68555 7.58784 6.155 8.92323 9.87466 5.96844 5.76885 7.10717 6.29437 5.94009 5.66339 5.48135 5.43489 9.66037 8.69989 6.08729 8.01982 5.8199 6.43937 5.68536 5.69394 6.23067 5.83361 10.4612 5.65609 7.2906 10.7104 8.8975 6.8351 10.7785 6.16357 5.64809 9.66758 10.7926 6.80193 5.39138 6.8732 5.37504 5.29409 5.19615 5.14952 5.80364 5.06439 8.66625 7.2065 8.61173 5.79427 5.10926 6.25252 9.25578 5.01687 5.01048 6.52266 7.73745 6.01986 4.99825 4.7543 8.29599 5.56074 4.70608 5.52635 5.04734 4.70561 6.64285 6.00093 5.92254 5.90587 6.67673 5.87731 5.54347 10.1157 6.82361 7.63933 7.16894 6.78011 10.5764 8.78571 10.048 7.88643 8.72556 7.20817 6.71546 6.53715 8.31265 7.58761 18.5097 6.3693 5.83653
threshold=1.5000000000000002 1.0000000180025095e-35 1.0000000180025095e-35 0.10555555555555557 0.13392857142857145 681.50000000000011 0.43650793650793657 96850.000000000015 0.095454545454545472 12666.500000000002 129.16666666666671 179.50000000000003 936.50000000000011 232.50000000000003 0.34848484848484856 3.5000000000000004 1.0000000180025095e-35 17650.000000000004 5450.0000000000009 476.50000000000006 292.50000000000006 41.833333333333336 671.50000000000011 12.500000000000002 1.5000000000000002 6257.5000000000009 0.30384615384615393 0.27922077922077926 57.500000000000007 78.500000000000014 784.50000000000011 14850.000000000002 4533.5000000000009 0.42261904761904767 19.500000000000004 437.50000000000006 1.0000000180025095e-35 480.50000000000006 26.500000000000004 412.50000000000006 125.55000000000001 408.50000000000006 3377.5000000000005 2500.5000000000005 67.500000000000014 290.50000000000006 87.550000000000011 0.13392857142857145 1032.5000000000002 465.50000000000006 0.27922077922077926 48.500000000000007 23.500000000000004 5345.5000000000009 6304.5000000000009 39950.000000000007 45.500000000000007 791.50000000000011 9583.5000000000018 111.52272727272729 0.45000000000000007 331.50000000000006 402.50000000000006 26.500000000000004 41250.000000000007 36.166666666666679 95.964285714285737 85.500000000000014 61550.000000000007 563.50000000000011 5.5000000000000009 117.16666666666667 57.500000000000007 170.16666666666671 185.50000000000003 61.500000000000007 85150.000000000015 140.50000000000003 111.50000000000001 184.50000000000003 0.18333333333333338 3.5000000000000004 737.50000000000011 784.50000000000011 95.833333333333357 113.83333333333336 124.50000000000001 129.83333333333334 570.50000000000011 373.50000000000006 2642.5000000000005 162.50000000000003 857.50000000000011 7874.5000000000009 93.958333333333357 99.083333333333357 131.16666666666671 368.50000000000006
decision_type=2 2 2 10 10 10 8 8 8 2 10 8 10 2 10 2 10 10 10 2 2 8 2 8 10 2 10 10 2 10 2 10 2 10 8 2 8 2 8 2 8 8 2 2 2 8 8 10 10 10 10 2 2 2 2 8 2 2 2 10 10 10 10 2 10 8 8 8 8 8 8 10 2 10 10 2 10 2 2 10 10 2 2 2 10 10 10 10 2 10 2 10 2 2 10 10 10 10
left_child=1 3 6 5 12 -1 7 16 48 22 11 -11 -3 14 -14 66 17 18 -2 20 -18 -17 34 24 25 26 -24 28 65 30 50 -32 -33 -34 -10 36 37 -36 39 -37 -38 -30 43 49 -44 -13 -47 -41 72 -43 -29 -52 53 -31 55 56 -54 -56 59 -59 -58 -19 -63 -64 -65 -25 68 -68 -8 71 -71 -23 -4 76 -75 -76 77 78 -74 81 -81 84 -83 -84 92 -86 87 88 -87 -90 -89 -88 94 -94 97 -96 -93 -79
right_child=2 4 8 -5 -6 -7 15 -9 9 10 -12 45 13 -15 -16 21 19 61 -20 -21 -22 69 23 27 -26 -27 -28 29 41 52 31 32 33 -35 35 38 40 -39 -40 47 -42 42 44 -45 -46 46 -48 -49 -50 -51 51 -53 54 -55 57 -57 60 58 -60 -61 -62 62 63 64 -66 -67 67 -69 -70 70 -72 -73 73 74 75 -77 -78 79 -80 80 -82 82 83 -85 85 86 91 90 89 -91 -92 96 93 -95 95 -97 -98 -99
leaf_value=0.024966048490650684 0.1205797706800964 -0.042284410599385973 0.034126197065818764 0.063429257940801453 -0.022139355467339514 -0.1755329709331884 0.16623609435706532 -0.12381664293671105 -0.0010173433118923719 -0.049725809534744252 -0.038924387993875792 0.35706242805429389 -0.11186827232860422 -0.14109312987471956 0.32387579255768023 0 0.023168447022112688 0.13359645411658291 -0.065408385957212323 0.054329935216473918 -0.20385863913420521 0.15138890868128188 0.13605603659957671 -0.15152046598557628 -0.042981218950254273 0.069149149841192067 0.47026810263512109 0.043623342064477225 -0.093231948443670831 0.33538088088828943 -0.12376061504953045 -0.002105070782878709 0.37183249813474012 0.032844822598580022 0.1379317585278988 0.025197376630888741 -0.019495071251059228 0.42904713714183024 0.047799654739138359 0.40460192491412111 0.1618618667361186 0.12716432987085713 -0.089297953046800826 0.34757345004030626 0.11430935899696282 -0.048606774063556568 0.19205674996487171 0.14050420823180709 -0.1565231837993519 -0.10134465588088262 -0.28268087262420982 -0.01833665608439488 0.25625544492384261 0.012450320359001869 0.24126091174828973 -0.050335608063499487 0.16088256990152325 -0.18234307208204029 0.19721637457360217 0.1493045966590307 -0.078909781970970969 -0.058793365781091761 0.24407735619012991 0.1787292897165062 -0.009648280997898705 0.026881070819760423 -0.055833327472009774 0.083087876386905499 0.057273642592959917 0.27731494617758545 0.13343109837420949 0.065781206116318061 0.064771699547469919 -0.15737160046616086 0.16879822663349195 -0.10256885957431762 -0.029540228912941627 0.083656507335848715 -0.14833234120109595 -0.0091857850077371617 0.2349634398217153 -0.050576951098686783 0.26438682805747155 0.018919852258123235 -0.05540923209294845 0.082576340596439146 -0.038727265229450636 0.21536297593080084 0.44186774000854118 0.086147628603773702 -0.081568760746748445 -0.062258538177670616 -0.085859735091776343 0.14722395122913629 0.4461210359110388 0.0025781991962132707 0.16138250598750631 -0.070226752539031156
leaf_weight=1033.3261511512101 16.655653279274702 11222.644369300455 2869.3189769610763 1559.2461041808128 2588.00951949507 19.920536495745182 81.144778773188591 18.929756581783295 119.63193423300982 9.5911060795187932 16.127325959503651 9.8534554019570333 6.9375843256711942 76.407600715756416 5.7768428102135658 18.229451075196266 12.191927269101145 113.99247425422072 34.891107961535454 41.730741873383522 14.210986889898775 138.84340912103653 10.334567315876486 9.8126824423670751 11.188342548906801 13.196780435740946 9.0994205176830274 13.413702942430971 61.508697643876076 12.187877722084524 9.5485710725188238 19.456002578139305 10.082124486565592 13.993172653019426 18.912794008851055 22.76713078469038 27.637004926800728 10.949957258999346 1468.7817815989256 10.620941273868086 19.43561676889658 13.882935330271723 55.632058508694172 8.8732978478074056 12.198343329131601 8.5863699540495855 38.498430043458939 10.801050893962381 9.425006549805401 10.881002068519591 10.526539869606497 11.277657300233839 11.685257397592066 9.7434313073754293 18.73383267223835 48.229422904551029 10.249282002449037 10.178879469633104 15.288483493030069 10.614424116909502 11.068404473364351 23.234771348536015 16.157089468091726 14.547442473471163 35.968981944024563 497.79371504485607 30.063046738505363 207.23981254547834 49.154919534921646 33.13865402340889 39.346678219735622 67.048020094633102 11.49522667378187 26.056925006210804 9.3339603990316409 10.471247732639311 134.26702882349491 176.91831932961941 24.210358239710331 19.002075590193272 22.332836166024208 121.3351925984025 9.0990929231047613 43.022703111171722 92.365231439471245 19.326547525823116 71.791160419583321 6.9563667625188854 12.395221978425981 7.4033372327685347 18.506702773272991 10.919021375477312 32.020594827830791 13.405136562883852 11.625803992152216 12.364007413387297 25.534187979996204 16.266902551054955
leaf_count=8289 120 177729 34068 7367 32985 231 341 130 1047 83 138 81 118 1304 99 77 87 750 253 315 111 591 91 92 90 125 83 126 543 105 86 177 91 137 157 199 234 91 13488 91 196 145 552 81 113 75 369 92 133 94 90 99 98 88 169 429 85 91 138 93 100 157 108 101 242 4671 127 915 208 141 181 287 132 309 106 121 1595 2086 289 225 266 1444 109 512 1109 231 837 83 146 90 227 133 382 159 138 152 304 203
internal_value=0 -0.0254594 0.0422923 0.0463911 -0.0389689 0.0211013 0.0887264 0.0499449 0.0351879 0.0443729 0.112142 0.149783 -0.0428132 -0.108579 0.0812844 0.108617 0.0603375 0.077546 -0.00393743 -0.00319424 -0.0966119 0.135364 0.0422476 0.0270822 0.141704 0.207075 0.296831 0.0215227 0.00935576 0.0543673 0.00287157 0.0551812 0.0960873 0.178095 0.0507291 0.0546653 0.130118 0.247485 0.0507795 0.148123 0.0540353 -0.0336023 0.00190357 0.111777 -0.0516243 0.184596 0.146723 0.275242 0.0285802 0.0240208 -0.0740092 -0.149418 0.0827095 0.195357 0.0639865 0.0158549 0.114569 0.133996 0.0761677 -0.00983489 0.0333071 0.0984743 0.0531392 0.0931789 0.0433793 0.023284 0.0868361 0.0651942 0.125689 0.144041 0.200294 0.123863 0.0290557 0.0138039 -0.07849 0.0220051 0.0185207 0.0269006 -0.0778303 0.0320326 0.121209 0.0266711 -0.0159627 0.0632858 0.0408113 0.012364 0.0489819 0.121791 0.201074 0.312825 0 0.00487431 0.0692735 -0.015497 0.0873168 0.220831 0.0925398 0.0703327
internal_weight=0 16512.3 7596.76 2612.49 13899.8 1053.25 1006.72 342.511 6590.04 2752.87 82.6567 66.5294 11311.8 89.122 12.7144 664.209 323.581 255.448 51.5468 68.1337 26.4029 296.606 2670.22 960.679 43.8191 32.6308 19.434 916.86 670.583 246.277 88.2978 53.0799 43.5313 24.0753 1709.54 1589.91 76.9354 29.8628 1512.97 44.1891 47.0726 162.976 101.468 33.6372 67.8304 56.9383 47.0848 21.422 3837.17 24.7639 35.2179 21.8042 157.979 21.9313 136.048 81.2324 33.0029 54.8156 36.0818 20.7933 21.3177 203.901 89.9083 66.6735 50.5164 507.606 367.603 237.303 130.3 278.377 72.4853 205.891 3827.74 958.425 45.8621 19.8052 912.563 778.296 35.7056 742.59 41.3349 701.256 173.457 52.1218 527.799 265.198 172.833 64.5882 39.1251 19.7986 25.4631 108.244 262.601 45.4257 217.175 23.9898 36.4532 193.185
internal_count=304176 228122 76054 15887 212235 8520 5242 2374 70812 25223 746 608 179250 1521 217 2868 2244 1731 373 513 198 1277 24477 8882 389 299 174 8493 6291 2202 806 491 405 228 15595 14548 678 248 13870 382 430 1528 985 320 665 525 444 183 45589 239 315 189 1396 193 1203 712 283 491 322 184 185 1358 608 451 343 4763 1591 1042 549 1200 322 878 45456 11388 536 227 10852 9257 421 8836 491 8345 2065 621 6280 3160 2051 777 467 236 310 1274 3120 541 2579 290 437 2289
is_linear=0
shrinkage=0.249421


Tree=6
num_leaves=99
num_cat=0
split_feature=40 45 42 45 42 25 42 5 42 42 12 12 41 1 44 12 2 3 5 2 41 24 18 1 42 2 2 18 0 1 41 41 24 24 44 18 42 33 42 44 21 21 18 12 44 12 30 18 0 42 0 21 30 16 39 2 12 1 33 2 44 18 1 44 30 12 7 12 18 2 12 33 2 2 2 12 2 12 41 1 0 44 18 7 3 42 1 24 0 44 42 1 2 44 44 41 42 24
split_gain=213.34 148.705 69.4453 24.0207 14.9019 12.8625 11.4031 9.05222 8.34119 6.00661 8.10701 10.4516 8.80086 7.57932 7.28186 7.57718 7.06022 6.35198 5.85114 7.40748 8.43238 7.06721 10.1548 7.06617 5.67879 5.52009 5.47053 12.6349 11.7029 5.32136 5.53659 6.35874 7.24531 5.18058 5.95811 5.30036 5.13074 6.80759 5.32315 5.10077 4.98819 12.301 4.86745 4.75438 4.6478 4.53731 7.85826 7.21828 8.3537 6.73427 6.4585 7.25721 6.27563 5.24678 6.09973 8.24892 4.77615 6.86995 5.08255 4.55628 4.49909 4.47865 10.0735 8.41597 6.24593 5.43211 4.77792 4.4684 5.59822 8.80653 4.71551 4.43316 4.32811 12.4855 4.92806 4.32671 7.973 9.29794 9.42961 6.77785 6.74904 9.24118 6.13373 7.09031 6.03673 5.22095 6.53476 5.18198 6.31727 14.8099 8.86957 5.65203 5.56723 5.74916 6.39587 5.8983 10.9739 13.6698
threshold=1.5000000000000002 1.0000000180025095e-35 153.50000000000003 1.0000000180025095e-35 153.50000000000003 0.63333333333333341 152.50000000000003 0.13392857142857145 118.50000000000001 284.50000000000006 19.500000000000004 37.500000000000007 699.50000000000011 50150.000000000007 204.50000000000003 105.50000000000001 111.50000000000001 4.5000000000000009 0.84523809523809534 115.50000000000001 11591.500000000002 144.50000000000003 164.50000000000003 72750.000000000015 1180.5000000000002 53.500000000000007 128.50000000000003 283.50000000000006 38.500000000000007 11750.000000000002 4375.5000000000009 6356.5000000000009 382.50000000000006 801.50000000000011 412.50000000000006 537.50000000000011 8433.5000000000018 119.05555555555557 10799.500000000002 995.50000000000011 79.833333333333357 120.16666666666667 207.50000000000003 166.50000000000003 993.50000000000011 186.50000000000003 884.50000000000011 508.50000000000006 54.500000000000007 659.50000000000011 67.500000000000014 110.83333333333336 864.50000000000011 1.0000000180025095e-35 126.53571428571429 121.50000000000001 124.50000000000001 97750.000000000015 122.52777777777779 107.50000000000001 107.50000000000001 353.50000000000006 69550.000000000015 656.50000000000011 712.50000000000011 195.50000000000003 0.29285714285714287 159.50000000000003 241.50000000000003 143.50000000000003 176.50000000000003 109.93750000000001 88.500000000000014 67.500000000000014 45.500000000000007 29.500000000000004 163.50000000000003 23.500000000000004 11340.500000000002 40750.000000000007 59.500000000000007 546.50000000000011 79.500000000000014 0.31666666666666671 5.5000000000000009 11445.500000000002 61550.000000000007 161.50000000000003 17.500000000000004 538.50000000000011 3425.5000000000005 46950.000000000007 168.50000000000003 941.50000000000011 538.50000000000011 2186.5000000000005 1747.5000000000002 68.500000000000014
decision_type=2 2 2 2 2 10 2 10 2 2 8 8 2 8 2 10 2 10 8 2 2 10 10 8 2 2 2 10 2 10 2 2 10 10 2 10 2 10 2 2 8 8 8 10 2 10 8 10 2 2 2 10 10 10 10 2 10 10 10 2 2 10 8 2 10 10 8 10 10 2 10 10 2 2 2 8 2 10 2 8 2 2 10 10 10 2 8 8 2 2 2 8 2 2 2 2 2 10
left_child=1 2 5 4 6 8 -2 33 -1 10 -5 13 14 -12 16 -16 -13 26 19 21 23 25 -23 29 -24 -6 27 42 -28 -21 -31 -32 -33 35 -35 75 71 38 -38 44 -41 -42 -17 -29 -11 52 47 48 49 -47 51 -50 56 59 -55 -56 -9 -58 -59 -54 -4 62 63 66 65 -63 -51 68 72 -70 -69 -26 73 74 -20 76 79 80 84 -3 85 82 -82 -84 -79 -78 -87 88 89 -77 -91 -92 93 94 -90 96 -96 -98
right_child=3 7 60 9 18 -7 -8 45 -10 39 11 12 -14 -15 15 17 -18 -19 67 20 -22 22 24 -25 36 -27 28 43 -30 30 31 32 -34 34 -36 -37 37 -39 -40 40 41 -43 -44 -45 -46 46 -48 -49 50 61 -52 -53 53 54 55 -57 57 58 -60 -61 -62 64 -64 -65 -66 -67 -68 70 69 -71 -72 -73 -74 -75 -76 87 77 78 -80 -81 81 -83 83 -85 -86 86 -88 -89 92 90 91 -93 -94 -95 95 -97 97 -99
leaf_value=0.070469174500754059 0.20920557265336928 -0.079957682111061398 0.17272290101969118 -0.1087893773946078 0.033364082005493692 0.097012781397516096 -0.014743679768952498 -0.01362470678290586 -0.076578149850430419 0.023667624792207659 0.10313915179170319 0.32824858445039046 0.31579103721494756 0.45628353371234437 -0.028256840146482474 0.094948129187498162 0.011814897090378952 -0.040569388912124124 0.059398655269212411 0.0014849150175040215 0.24372414248951813 -0.15759859659821743 0.14257704738573157 0.0048828460063779673 0.034100911898336549 0.23263305130124051 -0.0061953025606320067 -0.18493195561453871 0.35907880009391413 0.19677142023154975 -0.026903388549039654 0.045072721581885508 0.24980969902490668 -0.0064392279909246137 -0.14636291696236908 0.075442305455209829 0.093011710974362671 0.18337811555500944 -0.083979499843734123 -0.018953076149098247 0.37742312733604244 -0.014442107104577034 0.3667679038078559 0.06506199295225655 -0.11860524420338768 -0.14868974758429077 -0.22976213426878983 0.22426142715978958 0.084329235797287433 0.0067502527696136185 0.16869057156981446 -0.14201697496514729 0.086884317866887384 0.31125148020640564 -0.10028775918393644 0.26831552272754366 -0.041325486910478444 0.22891641270004739 -0.042101441774935043 -0.14139825473961959 0.051193410822136326 0.055845373130589127 -0.036051705615914906 0.37986909067717978 0.22378720298747951 -0.12742711384701655 0.26806988200407872 -0.060365030752670225 0.2386329665214148 0.036975267740596639 0.099283550406835258 -0.058278149315354286 0.13092344793719576 -0.11422000948737965 0.20535241315113881 -0.083650056341543488 -0.07020513861457861 0.088190539405619633 -0.21034521313338481 -0.03954313056848531 0.41671570686841058 -0.055927332951527561 -0.076003974710457126 0.28523455565793143 0.37504720910004541 0.19495263859115372 -0.12718270116660774 -0.034387142911121479 -0.0039573366920560224 0.48501853605403106 0.29441361535308491 -0.036029107475975992 -0.053125933038054927 0.041212872368125819 -0.029524572855000888 -0.049892241341904689 0.39544099825408174 0.033425066068819384
leaf_weight=25.060138300061226 15.33430479466915 441.20817538350821 19.565303139388561 14.747633829712866 17.573234021663666 31.482461377978325 174.13583870232105 1538.5774385258555 388.07947482913733 6526.446638006717 8.7644130922853964 10.783945418894293 8.2030241265892965 7.6305317655205718 69.943277556449175 11.094357632100584 8.1532201245427114 18.551007173955441 47.531448632478714 24.144605256617069 22.643966868519783 18.22520200163126 27.150453090667725 56.040438078343868 69.073149748146534 18.953057691454887 8.2485076338052767 11.075006753206255 14.224612288177012 49.978901512920856 20.98078653216362 25.494790874421597 19.942361287772655 31.025390356779099 53.140066806226969 27.498607754707336 24.292118139564991 23.834867902100086 18.424170799553394 8.7765128314495104 10.822907742112877 8.601329065859316 7.5198777839541426 7.68426389992237 14.1099701449275 8.5794110074639303 7.3423805832862845 11.367998972535132 10.968386482447384 12.244401596486574 6.5902323499321929 38.689542274922132 11.57098162174225 9.2087723538279551 8.9726418703794462 6.3030765652656546 759.02429922297597 10.270341791212561 6.7340665310621253 10.015725396573542 2188.0943437889218 27.117101565003395 13.937194764614103 12.096513174474238 8.3572373092174512 15.817449517548082 7.2272640429437152 18.696448683738708 49.601936489343643 19.681810572743416 28.548262611031532 60.160655342042446 115.04400278627872 20.308519452810287 22.060167461633682 16.546263240277767 142.52324846386909 43.356229823082685 5.8135741613805285 650.37319407239556 5.3407230749726322 19.257107578217983 6.9137936420738679 6.1775949262082577 5.3110389970242968 10.63806873932481 5.8910872638225547 7558.9319783039391 766.32705848664045 6.1673139408230808 5.5951398611068699 6.7648001201450834 296.23665846511722 102.46303756907582 124.12017955631018 528.05607844516635 8.9008119627833349 25.496433641761541
leaf_count=128 69 7301 95 154 82 163 1505 19955 4578 68270 86 107 84 79 720 117 80 185 199 115 107 85 122 255 317 88 79 116 147 226 98 118 93 541 959 456 110 110 87 91 108 90 76 79 144 107 91 145 141 157 83 500 150 111 110 82 9929 132 84 129 10923 352 176 156 104 197 94 82 226 90 125 277 479 85 92 254 2355 712 96 10757 86 316 114 102 91 176 97 124829 12275 96 82 108 4768 1648 2001 8474 143 413
internal_value=0 -0.0197838 0.034177 0.0305132 0.06648 -0.0556767 0.00307303 -0.0304368 -0.0674868 0.0251526 0.0672027 0.0811082 0.0627658 0.272516 0.0498615 0.030691 0.195978 0.0841323 0.0810757 0.0637632 0.0982171 0.0363054 0.0204751 0.0810533 0.0353694 0.138796 0.123922 0.0627483 0.222277 0.11093 0.133039 0.0839479 0.136601 -0.0335685 -0.0956247 -0.0330788 0.020123 0.0764642 0.0150756 0.0238191 0.130106 0.200819 0.209086 -0.0790161 0.0233494 -0.016976 0.0209703 0.0320679 0.0180647 0.0598051 -0.05891 -0.0906209 -0.0199039 0.0708557 0.150056 0.047752 -0.0217413 -0.0377439 0.117796 -0.015976 0.0523051 0.079053 0.136351 0.214551 0.0268131 -0.0101631 0.107661 0.107611 0.119921 0.182394 0.0346716 -0.00838371 0.0984307 0.0560454 0.106755 -0.0333621 -0.0467155 -0.00634578 0.0844526 -0.0559435 -0.0318495 0.0621551 0.189016 0.0897253 0.121242 -0.0545643 0.0760075 -0.0314563 -0.0196774 0.084722 0.238568 0.108666 -0.0216939 -0.0156622 -0.0197212 -0.0372157 0.00458671 0.129511
internal_weight=0 16093.4 2652.28 7783.24 1007.86 444.622 189.47 13441.1 413.14 6775.38 206.624 191.876 175.481 16.3949 167.278 148.341 18.9372 78.3976 818.385 496.913 219.226 277.687 241.161 196.582 222.935 36.5263 59.8466 37.3735 22.4731 140.541 116.397 66.4179 45.4372 10900.1 84.1655 10815.9 195.785 66.5512 42.7163 6568.76 28.2007 19.4242 18.6142 18.7593 6540.56 2541.01 180.335 172.993 161.625 105.377 56.2482 49.6579 2360.68 46.0712 24.4845 15.2757 2314.61 776.029 17.0044 21.5867 2207.66 96.7972 45.5054 31.5682 51.2918 42.9346 19.4717 321.473 274.228 69.2837 47.2447 129.234 204.944 89.9001 69.5916 10788.4 1342.8 251.222 54.4808 1091.58 196.742 37.6892 18.4321 13.0914 48.6673 159.052 16.5292 9445.61 1886.67 35.0735 18.5273 12.3599 1851.6 1555.36 1452.9 686.574 158.517 34.3972
internal_count=304176 228122 15887 76054 5242 4869 1574 212235 4706 70812 2109 1955 1790 165 1706 1519 187 799 3668 2290 1012 1278 1108 905 1023 170 614 388 226 650 535 309 211 179250 1500 177750 901 307 197 68703 289 198 193 195 68414 32985 2303 2212 2067 1343 724 641 30682 582 303 192 30100 10145 216 279 11018 1236 583 407 653 549 251 1378 1171 316 207 594 855 376 291 177294 22203 4145 899 18058 3246 618 302 216 803 2628 273 155091 30262 540 286 190 29722 24954 23306 11031 2557 556
is_linear=0
shrinkage=0.249421


end of trees

feature_importances:
cat__shopID=71
price=54
cat__residentialAddress_clean=49
price_lst_01_sum=48
age=44
income=42
price_lst_06_sum=40
price_lst_03_sum=37
cat__postalAddress_clean=36
price_lst_03_avg=30
hist_default_avg=29
price_lst_06_avg=27
hist_price_avg=26
price_lst_09_sum=16
hist_trans_count=13
cat__geo_risk_rank=13
hist_late_avg=11
cat__sex=11
price_lst_01_avg=9
cat__same_address=9
price_lst_09_avg=8
hist_price_sum=7
default_lst_06_sum=7
late_lst_06_avg=6
default_lst_06_avg=5
default_lst_03_sum=4
default_lst_09_avg=4
price_lst_12_sum=4
default_lst_12_avg=4
hist_default_sum=3
hist_late_sum=3
late_lst_01_sum=3
late_lst_03_avg=3
late_lst_03_sum=2
default_lst_03_avg=2
default_lst_09_sum=2
late_lst_09_sum=1
late_lst_09_avg=1
default_lst_12_sum=1
price_lst_12_avg=1

parameters:
[boosting: gbdt]
[objective: binary]
[metric: auc,average_precision,binary_logloss]
[tree_learner: serial]
[device_type: cpu]
[linear_tree: 0]
[data: ]
[valid: ]
[num_iterations: 300]
[learning_rate: 0.249421]
[num_leaves: 99]
[num_threads: 0]
[deterministic: 1]
[force_col_wise: 0]
[force_row_wise: 0]
[histogram_pool_size: -1]
[max_depth: 23]
[min_data_in_leaf: 82]
[min_sum_hessian_in_leaf: 0.001]
[bagging_fraction: 0.986355]
[pos_bagging_fraction: 1]
[neg_bagging_fraction: 1]
[bagging_freq: 8]
[bagging_seed: 22734]
[feature_fraction: 0.792502]
[feature_fraction_bynode: 1]
[feature_fraction_seed: 5052]
[extra_trees: 0]
[extra_seed: 5559]
[early_stopping_round: 15]
[first_metric_only: 0]
[max_delta_step: 0]
[lambda_l1: 0.272328]
[lambda_l2: 0.0499113]
[linear_lambda: 0]
[min_gain_to_split: 0]
[drop_rate: 0.1]
[max_drop: 50]
[skip_drop: 0.5]
[xgboost_dart_mode: 0]
[uniform_drop: 0]
[drop_seed: 23992]
[top_rate: 0.2]
[other_rate: 0.1]
[min_data_per_group: 100]
[max_cat_threshold: 32]
[cat_l2: 10]
[cat_smooth: 10]
[max_cat_to_onehot: 4]
[top_k: 20]
[monotone_constraints: ]
[monotone_constraints_method: basic]
[monotone_penalty: 0]
[feature_contri: ]
[forcedsplits_filename: ]
[refit_decay_rate: 0.9]
[cegb_tradeoff: 1]
[cegb_penalty_split: 0]
[cegb_penalty_feature_lazy: ]
[cegb_penalty_feature_coupled: ]
[path_smooth: 0]
[interaction_constraints: ]
[verbosity: 1]
[saved_feature_importance_type: 0]
[max_bin: 255]
[max_bin_by_feature: ]
[min_data_in_bin: 3]
[bin_construct_sample_cnt: 200000]
[data_random_seed: 2213]
[is_enable_sparse: 1]
[enable_bundle: 1]
[use_missing: 1]
[zero_as_missing: 0]
[feature_pre_filter: 0]
[pre_partition: 0]
[two_round: 0]
[header: 0]
[label_column: ]
[weight_column: ]
[group_column: ]
[ignore_column: ]
[categorical_feature: ]
[forcedbins_filename: ]
[objective_seed: 29849]
[num_class: 1]
[is_unbalance: 0]
[scale_pos_weight: 1]
[sigmoid: 1]
[boost_from_average: 1]
[reg_sqrt: 0]
[alpha: 0.9]
[fair_c: 1]
[poisson_max_delta_step: 0.7]
[tweedie_variance_power: 1.5]
[lambdarank_truncation_level: 30]
[lambdarank_norm: 1]
[label_gain: ]
[eval_at: ]
[multi_error_top_k: 1]
[auc_mu_weights: ]
[num_machines: 1]
[local_listen_port: 12400]
[time_out: 120]
[machine_list_filename: ]
[machines: ]
[gpu_platform_id: -1]
[gpu_device_id: -1]
[gpu_use_dp: 0]
[num_gpu: 1]

end of parameters

pandas_categorical:null
