tree
version=v3
num_class=1
num_tree_per_iteration=1
label_index=0
max_feature_idx=75
objective=binary sigmoid:1
feature_names=age income price hist_trans_count hist_default_sum hist_default_avg hist_late_sum hist_late_avg hist_price_sum hist_price_avg default_lst_01_sum defualted_payment_lst_01_sum money_lost_lst_01_sum late_lst_01_sum price_lst_01_sum late_payment_first_lst_01_sum default_lst_01_avg defualted_payment_lst_01_avg money_lost_lst_01_avg late_lst_01_avg price_lst_01_avg late_payment_first_lst_01_avg default_lst_03_sum defualted_payment_lst_03_sum money_lost_lst_03_sum late_lst_03_sum price_lst_03_sum late_payment_first_lst_03_sum default_lst_03_avg defualted_payment_lst_03_avg money_lost_lst_03_avg late_lst_03_avg price_lst_03_avg late_payment_first_lst_03_avg default_lst_06_sum defualted_payment_lst_06_sum money_lost_lst_06_sum late_lst_06_sum price_lst_06_sum late_payment_first_lst_06_sum default_lst_06_avg defualted_payment_lst_06_avg money_lost_lst_06_avg late_lst_06_avg price_lst_06_avg late_payment_first_lst_06_avg default_lst_09_sum defualted_payment_lst_09_sum money_lost_lst_09_sum late_lst_09_sum price_lst_09_sum late_payment_first_lst_09_sum default_lst_09_avg defualted_payment_lst_09_avg money_lost_lst_09_avg late_lst_09_avg price_lst_09_avg late_payment_first_lst_09_avg default_lst_12_sum defualted_payment_lst_12_sum money_lost_lst_12_sum late_lst_12_sum price_lst_12_sum late_payment_first_lst_12_sum default_lst_12_avg defualted_payment_lst_12_avg money_lost_lst_12_avg late_lst_12_avg price_lst_12_avg late_payment_first_lst_12_avg cat__sex cat__residentialAddress_clean cat__postalAddress_clean cat__geo_risk_rank cat__shopID cat__same_address
feature_infos=[7:90] [0:100000] [3:200] [1:14] [0:10] [0:1] [0:11] [0:1] [3:1808] [3:200] [0:1] [0:4] [0:200] [0:1] [3:200] [0:4] [0:1] [0:4] [0:200] [0:1] [3:200] [0:4] [0:3] [0:12] [0:490.5] [0:3] [3:597] [0:12] [0:1] [0:4] [0:200] [0:1] [3:200] [0:4] [0:6] [0:24] [0:822.25] [0:6] [3:1120] [0:23] [0:1] [0:4] [0:200] [0:1] [3:200] [0:4] [0:9] [0:28] [0:970] [0:9] [3:1460] [0:28] [0:1] [0:4] [0:200] [0:1] [3:200] [0:4] [0:10] [0:30] [0:970] [0:11] [3:1732] [0:30] [0:1] [0:4] [0:200] [0:1] [3:200] [0:4] [1:3] [1:13260] [1:13261] [0:5] [100:999] [0:1]
tree_sizes=17772 17853 17864

Tree=0
num_leaves=171
num_cat=0
split_feature=75 5 72 70 72 70 70 54 52 70 41 8 5 54 22 35 36 72 14 0 14 8 46 0 0 9 0 14 8 1 12 2 54 57 1 23 8 0 74 54 74 74 71 71 72 72 38 2 1 2 8 1 73 14 0 71 71 32 1 1 57 72 12 36 26 5 32 72 74 2 14 38 14 14 7 27 57 71 8 5 25 72 0 14 2 27 60 60 74 8 1 9 53 5 71 26 14 50 1 9 27 74 12 14 45 9 8 53 72 26 26 2 2 71 1 38 30 36 26 2 7 74 38 74 74 8 30 54 42 38 74 0 9 72 14 14 14 2 30 72 74 8 74 38 1 14 57 30 73 38 71 14 14 74 14 26 8 2 7 14 72 8 72 1 36 1 1 29 8 71
split_gain=9037.68 4064.59 1137.63 1071.44 383.369 328.327 285.506 232.232 202.949 191.203 128.172 100.005 53.4561 44.1905 34.2259 29.8024 28.271 25.8313 20.8977 18.6293 17.0237 16.9806 16.9339 16.721 14.5723 14.2434 20.0741 19.875 20.7955 14.0588 14.9272 13.407 13.2104 14.5784 12.5087 12.3238 12.3121 11.8786 11.7641 11.6243 11.6074 17.104 14.2627 11.4626 11.4394 11.4767 11.2042 12.4273 11.0171 10.8409 15.2739 11.5333 14.3015 10.7951 10.694 12.3578 12.8923 10.6403 10.4608 10.3668 10.1963 10.3509 11.0504 10.6535 12.5006 14.2341 11.9988 10.5194 11.3112 10.1064 9.91945 19.0503 13.4592 10.6907 23.5218 14.7551 10.993 10.2948 12.3577 9.90104 9.70562 18.3869 9.65816 10.7312 12.8705 13.2132 11.3823 10.956 9.42087 9.37876 9.23062 12.59 12.0002 9.75522 10.282 10.105 9.20453 10.3189 9.12132 9.09326 9.01002 8.94747 13.3863 11.3735 11.8833 10.896 8.89644 11.8922 13.3005 12.4176 15.2559 11.5256 11.6463 11.4899 11.0479 10.2416 8.7414 8.62335 8.91798 10.6269 16.8779 8.61576 8.54304 8.41485 13.2479 8.43181 8.36266 8.27227 10.749 8.25404 8.20492 8.17445 8.08556 8.36828 8.03047 12.058 8.02313 7.96298 12.693 19.9886 7.90431 7.93071 10.1012 14.227 10.7081 9.86855 7.89788 8.16101 7.84225 7.82736 7.69206 7.68658 10.9119 12.6929 7.67734 20.6805 7.67689 7.67471 7.62581 7.57654 12.7954 9.96565 14.4685 9.00299 8.0893 8.66242 7.78565 7.58573 11.4346 7.56845
threshold=1.0000000180025095e-35 0.37980769230769235 72.500000000000014 1.5000000000000002 72.500000000000014 1.5000000000000002 2.5000000000000004 1.3819444444444446 0.18333333333333338 2.5000000000000004 0.29166666666666669 188.50000000000003 0.11805555555555557 8.7165178571428594 1.5000000000000002 6.5000000000000009 2.8750000000000004 10192.500000000002 194.50000000000003 50.500000000000007 5.5000000000000009 627.50000000000011 2.5000000000000004 69.500000000000014 25.500000000000004 113.52777777777779 55.500000000000007 17.500000000000004 482.50000000000006 7850.0000000000009 140.12500000000003 148.50000000000003 31.341666666666672 1.3541666666666667 53250.000000000007 5.5000000000000009 358.50000000000006 59.500000000000007 463.50000000000006 20.763888888888893 719.50000000000011 268.50000000000006 494.50000000000006 4343.5000000000009 1693.5000000000002 9255.5000000000018 443.50000000000006 39.500000000000007 5650.0000000000009 167.50000000000003 138.50000000000003 37850.000000000007 2.5000000000000004 187.50000000000003 18.500000000000004 293.50000000000006 6732.5000000000009 94.833333333333357 22150.000000000004 29550.000000000004 1.7321428571428574 5809.5000000000009 61.250000000000007 14.125000000000002 357.50000000000006 0.27922077922077926 114.83333333333336 6884.5000000000009 988.50000000000011 142.50000000000003 106.50000000000001 765.50000000000011 93.500000000000014 36.500000000000007 0.22649572649572652 6.5000000000000009 1.2361111111111114 5324.5000000000009 209.50000000000003 0.19090909090909094 2.5000000000000004 12044.500000000002 66.500000000000014 149.50000000000003 155.50000000000003 1.0000000180025095e-35 211.87500000000003 144.12500000000003 120.50000000000001 342.50000000000006 39050.000000000007 146.07142857142858 0.41428571428571431 0.31666666666666671 7283.5000000000009 138.50000000000003 139.50000000000003 766.50000000000011 57650.000000000007 95.050000000000011 6.5000000000000009 372.50000000000006 13.875000000000002 187.50000000000003 0.77500000000000013 109.52777777777779 266.50000000000006 0.78888888888888908 10252.500000000002 266.50000000000006 400.50000000000006 190.50000000000003 156.50000000000003 2258.5000000000005 91450.000000000015 631.50000000000011 17.354166666666668 190.12500000000003 327.50000000000006 4.5000000000000009 0.22649572649572652 747.50000000000011 237.50000000000003 585.50000000000011 722.50000000000011 170.50000000000003 9.7916666666666696 3.8875000000000006 5.6770833333333348 503.50000000000006 821.50000000000011 20.500000000000004 175.12500000000003 614.50000000000011 187.50000000000003 172.50000000000003 42.500000000000007 31.500000000000004 19.041666666666668 2300.5000000000005 140.50000000000003 344.50000000000006 872.50000000000011 363.50000000000006 98850.000000000015 136.50000000000003 0.5277777777777779 18.354166666666668 3.5000000000000004 479.50000000000006 11914.500000000002 72.500000000000014 49.500000000000007 292.50000000000006 187.50000000000003 308.50000000000006 200.50000000000003 54.500000000000007 0.45804195804195807 90.500000000000014 4748.5000000000009 443.50000000000006 5545.5000000000009 92350.000000000015 155.12500000000003 94850.000000000015 37850.000000000007 1.1666666666666667 298.50000000000006 7340.5000000000009
decision_type=2 2 2 2 2 2 2 2 2 2 2 2 2 2 2 2 2 2 2 2 2 2 2 2 2 2 2 2 2 8 2 2 2 2 8 2 2 2 2 2 2 2 2 2 2 2 2 2 10 2 2 8 2 2 2 2 2 2 8 8 2 2 2 2 2 2 2 2 2 2 2 2 2 2 2 2 2 2 2 2 2 2 2 2 2 2 2 2 2 2 8 2 2 2 2 2 2 2 10 2 2 2 2 2 2 2 2 2 2 2 2 2 2 2 8 2 2 2 2 2 2 2 2 2 2 2 2 2 2 2 2 2 2 2 2 2 2 2 2 2 2 2 2 2 8 2 2 2 2 2 2 2 2 2 2 2 2 2 2 2 2 2 2 8 2 10 8 2 2 2
left_child=1 2 13 7 15 23 10 49 11 14 122 17 38 -1 -7 116 -10 54 20 -17 -18 36 31 -6 151 27 -27 28 121 -24 32 43 39 -34 82 -22 -15 -19 88 -31 41 -29 -43 89 -35 -46 47 -38 -26 80 51 52 130 57 -4 -56 132 -44 -28 99 61 62 63 -45 66 -66 -65 -63 90 79 72 134 73 74 75 77 146 78 -50 -62 140 -82 83 87 -85 -86 -87 96 148 156 91 93 -92 94 -69 -95 97 127 -36 -42 -76 102 103 104 105 -91 113 108 109 -108 111 112 -111 114 -100 -114 -3 118 154 120 -120 -13 -5 -40 125 -125 -124 -33 -129 -127 -51 -130 133 -57 135 -72 -90 138 139 -103 -2 145 143 -143 -145 -142 149 -148 -8 -75 -133 152 -14 -154 -12 -156 -9 -146 -54 160 -81 163 -163 -161 165 -165 -164 168 -162 -58
right_child=3 4 8 6 5 9 12 22 16 -11 117 25 24 21 -16 19 18 37 -20 -21 35 -23 29 -25 48 26 58 40 -30 30 -32 34 33 44 98 -37 46 -39 123 -41 59 42 53 60 45 -47 -48 -49 70 50 -52 -53 158 -55 55 56 169 -59 -60 -61 69 67 -64 64 65 -67 -68 68 -70 -71 71 -73 -74 76 100 -77 -78 -79 -80 159 81 -83 -84 84 85 86 -88 -89 136 101 92 -93 -94 95 -96 -97 -98 -99 106 -101 -102 137 -104 -105 -106 -107 107 -109 -110 110 -112 -113 115 -115 -116 -117 -118 -119 119 -121 -122 -123 126 124 -126 129 -128 128 131 -131 -132 150 -134 -135 -136 -137 -138 -139 -140 -141 141 142 -144 144 157 -147 147 -149 -150 -151 -152 -153 153 -155 155 -157 -158 -159 -160 161 167 162 166 164 -166 -167 -168 -169 -170 -171
leaf_value=-2.3995181500034675 -2.3369698761817266 -2.3436778888588967 -2.1460128302602182 -2.4128607663487807 -0.29810622732714265 -1.162963984815431 -2.2478313527724505 -2.2010468190844423 -2.4419508876085247 -0.17449961153488935 -2.3369709056544821 -1.2202341861684651 -2.2848667209286702 -2.2509551711667308 -0.89835400866906223 -1.9093935244366484 -2.302467096027125 -1.7867368868620028 -2.0764332669497061 -0.92482318092336091 -1.287555568564833 -2.4373833044684812 -2.4865332096333255 -1.5024301857809039 -2.3212665445575649 -1.7245087722679424 -2.3999019032916173 -2.235960579807764 -2.3670398828017247 -1.7361834170865524 -2.4234132192211399 -1.4957291708535148 -1.124749558144758 -2.302467096027125 -2.3106100208512812 -2.168768071074004 -2.302467096027125 -2.302467096027125 -2.1631162360296154 -2.3125429816605743 -1.7516484811762139 -2.4317862243555033 -1.9977176055492196 -2.3234147585059253 -1.5697276639925315 -2.1961378675131047 -2.0699095500352955 -1.4300875701419031 -1.5949899398949969 -2.3947265670269027 -2.3367819267737628 -2.2847290716668565 -1.7673539962224445 -2.447719205573613 -2.125234921248881 -1.9714138859418788 -2.1429738616960772 -1.6420996197949633 -1.9700769871512216 -2.3420035390127389 -2.4430803432865087 -2.302467096027125 -2.3026910759001797 -1.9223810712780054 -2.4302499977345562 -1.8501172993976636 -1.3530862181234353 -1.6782823543127545 -1.5735527045638427 -2.372012301515543 -2.2108323075259686 -1.5613724306903762 -1.706501769000571 -1.8249787382575691 -2.3774384348452346 -2.4419508876085247 -2.0145571994034666 -1.4191665945768466 -2.2977698251218968 -2.3870128030563968 -2.5086728049940308 -1.7961799753391938 -2.306543876872758 -2.2492227875362407 -2.4291614982597003 -1.5807781944521708 -2.302467096027125 -2.2603724355944435 -2.2367791516429087 -2.0580826163430288 -1.9801843185241084 -2.4290191444689597 -2.2358277928308166 -2.3209387837381632 -2.1931575148088474 -1.8336027939453856 -2.3312982504318529 -2.3825266921055936 -1.5305687527862459 -2.302467096027125 -1.8527346036288477 -1.5953548738723624 -2.3542350008725865 -2.5063626888499426 -2.1191864046915159 -1.3993382077884902 -2.302467096027125 -2.2562370380705432 -2.4300173394082263 -2.2759874444750854 -2.2932269813941879 -2.302467096027125 -1.7592885995742604 -2.0811832139886435 -2.314311256463967 -0.89887782530117932 -1.9397776326281493 -2.2705621256826523 -1.5653347948778 -2.381783772442525 -2.4033728064630937 -2.1420128714015401 -2.4313225639433216 -2.2248524415393067 -2.2269414235343263 -2.4728979823374848 -2.2872233534336917 -2.339671602726924 -2.3151728399809053 -2.2231526327833642 -1.9433019805505858 -1.8561794412151902 -2.1420128714015401 -1.2836866460701966 -2.4021517504037018 -1.884035010213684 -2.3742925480700507 -2.3077163810369252 -2.3410936924529695 -2.3155033448800535 -2.2493296610356266 -2.4051409301187041 -2.360882553004704 -2.2516681288016107 -2.3079871213685612 -2.1871316382258139 -2.5514140284384497 -2.1740633886023937 -1.7105897022030983 -2.447719205573613 -2.302467096027125 -2.3428301778460181 -2.4357795722189861 -1.6016169681294603 -2.3094710825856319 -1.7513069799101455 -2.0458893971595429 -1.8796756188735242 -2.2574287889689391 -2.1911971455171768 -2.4700275372995768 -1.2685353097014986 -1.8008828902869385 -1.2084909546980225 -2.3032964690334845 -2.2218202207062201 -2.284611916846031 -1.8009313718702109 -1.8933088960847977 -1.5993160706726237
leaf_weight=277.79540900141001 83.231174312531948 4.7938511520624223 3.0581464245915404 4047.74607706815 105.13411492109299 126.70644510537386 9.5877023041248304 51.079310551285744 1.4877469092607487 26.862096972763538 1188.3791700750589 5.1244615763425809 12.480543516576292 11.240754425525664 142.98900850117207 4.9591563642024976 1.5703995153307904 18.596836365759376 4.1326303035020819 3.5540620610117912 125.05339298397303 7.7693449705839148 2.3142729699611655 3.0581464245915404 13.05911175906658 53.558888733386993 4.9591563642025021 17.522352486848831 1.9010099396109579 3.4714094549417513 2.7275360003113738 3.8020198792219153 3.3887568488717106 3.058146424591544 15.373384729027746 1.9836625456809986 1.7357047274708772 4.5458933338522902 77.032228857278824 7.0254715159535408 4.8765037581324595 2.8928412124514571 18.762141577899456 5.3724193945527068 10.166270546615122 4.2152829095721236 12.976459152996538 6.1989454552531242 3.1407990306615918 11.240754425525667 305.48403203487396 52.071141824126244 11.736670061945917 1.5703995153307904 3.4714094549417487 3.3061042428016654 3.636714667081832 18.348878547549248 20.580498911440372 18.266225941479206 3.1407990306615821 32.978389821946621 8.5958710312843305 29.837590791285038 7.4387345463037473 4.8765037581324577 3.7193672731518737 2.8928412124514571 2.2316203638911238 5.4550720006227484 49.508911035954952 3.5540620610117903 12.149933092296122 3.9673250913620022 9.1744392737746221 1.4877469092607487 26.44883394241333 9.0091340616345388 4.9591563642024994 3.388756848871707 23.886603154242042 2.3969255760312072 5.9509876370429984 4.9591563642025021 1.3224416971206689 19.423362426459793 1.901009939610957 13.968290425837038 42.40078691393137 6.5295558795332891 17.770310305058956 5.8683350309729567 98.604559041559696 3.3887568488717106 33.226347640156746 25.622307881712914 4.5458933338522902 3.3061042428016654 6.8601663038134584 4.4632407277822495 2.6448833942413321 5.950987637043001 13.720332607626913 2.8928412124514571 24.134560972452164 4.1326303035020828 6.1162928491830888 39.177335277199745 4.3805881217122069 2.0663151517510441 4.8765037581324568 2.3969255760312072 7.6040397584438306 22.894771881401539 1.4050943031907088 2.1489677578210831 18.348878547549248 127.53297116607428 2.4795781821012488 556.66530188173056 3.7193672731518745 1.8183573335409162 5893.8746862486005 24.299866184592247 178.52962911128998 49.343605823814869 31.655948124825954 4.7111985459923735 3.3061042428016654 12.56319612264633 3.5540620610117903 44.880365096032619 1.8183573335409153 45.458933338522911 10.331575758755205 11.406059637665747 169.02457941323519 84.553616009652615 9.918312728404997 5.2071141824126244 840.82496155053377 48.186469338834286 92.157655768096447 464.75560393184423 4.1326303035020819 290.52391033619642 9.7530075162649172 7.1907767280936232 2.3969255760312072 1.5703995153307913 3.5540620610117903 30.829422064125538 1.4050943031907071 4.2979355156421661 25.539655275642875 5.8683350309729567 69.097578674554825 10.166270546615122 4.2979355156421652 42.483439520001411 3.8846724852919561 2.1489677578210822 4.8765037581324551 1.4050943031907075 1.3224416971206663 1.6530521214008329 6.4469032734632501 38.268156610429287 5.6203772127628326 32.482474185526371
leaf_count=3361 1007 58 37 48973 1272 1533 116 618 18 325 14378 62 151 136 1730 60 19 225 50 43 1513 94 28 37 158 648 60 212 23 42 33 46 41 37 186 24 21 55 932 85 59 35 227 65 123 51 157 75 38 136 3696 630 142 19 42 40 44 222 249 221 38 399 104 361 90 59 45 35 27 66 599 43 147 48 111 18 320 109 60 41 289 29 72 60 16 235 23 169 513 79 215 71 1193 41 402 310 55 40 83 54 32 72 166 35 292 50 74 474 53 25 59 29 92 277 17 26 222 1543 30 6735 45 22 71309 294 2160 597 383 57 40 152 43 543 22 550 125 138 2045 1023 120 63 10173 583 1115 5623 50 3515 118 87 29 19 43 373 17 52 309 71 836 123 52 514 47 26 59 17 16 20 78 463 68 393
internal_value=-2.30247 -1.53735 -1.94731 -2.36167 -0.841997 -0.766423 -2.39916 -2.21298 -1.64042 -0.934271 -2.41031 -1.77937 -2.23242 -2.35842 -1.01771 -1.82902 -1.346 -1.57122 -1.33184 -1.38672 -1.31076 -2.08005 -2.09364 -0.323624 -2.1153 -1.92204 -1.82665 -2.0063 -1.60413 -1.89788 -1.85024 -2.10202 -1.79423 -1.66089 -2.0403 -1.2992 -1.9884 -1.88401 -2.28021 -2.10167 -2.05599 -1.98402 -1.88476 -2.12351 -1.82814 -1.72678 -1.86162 -1.59737 -2.07732 -2.26337 -2.30673 -2.19842 -2.06163 -1.83846 -1.5 -1.48139 -1.45931 -1.80628 -2.0589 -2.22012 -2.09178 -2.12409 -2.01541 -1.96564 -1.92142 -2.19412 -1.83088 -2.15499 -2.12905 -2.01888 -2.05739 -2.14211 -1.99191 -2.04383 -1.90774 -1.71326 -2.13698 -1.63872 -1.96492 -2.00052 -2.25425 -2.4234 -1.97127 -1.95204 -1.78751 -1.69814 -1.64352 -2.01425 -2.33104 -2.17062 -2.14004 -2.05703 -2.19337 -2.02021 -2.13334 -1.89359 -1.96692 -1.93882 -2.11281 -1.98779 -2.24511 -2.21915 -2.12136 -2.03408 -1.98679 -1.73811 -2.08131 -2.14622 -2.01081 -1.93103 -1.82164 -1.67919 -1.57047 -1.95105 -1.66512 -1.44879 -2.02709 -2.34198 -2.34718 -2.37725 -2.0322 -1.3965 -2.42338 -2.24662 -2.27181 -2.36307 -2.43053 -1.9115 -1.95478 -2.41973 -2.27917 -1.91725 -1.34392 -1.32042 -2.18234 -2.14201 -2.34594 -2.26915 -2.11509 -1.91644 -2.25169 -2.24755 -2.27411 -2.25862 -2.24344 -2.23316 -2.29239 -2.38578 -2.09447 -2.01676 -1.88776 -2.25855 -2.11407 -1.81605 -2.33315 -2.19589 -2.10945 -2.00446 -1.88116 -1.98582 -1.89844 -2.06718 -1.84981 -2.1402 -1.77877 -1.57394 -2.04286 -1.86016 -2.13506 -1.64503
internal_weight=0 1179.37 742.964 15872.7 436.406 404.75 12677 3195.68 425.248 296.558 11883.5 291.02 793.548 317.717 269.695 31.6559 134.228 116.375 132.74 8.51322 128.607 39.9212 947.034 108.192 228.369 174.645 79.0985 95.5464 8.84383 36.3671 34.0529 910.666 31.3253 20.8285 230.931 127.037 32.1519 23.1427 565.179 10.4969 86.7026 59.0966 41.5743 679.735 17.4397 14.3816 20.9111 7.93465 179.356 2248.65 388.385 82.9006 30.8294 38.6814 93.2321 90.174 86.7026 37.111 25.5397 27.606 402.518 282.424 59.8405 51.2446 45.8722 12.3152 33.557 222.583 189.605 120.094 166.297 74.8006 91.4964 79.3465 30.4162 18.5968 48.9303 17.1091 8.09996 114.639 1860.26 26.2835 115.631 109.68 27.606 22.6468 21.3244 82.074 223.41 277.217 187.373 70.9986 116.375 65.1303 36.1192 29.0111 68.1057 63.5599 115.3 9.33974 11.8193 157.04 51.4099 37.6896 34.7967 10.6622 99.927 68.767 29.5896 25.209 19.0928 14.2162 11.8193 31.16 8.26526 9.75301 23.1427 1910.18 1782.65 562.864 6.19895 6.94282 9973.28 341.769 264.736 86.2067 5925.53 60.2537 56.4517 61.9068 14.7948 51.7405 50.5834 48.765 71.2465 60.915 211.425 105.63 21.0764 11.1581 1833.98 1750.75 619.399 527.241 479.055 1131.35 22.4815 16.9438 11.9846 5.53772 48.4344 49.013 18.1836 5.70303 1219.79 31.408 120.177 14.2989 16.0346 111.498 51.162 60.3364 13.4724 46.864 4.38059 3.05815 11.3234 47.7732 9.50505 36.1192
internal_count=206310 14269 8989 192041 5280 4897 153377 38664 5145 3588 143776 3521 9601 3844 3263 383 1624 1408 1606 103 1556 483 11458 1309 2763 2113 957 1156 107 440 412 11018 379 252 2794 1537 389 280 6838 127 1049 715 503 8224 211 174 253 96 2170 27206 4699 1003 373 468 1128 1091 1049 449 309 334 4870 3417 724 620 555 149 406 2693 2294 1453 2012 905 1107 960 368 225 592 207 98 1387 22507 318 1399 1327 334 274 258 993 2703 3354 2267 859 1408 788 437 351 824 769 1395 113 143 1900 622 456 421 129 1209 832 358 305 231 172 143 377 100 118 280 23111 21568 6810 75 84 120665 4135 3203 1043 71692 729 683 749 179 626 612 590 862 737 2558 1278 255 135 22189 21182 7494 6379 5796 13688 272 205 145 67 586 593 220 69 14758 380 1454 173 194 1349 619 730 163 567 53 37 137 578 115 437
is_linear=0
shrinkage=1


Tree=1
num_leaves=171
num_cat=0
split_feature=75 52 72 53 30 34 38 50 4 72 9 14 1 9 72 5 55 29 45 1 38 2 38 9 50 14 48 74 50 74 1 72 74 33 74 5 9 51 48 24 24 2 1 74 38 49 50 1 72 14 2 1 74 9 48 72 61 1 7 57 14 74 14 9 74 72 30 2 2 14 1 39 1 1 30 50 72 72 73 1 39 44 14 9 25 56 56 73 9 2 2 9 32 38 14 1 74 48 73 72 72 23 1 72 3 14 32 30 74 41 47 1 57 44 14 74 38 72 44 2 74 38 3 9 5 30 1 5 14 54 12 1 72 50 72 74 38 56 1 9 33 38 74 51 14 65 38 72 9 9 72 7 45 30 44 1 66 14 45 48 41 51 74 74 2 1 48 74 1 2
split_gain=1595.63 272.046 269.935 50.7925 31.603 26.9689 20.2751 19.4796 17.3623 14.0126 13.4889 13.7448 13.1481 12.2288 15.9342 12.2987 11.8573 12.4016 11.8195 10.9137 10.7033 14.9155 18.3458 11.2376 10.1091 9.69118 9.60277 9.56311 9.40316 11.1048 9.33725 9.17442 9.13414 9.49022 9.44061 9.12603 9.02893 9.62524 8.90987 9.94488 9.94217 13.6413 12.0852 10.466 9.36604 9.07328 8.67288 8.64463 10.1343 9.45031 8.61737 8.5703 8.40899 9.84985 8.40448 8.48856 8.32484 11.717 8.86766 12.4016 8.69426 8.23927 12.8672 9.46679 7.95746 12.0598 8.64593 8.59546 7.83556 9.01989 7.78787 7.68831 7.67506 14.3239 7.66326 7.61849 9.18946 8.37106 7.55422 8.21392 8.62195 9.29027 7.48854 11.6434 7.40813 7.30867 10.2604 7.91702 7.27176 10.6057 10.406 7.8607 8.44981 6.95456 7.57605 6.85044 8.47012 6.7491 6.74664 6.74343 11.6507 8.57608 6.71945 6.7189 10.0596 6.6461 6.64131 10.0372 6.578 6.54769 6.51353 8.19904 7.0073 6.31304 6.3095 6.25779 6.23582 6.20503 6.09133 6.34428 6.06089 6.04927 8.17147 8.70658 8.39358 11.2486 9.1726 10.4158 12.1422 7.0854 8.29895 6.45415 5.91987 7.58143 6.56799 5.96664 7.88819 6.36679 7.2458 5.81883 5.80143 12.9527 11.1974 6.92214 6.76004 10.2231 8.59713 9.27311 7.99737 7.1982 9.95813 7.69128 6.8266 6.73191 6.7099 7.96085 6.70188 6.52301 6.05757 9.5465 6.32664 11.6547 9.99141 10.2919 11.7371 9.50739 8.63632 8.43902 6.02161 7.65174
threshold=1.0000000180025095e-35 0.13392857142857145 37.500000000000007 1.1547619047619049 3.9583333333333335 1.5000000000000002 190.50000000000003 270.50000000000006 1.5000000000000002 36.500000000000007 77.050000000000011 27.500000000000004 97350.000000000015 125.04166666666667 11018.500000000002 0.14835164835164838 0.5634920634920636 2.8333333333333335 0.70833333333333337 3550.0000000000005 677.50000000000011 35.500000000000007 689.50000000000011 114.05000000000001 707.50000000000011 134.50000000000003 121.12500000000001 503.50000000000006 902.50000000000011 581.50000000000011 63250.000000000007 1021.5000000000001 558.50000000000011 1.5833333333333337 764.50000000000011 0.19090909090909094 97.527777777777786 5.5000000000000009 71.125000000000014 10.625000000000002 57.125000000000007 36.500000000000007 89650.000000000015 558.50000000000011 440.50000000000006 1.5000000000000002 249.50000000000003 93650.000000000015 3323.5000000000005 182.50000000000003 199.50000000000003 96350.000000000015 471.50000000000006 173.10000000000002 71.125000000000014 12449.500000000002 2.5000000000000004 98850.000000000015 0.78888888888888908 2.3095238095238098 199.50000000000003 715.50000000000011 29.500000000000004 24.125000000000004 722.50000000000011 3875.5000000000005 14.708333333333334 59.500000000000007 105.50000000000001 44.500000000000007 73650.000000000015 17.500000000000004 72050.000000000015 64450.000000000007 8.0416666666666696 440.50000000000006 2210.5000000000005 614.50000000000011 2.5000000000000004 72050.000000000015 8.5000000000000018 94.083333333333357 107.50000000000001 136.06250000000003 1.0000000180025095e-35 85.055555555555571 126.05555555555557 4.5000000000000009 117.05555555555557 47.500000000000007 139.50000000000003 134.53571428571431 158.16666666666671 377.50000000000006 180.50000000000003 37850.000000000007 487.50000000000006 168.12500000000003 3.5000000000000004 577.50000000000011 4696.5000000000009 1.5000000000000002 37450.000000000007 8767.5000000000018 5.5000000000000009 149.50000000000003 73.166666666666671 35.541666666666679 702.50000000000011 1.1833333333333336 6.5000000000000009 24550.000000000004 1.1833333333333336 86.083333333333357 147.50000000000003 899.50000000000011 363.50000000000006 12178.500000000002 147.08333333333334 174.50000000000003 624.50000000000011 817.50000000000011 7.5000000000000009 139.03846153846158 0.68333333333333346 73.062500000000014 37850.000000000007 0.47222222222222227 44.500000000000007 70.550000000000011 39.125000000000007 13650.000000000002 4748.5000000000009 518.50000000000011 6833.5000000000009 431.50000000000006 473.50000000000006 93.944444444444457 24150.000000000004 113.05555555555557 0.58333333333333337 434.50000000000006 821.50000000000011 4.5000000000000009 179.50000000000003 0.68333333333333346 449.50000000000006 1292.5000000000002 156.06250000000003 146.07142857142858 6557.5000000000009 0.27922077922077926 0.77500000000000013 1.3541666666666667 131.55000000000004 37450.000000000007 3.5386904761904767 191.50000000000003 2.2250000000000005 121.12500000000001 0.63333333333333341 6.5000000000000009 562.50000000000011 833.50000000000011 164.50000000000003 84850.000000000015 107.12500000000001 400.50000000000006 43050.000000000007 55.500000000000007
decision_type=2 2 2 2 2 2 2 2 2 2 2 2 10 2 2 2 2 2 2 8 2 2 2 2 2 2 2 2 2 2 10 2 2 2 2 2 2 2 2 2 2 2 10 2 2 2 2 10 2 2 2 10 2 2 2 2 2 10 2 2 2 2 2 2 2 2 2 2 2 2 8 2 10 10 2 2 2 2 2 8 2 2 2 2 2 2 2 2 2 2 2 2 2 2 2 10 2 2 2 2 2 2 8 2 2 2 2 2 2 2 2 10 2 2 2 2 2 2 2 2 2 2 2 2 2 2 8 2 2 2 2 8 2 2 2 2 2 2 8 2 2 2 2 2 2 2 2 2 2 2 2 2 2 2 2 8 2 2 2 2 2 2 2 2 2 8 2 2 8 2
left_child=2 6 3 9 7 12 18 10 32 -1 70 -12 16 15 30 75 17 140 -2 -20 36 28 23 -23 35 117 27 -24 29 -22 82 -19 33 -5 -34 -17 37 46 110 -40 41 98 78 103 45 -45 106 48 49 139 -38 61 53 -33 64 -56 60 -58 -59 -60 132 63 -63 74 66 -66 -14 -67 69 -44 -4 -65 73 -18 -6 76 -9 -77 -42 80 -80 -82 83 -15 113 -11 -87 -88 -62 -90 91 -91 -93 94 -78 -95 -97 -70 -41 -75 101 -101 -54 -43 -105 -84 -7 -108 -32 -46 112 -112 -39 -37 -103 -10 -94 -13 -28 -120 -89 122 123 124 125 126 127 -64 -129 130 -125 -131 133 -8 -134 136 -136 -138 -139 -27 141 142 143 157 145 156 -147 -148 149 150 -146 154 -149 158 155 -152 168 -3 160 -160 161 -142 167 164 165 166 -164 -163 -143 -170
right_child=1 5 4 8 51 20 56 13 115 85 11 25 54 14 -16 24 72 31 19 -21 21 22 26 -25 -26 47 118 -29 -30 -31 108 52 34 -35 -36 84 50 38 39 40 42 43 68 44 109 -47 -48 -49 -50 -51 -52 -53 102 -55 55 -57 57 58 59 -61 88 62 121 71 65 67 -68 -69 97 -71 -72 -73 -74 99 -76 77 93 -79 79 -81 81 -83 105 -85 -86 86 87 120 89 90 -92 92 116 95 -96 96 -98 -99 -100 100 -102 114 -104 104 -106 -107 107 -109 -110 -111 111 -113 -114 -115 -116 -117 -118 -119 119 -121 -122 -123 -124 129 -126 -127 -128 128 -130 131 -132 -133 134 -135 135 -137 137 138 -140 -141 153 144 -144 -145 148 146 147 152 -150 -151 151 -153 -154 -155 -156 -157 -158 -159 159 -161 -162 162 163 -165 -166 -167 -168 -169 169 -171
leaf_value=0.59373905143713002 -0.034626729803932575 0.11763037450794614 0.22802508580094863 0.20707230209165223 0.29083781907874012 0.032389633777166763 -0.052199937358213037 -0.094884426041326131 0.50711416453036418 -0.12725704887916184 -0.040501129855240146 0.42394736855149567 -0.0038463501496480671 0.76261757294570665 -0.07024656390372705 0.61096945812150205 -0.031885926485867556 -0.12951997359473294 0.064650472515562885 -0.073581563717170284 0.21799103452158863 0.082917285176936154 -0.027510306027422771 0.82387173882829079 -0.12017555363814397 0.013595458874857212 -0.046595772121870847 0.62205186485676334 0 0.91549187334955506 0.55543380276652632 0.28937052947045799 0.50477439433544335 -0.24740755515146129 0.00095791526936701572 -0.16558850358808483 0.02397870319124654 0.23341610536077959 -0.033356409746610159 1.0267329824636475 -0.0030455091002036753 -0.12855904353698372 0.035816943605973997 0.96244878280245216 0.37664527706514694 0.098670862306899768 -0.076370034132143189 -0.10210872065128687 0.17792690899764449 0.076085218892865694 0.56721626097595834 0.15142265133995786 0.18196165301706443 -0.08454345581400563 0 0.53957811322672211 -0.099234036176411536 0 0.80411766496689863 -0.11776900551188405 -0.13754988663976775 0.4118985108146947 -0.058559034141058688 0.3248344573287677 0.014864363427837745 0.023383146521606956 0.32411219939153962 0.77394857478152457 -0.13211230452683498 0.86881004553285346 0.060966798592818915 0 -0.10500026007004032 -0.1908706981668202 -0.11660431546580186 0.38155796063567249 0.041774998915033723 -0.10644139635962294 0.31684750798379369 -0.013363926520658943 -0.019664270015139824 0.42251858244875506 -0.051329550199160641 0.043347153151665388 0.27852096564063727 0.01726869203992009 -0.14966639803505041 0.39124413194531732 -0.14408945293326314 0.64058076946193598 -0.003000758364930052 -0.12281414304791649 0.1205344591603075 0.01826419975471745 0.50818248596913185 0.087611580176905721 0.8338849997978881 0.41503334844252171 0.1854606484608369 -0.00085358961920809493 0.047158958420472269 0.68067879031729073 -0.0048353403894422593 0.64955448793866077 -0.14517288954774679 0.21621767509926251 0.66091900656084834 0 0.15081986320349225 -0.19268127175891664 0.5137836664002603 0.011070960348257632 -0.16159487260388347 0.15584430880584502 0 0 0.60236985866666526 0.029253449731791639 0.03178968995853141 0.64716320474477451 -0.10932177438569646 -0.076149392051327411 0.53088361361625924 0.67191314687474746 0.27575559155456664 -0.095971188153309267 0.24526199033718182 -0.19388233046489756 0.24879706203103366 0.57949706223279596 0.25763105119892482 0.16077049001005117 -0.096194488055923608 -0.089139513903876921 -0.10127472921317333 -0.058470904185244678 -0.18948872483597259 -0.11317256380844293 0.0040924278184702473 0.60648682540700849 -0.079692010271027611 -0.072940010410897316 -0.031887148348989099 0.33013905224649087 -0.03320704879959694 -0.2421970253768112 -0.15675975952523385 0.33056088541129663 -0.22657148466918889 0.55232152746554031 0.83972609220314731 -0.14942101188981557 0.079105134967933366 0.01657532868263329 -0.038234402291194243 0.17725800777717252 -0.08582485801786377 -0.22314757710837912 -0.0089812219550096176 0.57160153904890409 -0.095156385493834289 0.10569211698973494 0.72023646597575641 -0.009506022815234055 -0.10540596624530124 -0.038095254780679211 0 -0.23596960362258479 -0.13474515075497473 0.33042555532863011
leaf_weight=1.7523177415132511 2522.2219460308552 167.77394641190767 97.04890001565218 5.3123358562588718 5.7700729221105558 15.832847706973554 2462.8393726497889 14.138560324907301 18.829942606389526 90.380651764571667 7.612369440495967 79.487031318247318 15.851051807403566 3.6240931302309027 10.360476844012735 4.4450383484363547 235.06783616542816 10.400513269007204 47.299445927143097 1267.4146638438106 5.1825137063860875 3.7069696784019461 2.4815668463706961 3.698817290365696 6.3432585150003424 2.048436798155314 35.710918761789799 3.4823147132992744 2.6880472451448432 4.2761238217353821 15.595721647143366 37.870083063840866 5.8290628120303136 8.27757630497217 6.5725632756948471 6.4519657269120243 225.04808115959167 3.5065460726618793 15.582766175270079 2.7870222181081798 27.424914516508579 7.2389819994568843 1.933559313416479 2.7557851895689947 2.1961886137723923 2.2126338556408882 36.151948645710945 4.5252783969044676 42.366976924240589 5.8227217569947234 1.5070353522896756 39.389494508504868 24.589292854070663 5.8104061484336844 35.532499738037586 1.5924658626317967 1060.372323743999 9.8378095030784589 2.2787191122770305 1.2303073853254316 12.861498139798639 44.680578894913197 21.826882645487785 792.03887060284615 4.7751981094479543 2.0726950317621231 9.5849749669432622 5.7705413326621056 2.9378342032432556 3.7728444039821625 34.307325892150402 5.6711270809173575 91.988189466297626 2.481768153607848 7.4501405507326126 2.1276474967598906 31.74195659160614 35.729175291955471 31.708291463553905 14.347410969436167 17.613062769174579 3.9054637178778639 10.387075193226339 4.0237331315875053 30.699849538505077 134.88918612897396 62.416419222950935 3.3483993709087363 10.041892036795614 4.0392659530043629 14.292161479592322 4.3005521371960631 8.0277123898267728 3.7402112036943418 2.3597998023033133 2.8773206770420074 2.9034843593835831 2.400615505874157 2.1951054707169533 2.2287972420454052 14.545813038945196 6.701149754226206 38.655459880828857 1.8846646919846537 1.5264231190085409 20.555924102663994 3.3047234117984763 2.9610064476728439 6.524532049894332 2.383840873837471 3.0473694652318946 9.9408389106392843 17.947122506797314 13.940071105957029 1.5784911066293714 2.3128308206796637 3.3054218813776961 4.32040200382471 5.2360730916261664 1.28656530380249 2.5470068603754044 3.9297728762030593 8.3297076970338804 10.406592682003977 108.08454261720181 11.379638053476809 90.607249766588211 4.9642972052097312 32.862105637788773 3.2981120944023159 11.413825020194052 24.722034208476543 1070.2968176007271 583.83814790844917 769.2005719691515 1727.7231237366796 21.008536197245121 57.008607886731625 166.89723592251539 14.028971672058104 58.872398786246777 10.193752780556681 44.501612909138203 12.624389745295046 15.66923768818379 4.8299788385629645 7.0381042659282675 14.801529780030249 3.7331541031599036 2.8644009158015242 2.9121662080287916 1.6302113011479367 26.994051374495029 1530.9458171576262 1.6138998717069624 4.62075574696064 127.54008753597736 3.6586556434631339 6.0471769943833333 2.4519403949379921 109.1118478924036 16.358316980302337 8.0687575936317426 7.0106919184327117 2.3907914236187926 1.6260927245020873 1.2573384344577796 8.1064657196402532 2.9785949140787116 9.5309328064322454
leaf_count=21 32213 1941 686 53 28 178 32036 130 138 1165 54 606 185 27 83 45 2821 119 611 16363 54 39 28 40 38 18 384 37 29 45 123 416 57 81 62 37 2524 39 179 29 302 80 20 30 27 25 408 36 331 51 17 195 279 67 420 19 14056 130 30 16 166 224 132 3961 58 24 110 66 35 41 237 25 1115 30 37 20 290 336 349 154 195 42 82 32 180 1692 796 42 131 53 186 56 103 38 24 25 28 26 22 27 178 80 437 20 17 167 34 33 54 26 35 109 198 80 19 17 43 37 58 12 33 21 44 59 495 57 480 24 163 16 58 119 13933 7592 10033 22468 275 741 2185 106 714 124 515 151 187 58 83 176 44 33 34 20 322 17793 19 55 1499 44 73 26 1293 195 97 87 27 20 15 102 36 118
internal_value=0 -0.0431993 0.224689 -0.00824975 0.270407 0.0297512 -0.0635587 0.209313 0.265287 -0.0530588 0.259301 0.31703 0.0182582 0.144168 0.243918 0.0971361 0.0148647 0.0223356 -0.0462698 -0.0684669 0.0888993 0.196215 0.125447 0.520503 0.196338 0.335845 0.0531356 0.366862 0.477394 0.601035 0.299878 0.113221 0.0956051 -0.0589564 0.266674 0.236198 0.0726515 0.111671 0.14423 0.174971 0.200746 0.365673 0.157448 0.230069 0.434258 0.677833 0.00749042 0.244502 0.272028 0.433306 0.030539 0.296019 0.13897 0.235998 0.136254 0.0333082 -0.071839 -0.0957457 0.160446 0.496252 -0.0680959 0.300581 0.261146 0.318401 0.23009 0.41413 0.122159 0.614431 0.435236 0.65172 0.186126 0.322448 -0.0338982 -0.00821094 0.0598035 0.0302885 0.0962511 -0.0669296 0.119774 0.170843 0.222229 0.0694916 0.200026 0.446233 0.19044 -0.0592813 -0.0279592 -0.118126 0.0418518 0.0989668 0.176502 0.307217 0.181216 0.161799 0.0907667 0.372282 0.546977 0.119266 0.767667 0.183636 0.231364 0.449798 0.0674211 0.015119 0.310725 0.123529 0.147731 0.378302 0.452918 0.0750515 0.00836839 0.165523 -0.0840462 0.0452373 0.572519 0.454831 0.307643 0.405682 0 0.237897 0.171188 0.239329 0.243713 0.234257 0.211119 0.165731 0.186887 0.0936126 0.184016 0.350575 0.480873 0.232082 -0.069032 -0.0593468 -0.0767218 -0.0690425 -0.0868539 -0.0408199 -0.0255477 0.543532 0.0174225 0.0459838 0.0946503 0.125948 -0.000610436 -0.0208411 0.0848807 0.123867 0.117503 0.171382 0.107503 0.309029 0.176596 0.00974022 0.409917 0.514557 -0.0597539 0.108407 -0.0368322 0.18595 -0.0471284 0.00258966 0.11289 0.256967 0.397214 0.517396 0.621281 -0.00709287 0.0788003 0.208394
internal_weight=0 15125 2089.43 342.468 1746.96 3298.66 11826.3 520.138 47.1343 295.334 291.568 160.212 2764.85 228.57 71.0716 157.498 2689.67 2335.08 3836.94 1314.71 533.805 67.7499 55.6032 7.40579 61.8802 152.6 48.1974 5.96388 12.1467 9.45864 60.7111 117.326 25.9915 13.5899 12.4016 55.5369 466.055 239.5 181.249 146.807 131.225 25.1806 106.044 20.1985 9.54845 4.96842 58.2505 68.7924 64.2671 21.9001 226.555 1226.83 106.925 43.6805 75.1794 37.125 7989.4 1073.72 13.3468 3.50903 6915.68 1187.44 376.505 810.93 38.0545 12.6184 25.436 7.84324 11.0449 5.7064 131.356 797.71 354.592 262.604 13.2202 95.6182 57.7613 37.8568 94.9991 67.5742 53.2268 21.5185 38.5908 7.64783 51.0919 293.582 203.201 68.3118 56.8685 44.007 33.9651 19.673 15.6337 43.6228 34.1018 9.52102 5.78081 5.33845 4.98213 27.536 25.0543 10.5084 63.2448 10.6501 3.41109 30.943 22.0986 6.26573 22.1203 4.58003 34.4419 12.9882 21.4537 20.392 8.27964 21.1428 11.3331 83.8074 42.2336 6.52264 5.89541 331.825 327.895 319.565 269.725 161.64 150.261 59.6533 37.8264 49.8406 21.8204 28.0201 6858.81 3046.68 3812.13 2741.84 1014.11 244.914 223.906 16.0774 2217.76 465.509 228.559 184.057 236.951 203.907 53.6637 48.8337 33.0438 29.3107 26.4463 10.777 41.7956 1752.25 9.14682 7.53292 150.243 171.433 221.302 8.49912 212.803 103.691 44.8185 20.3537 13.343 10.9522 9.3261 24.4648 22.7033 12.5095
internal_count=206007 191711 14296 4157 10139 38291 153420 4001 408 3749 2162 1239 32371 1839 568 1271 31489 27219 49187 16974 5920 726 598 79 380 1185 519 65 128 99 485 1318 253 134 119 342 5194 2653 2000 1619 1440 276 1164 225 108 55 653 542 506 175 2541 6138 1199 483 882 439 104233 14232 176 46 90001 5943 1892 4051 443 148 295 90 122 61 923 3986 4270 3155 65 891 535 356 1042 740 586 237 308 59 297 3728 2563 871 738 572 441 255 202 405 314 91 53 61 51 334 304 126 716 117 37 249 245 67 177 53 381 144 237 117 99 155 146 643 454 70 75 1668 1647 1603 1351 856 799 319 187 252 117 135 89263 39628 49635 35702 13234 3201 2926 124 25901 5459 2651 2136 2808 2416 639 581 392 348 315 128 498 20442 108 89 1777 1985 2649 99 2550 1257 543 246 159 132 112 297 278 154
is_linear=0
shrinkage=0.287406


Tree=2
num_leaves=171
num_cat=0
split_feature=75 70 70 72 48 64 5 5 70 70 33 0 0 35 2 48 32 32 32 74 14 9 62 48 42 72 2 26 32 0 74 74 32 43 0 2 74 69 0 38 12 33 26 12 3 74 45 39 74 48 74 27 40 33 4 72 26 9 14 70 42 2 39 38 2 26 42 69 0 2 72 12 24 2 14 74 0 74 53 72 72 15 54 12 74 45 0 72 62 14 72 72 26 45 7 74 69 0 2 72 0 0 5 0 14 12 2 15 36 63 32 38 2 2 0 33 36 62 33 27 0 38 7 27 26 14 74 42 72 72 9 9 32 2 9 9 74 26 43 38 74 2 72 9 69 72 72 2 2 38 32 72 55 26 24 27 54 48 14 9 48 14 27 14 74 9 74 36 14 2
split_gain=793.422 509.087 185.942 115.888 47.756 34.3437 22.0484 20.2703 16.6034 15.1251 14.3259 11.9027 11.6092 11.243 11.1294 10.9748 10.4729 9.97184 19.4094 10.6463 9.07205 11.5752 10.0726 8.65689 16.0912 15.8736 11.4652 12.0231 9.66823 9.28481 9.18884 9.08033 8.63295 11.9887 8.97508 9.64314 8.55923 8.5556 11.5497 9.91097 8.18955 8.05891 9.0505 13.2502 9.32934 8.0259 8.6998 14.9839 8.56686 8.01138 9.19114 8.00457 7.98688 9.76293 8.85565 8.225 15.106 8.01836 7.6475 7.60811 7.60768 9.21213 7.58419 7.53767 7.44874 10.0486 10.9424 7.41824 11.9372 9.40522 7.43111 7.40061 7.38809 8.48188 11.1249 14.9358 10.7635 9.05651 11.8454 8.65711 7.37142 7.30684 7.30032 7.27384 7.219 7.20884 7.17849 8.28406 7.72039 7.07648 7.9162 10.4559 13.1773 14.8483 11.8574 9.5313 9.41055 9.04228 8.19971 8.08041 7.83312 7.3407 7.09572 6.90246 14.496 10.8474 8.50307 8.7493 8.40171 7.52114 7.13994 6.9169 7.9294 9.06864 7.30949 9.65432 6.89242 8.10699 6.87615 8.92453 12.7115 6.85834 6.79654 7.1027 6.78455 7.69178 7.33074 6.74266 6.7103 6.76108 11.4454 9.70128 7.70666 6.67282 6.59181 8.99787 13.2928 9.46078 9.32341 11.9158 8.43532 8.24621 6.59082 6.56493 6.55229 6.54705 8.4908 9.49499 6.54104 6.52523 7.07186 7.64683 6.49413 13.4666 10.9843 9.62688 10.6149 8.04062 7.89576 7.37212 7.02524 7.74919 10.6003 8.92469 10.7467 8.8647 7.06627 6.54862 7.48823 6.6005
threshold=1.0000000180025095e-35 1.5000000000000002 2.5000000000000004 37.500000000000007 28.125000000000004 0.17424242424242428 0.31666666666666671 0.78888888888888908 1.5000000000000002 2.5000000000000004 0.58333333333333337 16.500000000000004 25.500000000000004 5.5000000000000009 5.5000000000000009 343.37500000000006 128.83333333333334 36.166666666666679 44.583333333333336 815.50000000000011 59.500000000000007 36.100000000000009 730.50000000000011 90.125000000000014 25.81666666666667 6993.5000000000009 35.500000000000007 216.50000000000003 124.83333333333336 33.500000000000007 744.50000000000011 757.50000000000011 150.16666666666671 0.45000000000000007 56.500000000000007 188.50000000000003 839.50000000000011 0.23611111111111113 34.500000000000007 330.50000000000006 56.750000000000007 2.8333333333333335 126.50000000000001 13.125000000000002 5.5000000000000009 200.50000000000003 1.2916666666666667 3.5000000000000004 156.50000000000003 195.12500000000003 232.50000000000003 1.5000000000000002 0.22500000000000003 2.4166666666666674 5.5000000000000009 10440.500000000002 126.50000000000001 38.100000000000009 146.50000000000003 1.5000000000000002 38.947916666666679 38.500000000000007 13.500000000000002 214.50000000000003 170.50000000000003 380.50000000000006 11.887500000000001 0.57738095238095244 58.500000000000007 146.50000000000003 1835.5000000000002 159.50000000000003 214.12500000000003 39.500000000000007 91.500000000000014 573.50000000000011 23.500000000000004 824.50000000000011 1.6458333333333337 8829.5000000000018 1410.5000000000002 1.0000000180025095e-35 6.2656250000000009 110.12500000000001 932.50000000000011 0.45000000000000007 25.500000000000004 392.50000000000006 560.50000000000011 136.50000000000003 4200.5000000000009 2703.5000000000005 341.50000000000006 1.0833333333333337 0.6515151515151516 806.50000000000011 0.76388888888888895 63.500000000000007 32.500000000000007 3504.5000000000005 56.500000000000007 40.500000000000007 0.19090909090909094 54.500000000000007 121.50000000000001 172.50000000000003 118.50000000000001 2.5000000000000004 117.12500000000001 10.500000000000002 126.16666666666667 340.50000000000006 112.50000000000001 103.50000000000001 25.500000000000004 0.41666666666666669 25.125000000000004 506.50000000000006 0.83333333333333337 4.5000000000000009 30.500000000000004 328.50000000000006 0.70714285714285718 7.5000000000000009 230.50000000000003 145.50000000000003 403.50000000000006 2.6375000000000006 1250.5000000000002 6613.5000000000009 77.050000000000011 94.950000000000017 53.166666666666679 163.50000000000003 108.04545454545456 94.950000000000017 613.50000000000011 152.50000000000003 0.22500000000000003 314.50000000000006 268.50000000000006 141.50000000000003 3172.5000000000005 126.05555555555557 1.7071428571428573 10192.500000000002 1292.5000000000002 100.50000000000001 95.500000000000014 375.50000000000006 79.166666666666671 689.50000000000011 0.38750000000000007 120.50000000000001 244.62500000000003 5.5000000000000009 9.4330357142857171 73.125000000000014 180.50000000000003 121.52272727272729 46.375000000000007 125.50000000000001 4.5000000000000009 187.50000000000003 511.50000000000006 156.06250000000003 965.50000000000011 41.125000000000007 192.50000000000003 147.50000000000003
decision_type=2 2 2 2 2 2 2 2 2 2 2 2 2 2 2 2 2 2 2 2 2 2 2 2 2 2 2 2 2 2 2 2 2 2 2 2 2 2 2 2 2 2 2 2 2 2 2 2 2 2 2 2 2 2 2 2 2 2 2 2 2 2 2 2 2 2 2 2 2 2 2 2 2 2 2 2 2 2 2 2 2 2 2 2 2 2 2 2 2 2 2 2 2 2 2 2 2 2 2 2 2 2 2 2 2 2 2 2 2 2 2 2 2 2 2 2 2 2 2 2 2 2 2 2 2 2 2 2 2 2 2 2 2 2 2 2 2 2 2 2 2 2 2 2 2 2 2 2 2 2 2 2 2 2 2 2 2 2 2 2 2 2 2 2 2 2 2 2 2 2
left_child=3 4 5 6 12 63 9 14 71 59 143 -6 17 20 -5 16 58 -2 19 -19 21 -4 37 25 -25 28 27 -27 40 30 60 -29 122 34 36 -36 -34 38 39 145 51 42 43 -39 128 48 -47 -48 -20 50 -26 -13 53 64 103 57 -57 -55 -8 -1 61 -30 72 84 67 66 -66 70 69 -69 -16 -9 73 -51 -75 76 -76 -77 -79 -78 -31 -15 86 -83 -3 -65 87 -7 116 -14 91 94 93 -93 96 97 102 101 -96 -95 -97 -94 -91 105 109 111 107 -106 110 -105 121 -54 113 -113 -114 -116 118 -118 124 120 -120 -108 123 -22 -88 -126 -127 -98 -44 130 132 148 -130 -100 135 137 -137 144 -138 -140 141 -136 -40 -11 -52 146 -23 -148 -132 150 -10 -152 154 155 160 -154 -157 -158 -155 -156 166 165 163 -163 -165 -162 167 168 -84 -170
right_child=1 2 13 7 11 82 15 8 149 10 -12 23 89 81 52 -17 -18 18 45 -21 32 22 -24 24 49 26 -28 31 29 80 -32 -33 33 -35 35 -37 -38 41 142 -41 -42 -43 44 -45 -46 46 47 -49 -50 62 134 -53 54 55 -56 56 -58 -59 -60 -61 -62 -63 -64 85 65 -67 -68 68 -70 -71 -72 -73 -74 74 75 77 79 78 -80 -81 -82 83 152 -85 -86 -87 88 -89 -90 90 -92 92 95 99 98 100 127 -99 133 -101 -102 -103 -104 104 106 -107 108 -109 -110 -111 -112 112 114 -115 115 -117 117 -119 119 -121 -122 -123 -124 -125 125 126 -128 -129 129 -131 131 -133 -134 -135 140 136 138 -139 139 -141 -142 -143 -144 -145 -146 -147 147 -149 -150 -151 151 -153 153 158 159 156 157 -159 -160 -161 161 162 -164 164 -166 -167 -168 -169 169 -171
leaf_value=0.042128471107737896 -0.063179421186218873 -0.074611739653689155 -0.031541995411234522 0.34851820676739442 -0.19280868942188109 0.34685991925851795 0.11327950288022197 0.31750689584014735 0.22905574740842036 0.63796689103225068 -0.072824091973129473 -0.026857404961689861 0.018930184245633024 0.039309986225487897 0.27131813036156455 0.66658534995748342 -0.072890992206944782 0.48559579900964228 0.073539072871160391 -0.02882228243053243 0.025849536415167136 -0.022589237764289054 -0.1902474874180633 0 -0.014183651104854905 0.12530605320337804 0.18614750805292468 0.67878709639498758 0.0029079456749466531 0.34304157414593967 0.015833237352243301 0.11062409601307584 0.30469961181656563 -0.061603504626481516 -0.04420347411949592 0.55053602827458137 -0.018024922536540443 0.49520318176599665 0.13070983944444392 -0.066198349238002829 -0.068289520171489274 -0.11963614720722481 -0.066746495382132245 -0.12714044039734879 0.39950009325185959 0.070572293231383004 0.39746863663775167 0.10234504038435396 -0.16005764923652077 0.47157088752178533 -0.0044877658080506129 0.12859734624802063 0.16315399252181756 -0.18760384256615301 -0.1446068899858618 0.88032417785354111 0.031847544932496107 0.23395868343053514 0.4136820735437417 -0.084209098859402573 -0.018939121089219729 0.72705825835640459 -0.099150876236099181 -0.10158215071447289 0.034657920653631699 -0.2440165055775432 0.46445449202426298 0.15209856315583911 -0.06795045025571575 -0.053019594769132219 0.13562507076630362 0.01448177203879923 0.077564429574016769 0.024509044835412719 0 -0.077254047875680423 0.6906402793965053 0.55852613686466268 -0.11970626673548403 0.097212099265709728 0.03461377924573248 0.38851946922324387 -0.075814724852705226 0.042604297392322715 -0.022021326306643028 -0.07990443192117469 0.059956762018354808 -0.11856432490148867 -0.17544139126010527 0.049117848295528226 0.028723046533729833 0.35186663627334669 0.18835884743227446 0.21667536080143149 -0.1290450223253985 0.51762458136398393 -0.16338971660224752 0.30803500585114213 0.43029709483627504 -0.25022238362108268 -0.074098772831156082 -0.22406100509561661 0.47555289471825896 0.10878838598250221 0.2068913644038386 -0.025728070356300359 0.24031718220469478 0.44742334296015673 0.022734488831767281 -0.063252129831136067 0.4503167815306634 0.20310260563530461 0.17632581997918423 -0.041920698405895712 0.017286928293123206 0.35860728183099166 0.085988259037382317 0.64187490848719697 0.48272751498937833 -0.018771577791961494 0.093551200032542331 -0.18540407992742053 -0.10745535970739102 0.30929563133666715 -0.21542431399860151 0.3974790536863983 -0.07988284965399986 0.18213109644388847 0 0.066691051614948552 0.18024918221867059 0.27449418875507942 0.55700629945239133 0 0.4997287141368994 0.45284835514918803 -0.032129952149920052 0.060886146589788151 -0.034165057868452316 0.60675921423931989 0.061950777518943796 -0.081086524104372254 -0.10770514705486932 0 0.50422709652962749 0 0.78934650090362746 0.20335370400332514 -0.23408004814402633 0.27372231342914405 0.35107746180411015 0.091883550475282613 0 -0.098910961562023406 0.50583300692458477 -0.11223731169609459 0.65143691050367425 0 0.020794129937637823 0.025198589371900695 0.00021563194668865481 -0.052606408101183201 -0.15423042504450321 -0.067639084494628285 0.20126518082939948 0.49091314543877806 0.16086616361042144 -0.19517833117612893 0 0.57450988743541143
leaf_weight=46.362928219139576 35.53662072122097 2937.8140133917332 39.929039552807808 25.849773146212101 8.9585174024105054 2.3435031399130812 41.449504185467958 158.61613246798515 77.037080243229866 5.2675575166940671 5.5949434638023376 31.991150505840778 1298.7468251362443 15.756976030766962 44.467924930155277 2.2341449111700049 18.132872313261032 14.250177487730982 28.34743820130825 3.530503198504447 422.66234578192234 2.4699825495481553 6.4416565522551528 113.88248682394624 48.863954931497574 10.218000195920469 134.65573748201132 11.803691506385801 2.1613448970019844 8.2964441105723363 4.6434094533324233 4.0698085576295844 38.114345706999302 21.090649776160717 19.310248427093033 1.5560852512717236 7.1942486912012091 15.757574215531351 12.926508463919161 6.5142383202910414 26.51819734275341 5.3669415488839141 10.944323115050791 2.6153011694550505 12.482660356909035 323.90308886021376 19.019178755581379 60.47665037214756 21.922486841678619 13.607961118221281 2.2030520439147931 139.62341755628586 265.74488165974617 3.1529601961374274 6.1310904920101157 3.6579377204179755 3.4234654232859612 30.997455582022667 8.5999532938003522 208.86395255476236 1.3816969916224469 8.2241760641336423 5.76986189931631 2216.225992128253 68.364455841481686 8.5619369000196439 4.4390990659594527 112.69428708404303 33.911239057779312 20.510630525648594 197.2492047175765 7.9784599542617789 27.836897559463978 20.235950753092766 2.8533279672265079 9.9003854095935839 11.327557191252707 4.6821189969778052 2.5218541398644447 3.4924924150109282 25.534369260072708 19.587149389088157 165.65807555615902 8.1559203192591649 241.42339961230755 3333.8819055408239 28.515514776110649 46.343011200428009 12.154065087437628 104.8795452862978 343.39092840254307 39.229793362319469 3.3784037381410696 4.7560380101203901 2.8839202076196697 4.0884251222014418 28.255814395844936 3.4662167802453032 12.747225925326349 5.5011453181505203 2.0381580144166946 16.203501611948013 2.4817145094275466 179.82129392772913 50.237862817943096 16.849857568740845 7.613178566098215 20.344860538840294 31.953136429190636 22.125560253858566 8.6393224820494634 155.04587119817734 45.690627560019493 12.309126794338225 8.3871409818530065 88.281525254249573 8.7323223203420621 2.5233521312475196 7.5377133190631858 41.217429593205452 52.246161751449108 3.7537215352058411 30.06992568820715 6.5844620019197455 23.350667953491211 2.9080156385898572 6.9330104030668736 4.3939523920416823 2.5802537053823462 36.841984260827303 3.9902887120842951 13.349368158727883 10.671671852469442 4.3086418583989134 6.210701107978819 19.221695311367512 13.259355947375299 61.38415440171957 3.4743204563856116 4.4754624962806702 153.52637104690075 1.9876123517751692 28.666540421545506 1.7807312384247778 6.4722451269626617 3.8046308755874625 4.9146815314888936 6.5609041526913643 7.0973640382289886 57.909984901547432 9.9371054917573911 123.73805217444897 28.902980796992779 408.703687466681 4.1210439428687078 2.5761526674032194 5.1593292057514191 1.9438216611742971 48.919995822012424 6.9929865598678589 426.26001778244972 209.58782364428043 68.850327350199223 20.320455573499203 26.927294909954071 2.1061436235904685 8.4214774146676046 40.533964797854424 3.0647842288017264 1.8135399445891378
leaf_count=624 411 40595 437 145 94 30 358 641 351 72 74 316 15771 152 312 12 146 166 361 42 5066 30 73 1170 479 99 1330 120 20 83 50 41 461 264 220 18 84 174 156 80 271 57 124 24 146 3925 231 740 264 116 23 1375 1254 18 26 27 27 204 71 2809 13 87 51 31525 488 62 26 797 257 147 1366 32 283 190 28 100 112 43 24 35 260 183 2009 86 3335 47358 344 575 153 1268 4175 462 42 57 35 54 347 43 156 65 27 201 24 849 235 79 37 98 145 100 43 725 212 57 42 407 106 32 94 520 661 18 374 70 288 36 86 41 29 400 46 154 119 56 63 196 136 601 33 46 1579 19 349 26 60 46 59 79 77 249 46 556 356 5069 45 32 63 24 603 76 5139 2551 835 245 309 26 102 494 35 22
internal_value=0 -0.0351728 -0.0643964 0.147998 0.0632895 -0.0747722 -0.00670297 0.175377 0.230879 -0.0447458 0.249102 0.117648 0.0414495 0.0669031 0.158832 0.134865 0.106556 0.0801822 0.0913675 0.380341 0.058579 0.106168 0.135188 0.120916 0.0959406 0.153093 0.224187 0.402159 0.105878 0.21895 0.39492 0.555397 0.0378262 0.120518 0.180531 0.0165343 0.251363 0.147961 0.0604141 0.214568 0.075641 0.193443 0.209847 0.398038 0.169724 0.0789784 0.0925248 0.178458 -0.026909 0.121689 0.0980265 0.0988841 0.155144 0.125605 0.171864 0.26165 0.538967 0.1873 0.174243 -0.0606847 0.521901 0.600715 0.193154 -0.0820918 0.11341 0.031424 0.0683197 0.129301 0.0804465 0.119401 0.162094 0.30393 0.212767 0.263933 0.203057 0.299892 0.480334 0.0906844 0.319183 0.57339 0.121338 0.208869 -0.0374298 0.296145 -0.0706665 -0.0885999 0.00916667 -0.0872869 0.0354051 0.0309044 0.0573289 0.0976782 0.183604 0.272827 0.0537765 0.0241138 0.0224599 -0.0586115 0.256366 -0.0222355 0.319246 -0.141155 0.0642956 0.17427 0.138197 0.19356 0.216752 0.283101 0.120684 0.0890944 0.262771 0.200236 0.231036 0.184179 0.283617 0.330775 0.0517551 0.261841 0.034983 0.0812889 0.1516 0.0857894 0.021617 0.031178 -0.0388388 -0.126785 0.0720669 -0.10918 0.13061 0.161777 0.247424 0.115532 0.45732 0.33209 0.118619 0.173706 0.282691 0.106023 0.109725 0.338725 0.0793888 0.35112 -0.0293042 0.498804 0.374112 0.322599 0.408549 0.506276 -0.0717961 0.184175 0.157825 0.114476 -0.0449061 -0.0719053 -0.0311127 0.0879178 0.321653 0.489609 -0.0858169 0.240156 -0.0345754 -0.0211164 -0.0544887 -0.0267759 0.0838996 0.00402168 -0.0799355 -0.0908362 -0.0643299 0.251909
internal_weight=0 14612 11269 2253.71 3343.01 10445 338.287 1915.43 435.217 267.87 12.6432 955.27 2387.74 824.008 1480.21 70.4165 68.1823 506.986 471.45 17.7807 780.508 233.926 193.997 946.311 537.19 409.121 160.747 26.0915 248.374 50.2414 16.4106 15.8735 546.582 87.2656 66.1749 20.8663 45.3086 187.555 65.8575 24.2644 198.133 121.698 116.331 18.3729 97.9579 453.669 403.399 79.4958 50.2699 423.307 321.079 171.615 1454.36 531.431 922.929 41.2318 7.0814 34.1504 50.0495 255.227 11.7672 10.3855 102.228 8729.35 490.199 81.3655 72.8036 408.833 167.116 133.205 241.717 166.595 96.4585 68.6216 55.0137 34.7777 17.6734 17.1044 7.20397 14.82 33.8308 43.5 1715.67 27.7431 3179.24 5550.11 234.805 48.6865 186.118 1880.75 582.003 238.612 78.6617 49.487 159.951 29.1747 140.011 23.0481 19.9398 10.2572 6.12658 19.5819 107.361 916.798 324.489 592.309 122.542 70.5827 51.9594 201.947 20.0062 575.459 309.714 167.355 142.359 96.6687 173.964 11.2557 162.709 101.001 59.7839 11.3669 459.317 429.247 61.7072 33.1917 9.84103 32.6498 85.4753 74.5309 37.6889 24.437 13.2519 17.0559 272.215 110.49 40.4308 70.0595 21.2091 7.94978 161.725 8.19831 41.593 7.04829 8.6753 17.7502 13.9456 11.4756 11.0877 268.622 210.712 133.675 1480.86 496.206 984.658 38.5823 9.6793 7.10315 457.624 11.114 973.544 754.052 325.686 256.836 47.2478 428.366 219.492 211.07 170.536 4.87832
internal_count=206190 191920 153410 14270 38510 143773 4192 10078 1875 3605 172 9546 28964 9637 8203 587 575 6140 5729 208 9216 2659 2222 9452 5387 4065 1590 260 2475 513 170 161 6557 1047 783 238 545 2149 799 294 1962 1350 1293 198 1095 5521 4896 971 625 4217 3235 1691 8058 3731 4327 276 54 222 429 3433 120 107 982 122813 3455 576 514 2879 1201 944 1678 673 931 648 532 342 175 167 67 147 343 421 20960 269 43930 78883 2925 605 2320 22824 7053 2878 951 584 1927 367 1680 286 247 122 81 243 1292 4301 1525 2776 576 333 243 949 98 2697 1443 782 661 449 2167 138 2029 1275 755 55 5510 5136 754 410 122 388 949 825 425 277 148 212 2756 1095 411 684 215 79 1661 82 505 98 83 214 168 138 123 1202 953 602 18035 6147 11888 475 119 87 5672 121 11767 9105 3940 3105 554 5165 2662 2560 2066 57
is_linear=0
shrinkage=0.287406


end of trees

feature_importances:
cat__postalAddress_clean=46
cat__shopID=46
price_lst_01_sum=41
price=36
income=33
hist_price_avg=27
price_lst_06_sum=23
age=22
price_lst_03_sum=14
hist_price_sum=13
hist_default_avg=12
price_lst_03_avg=12
money_lost_lst_09_sum=12
money_lost_lst_03_avg=10
money_lost_lst_01_sum=9
cat__sex=9
cat__residentialAddress_clean=9
late_payment_first_lst_03_sum=8
money_lost_lst_09_avg=8
hist_late_avg=7
late_payment_first_lst_03_avg=7
money_lost_lst_06_sum=7
late_payment_first_lst_06_avg=7
price_lst_09_sum=7
late_payment_first_lst_09_avg=6
money_lost_lst_06_avg=5
cat__geo_risk_rank=5
money_lost_lst_03_sum=4
late_payment_first_lst_06_sum=4
price_lst_06_avg=4
defualted_payment_lst_09_avg=4
late_payment_first_lst_12_avg=4
hist_trans_count=3
defualted_payment_lst_06_avg=3
late_payment_first_lst_09_sum=3
price_lst_09_avg=3
price_lst_12_sum=3
cat__same_address=3
hist_default_sum=2
late_payment_first_lst_01_sum=2
defualted_payment_lst_03_sum=2
late_lst_03_sum=2
defualted_payment_lst_03_avg=2
defualted_payment_lst_06_sum=2
late_lst_06_avg=2
default_lst_09_avg=2
late_lst_09_avg=2
money_lost_lst_12_sum=2
default_lst_03_sum=1
default_lst_06_sum=1
default_lst_06_avg=1
default_lst_09_sum=1
defualted_payment_lst_09_sum=1
late_lst_09_sum=1
late_lst_12_sum=1
late_payment_first_lst_12_sum=1
default_lst_12_avg=1
defualted_payment_lst_12_avg=1
money_lost_lst_12_avg=1

parameters:
[boosting: gbdt]
[objective: binary]
[metric: auc,average_precision,binary_logloss]
[tree_learner: serial]
[device_type: cpu]
[linear_tree: 0]
[data: ]
[valid: ]
[num_iterations: 300]
[learning_rate: 0.287406]
[num_leaves: 171]
[num_threads: 0]
[deterministic: 1]
[force_col_wise: 0]
[force_row_wise: 0]
[histogram_pool_size: -1]
[max_depth: 16]
[min_data_in_leaf: 16]
[min_sum_hessian_in_leaf: 0.001]
[bagging_fraction: 0.651104]
[pos_bagging_fraction: 1]
[neg_bagging_fraction: 1]
[bagging_freq: 1]
[bagging_seed: 22734]
[feature_fraction: 0.80329]
[feature_fraction_bynode: 1]
[feature_fraction_seed: 5052]
[extra_trees: 0]
[extra_seed: 5559]
[early_stopping_round: 15]
[first_metric_only: 0]
[max_delta_step: 0]
[lambda_l1: 0.448112]
[lambda_l2: 0.961008]
[linear_lambda: 0]
[min_gain_to_split: 0]
[drop_rate: 0.1]
[max_drop: 50]
[skip_drop: 0.5]
[xgboost_dart_mode: 0]
[uniform_drop: 0]
[drop_seed: 23992]
[top_rate: 0.2]
[other_rate: 0.1]
[min_data_per_group: 100]
[max_cat_threshold: 32]
[cat_l2: 10]
[cat_smooth: 10]
[max_cat_to_onehot: 4]
[top_k: 20]
[monotone_constraints: ]
[monotone_constraints_method: basic]
[monotone_penalty: 0]
[feature_contri: ]
[forcedsplits_filename: ]
[refit_decay_rate: 0.9]
[cegb_tradeoff: 1]
[cegb_penalty_split: 0]
[cegb_penalty_feature_lazy: ]
[cegb_penalty_feature_coupled: ]
[path_smooth: 0]
[interaction_constraints: ]
[verbosity: 1]
[saved_feature_importance_type: 0]
[max_bin: 255]
[max_bin_by_feature: ]
[min_data_in_bin: 3]
[bin_construct_sample_cnt: 200000]
[data_random_seed: 2213]
[is_enable_sparse: 1]
[enable_bundle: 1]
[use_missing: 1]
[zero_as_missing: 0]
[feature_pre_filter: 0]
[pre_partition: 0]
[two_round: 0]
[header: 0]
[label_column: ]
[weight_column: ]
[group_column: ]
[ignore_column: ]
[categorical_feature: ]
[forcedbins_filename: ]
[objective_seed: 29849]
[num_class: 1]
[is_unbalance: 0]
[scale_pos_weight: 1]
[sigmoid: 1]
[boost_from_average: 1]
[reg_sqrt: 0]
[alpha: 0.9]
[fair_c: 1]
[poisson_max_delta_step: 0.7]
[tweedie_variance_power: 1.5]
[lambdarank_truncation_level: 30]
[lambdarank_norm: 1]
[label_gain: ]
[eval_at: ]
[multi_error_top_k: 1]
[auc_mu_weights: ]
[num_machines: 1]
[local_listen_port: 12400]
[time_out: 120]
[machine_list_filename: ]
[machines: ]
[gpu_platform_id: -1]
[gpu_device_id: -1]
[gpu_use_dp: 0]
[num_gpu: 1]

end of parameters

pandas_categorical:null
