tree
version=v3
num_class=1
num_tree_per_iteration=1
label_index=0
max_feature_idx=45
objective=binary sigmoid:1
feature_names=age income price hist_trans_count hist_default_sum hist_default_avg hist_late_sum hist_late_avg hist_price_sum hist_price_avg default_lst_01_sum late_lst_01_sum price_lst_01_sum default_lst_01_avg late_lst_01_avg price_lst_01_avg default_lst_03_sum late_lst_03_sum price_lst_03_sum default_lst_03_avg late_lst_03_avg price_lst_03_avg default_lst_06_sum late_lst_06_sum price_lst_06_sum default_lst_06_avg late_lst_06_avg price_lst_06_avg default_lst_09_sum late_lst_09_sum price_lst_09_sum default_lst_09_avg late_lst_09_avg price_lst_09_avg default_lst_12_sum late_lst_12_sum price_lst_12_sum default_lst_12_avg late_lst_12_avg price_lst_12_avg cat__sex cat__residentialAddress_clean cat__postalAddress_clean cat__geo_risk_rank cat__shopID cat__same_address
feature_infos=[5:89] [0:100000] [3:200] [1:14] [0:9] [0:1] [0:10] [0:1] [3:1763] [3:200] [0:1] [0:1] [3:200] [0:1] [0:1] [3:200] [0:3] [0:3] [3:599] [0:1] [0:1] [3:200] [0:6] [0:6] [3:1094] [0:1] [0:1] [3:200] [0:8] [0:9] [3:1487] [0:1] [0:1] [3:200] [0:9] [0:10] [3:1763] [0:1] [0:1] [3:200] [1:3] [1:13260] [1:13261] [0:5] [100:999] [0:1]
tree_sizes=13222 13390 13439 13438 13529 13393 13453 13543

Tree=0
num_leaves=126
num_cat=0
split_feature=45 5 40 42 40 31 5 42 5 30 42 42 5 40 42 22 40 22 5 2 5 5 30 40 30 2 20 3 16 5 29 44 1 24 0 5 42 24 42 1 1 2 43 42 44 3 1 42 2 20 0 27 1 1 18 18 0 44 1 18 22 42 27 24 42 18 30 2 1 18 24 1 42 42 33 33 0 33 0 44 44 44 21 44 24 7 30 42 2 2 1 24 44 21 1 30 36 2 3 18 1 42 21 42 0 2 42 1 2 2 2 18 18 1 7 1 42 44 2 2 1 24 44 42 2
split_gain=12808 5173.3 1994.2 1757.07 647.77 505.515 412.427 310.737 153.507 133.393 130.525 82.9464 79.4058 76.1829 53.5764 42.7143 36.8066 35.2071 27.6973 24.5238 24.0381 23.6121 23.5176 22.6461 16.2784 15.6011 14.8562 14.5147 14.122 12.7718 12.1672 19.9852 16.7022 12.075 11.6228 18.3638 17.8244 15.5472 11.0587 14.7879 13.2018 10.7924 17.9955 10.7524 11.9546 10.5726 10.4599 13.8349 10.1557 9.6786 9.67849 10.0364 9.44309 8.91544 8.84642 8.78786 8.51243 8.50508 10.8987 8.27446 7.98524 7.86225 7.50953 7.0632 6.92322 6.76208 6.75238 10.8199 8.35921 8.08071 6.72486 6.56139 7.33246 7.22553 6.53522 6.91575 6.45244 6.40752 8.67533 8.49497 12.4006 7.5058 7.05167 6.2633 8.11248 6.06121 10.0383 7.54754 6.32049 8.95622 6.33235 5.8986 5.89231 5.61055 7.05151 5.33862 5.13974 4.9166 8.3012 4.91762 4.69788 4.64258 4.60368 4.81558 4.50957 4.44476 4.42 7.90486 4.33648 4.58818 4.28586 4.15807 4.15591 4.04379 4.03076 3.89006 9.33886 3.89503 3.63584 3.61995 3.48796 3.47488 7.39789 5.72714 6.27847
threshold=1.0000000180025095e-35 0.37980769230769235 1.5000000000000002 153.50000000000003 1.5000000000000002 0.18333333333333338 0.095454545454545472 153.50000000000003 0.13392857142857145 199.50000000000003 153.50000000000003 152.50000000000003 0.78888888888888908 1.5000000000000002 152.50000000000003 2.5000000000000004 1.5000000000000002 1.5000000000000002 0.26136363636363641 9.5000000000000018 0.43650793650793657 0.19090909090909094 288.50000000000006 1.5000000000000002 193.50000000000003 6.5000000000000009 0.58333333333333337 3.5000000000000004 1.5000000000000002 0.43650793650793657 2.5000000000000004 600.50000000000011 84350.000000000015 189.50000000000003 38.500000000000007 0.68333333333333346 2001.5000000000002 675.50000000000011 1138.5000000000002 32950.000000000007 36350.000000000007 197.50000000000003 2.5000000000000004 499.50000000000006 496.50000000000006 7.5000000000000009 78750.000000000015 10866.500000000002 18.500000000000004 0.58333333333333337 25.500000000000004 74.77500000000002 11750.000000000002 18550.000000000004 17.500000000000004 253.50000000000003 49.500000000000007 722.50000000000011 16850.000000000004 257.50000000000006 1.5000000000000002 562.50000000000011 121.08333333333336 199.50000000000003 4839.5000000000009 148.50000000000003 498.50000000000006 7.5000000000000009 21950.000000000004 472.50000000000006 106.50000000000001 12650.000000000002 12590.500000000002 9378.5000000000018 109.05555555555557 127.05555555555557 51.500000000000007 113.05555555555557 69.500000000000014 412.50000000000006 488.50000000000006 962.50000000000011 100.16666666666667 878.50000000000011 435.50000000000006 0.81666666666666676 311.50000000000006 1352.5000000000002 67.500000000000014 68.500000000000014 49350.000000000007 296.50000000000006 627.50000000000011 88.833333333333357 51750.000000000007 435.50000000000006 870.50000000000011 28.500000000000004 1.5000000000000002 48.500000000000007 8450.0000000000018 4077.5000000000005 181.16666666666671 3941.5000000000005 57.500000000000007 105.50000000000001 3245.5000000000005 72350.000000000015 135.50000000000003 140.50000000000003 160.50000000000003 263.50000000000006 12.500000000000002 83950.000000000015 0.22649572649572652 98350.000000000015 2117.5000000000005 518.50000000000011 132.50000000000003 125.50000000000001 48150.000000000007 161.50000000000003 432.50000000000006 5510.5000000000009 171.50000000000003
decision_type=2 10 2 2 2 8 10 2 10 10 2 2 10 2 2 10 2 10 8 2 10 10 10 2 10 2 10 10 10 10 10 2 10 10 2 10 2 10 2 10 10 2 2 2 2 10 8 2 2 10 2 8 8 10 8 10 2 2 10 10 10 2 10 10 2 10 10 2 10 10 8 10 2 2 10 8 2 10 2 2 2 2 10 2 10 10 10 2 2 2 10 10 2 10 10 10 10 2 10 8 8 2 10 2 2 2 2 8 2 2 2 10 10 8 10 8 2 2 2 2 10 8 2 2 2
left_child=1 3 8 11 10 9 24 14 27 23 15 -1 29 38 -6 28 21 41 95 92 76 108 -22 61 33 -11 52 121 59 -9 32 -32 -27 54 50 37 -37 -36 -7 -40 -41 43 -43 62 49 85 47 53 -46 -45 65 -52 -18 -35 56 -44 -4 58 -25 -3 66 -5 63 -8 -48 -21 71 74 118 -70 -54 72 73 -10 -68 -76 -12 78 106 82 105 -82 -79 101 -85 88 87 -87 90 -90 -26 -23 -19 94 114 -15 102 98 -56 -99 -74 -73 115 -104 -64 -81 110 -108 -13 -110 -62 -78 -58 -88 -47 117 -117 -29 -69 -84 -59 -2 123 124 -123
right_child=2 4 6 5 7 13 17 12 60 25 20 16 -14 18 -16 -17 26 19 -20 34 22 91 -24 57 45 30 -28 96 -30 -31 31 -33 -34 46 35 36 -38 -39 39 40 -42 42 55 44 48 93 64 -49 -50 -51 51 -53 70 -55 97 -57 112 120 -60 -61 77 -63 104 -65 -66 -67 67 68 69 -71 -72 83 100 -75 75 -77 111 79 -80 80 81 -83 119 84 -86 86 113 -89 89 -91 -92 -93 -94 -95 -96 -97 -98 99 -100 -101 -102 -103 103 -105 -106 -107 107 -109 109 -111 -112 -113 -114 -115 -116 116 -118 -119 -120 -121 -122 122 -124 -125 -126
leaf_value=-1.8435655460173677 -2.3652462008648074 -2.0649487243243865 -2.4022217298230348 -2.1272434801566695 -1.2690256147768926 -1.5458554047572071 -2.2893291935223585 -1.6454687848216096 -2.2862324126032512 -1.7494515323664388 -1.5858321002210825 -2.3878108009649051 -0.87853565726843841 -2.015160869087075 -2.0116130364500067 -1.4630666210977106 -2.346346031301966 -1.7201380728888429 -1.3525837982751328 -2.3256300283381708 -1.5275663220556135 -2.3470993125324284 -1.3940081262519644 -2.0074805447934283 -2.309021255963116 -2.0510000031133466 -2.3949445769828404 -2.3769807912031125 -1.7909538136238239 -1.1525250421583566 -2.3551665800657506 -2.0455562059317667 -2.2199531950476827 -2.0837320486565081 -2.1357632028470199 -2.2573497716371937 -1.8514108603222323 -1.9779180634807596 -1.6394891936543301 -2.0751093213288323 -1.7613044016801336 -2.2843988512357707 -1.7322106067507925 -2.1500813530945173 -2.2781951662056206 -2.2985321066530964 -1.8645045856287537 -1.9641864276235184 -2.1916251745336948 -2.2292503169598299 -2.0604611265147619 -2.2828268351852441 -2.0225488312257127 -2.3271486066736018 -2.205684595156177 -2.1040907811607279 -2.2116704617017207 -1.8131503000522342 -1.5494486357791584 -2.345387547957531 -2.3865693739592957 -1.8851800413201425 -1.9574097300795492 -2.1142477850072874 -2.2119555568645186 -2.1067317131127288 -2.3468802832750444 -2.4102001465572975 -2.345892267675425 -2.2687348128369043 -2.2010432613582305 -2.318930919428893 -2.279495543753661 -2.3657186764818241 -1.9491577765828203 -2.2673469650251281 -2.0993279367437907 -2.124078691638144 -2.0830678909096645 -1.8908823979487117 -2.274859718951125 -2.0399011469782433 -2.4064744060530856 -2.312256338868679 -2.2011851586268016 -2.1104523159050919 -2.4561654903440817 -2.3118387944723362 -2.1140518933064096 -2.2723171140756135 -2.2747382371164027 -2.1733042618869738 -2.0748781148331084 -2.4117468832271038 -2.4050369205388278 -1.6438704998965086 -2.4121865790776611 -2.226412054606671 -2.2839465813437099 -2.2652324785132412 -2.0074805447934279 -2.3424071117266383 -2.1555469479567488 -2.3549165693537262 -2.2119555568645186 -2.2018107895346213 -2.2773994618187832 -2.3740664114514862 -2.2147487655984648 -2.3519770522432095 -2.271107580890777 -1.7835858158120517 -2.3506175232155062 -2.279495543753661 -2.0541997065862079 -2.2705460103443755 -2.3760865885179117 -2.3886215830253268 -2.3469692888800866 -2.2837644403314785 -2.1305853704578568 -2.3776308232227845 -2.3681335441905018 -2.3906124744222805 -2.3390914073031386
leaf_weight=11.359906278550623 3059.7949020788074 13.349962852895269 27.529115945100784 6.8822789862751952 3.8971941247582444 24.046516939997673 10.199039943516253 5.9701697230339041 187.31407506018877 4.2288702204823485 13.930396020412447 205.22458422929049 94.113092161715031 4.7263843640685064 15.174181379377842 5.3068175315856925 12.437853589653967 6.3847648426890355 39.303617343306541 4.5605463162064543 160.11663521081209 7.7114692255854598 157.04863132536411 3.8971941247582498 359.7856448367238 148.59089088439941 15.091262355446814 1970.0730895772576 5.5555746033787718 77.860963471233845 14.510829187929632 11.940339446067808 24.461112059652805 5.6384936273098019 152.23932793736458 4.9751414358615902 17.993428193032742 25.704897418618202 65.008514761924744 6.7993599623441687 110.28230182826519 6.5506028905510929 5.3068175315856916 440.88045024126768 50.912280693650246 4.477627292275427 5.1409794837236387 5.223898507654666 575.20926900953054 63.184296235442162 7.7943882495164862 35.157666146755219 7.8773072734475127 21.558946222066879 140.13315044343472 5.970169723033905 18.656780384480953 3.8971941247582427 16.252128690481186 4.0630321726202956 51.078118741512299 129.1049202606082 14.925424307584764 40.298645630478859 4.0630321726202965 60.447968445718288 5.3068175315856925 93.366820946335793 423.63329326361418 49.585576310753822 68.159437671303749 475.62352126836777 4.7263843640685055 47.098005592823029 4.0630321726202938 5.2238985076546678 4.0630321726202956 3.8971941247582427 4.311789244413375 3.8971941247582427 57.462883584201336 4.2288702204823485 20.978513054549694 157.29738839715719 24.709869131445885 6.5506028905510894 20.646836958825592 38.225670032203197 11.359906278550623 1462.1940679997206 357.29807411879301 26.45116863399744 4.6434653401374817 30.597119830548763 7.1310360580682746 6.3847648426890373 208.29258811473846 122.05680322647095 69.237384982407093 1240.2198409363627 3.8971941247582444 730.35076278448105 5.3897365555167225 10.696554087102411 4.0630321726202956 3.8971941247582436 98.424881406128407 38.64026515185833 7.9602262973785392 95.854391664266586 12.520772613584993 8.0431453213095647 10.364877991378309 4.7263843640685073 3.98011314868927 34.825990051031113 126.53443051874638 2267.0890332981944 51.99022800475359 11.608663350343702 3.98011314868927 992.20904035866261 3953.6619800552726 1175.7088403180242 173.46659806370735
leaf_count=137 36901 161 332 83 47 290 123 72 2259 51 168 2475 1135 57 183 64 150 77 474 55 1931 93 1894 47 4339 1792 182 23759 67 939 175 144 295 68 1836 60 217 310 784 82 1330 79 64 5317 614 54 62 63 6937 762 94 424 95 260 1690 72 225 47 196 49 616 1557 180 486 49 729 64 1126 5109 598 822 5736 57 568 49 63 49 47 52 47 693 51 253 1897 298 79 249 461 137 17634 4309 319 56 369 86 77 2512 1472 835 14957 47 8808 65 129 49 47 1187 466 96 1156 151 97 125 57 48 420 1526 27341 627 140 48 11966 47681 14179 2092
internal_value=-2.29853 -1.80761 -2.33544 -2.04254 -1.36135 -1.8432 -2.24022 -1.09059 -2.36716 -1.98198 -1.50736 -2.31443 -1.01492 -1.64604 -1.82218 -1.90459 -2.32729 -2.15982 -1.43366 -2.10541 -1.47575 -2.35616 -1.45918 -1.85893 -2.27134 -2.08258 -2.2323 -2.37472 -2.03321 -1.18059 -2.09203 -2.21355 -2.07417 -2.25757 -2.11617 -2.08944 -1.93324 -2.11139 -1.70135 -1.72533 -1.77753 -2.17427 -2.03206 -2.17659 -2.18115 -2.28133 -2.16077 -2.21545 -2.19856 -2.1598 -2.16746 -2.2379 -2.20347 -2.2734 -2.26014 -1.89958 -2.33043 -1.69655 -1.62148 -2.1318 -2.3261 -1.89605 -2.10524 -2.14811 -1.99447 -2.12285 -2.32988 -2.34598 -2.34974 -2.33768 -2.17932 -2.32358 -2.29603 -2.30221 -2.19503 -2.1073 -1.6983 -2.29853 -2.31749 -2.26229 -2.22489 -2.25497 -2.33248 -2.32843 -2.29704 -2.27953 -2.33195 -2.28046 -2.27783 -2.27097 -2.29199 -2.21392 -1.84063 -2.36701 -2.28043 -1.76851 -2.38319 -2.25757 -2.23122 -2.26168 -2.13786 -2.3332 -2.38179 -2.28689 -2.00407 -2.01795 -2.32357 -2.30464 -2.3722 -2.3405 -2.36315 -1.86733 -2.26273 -2.42213 -2.17085 -2.38215 -2.35303 -2.38323 -2.38826 -2.36224 -1.93834 -2.37052 -2.37307 -2.38137 -2.37196
internal_weight=0 1650.92 22067.1 1082.42 568.493 624.297 5514.2 197.016 16552.9 367.746 371.477 458.128 177.944 256.551 19.0714 28.2754 446.768 1537.4 50.4148 319.902 343.202 343.202 317.165 164.014 3976.8 203.732 103.566 13977.7 22.9686 83.8311 199.503 26.4512 173.052 1669.82 308.873 200.913 22.9686 177.944 206.137 182.09 117.082 1217.5 17.8276 1199.67 1130.19 2306.97 41.6254 32.4213 626.122 504.065 107.961 42.9521 88.4746 27.1974 1628.2 11.277 56.5508 28.0266 20.1493 17.413 2575.13 135.987 69.4861 50.4977 9.20401 65.0085 2264.19 633.17 618.576 473.219 76.0367 1631.02 243.036 234.412 14.5937 9.28693 26.0366 310.946 204.976 105.971 69.4861 61.6918 36.4844 1387.98 182.007 2260.79 70.1495 44.7763 2190.64 1473.55 717.084 34.1626 11.0282 46.1859 15.5888 11.1111 4622.9 1571.65 209.371 1362.28 8.62358 1205.97 4414.61 16.0863 18.9885 7.79439 200.664 137.065 309.039 103.815 63.5989 12.1062 29.0217 25.3732 8.45774 4398.52 161.36 4237.16 145.357 32.5872 7.87731 9354.84 6295.05 2341.38 1165.68
internal_count=286038 19910 266128 13054 6856 7529 66501 2376 199627 4435 4480 5525 2146 3094 230 341 5388 18541 608 3858 4139 4139 3825 1978 47960 2457 1249 168571 277 1011 2406 319 2087 20138 3725 2423 277 2146 2486 2196 1412 14683 215 14468 13630 27822 502 391 7551 6079 1302 518 1067 328 19636 136 682 338 243 210 31056 1640 838 609 111 784 27306 7636 7460 5707 917 19670 2931 2827 176 112 314 3750 2472 1278 838 744 440 16739 2195 27265 846 540 26419 17771 8648 412 133 557 188 134 55752 18954 2525 16429 104 14544 53240 194 229 94 2420 1653 3727 1252 767 146 350 306 102 53046 1946 51100 1753 393 95 112819 75918 28237 14058
is_linear=0
shrinkage=1


Tree=1
num_leaves=126
num_cat=0
split_feature=45 40 31 5 5 5 3 22 22 3 3 44 30 12 6 0 30 18 6 2 30 0 12 30 0 30 2 30 1 2 31 12 1 41 3 12 18 44 40 2 2 18 30 0 12 41 1 12 9 1 9 2 12 41 9 12 1 12 40 6 26 43 36 0 30 21 2 18 1 18 40 1 1 2 44 44 19 9 44 9 2 1 1 12 44 41 41 44 2 41 1 2 2 9 0 2 12 44 18 44 30 9 18 3 36 44 20 7 27 43 0 1 0 27 44 30 41 41 41 1 43 2 43 44 44
split_gain=5079.06 1385.94 842.552 222.776 119.909 83.0323 71.3897 24.9862 15.2024 13.8065 12.0452 10.903 10.0828 9.46298 9.06685 9.085 9.04036 20.6136 8.95023 12.5206 10.5521 8.88601 16.0898 8.64998 8.59542 12.781 8.51382 8.49 10.3193 7.77887 7.72928 13.3493 9.77417 8.64708 7.44747 7.52795 7.57494 10.9148 7.30736 7.29446 12.7867 7.13582 7.00262 6.91993 6.84128 6.7959 10.3865 6.70458 7.39154 9.31662 10.3628 8.26687 6.13894 6.13268 6.10112 9.93098 8.62749 6.58724 6.08773 11.3213 6.04309 8.15329 10.6045 11.8201 8.14516 9.51746 6.98058 6.04769 5.98861 6.85009 5.90431 9.67216 9.08532 8.88827 6.83889 8.84083 8.67094 6.24604 5.86524 5.82268 5.89134 5.79399 5.74174 5.74052 5.62332 5.9647 5.52721 5.48576 5.26415 5.24917 5.15908 4.95026 4.92071 6.5558 4.9092 4.90141 4.85333 4.84953 4.76806 4.70113 7.76898 4.63009 4.59058 7.22064 4.50413 4.85797 5.64149 7.00995 4.45227 4.41896 7.168 5.59879 4.41861 4.23305 6.20363 4.6976 4.41252 5.84148 5.37764 4.19571 5.17152 5.37496 4.53265 4.16772 4.11927
threshold=1.0000000180025095e-35 1.5000000000000002 0.18333333333333338 0.095454545454545472 0.13392857142857145 0.37980769230769235 2.5000000000000004 3.5000000000000004 1.5000000000000002 1.5000000000000002 3.5000000000000004 172.50000000000003 193.50000000000003 17.500000000000004 2.5000000000000004 39.500000000000007 474.50000000000006 409.50000000000006 1.5000000000000002 14.500000000000002 127.50000000000001 38.500000000000007 198.50000000000003 103.50000000000001 35.500000000000007 432.50000000000006 9.5000000000000018 547.50000000000011 39950.000000000007 8.5000000000000018 0.41428571428571431 79.500000000000014 5050.0000000000009 1683.5000000000002 7.5000000000000009 198.50000000000003 385.50000000000006 667.50000000000011 2.5000000000000004 155.50000000000003 64.500000000000014 136.50000000000003 189.50000000000003 56.500000000000007 188.50000000000003 10953.500000000002 78750.000000000015 46.500000000000007 159.10000000000002 65950.000000000015 120.52777777777779 92.500000000000014 164.50000000000003 3377.5000000000005 123.52777777777779 173.50000000000003 15250.000000000002 106.50000000000001 1.5000000000000002 1.0000000180025095e-35 0.22500000000000003 3.5000000000000004 852.50000000000011 29.500000000000004 199.50000000000003 75.166666666666671 57.500000000000007 544.50000000000011 93550.000000000015 429.50000000000006 1.5000000000000002 26150.000000000004 21450.000000000004 125.50000000000001 244.50000000000003 582.50000000000011 0.41666666666666669 147.29166666666671 941.50000000000011 177.16666666666671 82.500000000000014 4250.0000000000009 4650.0000000000009 8.5000000000000018 208.50000000000003 437.50000000000006 1980.5000000000002 768.50000000000011 45.500000000000007 11280.500000000002 8850.0000000000018 152.50000000000003 63.500000000000007 94.522727272727295 47.500000000000007 45.500000000000007 20.500000000000004 496.50000000000006 150.50000000000003 384.50000000000006 88.500000000000014 100.05000000000001 117.50000000000001 2.5000000000000004 852.50000000000011 304.50000000000006 0.58333333333333337 0.58571428571428574 74.291666666666671 1.5000000000000002 26.500000000000004 79150.000000000015 52.500000000000007 158.08333333333334 585.50000000000011 498.50000000000006 10316.500000000002 9944.5000000000018 10757.500000000002 9250.0000000000018 1.0000000180025095e-35 79.500000000000014 3.5000000000000004 708.50000000000011 905.50000000000011
decision_type=2 2 8 10 10 10 10 10 10 10 10 2 10 8 10 2 10 10 10 2 10 2 8 10 2 8 2 10 10 2 10 10 8 2 10 10 10 2 2 2 2 8 10 2 10 2 8 10 10 8 10 2 10 2 10 10 10 10 2 10 10 2 10 2 10 10 2 10 8 10 2 8 10 2 2 2 10 10 2 10 2 8 10 10 2 2 2 2 2 2 8 2 2 10 2 2 10 2 10 2 10 10 10 10 10 2 10 8 10 2 2 8 2 10 2 10 2 2 2 10 2 2 2 2 2
left_child=2 4 6 12 10 16 9 70 21 58 -2 14 13 81 15 -8 17 41 20 101 -13 22 24 99 29 -26 -10 28 -25 -5 31 98 -32 -33 35 68 53 -38 78 40 -17 -4 102 -34 91 46 -44 -18 49 50 -49 -51 -29 -37 55 109 82 -58 119 92 61 62 64 -64 -6 -66 -65 113 87 -70 71 72 77 -74 76 -76 -73 -7 -22 84 -81 -3 -56 86 90 -86 -83 -14 -59 -85 -63 -43 -60 -94 -61 -21 -97 -40 -28 100 -23 -20 103 -15 -12 106 -106 -108 -36 110 -11 -111 -110 116 115 -115 117 -62 -118 122 121 -121 123 -1 -9
right_child=1 3 5 8 60 7 11 124 26 54 104 18 34 42 -16 39 47 -19 19 95 38 23 -24 27 25 -27 30 52 -30 -31 32 33 43 -35 108 36 37 -39 97 -41 -42 44 45 -45 -46 -47 -48 48 -50 51 -52 -53 -54 -55 56 -57 57 88 59 94 67 79 63 66 65 -67 -68 -69 69 -71 -72 74 73 -75 75 -77 -78 -79 -80 80 -82 83 -84 89 85 -87 -88 -89 -90 -91 -92 -93 93 -95 -96 96 -98 -99 -100 -101 -102 -103 -104 -105 105 -107 107 -109 112 111 -112 -113 -114 114 -116 -117 118 -119 -120 120 -122 -123 -124 -125 -126
leaf_value=0.085993522134645672 -0.06283859412582235 0.14865247466382417 0.12412853768386878 -0.024429194111509824 0.028933709147729379 0.27899130998847088 0.033661994400942835 0.43319411406181196 0.26778728873775609 0.16571898580889247 -0.073337516828433827 0.29304951829667797 0.011097357494277881 0.039482472805250024 -0.070362501638044861 0.34275874066045281 0.32883095100632975 0.48688878246674622 0.040084904445877492 -0.094429822892836829 0.047535369006924448 0.14486938618828693 0.43153401452707429 0.12318159562414129 0.38218439551444611 0 -0.092258266907985623 0.06925832167512308 0.074864869570785697 0.10750912591446796 -0.019256979580853831 0.016390179254483554 0.13472068852734184 0.16027489372508963 0.071527897920235964 -0.093219846558741853 0.32582821556701724 -0.0053902099519440739 0.042085912849850061 0.45956484789339613 -0.0054866712451549227 0.25759907312097807 0.009162518282601069 0.21491273410843603 0.054195968518461646 0.28529974116368034 0.22113075307706015 0.025343772295990673 0.3665985437229145 0.35721830998695842 0.18889768826594922 0.14567966489272158 -0.0051025226242888489 0.095111366751873858 0.15524658839721547 -0.0977579825088606 0.35685627644064011 0.28275408675905522 0.15424119521821786 0.1747704561067597 -0.027834557823747351 0.081047009392647043 -0.082024583686085603 0.41032958971980776 -0.068288962743810216 -0.0057781375078665917 0.11191381277623268 0.16088706612783943 -0.027929984713105056 0.085941299991910677 0.36242296143145825 0.22324928663970375 0.057831849828151059 0.28443355909777168 0.28774057576370465 0.35467486616206761 0.43523916960122377 0.4317647440735744 -0.069697647507630342 0.25236866775018313 -0.019308421268073136 0.12425299692615067 -0.095213130363641027 -0.06937099528226405 0.088073665349580749 -0.034400582221282172 -0.0064478139027043455 0.032634204088185417 0.1130166882633442 0.062648533508304641 -0.11501757116157513 0.31692779376600672 0.20517988312068289 0.43024880876040605 -0.050344505343907789 -0.12600267835398776 0.0086098923343320109 0.30738084092819928 0.04587739966500716 -0.025735781126965979 -0.10345664367583129 0.30173239708197641 0.021137407046828031 0.14400335252895957 -0.084887103238148839 -0.11693219147330507 0.1684213763956468 -0.086224603503512381 -0.13954256896517814 0.14716917309912209 -0.0050066075005820157 0.03935540761430209 -0.010671370471096163 -0.087067840457130161 -0.16375693343693809 0.07641245468951581 -0.12307359212161137 0.054889489924850744 -0.041645400492458975 0.203497963854298 0.18350095988830933 -0.016003976924292555 0.2087479602293581 -0.10719366758362527 0.29680504098758115
leaf_weight=9.6000005006790179 8816.9428240284324 6.3261358588933936 14.696925505995749 14.676150001585482 170.86827547848225 114.10992538928986 9.7285489514470154 151.77497527003288 15.467650622129439 10.7957601621747 4097.4655015915632 5.2957733795046797 1524.2023623511195 942.15637086331844 4.9428342357277861 6.0999559089541453 14.560911886394022 15.492614723742006 4.9158954173326475 23.04115404188633 196.84987836331129 15.265342295169832 4.5692309960722914 260.24955898523331 8.1380854547023738 4.4307325482368478 9.2354074716567975 139.00727657228708 375.74260518699884 430.78611087054014 10.158110946416853 17.916040271520615 135.70597442239523 79.614723071455956 6.3458038568496695 7.8228932321071651 8.0909088626503927 4.8895746022462836 4.8972233906388265 4.337062530219554 6.6874940693378448 283.76244007050991 25.738340795040131 58.15281380712986 5.7684201374649993 5.7498795688152304 10.56273018568754 24.86564888805151 6.9590082243084899 13.174300253391268 28.508222930133343 16.330143481492996 49.027333937585354 16.244429774582386 4.6160192191600782 8.005173631012438 7.5645494461059561 8.8207339569926244 9.5689443424344045 6.177349776029585 1042.9475420191884 4.1622684299945822 5.5187063589692142 3.8757476434111586 97.376541033387184 489.77031927555799 9.524950943887232 4.5768050476908675 177.20098129659891 18.689515106379986 344.53084736317396 11.357986040413378 13.968693651258947 10.614089243113993 158.52296567708254 211.88911506533623 57.651308983564377 13.90552721172571 14.403235912322996 3.8990793451666814 5.3501917123794556 13.02747508138418 6.1347656697034836 71.384806327521801 12.905339762568472 337.79490306228399 47.043560743331909 539.16394410282373 28.460613027215004 10.73273193836212 44.280937261879444 92.667643316090107 11.323378480970861 13.884144619107245 5.1161850243806839 8.9786180853843671 102.73713548481464 5.1560462489724159 46.395893082022667 38.443905562162399 4.8603691235184661 4.8687050268054008 571.20290669798851 22.282769098877907 37.714358828961849 163.72945767641068 6.9773466885089848 5.8279408290982255 20.705980882048607 74.956528224050999 26.587649419903755 22.795212171971798 16.654302522540092 13.849746122956278 19.366701126098633 8.8563686087727529 32.44620405882597 28.288497611880302 182.15783353149891 4.8398109376430503 142.63166176527739 9.8247789740562421 5.2218391075730315 4.9411754086613646 18.151762172579765
leaf_count=96 112819 75 123 165 2104 782 109 842 133 108 52922 54 18106 10955 61 66 119 123 54 267 2187 164 50 2842 88 48 101 1519 4101 4693 107 186 1420 830 78 93 96 58 53 47 75 2344 302 592 46 54 101 205 56 109 234 136 535 193 49 88 83 94 88 61 12857 51 68 47 1202 6044 118 55 2097 221 1880 77 95 72 1079 1443 389 95 162 48 66 154 68 858 159 4162 556 6401 317 129 549 750 99 121 52 103 1188 56 489 426 52 56 6692 262 498 2163 92 77 267 765 277 239 212 171 236 108 402 351 2258 48 1417 97 54 50 102
internal_value=0 -0.0314811 0.246461 0.0449818 -0.0597508 0.322907 0.0957919 0.351535 0.100177 0.148336 -0.0667617 0.0404927 0.0216383 0.0322549 0.14233 0.183865 0.261081 0.274228 0.0313689 -0.00392184 0.0539929 0.0909073 0.111807 0.0798148 0.107775 0.256398 0.133262 0.0846443 0.0948312 0.103035 0.126732 0.0940206 0.150623 0.13461 0.0137806 0.0152258 0.0962896 0.205093 0.0470449 0.261568 0.168123 0.264853 0.0364132 0.159777 0.269885 0.109888 0.0754059 0.207055 0.184117 0.16492 0.114966 0.248476 0.049715 0.031219 0.111874 0.0903324 0.164526 0.199307 0.180109 0.24349 -0.0231681 -0.0135966 -0.00253637 0.129719 -0.00602548 -0.0162942 0.219494 -0.0316385 0.0138446 -0.0165505 0.338658 0.324284 0.277947 0.163207 0.339744 0.326827 0.403916 0.298503 0.0391154 -0.0344918 0.102227 -0.0116042 0.0121302 -0.0198179 -0.0379617 -0.0295859 0.0224988 0.0167553 0.159386 -0.0511829 -0.0962921 0.272959 0.294846 0.340214 0.0728644 -0.019131 -0.00267277 0.194631 0.021232 0.0109537 0.0812751 0.187195 0.034318 0.042058 -0.0747612 -0.101422 -0.0493119 0.0512916 -0.0601326 0.102289 0.045689 0.122969 -0.084603 -0.0324301 -0.0895832 -0.021136 -0.0304733 -0.0255723 -0.0545607 0.162359 0.172673 0.0606402 0.0747335 0.0155074 0.420335
internal_weight=0 21430.5 2448.07 5784.06 15646.5 1623.26 824.806 1106.48 1717.84 421.866 13128.7 402.94 4066.22 1726.21 31.7959 26.8531 516.786 412.388 371.144 144.542 226.602 1345.2 462.6 882.596 458.031 12.5688 372.647 824.027 635.992 445.462 357.179 153.162 204.017 97.5308 2340.01 2296.3 37.0478 12.9805 221.306 17.1245 12.7874 396.895 1577.69 193.859 382.199 42.051 36.3011 104.398 89.8373 82.8783 53.3739 29.5044 188.035 24.0673 198.737 143.14 55.5967 44.8459 223.129 46.07 2517.82 1185.33 776.935 18.9194 758.015 587.147 13.4007 1332.49 2259.26 195.89 936.55 592.02 152.598 24.5828 439.421 370.412 69.0093 128.015 211.253 408.393 9.24927 148.515 10.7508 142.189 399.143 350.7 60.071 2063.37 37.2813 82.1175 48.4432 376.43 34.7765 25.2075 11.2935 134.757 111.716 10.0533 55.6313 58.5696 20.1257 9.7846 1535.64 964.439 4311.71 214.249 50.5196 12.8053 43.7061 135.135 37.3834 97.7517 37.3603 1327.91 42.0728 22.7061 1285.84 1071.24 214.604 177.059 157.296 14.6646 19.763 14.5412 169.927
internal_count=286038 266128 19910 66501 199627 11101 8809 6856 18541 4271 168571 4538 47960 20138 358 297 4245 3386 4180 1668 2512 14683 5044 9639 4994 136 3858 8997 6943 4858 3725 1606 2119 1016 27822 27265 440 154 2458 188 141 3263 18366 2012 3140 457 403 859 740 684 439 245 2054 286 2088 1477 611 494 2183 421 31056 14618 9583 233 9350 7246 165 16438 26825 2318 5912 4032 1044 167 2988 2522 466 877 2349 5035 114 1772 117 1697 4921 4321 710 24507 411 987 600 3094 308 220 113 1558 1291 109 590 642 216 110 17909 11217 55752 2830 667 169 557 1389 385 1004 479 16383 515 279 15868 13208 2660 1762 1562 145 200 146 944
is_linear=0
shrinkage=0.182832


Tree=2
num_leaves=126
num_cat=0
split_feature=45 42 37 42 16 28 34 25 32 8 3 43 0 41 9 27 42 27 21 2 37 42 41 23 8 0 44 19 16 0 24 18 41 2 0 8 9 21 44 21 18 0 2 44 44 44 38 38 11 21 8 18 0 2 23 42 12 44 18 8 44 44 44 2 2 2 8 0 0 44 12 0 18 30 18 2 44 24 2 24 0 44 44 24 42 44 24 2 42 9 2 44 42 6 44 0 2 12 8 18 44 0 44 8 8 0 2 8 41 8 41 2 0 42 9 8 8 41 12 41 12 44 41 8 8
split_gain=2928.57 714.945 361.92 80.0489 67.0531 41.1085 34.8855 26.62 20.3767 18.8513 17.6361 12.6361 11.5031 10.1111 9.07072 11.3527 11.5428 10.9239 13.2625 8.18456 8.08366 11.0959 13.443 7.55128 7.33113 8.41117 7.23109 7.12694 6.98686 6.95312 11.1828 7.0865 6.60691 6.96474 6.40053 6.83006 6.63797 6.37757 6.27309 8.97078 6.24192 6.19733 6.14208 6.03203 7.36272 5.83373 5.98279 8.18701 5.67704 6.21124 5.42801 9.45011 5.40102 5.39886 9.11857 7.39128 5.9367 5.41118 7.27372 5.3699 5.35401 7.16422 7.28149 5.66118 5.39985 5.34585 5.29272 5.23568 7.94157 5.20872 5.16086 8.02246 6.60403 5.91421 5.44706 5.07283 4.97139 4.79738 9.95189 5.238 5.04397 4.76248 5.8588 5.26254 5.07282 8.01492 4.70954 4.65674 4.61793 6.69411 5.70833 4.60038 4.5977 7.4045 5.42788 6.20379 5.49978 6.94073 5.23621 9.26331 6.60643 8.62842 7.79899 6.21808 5.84388 5.75311 8.07034 6.01774 5.4859 4.75845 4.97782 4.82786 4.54562 4.49857 10.2983 5.82822 4.48285 4.4191 4.40291 4.38001 4.37456 4.22829 4.17925 4.16801 4.15721
threshold=1.0000000180025095e-35 153.50000000000003 0.13392857142857145 152.50000000000003 1.0000000180025095e-35 3.5000000000000004 1.5000000000000002 0.18333333333333338 0.5634920634920636 329.50000000000006 2.5000000000000004 4.5000000000000009 66.500000000000014 631.50000000000011 93.055555555555571 76.708333333333357 10736.500000000002 98.083333333333357 99.833333333333357 152.50000000000003 0.78888888888888908 3201.5000000000005 6570.5000000000009 2.5000000000000004 148.50000000000003 62.500000000000007 570.50000000000011 0.83333333333333337 1.5000000000000002 68.500000000000014 344.50000000000006 106.50000000000001 7304.5000000000009 94.500000000000014 65.500000000000014 642.50000000000011 95.527777777777786 11.16666666666667 926.50000000000011 112.16666666666667 73.500000000000014 26.500000000000004 90.500000000000014 200.50000000000003 860.50000000000011 956.50000000000011 0.26136363636363641 0.21111111111111114 1.0000000180025095e-35 32.166666666666679 189.50000000000003 285.50000000000006 49.500000000000007 20.500000000000004 1.0000000180025095e-35 3797.5000000000005 183.50000000000003 778.50000000000011 211.50000000000003 588.50000000000011 120.50000000000001 180.50000000000003 160.50000000000003 134.50000000000003 197.50000000000003 35.500000000000007 982.50000000000011 16.500000000000004 18.500000000000004 460.50000000000006 83.500000000000014 73.500000000000014 154.50000000000003 832.50000000000011 427.50000000000006 161.50000000000003 755.50000000000011 237.50000000000003 144.50000000000003 268.50000000000006 38.500000000000007 208.50000000000003 107.50000000000001 465.50000000000006 235.50000000000003 332.50000000000006 576.50000000000011 108.50000000000001 12310.500000000002 184.70833333333334 123.50000000000001 152.50000000000003 433.50000000000006 1.5000000000000002 132.50000000000003 53.500000000000007 100.50000000000001 129.50000000000003 146.50000000000003 134.50000000000003 436.50000000000006 14.500000000000002 364.50000000000006 341.50000000000006 261.50000000000006 53.500000000000007 70.500000000000014 27.500000000000004 12880.500000000002 142.50000000000003 373.50000000000006 93.500000000000014 62.500000000000007 11570.500000000002 95.055555555555571 118.50000000000001 295.50000000000006 6673.5000000000009 178.50000000000003 2766.5000000000005 171.50000000000003 574.50000000000011 187.50000000000003 354.50000000000006 272.50000000000006
decision_type=2 2 10 2 8 10 10 10 10 10 10 2 2 2 8 10 2 8 8 2 10 2 2 10 10 2 2 8 10 2 10 10 2 2 2 8 10 10 2 8 8 2 2 2 2 2 8 10 10 10 10 8 2 2 10 2 10 2 10 10 2 2 2 2 2 2 10 2 2 2 10 2 10 10 10 2 2 10 2 10 2 2 2 8 2 2 10 2 2 10 2 2 2 10 2 2 2 8 10 10 2 2 2 10 10 2 2 8 2 10 2 2 2 2 10 10 10 2 10 2 10 2 2 10 8
left_child=1 3 10 27 9 7 8 45 13 88 92 14 38 42 15 24 65 28 112 -20 29 -22 26 70 91 -26 -23 41 121 31 -31 -8 33 -32 35 36 -9 52 40 -40 -13 -1 43 124 -45 46 47 -5 49 -39 -24 -52 -15 54 -11 56 69 58 -57 -48 -10 62 -62 -64 -63 -17 81 -33 -69 -55 71 73 -73 74 -12 -59 -50 78 120 122 -80 82 83 -25 85 -83 -86 -44 89 113 -90 -6 93 94 95 -2 97 -96 99 105 102 -102 104 -103 -100 106 -94 -107 119 -95 111 -111 -19 115 -115 -3 -81 -56 -89 -101 -72 -16 -79 -104 -4
right_child=2 4 6 5 11 -7 20 34 60 53 23 12 -14 37 17 16 -18 18 19 -21 21 22 50 66 25 -27 -28 -29 -30 30 32 67 -34 -35 -36 -37 -38 48 39 -41 -42 -43 87 44 -46 -47 59 -49 76 -51 51 -53 -54 55 117 57 -58 75 -60 -61 61 64 63 -65 -66 -67 -68 68 -70 -71 77 72 -74 -75 -76 -77 -78 79 80 116 -82 84 -84 -85 86 -87 -88 118 90 -91 -92 -93 98 109 96 -97 -98 -99 100 108 101 103 123 -105 -106 107 -108 -109 -110 110 -112 -113 -114 114 -116 -117 -118 -119 -120 -121 -122 -123 -124 -125 -126
leaf_value=0.022097919364816032 0.18629655571787015 0.21574776817654764 -0.16073336165446267 -0.03786899488288302 0.11230080363465694 0.44263821674129189 -0.074146589335859575 -0.0090841316536751909 -0.14956270476644187 0.0078921189842287662 -0.048757195747163078 0.14495339085562478 0.099001862962047812 0.25114076857659823 0.14349922115145144 0.21658681656420053 0.15132874492645801 0.32097335353524259 0.20362133188735823 0.25165243311537305 -0.0076941484625016364 0.15258702602700605 -0.026297813200511493 0.19888915723501105 0.2073402920488514 0.055125823177194395 0.42506226783147572 0.36681785171368197 0.20487368507979672 0.33980304186287047 -0.0066121585437980074 -0.10256469778401059 -0.076046545131896751 0.25098465608914905 0.19367553650712285 -0.13728866841108209 0.081463521073720929 -0.038189109160233464 0.044118106852397865 0.28322598686625827 0.29961238569829335 0.22867539302424594 -0.053333603047843924 0.13186219958029058 -0.0013241189588950389 -0.15384992151251636 -0.059590992100934291 0.089543346030684992 0.0080260726315846704 0.02011554587695286 0.27259319410929556 -0.01073393340289055 0.012498665974452428 0.0958623179297316 0.14773439477899356 -0.080395596442877207 -0.0046203892471150809 -0.039219466679393966 0.11211626157761266 -0.15403071226006027 -0.0027878947308005789 -0.028591869799953634 0.26227636898343626 0 0.12645460613919524 0.32069688588402095 -0.13348298263455641 0.20006711681510519 0.048524251996580378 0.22417463726569606 0.0032169301454564227 0.25206719438887065 0.0065632076172252481 -0.11191616753272138 0.034317370393822093 0.14375079062283377 -0.033369904576211105 0.084659901430189477 0 -0.01221600158536291 -0.10844117014857729 0.20998256322420272 -0.095865062839567791 -0.050697527048586793 -0.06114249614607855 -0.023057066448345664 -0.033990182817872701 0.056360487501470338 0.172535124505107 0.33810524278867898 -0.023861246482616422 0.2656626983073872 -0.012126681439385733 -0.035795688184761726 0.034876584217435468 -0.061642343056989027 -0.047050699228311559 -0.038576316886950977 -0.050746898455391112 -0.034107711229398908 0.184992926291001 -0.031355092946844784 -0.082668085176337142 -0.080704716701526943 -0.017556643294935413 -0.0042846819220532933 -0.033925148333889543 -0.044170298097366799 -0.15040625424386025 0.21011229875259438 0.3138076443705749 -0.024552620733751314 0.15407132781074462 0.11830480119694538 0.40962638627639125 0.15928560432773933 -0.03978805298173594 0.41299992222413506 -0.061652022026565216 0.017214613657052059 0.13354655322471587 0.02083719983907633 -0.075121228209429847 0.045278600148090001 0.045508763949724196
leaf_weight=7.130047298967841 8.0243552476167661 113.29529818892479 4.1394664943218205 168.36001594364643 9.5880516469478589 5.3428610861301413 14.860909059643744 46.873527072370052 10.14236520975828 5.5476423427462604 2893.8807171881199 12.498834729194639 13.69451183080673 6.3089365363121015 21.0361393019557 30.282497189939022 22.296129263937473 64.121726624667645 575.14758761227131 188.49922726303339 15.02019953727722 8.6251020804047602 9.2636381760239619 3.6306780576705906 126.53249877691269 15.024666562676428 7.754849284887313 11.504646092653273 36.443120881915092 6.425838619470599 5.7163058519363421 6.5704203993082038 6.432343401014804 7.0685011297464371 7.9777319356799117 6.7531147301197043 60.494186021387577 61.575940527021885 10.81187152862549 11.13797916471958 233.80992792546749 20.352896027266979 18.868475720286369 71.006600610911846 16.429811529815197 18.639224737882614 187.05595081299543 17.799841299653053 360.14376033842564 2267.9366495832801 7.8073731809854481 6.6482464894652376 6.5669469088315964 20.961169056594372 6.1244922801852208 6.3653799816966048 6.3869644775986663 21.727599792182449 74.597671560943127 23.115025281906128 20.51328406482935 418.30613076686859 7.3465018644928914 4.4137277081608772 6.7710969448089591 144.45657998323441 30.440365754067898 11.246244587004183 650.85406905412674 30.941026538610458 162.91067985445261 3.9038171097636249 18.389783352613449 49.920398615300655 25.5159602612257 5.7220207601785651 131.53295613825321 4.7661318555474272 22.163415789604187 214.01283597201109 43.473462998867035 5.2969922199845341 144.66663835942745 6.7214782536029825 777.88391996920109 24.224690802395344 310.82845079898834 92.557046107947826 10.37574450671673 11.257883444428442 7.9823400378227225 137.75795233994722 874.26533953100443 6.0011726915836361 88.496507368981838 4.6261842846870413 167.90636552870274 82.112443752586842 708.87758699059486 72.110821038484573 5.2099731415510169 1952.2456003725529 251.07495591044426 90.078745901584625 243.54804767668247 141.3677017763257 1662.8921590745449 1434.6223723739386 6.9991869479417792 3.9457866474986059 3.6952779814600936 6.6161191388964653 9.5570056959986669 8.9274394288659114 9.66478633135557 208.57992509007454 3613.7844605520368 5.7836980596184731 10.926098652184008 230.54063086956739 8.3402476310729963 18.589406542479992 177.1019549742341 7.9080407693982115 8.5067886486649513
leaf_count=50 103 879 49 1895 49 32 169 401 122 46 37989 61 72 72 122 167 119 349 3162 1030 160 82 87 49 709 86 75 68 180 61 58 71 67 72 64 58 514 709 57 59 1217 140 214 800 180 223 2152 210 4263 26211 75 61 76 190 53 60 57 199 678 289 252 5063 90 52 78 791 426 122 6987 282 2127 49 240 687 336 51 1550 63 290 2803 566 71 1941 91 10467 325 4207 1040 84 86 65 723 11247 78 1143 60 2161 1066 9251 931 68 25328 3288 1176 3205 1826 21467 18460 91 51 47 87 53 73 81 1770 47572 46 122 2977 110 108 2316 105 97
internal_value=0 0.171862 -0.0267071 -0.00867988 0.218821 -0.027072 0.0206321 -0.0324776 0.0129306 0.162931 -0.0389428 0.237134 0.274852 0.0183755 0.229351 0.25129 0.287587 0.217422 0.223682 0.215784 0.0560376 0.123722 0.173124 -0.0447469 0.225662 0.191875 0.297859 0.241535 0.146362 0.0505849 0.143665 0.0468681 0.064994 0.139256 0.0421737 0.0299427 0.0417835 0.0153995 0.283354 0.17298 0.292428 0.178682 0.0559183 0.0895505 0.106591 -0.0545798 -0.0495054 -0.0251345 0.0147749 0.0185442 0.0783584 0.14594 0.140323 0.11365 0.212323 0.102101 0.155181 0.0722531 0.0958384 -0.0707203 -0.0225516 -0.0193875 0.0622995 0.171963 -0.0257915 0.303965 -0.0576752 0.0497047 0.0514002 0.175389 -0.0424066 -0.048294 0.0586211 -0.0491261 -0.0480079 0.000495274 -0.00300192 -0.038241 -0.0126512 -0.0397398 -0.0727965 -0.0557474 -0.0862817 0.0412369 -0.0514189 0.0218872 -0.0534588 0.02767 0.187044 0.191906 0.0876037 0.256624 -0.0327775 -0.0126975 -0.0190693 0.0943395 -0.0236418 -0.000252998 -0.0337416 -0.0295929 -0.0393508 -0.0329339 -0.0501339 -0.0335827 -0.0423245 -0.0318885 -0.026436 -0.0406224 0.000772711 0.092319 0.14798 0.0682211 0.301775 0.186164 0.282583 0.179776 -0.03826 0.297811 0.0431289 0.00479388 0.0103977 0.0885275 -0.0703553 -0.0784758 -0.0245622
internal_weight=0 2816.93 20883.3 581.399 2235.53 542.411 4288.29 537.069 3523.99 554.241 16595 1681.29 281.953 3056.5 1399.33 485.938 197.035 913.394 837.326 763.647 764.294 55.1194 40.0992 8541.86 288.903 141.557 16.38 38.9876 76.0687 709.175 25.643 683.532 19.2172 12.7848 122.099 114.121 107.368 2834.07 268.259 21.9499 246.309 27.4829 222.434 100.083 87.4364 414.97 396.331 186.16 2821.19 2329.51 23.7193 14.4556 12.8759 184.158 17.4558 166.702 58.2892 108.413 80.9631 210.171 467.493 457.351 32.2735 11.7602 425.077 174.739 1303.69 668.671 662.1 51.9022 7238.16 2991.61 22.2936 2969.32 2919.4 27.4496 491.677 4246.55 236.888 4009.67 65.6369 1273.25 155.019 10.3522 1118.23 29.5217 1088.71 122.352 370.083 351.725 18.3581 147.346 8053.17 371.424 351.166 12.6505 338.515 170.609 7681.74 4422.8 3258.94 2047.53 1211.41 2042.32 952.426 4113.15 2537.16 1575.99 309.651 20.2584 14.2572 10.5619 73.6787 340.467 18.5922 321.875 3827.8 11.9082 103.483 302.651 171.251 39.6255 181.868 258.983 12.6463
internal_count=286038 19910 266128 6096 13814 5838 49187 5806 41040 4700 216941 9114 1466 35383 7648 2644 1077 5004 4594 4192 8147 540 380 112725 1567 795 157 258 410 7607 258 7349 197 130 1037 973 915 32881 1394 116 1278 190 2502 1126 980 4769 4546 2105 32733 26920 223 136 148 1662 145 1517 529 988 738 2441 5657 5535 394 142 5141 958 17577 7180 7109 472 95148 39301 289 39012 38325 250 5813 55847 3093 52754 856 17151 2081 140 15070 396 14674 1376 3038 2889 149 772 104216 4796 4533 163 4370 2209 99420 56999 42421 26572 15849 26504 12456 53000 32714 20286 3999 263 185 138 402 2803 154 2649 50375 99 1162 3908 2237 230 2379 3393 146
is_linear=0
shrinkage=0.182832


Tree=3
num_leaves=126
num_cat=0
split_feature=45 40 42 5 5 40 25 16 5 24 40 42 5 42 21 0 2 12 33 42 27 25 18 41 12 44 3 2 18 3 7 44 41 2 7 36 2 44 12 18 2 44 3 23 27 41 0 2 21 18 42 41 41 2 12 24 24 9 0 21 0 12 2 36 0 36 6 2 44 27 27 24 43 9 12 24 24 44 27 2 21 12 36 9 18 7 42 2 18 31 12 9 36 5 0 9 24 2 43 9 12 2 12 0 24 43 44 2 24 41 21 41 0 0 44 18 0 12 12 27 0 41 18 44 6
split_gain=1802.43 941.518 390.28 77.3311 57.2433 50.3905 48.9817 22.3212 21.5265 16.1513 14.1775 14.352 12.7408 10.0139 9.74021 9.56269 8.94978 8.71866 8.64589 8.57313 10.9807 13.2533 8.0168 13.6081 8.43595 7.87476 12.2437 8.33242 8.01254 7.70239 7.50227 7.15461 6.86346 6.72742 8.45936 7.16336 12.1359 7.34529 6.61243 7.3388 7.13557 6.63867 9.96834 6.50881 7.73643 6.23846 6.22311 6.17594 6.16512 8.24244 6.11256 6.10336 5.84812 5.8361 7.72893 5.79487 5.70772 8.92444 9.32043 8.35672 10.505 8.18996 5.9896 5.43127 6.88014 6.16063 5.40726 5.34876 6.27308 10.3033 8.04745 5.12787 4.90278 4.89605 4.84841 6.4088 5.63341 9.05225 11.823 8.03904 6.51044 4.9244 5.27556 7.24494 5.52913 4.80276 4.5571 4.53344 4.36553 4.27624 4.17598 5.83202 9.40883 6.12364 4.00347 3.95058 3.78958 4.42177 3.65148 4.91098 3.60234 6.52957 7.14658 8.01927 5.03738 7.33231 5.40783 3.68076 3.96124 3.59272 3.57168 3.53263 3.53054 5.46425 8.23246 5.80933 4.59154 8.63528 7.15137 3.4705 3.44463 3.32911 3.22092 3.1234 3.11542
threshold=1.0000000180025095e-35 1.5000000000000002 153.50000000000003 0.19090909090909094 0.13392857142857145 1.5000000000000002 0.22500000000000003 2.5000000000000004 0.14835164835164838 608.50000000000011 1.5000000000000002 118.50000000000001 0.43650793650793657 152.50000000000003 47.583333333333336 16.500000000000004 97.500000000000014 17.500000000000004 88.055555555555571 1138.5000000000002 91.550000000000011 0.55000000000000016 327.50000000000006 10953.500000000002 26.500000000000004 111.50000000000001 7.5000000000000009 173.50000000000003 371.50000000000006 5.5000000000000009 0.27922077922077926 184.50000000000003 4484.5000000000009 198.50000000000003 0.29285714285714287 982.50000000000011 98.500000000000014 983.50000000000011 198.50000000000003 345.50000000000006 141.50000000000003 582.50000000000011 3.5000000000000004 1.0000000180025095e-35 124.08333333333336 6795.5000000000009 53.500000000000007 50.500000000000007 65.166666666666671 369.50000000000006 433.50000000000006 9642.5000000000018 7475.5000000000009 117.50000000000001 18.500000000000004 235.50000000000003 118.50000000000001 69.7638888888889 25.500000000000004 90.833333333333357 54.500000000000007 53.500000000000007 195.50000000000003 323.50000000000006 34.500000000000007 501.50000000000006 2.5000000000000004 52.500000000000007 356.50000000000006 70.708333333333357 102.91666666666667 213.50000000000003 2.5000000000000004 123.05555555555557 186.50000000000003 816.50000000000011 675.50000000000011 566.50000000000011 131.55000000000004 194.50000000000003 110.16666666666667 124.50000000000001 712.50000000000011 103.05555555555557 421.50000000000006 0.17424242424242428 3846.5000000000005 112.50000000000001 225.50000000000003 0.18333333333333338 42.500000000000007 129.06250000000003 366.50000000000006 0.58571428571428574 15.500000000000002 105.52777777777779 592.50000000000011 72.500000000000014 3.5000000000000004 137.06250000000003 31.500000000000004 183.50000000000003 7.5000000000000009 63.500000000000007 161.50000000000003 4.5000000000000009 929.50000000000011 47.500000000000007 218.50000000000003 8572.5000000000018 103.83333333333336 12738.500000000002 64.500000000000014 67.500000000000014 600.50000000000011 304.50000000000006 49.500000000000007 4.5000000000000009 44.500000000000007 89.083333333333357 52.500000000000007 2186.5000000000005 306.50000000000006 830.50000000000011 1.0000000180025095e-35
decision_type=2 2 2 10 10 2 10 10 8 10 2 2 8 2 10 2 2 8 8 2 8 10 10 2 10 2 8 2 8 10 10 2 2 2 8 10 2 2 10 10 2 2 8 8 10 2 2 2 8 8 2 2 2 2 10 8 10 10 2 10 2 10 2 10 2 10 10 2 2 8 8 10 2 10 10 8 10 2 10 2 10 10 10 10 10 8 2 2 10 10 10 10 10 10 2 10 10 2 2 10 8 2 10 2 8 2 2 2 10 2 10 2 2 2 2 10 2 10 10 8 2 2 10 2 10
left_child=2 4 6 17 29 8 10 13 9 56 11 -1 14 109 -7 -5 -11 67 31 43 21 -21 23 24 -16 26 27 28 -19 100 45 32 -10 35 120 37 -37 50 39 46 -41 52 -43 44 -20 48 -27 -31 -12 -50 -17 -45 -40 66 -55 -22 57 61 -59 60 -58 -4 -61 64 -49 -65 -33 68 69 -3 119 -34 -32 85 81 76 79 78 -78 80 -76 112 96 -84 -85 -24 -39 -66 -71 98 -15 92 -92 -93 -67 -47 124 -98 121 -100 101 107 -103 -104 105 106 -102 110 -109 -8 -2 -107 116 115 -115 -114 118 -118 -6 -70 -35 -13 -91 -79 -83
right_child=1 3 5 15 74 12 7 -9 18 16 30 89 -14 90 22 33 -18 25 19 20 55 -23 73 -25 -26 38 -28 -29 -30 47 72 53 71 34 -36 36 -38 86 41 40 -42 42 -44 51 -46 95 -48 63 49 -51 -52 -53 -54 54 -56 -57 59 58 -60 62 -62 -63 -64 65 87 94 -68 -69 70 88 -72 -73 -74 -75 75 -77 77 123 -80 -81 -82 82 83 84 -86 -87 -88 -89 -90 122 91 93 -94 -95 -96 -97 97 -99 99 -101 104 102 103 -105 -106 111 -108 108 -110 -111 -112 -113 113 114 -116 -117 117 -119 -120 -121 -122 -123 -124 -125 -126
leaf_value=0.13352457523246236 -0.052271182123736097 0 0.14621435184966294 -0.060766985360595216 -0.035931820083406361 0.022389858252047295 0.09918182909043427 0.32421730205262156 0.14550306419403161 0.079779892604078376 0.23635818176572895 -0.038205558225965525 0.21424790317110676 -0.036024418931464762 0.0029363243319320848 0.12271378177124141 -0.14820149770927363 -0.0089781546176319841 0.060529095989648611 -0.034580040904553765 0.099061705667012889 0.18011047754831791 -0.046947750585538905 0.37468820875978137 0.18853767497891172 0.036631894222777621 0.31270276097564387 0.22757949150847701 0.20321458124718489 -0.092446874786914643 0.01867843297204666 0.1978877911924895 0.20400132826810441 0.17232506644006562 0.35384098763773936 0.011564610215725957 0.36218260182879047 0.069197344473244646 -0.033774558503839425 -0.0019345086196417237 0.037490219420749989 0.065149744748496538 0.34483009694191491 0.25752518067483632 0.23074323718916401 -0.067171727343871654 0.019710070152546704 -0.11427886972940893 -0.00788100212991652 0.16366812767886962 0.07018886567684561 0.096512767452575518 0.15225944050625922 0.23621203057635021 0.1166659537702156 0.14887386788505644 0.0069913661431860973 0.032078268338457158 0.26698177768966558 0.12611118735506671 0.13687312819472097 0.0078339303554125703 -0.033455060113357409 -0.10304467646201934 0 0.11663332152312356 0.074462400907464102 -0.019503461112462088 -0.00096801086953148745 0.39982110824922101 0.18147325813464776 0.43771612111534641 -0.1236238954390259 0.15155724690025893 0.061374691284820551 -0.15323638732689149 0 -0.098046970652565679 0.36056183144906384 0.19611513615815943 -0.030353583057527576 -0.020528394045878095 0.21747120616252463 -0.051064871992733643 0.041917786982679048 0.12391686458673938 -0.080031650598403697 0.29095695075695882 0.094171658520685556 -0.049403217100026472 0.03201808518087447 -0.080138624100320077 0.17985345580432388 0.1109386435617911 -0.056038380714534687 0.070766757353684775 -0.020728615419144544 -0.10529047066948766 -0.014024055077734729 -0.14083032310242918 -0.041340965508234677 -0.11385558250245394 -0.015471622303226309 0.15562216502649986 -0.052143484650985159 -0.085731060017639402 -0.0046155243647842828 -0.060001512784504857 -0.084662778481346276 0.261959522451154 0.01340464177102862 0.053409291977354258 0.01484367867616599 0.032242697644952079 -0.10095080207582513 0.14494195324756765 0.13433013644270578 -0.034827358058709762 0.0014636694773135675 -0.1439822164581599 -0.013637107564812947 -0.09381117808461728 0.12490878332763962 0.090550867792824841 -0.047320643360130719
leaf_weight=11.804442107677458 293.55206388235092 9.8979403153061885 59.671662919223309 16.922499194741249 256.9107488617301 17.798939600586891 14.322078637778761 11.200680986046789 13.385488390922545 9.6844435185194033 7.6986617892980567 51.005820486694574 556.41749329864979 19.788336105644703 9.5972309038043004 81.180733047425747 11.755389228463171 35.348890051245689 24.623337119817734 26.107950180768967 102.76899121701717 14.039471134543417 11.117386236786844 12.936325259506701 82.963052414357662 1934.2356057614088 6.8823386505246154 7.5659961029887191 6.263640582561492 261.76988645642996 14.680264957249165 203.32859797775745 9.538486525416376 5.7338525280356425 5.8921236693859091 6.3789703771471959 6.7789678275585175 10.238891497254373 15.437361694872381 513.6151670999825 216.95588317885995 11.972253516316416 6.7579373791813842 55.061840824782848 14.971217833459376 17.705790072679523 1191.2188895344734 3.7793378010392171 23.286873631179333 14.32356486469507 1511.6465897485614 11.722029119729994 7.7365097850561133 23.155803680419922 117.48964238166809 647.38179125636816 59.424205005168915 7.6234993040561667 31.551752239465714 222.29435267299414 31.928193770349026 19.678479120135307 7.424129754304885 105.55470116436481 3.4995214268565178 3.6406738571822634 15.125010691583155 212.62881738692522 39.51610741019249 3.9545389190316191 6.676879107952117 9.7937756925821287 15.70802940055728 28.390322528779507 33.144421979784966 7.1383291184902182 5.4059089571237582 6.4960873201489431 6.2442314028739929 5.9463837146759024 106.51009515672922 261.53579887002707 4.2865130230784407 44.427255742251873 39.504708297550678 9.1951503455638868 16.732443578541279 3.5515616908669472 3.9389351084828377 6.1815593093633634 44.198867373168468 17.164854928851131 21.565456971526146 7.2649486735463134 709.45893619582057 10.153857380151747 33.833082504570484 60.785782784223557 67.67430030182004 11.507556915283201 1725.8423862829804 21.068049363791943 92.350840829312801 9.3447775170207006 7458.8579094707966 148.50400448590517 148.27637068927288 617.60068662464619 374.08915588259697 8.8188825920224172 29.169697888195515 5.4766985774040213 43.041585303843021 34.153471186757088 26.789249576628208 15.411733716726301 9.3760654181241971 646.52697220444679 501.81299533694983 5.9392463937401763 5.8126539662480354 171.85288203507662 6.1269591376185417 3.9906893521547318 352.8529686331749
leaf_count=79 4087 121 415 168 3197 114 79 54 69 86 73 633 2360 165 59 757 111 419 123 140 518 67 74 83 528 22809 79 89 74 3779 178 1060 48 52 52 58 63 101 171 6183 2592 141 77 280 75 177 14099 54 238 142 14777 60 82 119 606 3428 495 52 214 1794 269 136 60 1514 50 52 85 2585 485 47 81 52 186 177 411 85 65 80 76 73 1311 3181 52 546 477 57 167 51 48 55 361 141 173 50 10254 100 421 757 830 138 23764 294 1293 130 104794 2043 2040 8548 5334 49 414 76 536 416 329 191 116 8028 6226 72 52 2139 56 48 4434
internal_value=0 -0.0224632 0.128155 0.0390922 -0.0474927 0.159615 -0.00761019 0.084169 0.142557 0.107945 -0.0386301 -0.0573413 0.200327 0.0618358 0.154266 0.0724537 -0.044231 0.0259417 0.154834 0.144273 0.137204 0.0415712 0.16903 0.198068 0.169922 0.0281601 0.0960643 0.0603725 0.0252591 -0.0527379 0.019898 0.178552 0.265391 0.0738734 0.186746 0.0725515 0.205612 0.0713436 0.0271533 0.0263399 0.00974608 0.0991337 0.178221 0.194981 0.129221 0.0517602 0.0302022 -0.0675562 0.0931752 0.0584564 0.0729522 0.231357 0.0296662 0.16995 0.137871 0.142218 0.115527 0.151134 0.223859 0.10191 0.053629 0.112829 0.120678 -0.0595699 0.0637824 -0.0613127 0.189834 -0.00494997 0.0384467 0.129708 0.00502907 0.33722 -0.0548677 0.103104 -0.0223197 0.0068325 0.0145873 0.0988121 0.204602 0.00102952 -0.00806587 -0.0245256 -0.0362366 0.00547685 -0.00683684 0.0302494 -0.0215494 0.166343 0.274864 -0.0649615 0.0377118 0.0545132 0.082701 -0.0199706 -0.0549689 -0.0148994 -0.0414845 -0.0759116 -0.0693216 -0.0341973 -0.0512491 -0.0599892 -0.0190341 0.000953877 -0.0499157 -0.0416851 -0.0384603 -0.0637693 -0.0694067 0.169654 -0.0461904 -0.0802662 -0.0183971 0.0115118 -0.0262007 0.0513396 -0.0209553 -0.0321851 -0.0111698 -0.0227209 0.0806345 -0.0814507 0.0366052 -0.0213263 -0.0360237
internal_weight=0 20425.4 3051.98 5903.86 14521.5 2477.95 574.035 144.324 1749.53 461.036 429.711 326.154 728.416 133.123 171.998 1667.32 21.4398 4236.54 1288.49 896.677 790.298 40.1474 154.199 105.497 92.5603 3953.99 56.0609 49.1785 41.6125 12015.4 103.557 391.817 32.7178 1650.4 17.4386 1632.96 13.1579 1619.8 3897.93 3856.03 730.571 41.9041 18.7302 106.378 39.5946 73.1687 3125.45 1091.25 45.3091 37.6104 1592.83 66.7839 23.1739 359.099 140.645 750.151 439.596 118.525 39.1753 321.071 91.3524 79.3501 229.718 829.485 10.8304 818.654 218.454 282.552 69.9236 17.7914 52.1322 19.3323 30.3883 48.7029 2506.13 174.876 167.738 22.1369 11.6501 145.601 139.655 2331.25 797.226 88.2185 83.932 20.3125 26.9713 7.05108 7.89347 314.349 109.982 90.1941 65.7643 24.4298 713.1 27.8596 709.008 94.6189 302.041 79.1819 10924.1 1437.18 122.764 101.696 9486.96 2028.1 1874.12 1314.41 991.69 23.141 322.722 153.981 1534.02 119.396 60.9427 58.4533 1414.63 655.903 758.724 45.4554 11.5465 222.859 12.3085 10.4868 614.389
internal_count=286038 266128 19910 66501 199627 13814 6096 1072 10362 3632 5024 3930 3452 1018 1092 16247 197 50254 6730 4691 4153 207 978 670 587 46815 661 582 493 168571 1094 2039 169 16079 156 15923 121 15802 46154 45683 8775 471 218 538 198 730 36908 15754 453 380 15534 340 253 1870 725 3946 3435 817 266 2618 764 551 1854 11975 155 11820 1145 3439 854 216 638 100 364 308 31056 2149 2064 269 141 1795 1722 28907 9868 1075 1023 131 268 101 95 3851 890 725 534 191 10306 277 8793 1178 3740 968 152817 20100 1717 1423 132717 27923 25804 18383 13882 128 4501 2119 19039 1472 745 727 17567 8144 9423 557 104 2772 111 128 7615
is_linear=0
shrinkage=0.182832


Tree=4
num_leaves=126
num_cat=0
split_feature=45 37 37 25 22 3 20 3 37 0 36 0 0 12 2 12 41 41 24 1 24 41 24 30 12 10 41 12 12 0 3 1 18 21 12 27 41 3 2 1 41 41 30 12 2 12 21 7 9 1 41 1 1 2 1 18 0 1 1 41 9 18 1 30 0 12 31 12 41 27 31 2 41 9 3 31 1 24 24 9 0 2 41 12 24 2 0 2 24 18 9 1 2 41 0 41 9 1 41 41 2 3 2 2 41 9 1 1 1 1 2 0 18 0 12 9 1 1 1 0 41 0 12 21 41
split_gain=1152.69 177.595 135.355 28.5445 16.9671 12.3338 11.6951 10.4963 9.21951 9.01019 7.119 6.32231 6.59893 6.44209 12.5361 6.16202 8.01396 7.92328 7.29642 6.03348 5.95211 5.94631 6.83562 9.51488 6.95527 6.40223 10.2149 6.18186 5.85632 5.75935 5.66976 5.48346 9.77754 10.019 8.83674 10.7009 8.41929 5.46633 5.4105 5.24319 5.17609 5.93591 5.17411 6.81558 5.66198 5.60876 7.43161 5.87536 5.32706 5.16587 5.14682 5.11023 5.6697 5.98186 5.43844 5.02469 5.06075 4.81739 5.12875 4.73325 4.71795 4.60735 4.48741 6.36646 6.34061 9.50761 6.04678 4.82825 4.2398 4.23578 10.647 4.21101 6.96425 4.01297 4.40625 4.00818 11.7182 5.22401 9.2141 11.2129 7.10288 5.5054 4.85486 4.6148 4.61349 4.48899 4.32942 9.45142 4.06278 4.00682 3.95874 3.89655 5.55423 6.44901 5.40128 9.2486 4.92945 4.79274 3.89451 3.8895 3.83458 3.82437 6.1413 7.06135 8.95985 5.77365 5.74801 7.47235 5.50008 5.2452 6.89193 6.71709 10.3193 5.53572 4.12614 7.89829 7.87144 4.08985 3.96523 9.51387 4.8449 3.88661 3.60487 3.60341 3.52144
threshold=1.0000000180025095e-35 0.095454545454545472 0.21111111111111114 0.55000000000000016 1.5000000000000002 3.5000000000000004 0.58333333333333337 2.5000000000000004 0.10555555555555557 71.500000000000014 917.50000000000011 68.500000000000014 64.500000000000014 76.500000000000014 72.500000000000014 192.50000000000003 8169.5000000000009 5993.5000000000009 480.50000000000006 31750.000000000004 687.50000000000011 4120.5000000000009 736.50000000000011 575.50000000000011 3.5000000000000004 1.0000000180025095e-35 5751.5000000000009 150.50000000000003 109.50000000000001 16.500000000000004 5.5000000000000009 43250.000000000007 342.50000000000006 118.16666666666667 192.50000000000003 69.366666666666688 3050.5000000000005 6.5000000000000009 146.50000000000003 40350.000000000007 9705.5000000000018 399.50000000000006 429.50000000000006 24.500000000000004 146.50000000000003 125.50000000000001 179.16666666666671 0.31666666666666671 95.527777777777786 98050.000000000015 155.50000000000003 97450.000000000015 94450.000000000015 97.500000000000014 59150.000000000007 512.50000000000011 72.500000000000014 35850.000000000007 70750.000000000015 872.50000000000011 117.05555555555557 449.50000000000006 20650.000000000004 719.50000000000011 36.500000000000007 107.50000000000001 0.18333333333333338 142.50000000000003 12458.500000000002 112.55000000000001 0.64583333333333337 181.50000000000003 3097.5000000000005 24.125000000000004 1.5000000000000002 0.78888888888888908 50950.000000000007 675.50000000000011 687.50000000000011 114.05000000000001 42.500000000000007 145.50000000000003 12952.500000000002 190.50000000000003 663.50000000000011 108.50000000000001 38.500000000000007 89.500000000000014 146.50000000000003 106.50000000000001 117.52777777777779 31350.000000000004 155.50000000000003 3328.5000000000005 15.500000000000002 3185.5000000000005 102.04545454545456 36350.000000000007 3508.5000000000005 6907.5000000000009 63.500000000000007 1.5000000000000002 26.500000000000004 18.500000000000004 766.50000000000011 105.52777777777779 54550.000000000007 41250.000000000007 1050.0000000000002 2450.0000000000005 97.500000000000014 59.500000000000007 215.50000000000003 55.500000000000007 197.50000000000003 182.41666666666671 91650.000000000015 1.0000000180025095e-35 10450.000000000002 19.500000000000004 9642.5000000000018 36.500000000000007 127.50000000000001 173.16666666666671 437.50000000000006
decision_type=2 10 8 10 10 10 10 10 10 2 10 2 2 10 2 10 2 2 8 10 10 2 10 10 10 10 2 10 10 2 10 10 10 10 10 10 2 10 2 8 2 2 10 10 2 10 10 10 10 10 2 10 10 2 8 10 2 10 10 2 10 10 8 10 2 10 10 10 2 10 10 2 2 10 10 10 10 10 10 10 2 2 2 10 10 2 2 2 10 10 10 10 2 2 2 2 10 10 2 2 2 10 2 2 2 10 8 10 8 8 2 2 10 2 10 10 10 10 8 2 2 2 10 8 2
left_child=2 5 7 11 6 101 21 40 20 42 28 12 31 14 -14 123 17 18 -17 -15 51 22 23 24 -3 55 27 -27 29 38 -24 34 36 -34 35 -4 -33 -32 98 59 41 57 43 44 -5 47 -47 -45 -44 -43 -41 52 54 -54 -9 56 -23 -1 -59 -31 -28 -25 66 64 65 -64 -10 -66 71 70 -50 -12 -73 -42 100 77 85 82 79 -79 81 -80 84 -82 88 -77 -78 -88 -6 -76 -71 92 96 -94 95 -93 -30 -96 -7 -86 -75 102 103 106 -105 -106 107 -2 117 110 -103 113 -113 -112 124 116 -116 -104 119 -110 -120 -117 -91 -8 -111
right_child=1 4 3 9 75 10 15 8 62 -11 68 -13 13 19 -16 16 -18 -19 -20 -21 -22 25 30 61 -26 26 60 -29 91 39 37 32 33 -35 -36 -37 -38 -39 -40 50 73 49 48 45 -46 46 -48 -49 69 -51 -52 -53 53 -55 -56 -57 -58 58 -60 -61 -62 -63 63 -65 67 -67 -68 -69 -70 90 -72 72 -74 74 89 76 86 78 80 -81 83 -83 -84 -85 99 -87 87 -89 -90 122 -92 94 93 -95 97 -97 -98 -99 -100 -101 -102 109 108 104 105 -107 -108 -109 118 114 111 112 -114 -115 115 121 -118 -119 120 -121 -122 -123 -124 -125 -126
leaf_value=-0.11813666016516867 -0.018045336233234201 0.19082569999640128 0.086350823794804743 0.21684563122457243 -0.094178966134225578 0.11888385048789615 -0.016683397658980758 0.034854368650149375 0.10661745811949679 0.0052902460906105913 -0.10160415890984102 0.18383398340259935 0.26152325284416855 0.084004036750766814 0.0075575722040580806 0.18833250139885968 -0.08577464634286984 0.29847763132745381 -0.060271063868353528 -0.090962986052597131 -0.081473985326455806 -0.0016975131127513129 0.23027226144269225 -0.030449190573463306 0.024884250626227473 -0.047165193673930052 0.045056756991430115 0.041097629122815282 -0.049219129543778467 -0.09098770139873219 -0.0060283985545080384 0.068099203824346227 -0.094504783217906951 0.066304351416324694 -0.019813300053023366 0.14612165434539875 0.12263113293648578 0.124517241049137 0.17395859668003996 0.040259526160453619 -0.099067809031894855 0.080558090735580443 0.23254254988788112 0.10286365932155721 0.10225402914301666 0.16809873386638799 0.057252244206941583 0.15664685034689924 -0.013008775841731442 -0.071306813231921493 -0.036271521002851533 -0.12008510818744378 0.28858370550760071 0.0029679386450366858 -0.011231582959509961 -0.1020653783089054 0.11897418344886411 0.13647436506268337 -0.054404389086751791 -0.047732505757797916 0.007997846922599236 0.054317285323112696 -0.049043959592810521 -0.019496527850432887 0.18841994844257381 0.16989850490121686 -0.06862600901939106 0.044506929811381789 0.082021307213946043 0.24736779704500966 0.15523079894450426 0.19972725968170757 -0.083602849586545611 -0.0034460979248725214 -0.13302982568317462 0.068437120951485991 0.032909999012536856 0.018937940660866605 0.024327796102117126 0.3618231552960906 0.10388440749196733 -0.14238769386888533 -0.097767042097448756 -0.052459522652504906 -0.17742572032136508 -0.063385643764200528 0.053523700680156834 0.30756844910334408 0.033228408972753018 0.059608689150530983 0.16102780338148623 0.30840011594332772 0.067071277869658344 -0.011564186906164264 -0.072644384777981408 -0.035901053175261918 -0.012272721239669684 -0.031066817451264068 -0.062235548304932053 0.024084360843236018 0.10481639527625645 -0.035004982695363548 0.06963960748559965 0.15784056813358455 -0.0090799033723576866 0.064865159855815258 0.0077960440516420095 -0.10444958749659539 0.13252282194132803 -0.0089286228466440055 0.039405026981755256 -0.033396861775394013 0.26029957336405507 -0.1002458767741095 -0.02552365429561158 0.29559420909574791 0.17389818225987169 -0.1153112308605423 -0.020596380060988732 -0.010343288044149319 -0.03762227585195773 0.050657056455008072 -0.044041725249161848 -0.13620227659046319 -0.029949677311791181
leaf_weight=8.6014157980680483 144.37313601374626 7.806818298995494 162.46052554994822 69.361001513898373 7.5717111080884925 4.7610671669244828 604.14590214192867 223.48392605036497 10.463924564421177 15.127400442957876 95.657586172223091 35.504903301596642 9.4536842331290263 9.6582734435796755 18.80694954842329 6.0533433333039328 7.2578176632523528 5.6386510431766501 8.3026913180947304 16.615882433950901 20.316764123737812 1183.9638791829348 7.4627564996480933 157.52088551968336 1015.2963003329933 100.05523413047194 336.56215603649616 34.831896744668484 186.08357727527618 96.692469242960215 20.622503846883774 143.69125344604254 13.650382444262503 116.54406068474054 13.679398648440836 305.88548860698938 330.4671426191926 20.185266718268394 6.8767335116863242 28.820710949599743 6.9884705096483222 387.83357509970665 48.913879930973053 265.29434403777122 23.002360932528973 210.73174291849136 24.827943846583366 103.87485984712839 15.517146900296209 6.7616086564958087 1507.165037445724 7.872762542217969 4.5956631079316121 5.0585619695484638 136.17180012911558 15.70955243334174 10.922601230442522 8.7384669110178965 8.2601752728223783 901.86622450873256 179.15075205639005 23.74943009018898 15.793759204447271 13.513859897851942 34.501486841589212 10.120750620961187 14.958302848041058 11.809543583542107 4.2021179124712935 27.339316606521606 54.992052838206291 3.6408953033387643 7.4218835569918156 14.397273171693085 5.9819937944412223 17.774050779640675 7.2742395848035839 6.1262631788849813 25.003175377845764 6.7641539350152016 54.182415343821049 8.0214334130287153 9.3584239706397039 6.2686887905001631 5.8158208802342397 15.220793202519415 9.1547831147909182 12.317284710705279 571.34504804760218 26.895723849534988 127.57852943241596 3.3952508792281133 50.595516160130501 106.02753309160471 101.27385447174311 6.0474696531891823 355.41790724545717 1332.8232016116381 12.771719940006731 5.2764963209629059 36.444141715764999 71.957384243607521 3.7194607704877845 15.386920489370821 108.66432175785303 50.882770538330078 165.4477207288146 43.654773123562336 15.535171851515768 285.77893939614296 54.978270314633846 5.9302086234092704 9.4122260063886625 10.546090528368948 80.322353292256594 3.4993947818875295 6.3766242116689673 32.161744877696037 2664.9709955602884 327.68873451650143 719.58508389443159 6.2588194310665131 17.728616509586573 7.8723249435424796 5878.7955849654973
leaf_count=70 1923 81 930 308 80 68 7426 2295 96 68 1494 186 52 48 106 71 88 66 97 89 242 13626 80 1862 11233 1138 3802 393 2659 1382 235 778 75 610 70 1585 1777 237 96 407 55 3124 206 1174 102 938 112 469 68 55 21570 85 48 56 1428 180 125 69 65 12899 1990 266 116 129 246 72 96 85 64 116 231 56 115 115 50 157 70 58 252 63 501 80 92 56 57 137 76 100 5776 237 547 47 708 1499 1437 84 5055 18901 181 53 266 998 50 204 1440 687 2190 583 209 3871 758 81 130 147 1088 48 87 436 36136 4439 9761 85 165 96 81355
internal_value=0 -0.0189091 0.0992426 0.125288 0.0129728 -0.0281998 0.00788981 0.0448371 0.0258888 0.148421 -0.0359111 0.105766 0.103172 0.0391508 0.0988175 -0.0145927 0.0689367 0.128203 0.0463109 -0.0245542 0.0126823 0.0125211 0.0222682 0.0194845 0.0263397 0.00593238 0.0205529 -0.0239639 -0.0348037 -0.0407492 0.0894299 0.106317 0.0940579 0.0486547 0.12142 0.125659 0.106335 0.058728 0.0457445 -0.0416126 0.0629253 0.0721727 0.150602 0.141355 0.189878 0.133633 0.156823 0.118416 0.173467 0.0777125 -0.0347886 0.0180249 0.0213346 0.154598 0.0173063 -0.00189979 -0.000480803 -0.0114386 0.0431694 -0.0520319 0.0322946 -0.018928 0.0723179 0.0921768 0.113614 0.0374859 0.00301223 0.153977 -0.081887 0.159685 0.117906 -0.089287 0.0134498 0.0264495 0.0362083 0.0377425 0.0827037 0.0336614 0.0711341 0.212556 0.0495472 -0.0173918 0.0268567 0.086529 0.0290333 0.00635895 0.166386 0.206946 0.031363 -0.00132555 0.177729 -0.027668 -0.0163092 0.0137929 -0.0331209 0.0984541 -0.0250986 -0.0340706 -0.00776298 -0.0830116 0.0737946 -0.0247279 -0.0204572 -0.0019123 0.0279669 0.0144562 -0.0168445 -0.0386824 -0.023049 -0.0275764 0.0056404 0.0422953 0.148259 0.0153678 -0.0283944 0.00874027 -0.00892223 -0.0939182 -0.0223358 -0.00346266 -0.0242364 0.15822 0.0174819 -0.0184646 -0.0289831
internal_weight=0 20038.1 3200.27 2162.98 4520.59 15517.5 3753.11 1037.29 508.661 986.561 4811.54 1176.42 1140.91 54.5348 28.2606 639.271 27.2525 19.9947 14.356 26.2742 397.499 3113.84 1252.64 1204.37 1023.1 1861.2 650.6 134.887 4700.62 2558.95 48.2705 1086.38 604.353 130.194 482.025 468.346 474.158 40.8078 24.4095 2534.54 528.631 420.195 971.433 697.092 92.3634 604.729 235.56 369.169 274.341 394.595 1535.99 377.183 369.31 9.65423 359.656 1210.6 1194.89 25.6001 16.9986 998.559 515.713 181.27 111.162 85.7394 72.2255 25.9145 25.4222 46.311 110.922 225.427 70.5092 106.72 11.0628 108.436 101.448 767.475 61.7412 705.734 106.366 12.8904 93.4757 33.0246 599.368 60.4511 590.009 32.9948 28.7463 21.4721 578.917 50.6063 154.918 2141.66 698.125 156.623 1443.54 9.44272 541.501 1434.1 17.5328 11.0923 50.8414 10705.9 4292.07 528.41 174.934 159.547 353.476 188.028 3763.66 6413.86 152.824 80.8668 15.3424 65.5244 6261.03 96.4572 86.699 35.8812 3727.78 343.224 3384.56 9.75821 44.6243 612.018 6164.57
internal_count=286038 266128 19910 10645 50700 215428 43092 9265 4994 4339 68722 6306 6120 295 158 7844 322 234 168 137 4154 35248 13994 13442 11314 21254 7323 1531 66993 36603 552 5825 3240 685 2585 2515 2555 472 345 36258 4271 3383 4271 3103 410 2693 1050 1643 1168 3179 21977 3912 3827 104 3723 13931 13751 204 134 14281 5792 2128 840 648 519 188 192 331 1729 962 299 1665 171 888 833 7608 540 7068 1010 121 889 332 6058 557 5966 294 246 176 5856 452 663 30390 9921 2207 20469 131 7714 20338 249 110 381 146706 58058 7027 2331 2127 4696 2506 51031 88648 2114 1116 211 905 86534 1308 1175 486 50545 4648 45897 133 402 7522 85226
is_linear=0
shrinkage=0.182832


Tree=5
num_leaves=126
num_cat=0
split_feature=45 40 5 5 40 5 5 41 5 8 9 43 11 1 1 0 0 1 44 0 27 44 1 9 27 21 44 15 27 41 0 7 21 0 8 0 11 15 1 8 44 21 41 0 0 21 21 41 3 1 8 27 1 15 43 1 41 7 15 33 27 8 15 21 9 9 27 21 41 30 5 21 15 44 8 43 44 24 44 1 44 1 27 21 41 44 8 0 15 40 21 9 44 44 4 44 15 43 1 1 8 6 0 41 41 1 8 41 41 8 41 1 0 21 30 8 41 44 0 43 0 15 8 8 27
split_gain=728.245 624.938 81.5268 25.6651 22.9684 21.9423 12.2115 10.9825 10.4187 10.2708 9.99416 8.55012 6.8254 10.1577 7.84534 6.56691 10.9694 11.5133 10.7159 7.85348 6.41379 6.28853 6.09054 5.99053 6.94351 5.96244 8.49879 8.76333 8.39131 9.51113 6.6735 6.17452 5.89189 6.5958 8.54308 7.47409 6.40805 5.73657 5.59941 6.5368 5.51277 8.25865 6.42432 5.35738 7.36427 9.43092 9.37444 6.7814 5.33876 7.08129 6.47702 5.41828 5.37307 5.3178 7.32976 12.4111 7.81534 6.71745 6.51547 5.70555 5.31012 5.3004 5.26281 5.25922 10.5684 5.87344 7.80218 5.42391 5.10943 6.58177 5.50341 4.95855 4.90239 4.88845 4.88335 4.8742 4.81413 6.57021 4.75513 10.4216 10.7213 5.4605 5.88842 8.43581 4.68004 10.169 4.67158 4.64481 4.62493 4.60875 6.01841 5.61014 6.86174 6.50762 4.56938 5.087 4.47543 6.73518 4.91984 4.47352 5.63066 4.15257 7.38372 9.77865 6.72101 6.35357 7.88677 6.61635 5.60817 7.89926 7.65163 4.89708 4.07815 7.03741 4.3723 3.99506 5.38487 4.29539 4.87179 3.89018 3.87582 3.72997 3.6869 9.21917 3.68396
threshold=1.0000000180025095e-35 1.5000000000000002 0.30384615384615393 0.095454545454545472 1.5000000000000002 0.13392857142857145 0.10555555555555557 12666.500000000002 0.78888888888888908 276.50000000000006 71.055555555555571 4.5000000000000009 1.0000000180025095e-35 51350.000000000007 69150.000000000015 31.500000000000004 22.500000000000004 8050.0000000000009 887.50000000000011 41.500000000000007 34.183333333333344 983.50000000000011 71550.000000000015 133.05555555555557 123.55000000000001 69.833333333333357 748.50000000000011 51.500000000000007 95.550000000000011 7249.5000000000009 16.500000000000004 0.13392857142857145 129.16666666666671 27.500000000000004 153.50000000000003 49.500000000000007 1.0000000180025095e-35 12.500000000000002 65150.000000000007 22.500000000000004 268.50000000000006 69.166666666666671 9289.5000000000018 33.500000000000007 59.500000000000007 62.166666666666679 104.58333333333336 4171.5000000000009 5.5000000000000009 96250.000000000015 465.50000000000006 91.550000000000011 97750.000000000015 185.50000000000003 3.5000000000000004 12150.000000000002 501.50000000000006 0.19090909090909094 88.500000000000014 84.527777777777786 138.08333333333334 103.50000000000001 83.500000000000014 136.83333333333334 126.05000000000001 109.52777777777779 113.55000000000001 159.16666666666671 631.50000000000011 847.50000000000011 0.68333333333333346 109.83333333333336 83.500000000000014 794.50000000000011 288.50000000000006 1.5000000000000002 296.50000000000006 576.50000000000011 705.50000000000011 35050.000000000007 787.50000000000011 8050.0000000000009 101.08333333333336 119.83333333333336 5838.5000000000009 184.50000000000003 17.500000000000004 49.500000000000007 20.500000000000004 1.5000000000000002 97.833333333333357 91.527777777777786 384.50000000000006 604.50000000000011 1.5000000000000002 148.50000000000003 118.50000000000001 3.5000000000000004 5450.0000000000009 97150.000000000015 459.50000000000006 1.5000000000000002 55.500000000000007 5126.5000000000009 5126.5000000000009 40350.000000000007 218.50000000000003 4533.5000000000009 8288.5000000000018 115.50000000000001 9347.5000000000018 61150.000000000007 73.500000000000014 102.16666666666667 501.50000000000006 982.50000000000011 9705.5000000000018 977.50000000000011 55.500000000000007 3.5000000000000004 25.500000000000004 95.500000000000014 201.50000000000003 333.50000000000006 138.63333333333335
decision_type=2 2 10 8 2 10 8 2 10 10 10 2 10 8 10 2 2 8 2 2 8 2 8 10 10 8 2 10 10 2 2 10 10 2 10 2 10 10 8 10 2 10 2 2 2 10 10 2 10 8 10 10 8 10 2 8 2 10 10 10 10 10 8 10 10 10 10 8 2 10 10 10 10 2 10 2 2 10 2 8 2 10 10 10 2 2 10 2 10 2 10 10 2 2 10 2 10 2 8 10 10 10 2 2 2 10 10 2 2 10 2 10 2 10 10 10 2 2 2 2 2 10 8 8 10
left_child=2 5 6 21 11 48 9 20 37 101 -11 15 13 122 -15 16 23 -18 -19 22 38 86 -17 24 -4 26 31 -28 29 -27 -30 -22 33 34 -23 -35 -37 -6 39 -5 41 42 84 47 45 -45 -46 75 -2 112 -51 -52 -53 58 56 -56 -55 -58 60 121 72 -61 -44 65 -65 89 -67 -66 70 -70 -21 -57 -42 -49 -36 -12 -68 -78 81 -80 -81 -13 -83 -84 119 -86 -3 -14 -39 91 -91 92 -8 -93 -10 -96 97 -90 -98 -43 -101 104 111 -104 105 107 -107 -1 109 -106 -110 120 114 -114 -50 117 -117 -88 -119 -7 -103 -60 -9 -124 -116
right_child=1 3 4 7 8 40 63 12 94 10 43 78 87 14 -16 19 17 18 -20 68 25 32 -24 -25 -26 28 27 -29 30 -31 -32 -33 -34 35 74 36 -38 88 -40 -41 53 99 62 44 46 -47 -48 73 49 50 51 52 -54 54 55 71 57 -59 59 61 -62 -63 -64 64 67 66 76 -69 69 -71 -72 -73 -74 -75 -76 -77 77 -79 79 80 -82 82 83 -85 85 -87 115 -89 96 90 -92 93 -94 -95 95 -97 98 -99 -100 100 -102 102 103 -105 108 106 -108 -109 110 -111 -112 -113 113 -115 124 116 -118 118 -120 -121 -122 -123 123 -125 -126
leaf_value=0.022814023654553397 -0.0393652811101768 -0.031558692841027233 0.058948870865506722 0.14723991108242585 0 0.040223187783449542 0.090349462072522244 0.037270144345741038 0.11749546998991083 -0.14801227324547425 0.026298477020791574 0.26342844391859416 0.092759501314147536 -0.038332992661193263 0.13787645757854522 0.035186874633954555 -0.0076555282848141228 0.16008035411992566 0.026673198903207504 0.17894877601216555 0.11638776084510893 0 -0.12439022386267437 -0.024229733810136569 0.21462657446414674 0.016114264655958718 0.072046369191138715 -0.039797153336015564 -0.087191041836631303 0.055494154628584903 0.055284565011888949 0.056824680106804776 -0.021417562993010855 -0.058117287575536962 0.44390208677043164 0.17165757139533144 -0.05863208369047649 0.24002974601023014 -0.10294489568030996 -0.030051116714179749 -0.0099839824807779129 -0.054816224525675902 -0.12942427716980859 0.28075009795249933 -0.11315881687734443 0.042806073252660955 0.028491276057408817 0.045353178204448459 -0.090666868654615415 0.16642148015759239 -0.10553455608733076 0.12844747437843124 -0.01833912479559056 -0.1451515459722004 0.1704248516774905 0.040970162101019905 0.11452106706628035 0.01539881142701971 -0.13748841172348941 0.10847725101069557 -0.12057103892917125 -0.025902684807130108 0.087064529701257817 0.25953436459919138 0.12104168390000056 -0.10743519925285507 0.14365599027417064 -0.054619408079915728 0.07257007271065502 -0.069976672106500507 0.03662535982384376 -0.1005509469016896 0.050139107283514228 -0.068819175275741482 0.15125560472723173 -0.10316446855546933 -0.056900980576667343 0.087973913440315549 -0.018553615929336298 -0.016628474404459921 0.18819761129001819 0.1697294634934807 0.0029027190263827638 0.1402167904020831 -0.017906155653243355 0.22806599437874478 0.024226447781507184 -0.13842529866319081 0.053074809266332929 0.11607552892494175 -0.015789291192900429 0.056056815696778034 0.02659776233466124 0.18601989161425492 0.04836133880624123 0.17925421795356927 0 0.12896834668098295 0.14416667610565745 -0.045847729786925646 0.20071714215759318 0.11121589581109684 -0.050794577301390337 0.22813391313175951 0.05778211891312994 0.080480327194090068 0.20565037016861945 0.16770160634249051 0.12675465903021169 -0.035451334469625465 0.031937404101971552 -0.13208950818383577 0.24758431528780933 -0.097895166840417241 -0.050127815854937773 -0.14266116023517406 0.10566201147064151 0.0058180646897345685 -0.15865308314986981 -0.073350884719830339 -0.048402842102013233 -0.050925863294912055 0.46396964607768976 0.17432680272835341 -0.10462948809419535
leaf_weight=97.614333618432283 10211.411584720016 51.447702042758465 87.823400281369686 9.3131421804428118 15.618541352450846 31.582612678408623 82.760147355496883 4.173684015870097 86.052887290716171 12.369477313011883 12.216179475188254 12.043589413166044 5.0773501694202405 13.387670449912546 19.68603939563036 26.234719276428223 18.094262719154358 158.56786434352398 24.309845447540283 30.506724059581757 124.57344803214073 4.5515848621726027 10.478890351951121 22.87312675267458 10.50821755081415 592.15084487199783 51.119221232831478 41.480610966682434 10.191177174448965 317.3355248644948 1091.3003861159086 121.49163444340229 13.517196573317049 10.795188657939432 4.1975898146629316 17.16413621976972 4.4632559716701499 9.657632648944853 16.793833255767822 20.894668020308018 804.34383197873831 365.73154118284583 14.99454588443041 5.0911391079425803 22.770873744040728 153.5316802598536 44.894505459815264 53.674768839031458 127.77511056140065 6.5616429746150962 15.431671321392058 10.255218870937822 32.102817919105291 5.9601046517491332 7.3719205930829039 9.4805259108543378 39.443864807486534 56.193246774375439 19.761867545545101 9.03566776961088 13.132122382521628 836.69935121387243 4.0646884441375724 13.522700957953928 14.341471318155529 13.783953219652174 11.541160918772219 8.6160175502300245 571.91731180995703 10.139552339911459 14.609676644206045 39.399147473275661 47.076401829719543 15.312186338007448 6.2857026718556881 35.941694971174002 21.04974639415741 19.119251810014248 22.860948644578457 11.137158200144766 30.179513372480869 62.90983309596777 25.363399818539619 38.072461917996407 10.326033689081671 10.573096953332422 3413.437919896096 4.8385093361139297 93.051875837147236 103.15634444355965 12.215016510337589 33.818513125181198 186.58421102911234 22.647346567362547 12.099569097161291 201.68314631283283 9.0396134406328184 73.182971954345703 124.04100235551596 6.4314233213663083 4.5031240619719028 6.9060538038611439 7.0972705855965605 8.1501154266297799 50.899804890155792 126.72914611920714 19.930762894451618 11.255161516368387 37.476692404597998 72.676773592829704 122.50431736931205 13.556155957281588 3.1609300076961508 3.0623184032738209 749.92122573405504 9.6056139431893808 3.1992847397923461 16.521691389381889 8.2407136932015401 13.771966099739073 13.975184027105568 128.9501059576869 4.8138573616743114 20.64789829403162 45.587788589298725
leaf_count=770 152696 669 414 88 68 394 488 39 359 139 126 53 48 131 194 122 85 741 117 145 1136 53 48 108 51 6079 486 386 104 3284 10004 1135 161 128 50 206 54 42 161 205 10075 4595 192 56 243 1560 444 552 2047 100 238 162 496 70 87 112 468 681 246 110 164 10494 51 89 91 90 71 56 2685 47 65 489 587 168 77 367 120 136 107 50 135 287 114 170 131 134 40990 47 412 556 84 214 1119 139 49 816 39 318 550 82 56 64 60 72 362 945 171 87 307 606 980 135 48 47 11792 147 47 196 99 176 138 1619 44 209 754
internal_value=0 -0.0155721 0.0772059 0.0334449 0.103251 -0.0371851 0.0453992 0.047787 0.131866 0.0327071 0.00801787 0.0881052 0.117945 0.140068 0.0661328 0.0808133 0.102662 0.129042 0.142764 0.0700371 0.045605 0.0234865 -0.0109694 0.0580226 0.0776081 0.0469487 0.0696413 0.0215981 0.0430805 0.0299364 0.0538665 0.0874262 0.0816162 0.111675 0.210146 0.0607914 0.121916 0.108168 -0.0203726 0.0257028 -0.021573 -0.0396506 0.0112376 0.0140898 0.0305481 0.0520811 -0.0193536 -0.0173486 -0.0406333 -0.0535785 0.00443798 -0.0152972 0.0179918 -0.0173978 0.0146128 -0.0376085 0.0439929 0.0573188 -0.0201429 -0.0302462 -0.0084571 -0.0243168 -0.0795418 0.0673152 0.135112 0.0621465 0.0101788 0.0537844 0.074852 0.0699235 0.135202 -0.0720621 -0.00656753 0.0189251 0.295396 -0.0695991 0.0434753 0.011435 0.12294 0.0786699 0.132757 0.142602 0.129165 0.0866754 0.0386028 0.108509 0.0224444 -0.0181755 0.113619 0.0697363 0.101751 0.0580516 0.0465487 0.110781 0.157025 0.172246 0.10877 0.0871917 0.134731 -0.0512839 0.0590387 0.0475265 -0.00223769 0.0997339 0.052185 0.0738068 0.0987993 0.0392881 0.032403 0.00274854 0.0549272 -0.0497925 -0.0576393 0.0800611 -0.0586807 0.0232684 -0.0750379 0.0236639 -0.0506021 0.00417399 0.00468247 -0.0633814 0.217302 0.243209 -0.0534052
internal_weight=0 19716.8 3300.79 6032.7 1813.06 13684.1 1487.73 2469.27 624.427 944.574 355.803 1188.63 72.625 62.7091 33.0737 986.064 322.177 200.972 182.878 663.887 2396.64 3563.43 36.7136 121.205 98.3316 2349.64 338.665 92.5998 2010.98 909.486 1101.49 246.065 60.9747 47.4575 15.0349 32.4226 21.6274 324.592 47.0016 30.2078 2478.83 461.979 85.3129 343.433 226.288 158.623 67.6654 117.145 11205.3 993.859 64.3514 57.7897 42.358 2016.85 157.849 56.2516 101.597 95.6371 1859 994.447 864.552 845.735 19.0592 543.156 36.4802 506.676 65.4941 22.9575 627.173 582.057 45.1164 48.8797 851.42 68.987 10.4833 48.1579 51.7102 40.169 202.567 64.1776 41.3167 138.389 126.346 63.4359 66.2537 20.8991 3502.45 9.91586 308.973 441.182 115.371 325.81 269.344 56.4659 299.836 213.783 299.315 166.235 133.081 376.666 10.9345 588.772 49.6848 15.2474 539.087 255.529 146.66 108.869 283.558 123.577 159.981 34.4374 929.507 6.22325 923.284 3451.01 12.8049 3438.2 24.7624 45.3546 20.8812 148.712 29.6354 25.4618 795.509
internal_count=285852 266050 19802 66657 8197 199393 11605 23780 2653 8352 3655 5544 712 617 325 4628 1516 943 858 3112 23068 42877 170 573 465 22614 3143 872 19471 9363 10108 2271 729 568 180 388 260 1429 454 293 31013 5811 1078 3516 2303 1616 687 1213 168380 15684 996 896 658 25202 1907 688 1219 1149 23295 12469 10826 10604 243 3253 236 3017 417 147 2942 2732 210 601 10662 720 127 493 327 256 916 292 185 624 571 284 835 265 42148 95 1361 2600 640 1960 1607 353 1224 865 1319 730 589 4733 138 4697 469 132 4228 1973 1116 857 2255 968 1287 337 14688 95 14593 41479 194 41285 295 570 202 1865 292 253 12546
is_linear=0
shrinkage=0.182832


Tree=6
num_leaves=126
num_cat=0
split_feature=45 40 42 40 42 25 5 4 40 5 5 2 1 42 17 42 33 0 2 7 33 41 18 1 0 42 26 18 1 44 1 44 1 42 2 2 39 12 42 0 42 8 41 39 1 44 0 44 12 21 3 8 30 1 42 26 44 1 24 0 6 12 12 1 21 33 24 8 33 2 0 44 12 42 41 18 44 7 12 1 21 21 1 7 18 44 21 1 18 0 1 44 44 2 44 41 12 18 44 41 2 8 44 44 12 18 12 33 1 41 41 44 44 0 44 2 2 44 2 0 33 44 2 21 12
split_gain=480.089 425.152 166.708 26.7218 25.3765 16.3365 16.1918 11.4284 7.33414 9.00584 6.13045 7.1082 8.82295 6.78835 10.8935 9.12511 7.77212 5.89139 5.57562 5.13763 5.06023 5.50792 10.2153 5.08736 5.46295 5.03925 5.26508 7.29889 6.4354 4.90564 4.86895 4.62104 4.59175 4.51452 4.45522 9.46564 17.9189 13.4197 11.8551 7.28075 7.65726 5.6866 5.64868 9.7872 7.48419 6.2135 11.1215 8.24518 4.42886 4.40385 4.37367 4.3564 4.29268 7.1714 6.38775 6.26271 9.03889 5.66765 4.13387 5.99223 4.0968 4.08496 9.60971 13.2284 10.7265 13.3089 6.22999 12.4112 9.32932 6.17974 5.44447 5.40059 4.60264 8.29272 6.06332 4.07352 8.408 5.41535 4.1903 4.01524 3.73533 6.71816 3.68863 5.62914 7.34116 7.01693 3.93375 5.13628 4.6749 3.67308 9.16247 9.54342 18.8573 7.25927 8.33824 3.65126 9.27291 8.95505 3.9823 4.45093 3.54175 3.46797 3.4672 4.82837 4.2617 6.07933 5.56085 3.26977 3.18045 5.5546 4.37715 8.17752 3.0462 3.00106 2.95151 2.85512 2.837 2.70275 2.64374 2.5746 2.55205 2.53094 2.44773 2.3466 3.0911
threshold=1.0000000180025095e-35 1.5000000000000002 153.50000000000003 1.5000000000000002 152.50000000000003 0.18333333333333338 0.19090909090909094 3.5000000000000004 1.5000000000000002 0.58571428571428574 0.81666666666666676 115.50000000000001 67150.000000000015 8554.5000000000018 1.0000000180025095e-35 1180.5000000000002 112.52777777777779 56.500000000000007 139.50000000000003 0.15476190476190479 34.225000000000009 12666.500000000002 387.50000000000006 7550.0000000000009 56.500000000000007 47.500000000000007 0.55000000000000016 351.50000000000006 94750.000000000015 652.50000000000011 11750.000000000002 995.50000000000011 41250.000000000007 10545.500000000002 168.50000000000003 143.50000000000003 104.05555555555557 117.50000000000001 11127.500000000002 19.500000000000004 1655.5000000000002 297.50000000000006 6619.5000000000009 104.52777777777779 95350.000000000015 160.50000000000003 48.500000000000007 212.50000000000003 18.500000000000004 51.416666666666679 1.5000000000000002 148.50000000000003 704.50000000000011 18050.000000000004 11701.500000000002 0.18333333333333338 484.50000000000006 39150.000000000007 355.50000000000006 19.500000000000004 4.5000000000000009 64.500000000000014 54.500000000000007 96550.000000000015 117.83333333333336 118.52777777777779 492.50000000000006 480.50000000000006 96.527777777777786 133.50000000000003 16.500000000000004 212.50000000000003 164.50000000000003 733.50000000000011 9347.5000000000018 537.50000000000011 878.50000000000011 0.6515151515151516 182.50000000000003 24950.000000000004 117.16666666666667 82.833333333333357 2050.0000000000005 0.34848484848484856 158.50000000000003 530.50000000000011 30.416666666666668 52550.000000000007 114.50000000000001 20.500000000000004 19850.000000000004 616.50000000000011 797.50000000000011 121.50000000000001 344.50000000000006 12522.500000000002 46.500000000000007 378.50000000000006 103.50000000000001 12390.500000000002 121.50000000000001 22.500000000000004 905.50000000000011 771.50000000000011 159.50000000000003 231.50000000000003 176.50000000000003 186.16666666666671 4250.0000000000009 11725.500000000002 11791.500000000002 800.50000000000011 941.50000000000011 45.500000000000007 833.50000000000011 68.500000000000014 34.500000000000007 920.50000000000011 61.500000000000007 36.500000000000007 107.05555555555557 821.50000000000011 145.50000000000003 130.16666666666671 114.50000000000001
decision_type=2 2 2 2 2 10 8 10 2 10 8 2 8 2 10 2 10 2 2 10 8 2 10 10 2 2 8 10 8 2 10 2 10 2 2 2 10 10 2 2 2 10 2 10 8 2 2 2 8 10 8 10 10 8 2 10 2 8 10 2 10 10 10 8 10 10 10 10 10 2 2 2 10 2 2 10 2 10 10 10 10 10 8 10 10 2 8 10 8 2 10 2 2 2 2 2 8 8 2 2 2 10 2 2 10 10 10 10 8 2 2 2 2 2 2 2 2 2 2 2 8 2 2 8 10
left_child=2 5 4 60 123 50 31 8 9 58 11 13 17 15 33 -5 -16 18 -13 122 101 25 23 -23 -25 -22 28 -28 -27 -21 100 34 -19 -15 35 39 38 -38 -37 40 -3 -41 45 44 -44 46 -36 -47 -32 -17 89 -45 61 -54 55 57 -57 -55 -6 -60 95 62 64 71 69 -66 67 70 -69 -7 -63 -64 74 -74 -68 82 77 78 -77 -50 81 -33 83 85 -85 -52 87 -84 -88 90 91 118 -93 94 -92 98 -97 115 -4 107 -10 -8 103 104 105 -12 -106 -100 109 117 113 -112 -104 -110 -95 -98 -103 -91 -2 -118 -105 -122 -14 124 -1
right_child=1 6 3 10 7 52 20 -9 30 -11 102 12 19 14 16 49 -18 32 -20 29 21 22 -24 24 -26 26 27 -29 -30 -31 48 80 -34 -35 42 36 37 -39 -40 41 -42 -43 43 51 -46 47 -48 -49 79 -51 75 -53 53 54 -56 56 -58 -59 59 -61 -62 66 63 -65 65 -67 72 68 -70 -71 -72 -73 73 -75 -76 76 -78 -79 -80 -81 -82 -83 86 84 -86 -87 88 -89 -90 108 93 92 -94 114 -96 96 97 -99 99 -101 -102 116 112 120 106 -107 -108 -109 110 -111 111 -113 -114 -115 -116 -117 119 -119 -120 -121 121 -123 -124 -125 -126
leaf_value=0.10396731603551429 -0.11383748279907931 0.1586334151388003 0.18961090703204075 0.14393193766251311 -0.074220506418037527 -0.037193852071474305 0.04985336736030032 0.18326388149539288 -0.1422921341044566 0.07545046385181732 0.11276067809438406 0.24377260022512642 0.036106757905868134 0.23789648524286378 -0.05431608747488028 -0.063551997319199152 0.13849108800315382 0.12494131467878798 0.13932953818909874 -0.060331846664952511 0.15938936881158106 -0.028667761807573688 -0.080907444848170806 0.17303856647426116 0.039535268486478509 0.039583547114463345 0.027864251924375992 -0.054029296687376757 0.08449196168522155 0.094215827125862836 0.1265783162184197 0.0075014386741167234 -0.0055383801334460388 0.11154352044785329 0.22928771058641792 -0.0019732472245100295 0.017378706841677343 0.11406885079098104 0.1168293295290268 0.023381150804768588 0.038265282662572259 0.0062118383674553577 0.02849667575038544 0.054006204523134621 -0.13092768223107099 -0.0919389358959012 -0.010346690507306145 0.02007412336238926 0.070521549655664997 0.043972184291822251 0.059587263634494556 -0.064929908045376031 -0.086181491358330295 0.14010476027364493 -0.1343064469289994 0.2136077195765447 0.029931944270144284 -0.053948549074034208 0.12483782208707729 -0.042399479043294969 -0.045781173052513648 -0.14896491162116249 -0.079021871190115278 0.28888605297921965 0.22850613177576828 -0.0099628533979778649 -0.080617068927546165 0.28731151320325488 0.041124462967236146 0.0052951985173226405 -0.01941629153022224 0.044016511267243832 0.15709924950963874 -0.030600554941981422 -0.0040051761668645838 0.043337250155539561 0.25284595234695645 0.14296003027538287 -0.10471922964655486 -0.017185229515661579 -0.012714050919589543 0.27799664553264397 -0.096355399971552735 0.085128332857811531 -0.078518405270610644 -0.028503651727413547 -0.014724045293996986 -0.030742715215321448 -0.036998495690252001 -0.093975153272331177 0.12389489632734565 0.45868435388320922 -0.0014767582009490364 -0.10857464970397106 -0.025245185793735039 0.23525914795649833 -0.034716475663951821 0.19353736638165292 0.06738510665402718 -0.027531322121073457 0.0031702448015321315 0.050468668474677382 0 0.24362954480765614 -0.018625752246615633 0.18636853671219555 0.1199059398337779 0.14368571725252902 -0.034226359220673457 0.091159410679806027 -0.081001438011620089 0.02781203824980491 0.10857191030272077 -0.01753037944609195 0.01989213007924041 0.06217514328506301 0 0.024080418959517236 0.047115669787952029 -0.1176846950734899 0.21107454419171734 0.086434756693095846 0.1389366993087226 0.15626672037044778 -0.0082468198139598568
leaf_weight=22.509985618293285 3.7699788026511731 21.763992343097925 8.7861389145255071 30.335937529802322 239.56620680913329 330.0310318544507 15.12466002255678 6.900291994214057 13.123116929084064 16.286756590008736 147.15306793153286 28.957874968647957 13.712016940116881 21.405928015708923 15.809207811951639 13.048250027000902 11.129545748233793 27.41144572943449 65.84744706004858 16.191276110708717 10.880421191453932 6.3365386724472037 9.2006531506776792 38.524019934237003 15.814231373369692 1496.7343069463968 543.85025059431791 37.933455981314182 116.90545453876257 10.697594858705996 8.7327640727162343 5.8440227657556552 12.294951088726519 24.531470343470573 11.725806161761286 229.52105603739619 72.211106088012457 150.95089629665017 31.086731132119894 1380.5157525464892 93.905952014029026 1225.8912513777614 132.00723059847951 10.368059970438479 9.7722210437059385 22.613509207963943 12.617827609181402 335.21822625398636 20.053921613842249 135.143549233675 56.724446039646864 109.80764921009541 15.002257540822027 5.9434103146195438 4.8885307013988486 16.127639781683683 20.970358189195395 18.831932004541159 6.7194075025618067 123.68318493291736 9.3632210642099363 10.278380475938318 12.94144896417856 6.1606605276465407 12.265714414417745 18.564865063875914 154.17693923786283 5.8091730624437323 27.728777907788754 172.27382997050881 1019.3126069568098 83.43513510376215 7.7112224772572509 97.324020240455866 46.008574914187193 9.5710487179458195 3.9250526204705229 5.4577643759548655 15.203711390495299 104.86085512861609 5.0991340801119796 6.6400114819407463 85.149989861994982 9.9871216490864736 56.634690269827843 62.341770894825459 334.90690199658275 80.902932830154896 8550.5777574405074 59.781672645360231 16.65723105147481 4.9437150955200178 5.7991627380251884 30.472456138581038 42.909627307206392 15.42124807089567 13.760180272161959 15.084851808845995 1864.7332848906517 15.342441961169241 8.4004352986812574 6.0947098582983008 12.512501314282416 21.732773050665855 15.422432795166968 58.23845836520195 22.609090909361839 19.793387874960899 590.23049413785338 5.9504701718688002 108.37471658363938 28.197700351476669 22.75313013792038 977.8353107124567 6.480464592576026 30.865368239581585 8.7319556176662463 6.3377379700541487 12.378074463456867 17.824154496192932 11.36455322802067 16.807913348078728 25.568049117922783 16.127450749278069 11.502750232815741
leaf_count=114 55 246 45 138 2698 4188 136 29 130 93 604 134 62 97 74 66 53 128 312 75 97 56 80 344 146 13031 5925 344 1017 52 79 65 58 115 130 2683 843 1744 361 16019 1090 14499 1533 119 115 264 145 3890 172 632 872 1274 172 68 58 182 248 211 77 1453 60 131 166 76 155 242 1998 72 354 2179 12947 1045 98 1247 602 145 59 84 229 913 60 70 1320 152 878 959 5130 1252 133234 906 251 71 83 463 640 79 71 75 9682 80 82 63 51 89 63 239 92 104 8870 90 1656 426 93 14758 97 162 87 94 180 181 47 69 119 80 62
internal_value=0 -0.0130385 0.0616792 0.0805607 -0.0257568 -0.0315128 0.0265111 -0.0372316 -0.0403854 -0.0538644 0.109367 0.0947881 0.120927 0.0734416 0.120815 0.0534195 0.0255829 0.14807 0.173446 0.0640204 0.0385906 0.0398333 0.0906543 0.118053 0.136071 0.0381727 0.0374951 0.0223872 0.0429029 0.000636148 -0.00646692 0.0192356 0.0842271 0.174384 0.0187818 0.0215729 0.045178 0.083139 0.0123592 0.0173507 0.0622053 0.0153258 0.00481766 -0.0157491 0.0165436 0.0190247 0.107113 0.0126908 0.00641657 0.0339383 -0.0342898 -0.0540401 -0.0166119 0.0240678 0.0501788 0.0669465 0.113704 -0.00285252 -0.0598188 -0.0327566 0.0692176 -0.018301 -0.00609364 0.0448449 -0.0160199 0.0870305 -0.0239353 -0.0172408 0.0907023 -0.0225554 -0.0208648 0.0265566 -0.047013 -0.0153427 -0.0632989 -0.0359424 0.0259108 -0.00804625 -0.0463657 -0.00241825 0.111203 0.162582 -0.0361778 -0.0103081 -0.0526569 0.0132424 -0.036703 -0.0649357 -0.0361649 -0.026193 0.00399561 0.0970263 0.224006 -0.022094 0.0168837 0.0697993 0.110586 0.0750061 0.0681264 0.0674628 -0.0856314 -0.0194553 0.12902 0.135787 0.123795 0.134477 0.0634598 0.0682693 -0.0283137 -0.0661975 -0.0266575 -0.058207 0.0698296 -0.0238552 -0.0850223 0.0313158 -0.053207 -0.0818963 0.00350561 -0.079277 0.190575 0.142597 0.105507 0.0975318 0.0655355
internal_weight=0 19448.8 3372.3 2773.83 598.467 13257.3 6191.52 548.327 541.427 386.256 780.678 452.085 200.681 251.404 72.8762 178.528 26.9388 134.512 94.8053 66.1689 2323.95 2276.18 69.8754 60.6748 54.3383 2206.3 2195.42 581.784 1613.64 26.8889 155.171 3867.56 39.7064 45.9374 3849.98 3205.85 483.77 223.162 260.608 2722.08 115.67 2606.41 644.131 261.955 141.779 382.175 24.3436 357.832 133.648 148.192 11171.5 120.176 2085.79 81.7641 66.7619 61.8733 37.098 24.7753 369.969 130.403 1993.15 2004.02 635.673 102.537 533.135 30.8306 1368.35 1063.13 33.538 502.305 1029.59 96.3766 305.221 105.035 200.186 9271.38 34.1576 30.2325 24.7748 124.915 17.5832 12.484 9237.23 185.688 66.6218 119.066 9051.54 166.053 8885.48 1900.12 123.411 26.8909 10.7429 96.5198 59.5669 1983.79 75.1316 59.7104 1908.66 1899.87 21.5236 47.7755 328.594 293.328 243.423 205.392 38.0315 1884.53 1776.71 72.0699 1704.64 136.572 35.2656 1568.07 36.9529 44.6255 32.6508 66.1194 16.1481 26.5561 49.9052 28.1725 39.2801 50.1402 34.0127
internal_count=285852 266050 19802 13820 5982 199393 66657 5726 5697 4321 3462 2115 940 1175 339 836 127 632 446 308 21507 21040 626 546 490 20414 20317 6269 14048 127 1376 45150 186 212 44955 37485 5631 2587 3044 31854 1336 30518 7470 3041 1648 4429 275 4154 1164 698 172954 1393 26439 939 767 709 430 279 4228 1530 10358 25500 8051 1287 6764 397 17449 13504 426 6367 13078 1211 3945 1345 2600 144314 517 458 374 1085 195 135 143797 2861 1030 1831 140936 2572 138364 28640 1840 389 154 1451 891 10298 387 308 9911 9866 212 467 1347 1203 998 843 155 9786 26800 1090 25710 2082 144 23628 560 233 331 1000 235 268 205 116 181 256 176
is_linear=0
shrinkage=0.182832


Tree=7
num_leaves=126
num_cat=0
split_feature=45 40 42 40 42 37 37 4 31 1 27 20 0 8 30 42 8 21 1 3 44 27 17 2 39 42 30 2 7 42 2 42 2 18 30 8 8 1 12 0 44 39 1 16 4 2 42 42 2 2 1 27 39 21 2 44 8 27 18 44 0 44 2 21 42 42 12 39 39 32 27 44 0 18 12 8 12 12 2 30 12 0 2 1 44 1 0 12 2 8 2 1 42 8 21 42 2 27 43 12 43 12 44 44 18 21 44 42 1 44 42 12 0 43 27 27 39 44 10 42 42 42 1 42 27
split_gain=319.619 288.986 107.832 19.9543 17.0933 11.7617 10.4379 7.91793 5.85165 7.08947 5.45302 6.29992 5.73184 14.7903 4.69862 7.14067 4.6581 4.4993 7.39451 4.25502 5.62494 6.97759 5.58424 6.31557 5.5472 7.76111 4.83014 4.6397 4.30598 7.30474 7.98038 4.76103 4.82041 4.27559 4.20185 6.42527 9.344 9.26097 5.91801 7.8388 5.39294 4.92303 5.30816 4.70849 4.65608 4.18069 5.91276 6.51048 9.58665 4.38326 11.1001 12.3024 13.3345 10.8717 13.0507 5.9842 5.83711 5.1835 4.07781 7.56791 6.58698 3.98987 6.80029 6.21463 5.95108 7.31732 5.53348 11.2768 5.83351 4.57753 5.38794 9.03217 5.512 4.95173 8.39255 4.82917 4.40055 4.69181 4.32799 4.3187 4.3172 4.26565 3.97647 6.04667 8.91274 8.31082 6.76276 8.35801 5.14701 4.96575 9.26871 21.5464 6.4408 5.33312 4.64459 4.10396 3.89809 6.50795 5.23866 5.34634 3.85342 7.82458 3.7228 4.35607 3.57281 3.49397 3.69354 3.4788 5.15876 3.64963 3.41626 3.37327 3.35169 3.24628 7.55972 8.43093 10.196 6.05736 5.70777 5.58596 5.13213 8.68639 6.24233 5.03432 5.01653
threshold=1.0000000180025095e-35 1.5000000000000002 153.50000000000003 1.5000000000000002 152.50000000000003 0.13392857142857145 0.095454545454545472 3.5000000000000004 0.43650793650793657 96550.000000000015 153.08333333333334 0.58333333333333337 65.500000000000014 441.50000000000006 1008.5000000000001 5099.5000000000009 642.50000000000011 118.83333333333336 81950.000000000015 3.5000000000000004 448.50000000000006 123.55000000000001 2.5000000000000004 167.50000000000003 118.52777777777779 3151.5000000000005 847.50000000000011 43.500000000000007 0.68333333333333346 10230.500000000002 188.50000000000003 1072.5000000000002 59.500000000000007 489.50000000000006 847.50000000000011 612.50000000000011 571.50000000000011 32950.000000000007 84.500000000000014 21.500000000000004 824.50000000000011 131.05000000000004 84750.000000000015 1.0000000180025095e-35 2.5000000000000004 168.50000000000003 11510.500000000002 11195.500000000002 178.50000000000003 143.50000000000003 74350.000000000015 121.55000000000001 125.52777777777779 48.583333333333336 157.50000000000003 180.50000000000003 535.50000000000011 18.550000000000004 106.50000000000001 120.50000000000001 16.500000000000004 268.50000000000006 167.50000000000003 64.166666666666671 8554.5000000000018 2977.5000000000005 173.50000000000003 135.5277777777778 90.045454545454561 0.58571428571428574 131.55000000000004 616.50000000000011 43.500000000000007 91.500000000000014 50.500000000000007 75.500000000000014 18.500000000000004 10.500000000000002 8.5000000000000018 1072.5000000000002 73.500000000000014 25.500000000000004 12.500000000000002 66350.000000000015 440.50000000000006 89450.000000000015 22.500000000000004 85.500000000000014 9.5000000000000018 465.50000000000006 75.500000000000014 30950.000000000004 2379.5000000000005 438.50000000000006 92.166666666666671 10799.500000000002 87.500000000000014 115.55000000000001 1.5000000000000002 174.50000000000003 3.5000000000000004 138.50000000000003 107.50000000000001 448.50000000000006 124.50000000000001 176.16666666666671 103.50000000000001 3245.5000000000005 18550.000000000004 574.50000000000011 562.50000000000011 88.500000000000014 34.500000000000007 4.5000000000000009 101.08333333333336 118.55000000000001 111.52272727272729 344.50000000000006 1.0000000180025095e-35 2603.5000000000005 1605.5000000000002 2461.5000000000005 87850.000000000015 6487.5000000000009 190.12500000000003
decision_type=2 2 2 2 2 10 8 10 8 8 10 8 2 10 10 2 10 8 8 10 2 10 10 2 10 2 10 2 10 2 2 2 2 10 10 10 10 10 10 2 2 10 10 10 10 2 2 2 2 2 10 10 10 10 2 2 10 10 10 2 2 2 2 10 2 2 10 8 10 10 10 2 2 10 10 10 10 10 2 8 8 2 2 8 2 8 2 10 2 10 2 8 2 10 8 2 2 10 2 10 2 10 2 2 10 10 2 2 8 2 2 10 2 2 8 8 10 2 8 2 2 2 8 2 10
left_child=2 5 4 113 -1 19 45 10 9 96 11 12 16 -14 34 -16 -6 -13 -19 82 28 24 26 -24 27 -26 -23 -22 31 30 -30 32 -21 -33 35 36 40 -38 39 -37 -8 42 43 -36 -40 49 47 102 -49 57 51 56 -53 54 -52 -55 -51 107 59 -59 -60 62 63 64 65 -7 67 68 -64 75 73 72 -72 74 -71 76 77 -63 -75 111 -66 -73 83 86 85 -85 87 -2 -86 93 91 -91 -92 94 -84 -95 97 -5 112 -100 104 -102 -47 -104 -48 106 -65 109 -109 -3 -88 -77 -98 124 120 116 119 123 -119 -116 -115 -122 -123 -117 -4
