tree
version=v3
num_class=1
num_tree_per_iteration=1
label_index=0
max_feature_idx=45
objective=binary sigmoid:1
feature_names=age income price hist_trans_count hist_default_sum hist_default_avg hist_late_sum hist_late_avg hist_price_sum hist_price_avg default_lst_01_sum late_lst_01_sum price_lst_01_sum default_lst_01_avg late_lst_01_avg price_lst_01_avg default_lst_03_sum late_lst_03_sum price_lst_03_sum default_lst_03_avg late_lst_03_avg price_lst_03_avg default_lst_06_sum late_lst_06_sum price_lst_06_sum default_lst_06_avg late_lst_06_avg price_lst_06_avg default_lst_09_sum late_lst_09_sum price_lst_09_sum default_lst_09_avg late_lst_09_avg price_lst_09_avg default_lst_12_sum late_lst_12_sum price_lst_12_sum default_lst_12_avg late_lst_12_avg price_lst_12_avg cat__sex cat__residentialAddress_clean cat__postalAddress_clean cat__geo_risk_rank cat__shopID cat__same_address
feature_infos=[5:89] [0:100000] [3:200] [1:14] [0:9] [0:1] [0:10] [0:1] [3:1763] [3:200] [0:1] [0:1] [3:200] [0:1] [0:1] [3:200] [0:3] [0:3] [3:599] [0:1] [0:1] [3:200] [0:6] [0:6] [3:1094] [0:1] [0:1] [3:200] [0:8] [0:9] [3:1487] [0:1] [0:1] [3:200] [0:9] [0:10] [3:1763] [0:1] [0:1] [3:200] [1:3] [1:13260] [1:13261] [0:5] [100:999] [0:1]
tree_sizes=2641 2677 2710 2684

Tree=0
num_leaves=24
num_cat=0
split_feature=45 5 40 42 42 40 5 5 5 24 22 31 42 5 22 40 42 40 40 30 2 30 24
split_gain=10513.2 4175.48 1634.35 1127.44 530.489 621.542 346.309 251.193 132.193 97.0248 75.0953 71.6637 47.739 43.4292 23.4554 21.2098 20.9136 20.3536 20.3151 26.4614 17.468 13.9038 13.4717
threshold=1.0000000180025095e-35 0.30384615384615393 1.5000000000000002 153.50000000000003 153.50000000000003 1.5000000000000002 0.10555555555555557 0.17424242424242428 0.13392857142857145 213.50000000000003 2.5000000000000004 0.69047619047619058 152.50000000000003 0.43650793650793657 1.5000000000000002 1.5000000000000002 152.50000000000003 1.5000000000000002 1.5000000000000002 435.50000000000006 9.5000000000000018 144.50000000000003 675.50000000000011
decision_type=2 10 2 2 2 2 10 8 10 10 10 10 2 10 10 2 2 2 2 8 2 10 10
left_child=1 3 8 12 10 13 21 9 -2 17 16 -7 -1 -6 -8 -14 -3 -5 -9 -20 -16 -4 -11
right_child=2 4 6 7 5 11 14 18 -10 22 -12 -13 15 -15 20 -17 -18 -19 19 -21 -22 -23 -24
leaf_value=-1.8491743090353427 -2.3891282223459402 -1.6685910523917995 -2.244901095537883 -1.8378345503501412 -1.5442033584282089 -1.075042768706469 -2.1475915741802138 -1.6272027967004217 -2.3298006463862286 -2.0220409150141783 -1.3221411566861097 -0.65144821517136098 -2.3675444564225026 -1.306566740449175 -1.7912213337443776 -2.240296242374733 -2.0930660322542765 -1.5730979697873764 -2.0788306122304676 -1.2606618360060051 -2.0865493668005399 -2.2757793028114341 -2.2830580351999714
leaf_weight=7.9602262973785392 11285.030399940908 5.7214126512408248 994.44785400480032 115.42328131198883 82.089833691716194 68.076518647372723 974.54728826135397 105.88759355992079 2080.93582457304 146.84959138184786 7.5456311777234069 87.479570247232914 262.35579171776772 256.30270297080278 9.535687752068041 77.529287375509739 42.952054396271706 23.383164748549461 3.316760957241061 24.544031083583832 248.8399908170104 2212.2795584797859 10.696554087102411
leaf_count=96 136097 69 11993 1392 990 821 11753 1277 25096 1771 91 1055 3164 3091 115 935 518 282 40 296 3001 26680 129
internal_value=-2.29853 -1.71268 -2.34219 -2.03574 -1.2581 -1.18632 -2.22869 -1.8026 -2.3799 -1.91761 -1.9034 -0.822006 -2.32475 -1.36017 -2.13148 -2.33816 -2.02321 -1.78494 -1.55582 -1.33829 -2.07231 -2.26616 -2.03896
internal_weight=0 1328.11 17805.6 777.946 550.168 493.949 4439.65 430.101 13366 296.353 56.2191 155.556 347.845 338.393 1232.92 339.885 48.6735 138.806 133.748 27.8608 258.376 3206.73 157.546
internal_count=230752 16017 214735 9382 6635 5957 53542 5187 161193 3574 678 1876 4195 4081 14869 4099 587 1674 1613 336 3116 38673 1900
is_linear=0
shrinkage=1


Tree=1
num_leaves=24
num_cat=0
split_feature=45 40 5 5 5 3 5 12 6 22 34 41 41 5 12 2 18 3 18 41 44 1 2
split_gain=3367.39 1053.28 473.955 166.054 98.4428 48.7999 34.3619 14.235 13.2941 12.8414 11.6048 11.2854 13.1617 13.0013 13.1841 12.5752 11.0529 10.6429 9.80697 14.2213 11.1164 9.44492 9.25408
threshold=1.0000000180025095e-35 1.5000000000000002 0.19090909090909094 0.19090909090909094 0.13392857142857145 2.5000000000000004 0.43650793650793657 17.500000000000004 1.5000000000000002 3.5000000000000004 2.5000000000000004 4074.5000000000005 6734.5000000000009 0.21111111111111114 52.500000000000007 197.50000000000003 120.50000000000001 2.5000000000000004 274.50000000000006 2600.5000000000005 452.50000000000006 27850.000000000004 7.5000000000000009
decision_type=2 2 8 10 10 10 10 8 10 10 10 2 2 10 10 2 10 10 10 2 2 8 2
left_child=2 4 5 7 17 -1 -4 -3 -7 -8 11 13 21 14 -5 -14 -9 -2 -12 -20 -21 -13 -10
right_child=1 3 6 10 -6 8 9 16 22 -11 18 12 15 -15 -16 -17 -18 -19 19 20 -22 -23 -24
leaf_value=0.16122170667261285 -0.069875680172042723 -0.023816291611372688 0.27534101638067299 0.39338172587294445 -0.025245293412727098 0.079543546622337299 0.33651166292139617 0.052109429806240976 0.27235385996695827 0.41873785759677484 0.09419281341643447 0.1226730155489875 0.11074361463518835 0.12471214050363393 0.16028176672936909 0.38575086769999234 0.022942573842685127 -0.083953800981912546 0.040197210777317173 0.14090876000666028 0.47395668166747296 0.024073705531713945 -0.02035241467028916
leaf_weight=350.56942373514175 4955.8725365251303 239.84534481167793 493.49126116931438 17.264959745109081 2028.2533392906189 201.93260729312897 775.88125841319561 821.89548029005527 3.6298449635505667 147.88697327673435 24.292977131903172 62.694348856806755 476.10642737150192 406.56991400569677 45.974193774163723 6.8144955039024344 2397.8719928339124 5516.596753180027 9.414256699383257 9.9007629156112689 16.005514107644558 167.04793184250593 125.98703995347023
leaf_count=3427 64405 2796 3743 184 25096 2204 4437 9491 40 759 245 662 5023 4285 491 72 28171 71692 95 100 162 1765 1407
internal_value=0 -0.0361002 0.253521 0.0510135 -0.0688732 0.105116 0.324695 0.0266414 0.0450769 0.350458 0.118716 0.113589 0.0956533 0.140219 0.233217 0.11604 0.0304334 -0.0773105 0.21355 0.285965 0.365008 0.051968 -0.00836113
internal_weight=0 17202.4 2099.38 4701.7 12500.7 682.119 1417.26 3459.61 331.549 923.768 1242.09 1182.47 712.663 469.809 63.2392 482.921 3219.77 10472.5 59.6135 35.3205 25.9063 229.742 129.617
internal_count=230752 214735 16017 53542 161193 7078 8939 40458 3651 5196 13084 12482 7522 4960 675 5095 37662 136097 602 357 262 2427 1447
is_linear=0
shrinkage=0.215961


Tree=2
num_leaves=24
num_cat=0
split_feature=45 42 37 42 37 34 16 26 3 3 8 41 9 18 24 37 42 41 27 12 42 0 0
split_gain=1796.65 415.181 263.639 58.7062 33.5611 30.4181 28.3275 19.7053 19.4727 16.7757 11.251 10.4522 8.32696 7.85143 14.6525 7.21644 12.193 8.96121 8.02607 14.4203 9.08722 8.99183 8.53551
threshold=1.0000000180025095e-35 153.50000000000003 0.095454545454545472 152.50000000000003 0.19090909090909094 1.5000000000000002 1.0000000180025095e-35 0.55000000000000016 1.5000000000000002 2.5000000000000004 852.50000000000011 4074.5000000000005 90.527777777777786 276.50000000000006 296.50000000000006 0.78888888888888908 1792.5000000000002 6570.5000000000009 111.08333333333336 88.500000000000014 4542.5000000000009 48.500000000000007 55.500000000000007
decision_type=2 2 10 2 10 10 8 10 10 10 10 2 10 10 10 10 2 2 10 10 2 2 2
left_child=1 3 9 -1 -5 7 8 11 -3 -2 13 -4 -6 -11 -15 18 -17 -18 -7 -20 22 -22 -21
right_child=2 6 5 4 12 15 -8 -9 -10 10 -12 -13 -14 14 -16 16 17 -19 19 20 21 -23 -24
leaf_value=0.26510637659136466 -0.035810942246252864 0.23386689572082422 0.037005236991946924 -0.065802522705629765 -0.0062350407253107844 0.039183717530245146 0.22976569027378413 -0.032430578844282507 0.13558457740972635 -0.059148978023054015 -0.10633348405230839 0.0087926319007226843 0.11901894676944802 0.012968753611703392 -0.046704275827812725 -0.086924018218597299 0.31245209025563314 0.082241715626036785 0.19862466120376826 0.17168723074342698 -0.04847961215629313 0.082141227661018987 0.0040176911078976963
leaf_weight=31.606720678508282 6409.8311452493072 144.61618714034557 1017.4534146860242 335.40990590304136 37.012428373098373 369.22348488122225 1457.8946813121438 382.24187595397234 326.96353560686111 2617.9619273394346 171.23511891812086 1562.416343562305 66.202420100569725 199.66011406481266 3716.5041782110929 6.9462889805436125 16.840255565941334 18.527882128953934 46.080937869846821 46.060617409646511 47.398791618645191 47.240376874804497 21.584978394210339
leaf_count=203 84108 1055 11624 3814 308 3943 7372 4559 2717 35037 2301 18105 548 2664 49745 74 177 187 489 489 499 503 231
internal_value=0 0.170196 -0.0295866 -0.0115901 -0.0325904 0.0223175 0.21451 0.0131639 0.166572 -0.0437694 -0.0513555 0.0199644 0.073976 -0.0498775 -0.0436387 0.0657891 0.151981 0.202668 0.0589423 0.0930309 0.060942 0.0162213 0.120601
internal_weight=0 2399.71 16697.2 470.231 438.625 3582.02 1929.47 2962.11 471.58 13115.2 6705.36 2579.87 103.215 6534.13 3916.16 619.904 42.3144 35.3681 577.589 208.366 162.285 94.6392 67.6456
internal_count=230752 16017 214735 4873 4670 40880 11144 34288 3772 173855 89747 29729 856 87446 52409 6592 438 364 6154 2211 1722 1002 720
is_linear=0
shrinkage=0.215961


Tree=3
num_leaves=24
num_cat=0
split_feature=45 40 42 5 5 25 40 5 42 17 40 7 36 21 42 43 44 7 5 3 28 3 41
split_gain=1024.98 662.055 212.378 47.0399 41.2654 36.3205 33.8443 10.4322 9.69005 9.58798 9.48348 10.3552 8.81561 8.66226 8.58584 8.57043 13.9374 14.4356 12.479 7.95584 7.3259 7.18692 6.99714
threshold=1.0000000180025095e-35 1.5000000000000002 153.50000000000003 0.10555555555555557 0.13392857142857145 0.18333333333333338 1.5000000000000002 0.43650793650793657 152.50000000000003 2.5000000000000004 1.5000000000000002 0.27922077922077926 333.50000000000006 47.583333333333336 118.50000000000001 4.5000000000000009 705.50000000000011 0.17424242424242428 0.29285714285714287 7.5000000000000009 3.5000000000000004 5.5000000000000009 4879.5000000000009
decision_type=2 2 2 10 10 10 2 8 2 10 2 10 10 10 2 2 2 8 8 10 8 10 2
left_child=2 4 5 9 21 10 15 12 -7 19 14 22 13 -8 -1 -4 18 -18 -17 -3 -10 -2 -12
right_child=1 3 6 -5 -6 8 7 -9 20 -11 11 -13 -14 -15 -16 16 17 -19 -20 -21 -22 -23 -24
leaf_value=0.12467073415657508 -0.056171336022687257 0.03098138129185387 0.12678688737250643 0.074104222654013382 -0.024011547386709277 0.20700274564297494 0.018406930126070257 0.21206258670665865 0.039514500013148088 -0.072222287214417022 0.14761537480647158 -0.093393605810607627 0.077012437465800332 0.21797749188977159 -0.076267040082489884 0.080618699405555758 -0.011705617663187406 0.18780651305190035 0.25160641353054292 -0.066318523494774975 0.27862297096801436 -0.077148883639144225 -0.0027936567018493354
leaf_weight=8.6599860340356809 8587.9802158847451 3170.3519408777356 1306.2556467726827 1561.2551429197192 2017.453508771956 23.875114306807518 13.166481003165243 459.4705917686224 102.76576421409845 41.667522251605988 25.804997287690639 25.141369059681892 65.912974461913109 69.762340612709522 243.65878305584192 28.541156105697155 32.014330685138702 32.372817762196064 106.44782923161983 37.752107203006744 4.9944612979888907 873.09306820482016 28.323096036911011
leaf_count=56 123340 37700 7343 14869 25096 121 75 1907 824 506 274 284 380 411 2989 192 164 171 501 467 24 12757 301
internal_value=0 -0.0239547 0.122577 0.0432769 -0.0521424 -0.0096839 0.15158 0.195156 0.0854517 0.0284146 -0.047906 0.0162466 0.140765 0.18813 -0.0683321 0.133736 0.177521 0.0895871 0.217373 0.0297805 0.0551987 -0.0581279 0.0697415
internal_weight=0 16289.6 2577.17 4811.03 11478.5 463.224 2113.94 608.312 131.635 3249.77 331.588 79.2695 148.842 82.9288 252.319 1505.63 199.376 64.3871 134.989 3208.1 107.76 9461.07 54.1281
internal_count=230752 214735 16017 53542 161193 4873 11144 2773 969 38673 3904 859 866 486 3045 8371 1028 335 693 38167 848 136097 575
is_linear=0
shrinkage=0.215961


end of trees

feature_importances:
hist_default_avg=14
cat__postalAddress_clean=11
cat__sex=9
hist_trans_count=6
cat__residentialAddress_clean=6
cat__same_address=4
price=3
price_lst_01_sum=3
price_lst_03_sum=3
default_lst_06_sum=3
price_lst_06_sum=3
default_lst_12_avg=3
age=2
hist_late_avg=2
price_lst_09_sum=2
default_lst_12_sum=2
cat__shopID=2
income=1
hist_late_sum=1
hist_price_sum=1
hist_price_avg=1
default_lst_03_sum=1
late_lst_03_sum=1
price_lst_03_avg=1
default_lst_06_avg=1
late_lst_06_avg=1
price_lst_06_avg=1
default_lst_09_sum=1
default_lst_09_avg=1
price_lst_12_sum=1
cat__geo_risk_rank=1

parameters:
[boosting: gbdt]
[objective: binary]
[metric: auc,average_precision,binary_logloss]
[tree_learner: serial]
[device_type: cpu]
[linear_tree: 0]
[data: ]
[valid: ]
[num_iterations: 300]
[learning_rate: 0.215961]
[num_leaves: 24]
[num_threads: 0]
[deterministic: 1]
[force_col_wise: 0]
[force_row_wise: 0]
[histogram_pool_size: -1]
[max_depth: 22]
[min_data_in_leaf: 36]
[min_sum_hessian_in_leaf: 0.001]
[bagging_fraction: 0.749061]
[pos_bagging_fraction: 1]
[neg_bagging_fraction: 1]
[bagging_freq: 4]
[bagging_seed: 22734]
[feature_fraction: 0.78821]
[feature_fraction_bynode: 1]
[feature_fraction_seed: 5052]
[extra_trees: 0]
[extra_seed: 5559]
[early_stopping_round: 15]
[first_metric_only: 0]
[max_delta_step: 0]
[lambda_l1: 0.348378]
[lambda_l2: 1.59992]
[linear_lambda: 0]
[min_gain_to_split: 0]
[drop_rate: 0.1]
[max_drop: 50]
[skip_drop: 0.5]
[xgboost_dart_mode: 0]
[uniform_drop: 0]
[drop_seed: 23992]
[top_rate: 0.2]
[other_rate: 0.1]
[min_data_per_group: 100]
[max_cat_threshold: 32]
[cat_l2: 10]
[cat_smooth: 10]
[max_cat_to_onehot: 4]
[top_k: 20]
[monotone_constraints: ]
[monotone_constraints_method: basic]
[monotone_penalty: 0]
[feature_contri: ]
[forcedsplits_filename: ]
[refit_decay_rate: 0.9]
[cegb_tradeoff: 1]
[cegb_penalty_split: 0]
[cegb_penalty_feature_lazy: ]
[cegb_penalty_feature_coupled: ]
[path_smooth: 0]
[interaction_constraints: ]
[verbosity: 1]
[saved_feature_importance_type: 0]
[max_bin: 255]
[max_bin_by_feature: ]
[min_data_in_bin: 3]
[bin_construct_sample_cnt: 200000]
[data_random_seed: 2213]
[is_enable_sparse: 1]
[enable_bundle: 1]
[use_missing: 1]
[zero_as_missing: 0]
[feature_pre_filter: 0]
[pre_partition: 0]
[two_round: 0]
[header: 0]
[label_column: ]
[weight_column: ]
[group_column: ]
[ignore_column: ]
[categorical_feature: ]
[forcedbins_filename: ]
[objective_seed: 29849]
[num_class: 1]
[is_unbalance: 0]
[scale_pos_weight: 1]
[sigmoid: 1]
[boost_from_average: 1]
[reg_sqrt: 0]
[alpha: 0.9]
[fair_c: 1]
[poisson_max_delta_step: 0.7]
[tweedie_variance_power: 1.5]
[lambdarank_truncation_level: 30]
[lambdarank_norm: 1]
[label_gain: ]
[eval_at: ]
[multi_error_top_k: 1]
[auc_mu_weights: ]
[num_machines: 1]
[local_listen_port: 12400]
[time_out: 120]
[machine_list_filename: ]
[machines: ]
[gpu_platform_id: -1]
[gpu_device_id: -1]
[gpu_use_dp: 0]
[num_gpu: 1]

end of parameters

pandas_categorical:null
