tree
version=v3
num_class=1
num_tree_per_iteration=1
label_index=0
max_feature_idx=75
objective=binary sigmoid:1
feature_names=age income price hist_trans_count hist_default_sum hist_default_avg hist_late_sum hist_late_avg hist_price_sum hist_price_avg default_lst_01_sum defualted_payment_lst_01_sum money_lost_lst_01_sum late_lst_01_sum price_lst_01_sum late_payment_first_lst_01_sum default_lst_01_avg defualted_payment_lst_01_avg money_lost_lst_01_avg late_lst_01_avg price_lst_01_avg late_payment_first_lst_01_avg default_lst_03_sum defualted_payment_lst_03_sum money_lost_lst_03_sum late_lst_03_sum price_lst_03_sum late_payment_first_lst_03_sum default_lst_03_avg defualted_payment_lst_03_avg money_lost_lst_03_avg late_lst_03_avg price_lst_03_avg late_payment_first_lst_03_avg default_lst_06_sum defualted_payment_lst_06_sum money_lost_lst_06_sum late_lst_06_sum price_lst_06_sum late_payment_first_lst_06_sum default_lst_06_avg defualted_payment_lst_06_avg money_lost_lst_06_avg late_lst_06_avg price_lst_06_avg late_payment_first_lst_06_avg default_lst_09_sum defualted_payment_lst_09_sum money_lost_lst_09_sum late_lst_09_sum price_lst_09_sum late_payment_first_lst_09_sum default_lst_09_avg defualted_payment_lst_09_avg money_lost_lst_09_avg late_lst_09_avg price_lst_09_avg late_payment_first_lst_09_avg default_lst_12_sum defualted_payment_lst_12_sum money_lost_lst_12_sum late_lst_12_sum price_lst_12_sum late_payment_first_lst_12_sum default_lst_12_avg defualted_payment_lst_12_avg money_lost_lst_12_avg late_lst_12_avg price_lst_12_avg late_payment_first_lst_12_avg cat__sex cat__residentialAddress_clean cat__postalAddress_clean cat__geo_risk_rank cat__shopID cat__same_address
feature_infos=[7:90] [0:100000] [3:200] [1:14] [0:10] [0:1] [0:11] [0:1] [3:1808] [3:200] [0:1] [0:4] [0:200] [0:1] [3:200] [0:4] [0:1] [0:4] [0:200] [0:1] [3:200] [0:4] [0:3] [0:12] [0:490.5] [0:3] [3:597] [0:12] [0:1] [0:4] [0:200] [0:1] [3:200] [0:4] [0:6] [0:24] [0:822.25] [0:6] [3:1120] [0:23] [0:1] [0:4] [0:200] [0:1] [3:200] [0:4] [0:9] [0:28] [0:970] [0:9] [3:1460] [0:28] [0:1] [0:4] [0:200] [0:1] [3:200] [0:4] [0:10] [0:30] [0:970] [0:11] [3:1732] [0:30] [0:1] [0:4] [0:200] [0:1] [3:200] [0:4] [1:3] [1:13260] [1:13261] [0:5] [100:999] [0:1]
tree_sizes=7102 7164 7200 7158

Tree=0
num_leaves=67
num_cat=0
split_feature=75 5 70 52 70 70 60 70 42 52 22 38 60 52 26 38 32 14 46 74 1 71 57 9 54 74 6 38 65 32 38 9 9 74 71 45 1 36 2 26 27 14 27 18 32 57 74 38 14 2 71 2 18 14 14 38 1 23 38 14 60 60 71 26 30 71
split_gain=11229.7 5161.29 1361.96 581.18 452.343 368.211 285.23 192.124 152.076 109.276 100.221 96.9769 64.5971 31.5032 30.4683 30.7372 20.707 20.3096 20.0768 19.8949 17.7979 16.5605 15.5528 15.9542 15.5045 14.5552 14.2896 13.7317 13.6264 13.8206 13.3726 14.4931 14.351 15.5458 18.161 14.6831 13.9815 13.2298 13.007 12.7593 12.3604 12.2173 12.9078 12.0922 11.9925 18.5116 11.7195 11.5654 17.5819 14.9634 11.4457 26.5619 25.4421 11.8197 11.3841 11.981 12.8652 11.321 11.1663 16.1908 11.4207 13.1095 11.215 10.6316 10.5012 19.7155
threshold=1.0000000180025095e-35 0.37980769230769235 1.5000000000000002 0.18333333333333338 1.5000000000000002 2.5000000000000004 4.1250000000000009 2.5000000000000004 0.52083333333333337 0.69047619047619058 1.5000000000000002 241.50000000000003 8.1250000000000018 0.23611111111111113 371.50000000000006 512.50000000000011 112.83333333333336 36.500000000000007 2.5000000000000004 887.50000000000011 20850.000000000004 1613.5000000000002 1.5857142857142861 147.07142857142858 96.02500000000002 463.50000000000006 2.5000000000000004 211.50000000000003 0.31666666666666671 92.583333333333357 130.50000000000003 74.267857142857153 104.95454545454547 684.50000000000011 7626.5000000000009 1.9166666666666667 63650.000000000007 190.12500000000003 47.500000000000007 454.50000000000006 1.5000000000000002 180.50000000000003 3.5000000000000004 2.8750000000000004 91.833333333333357 1.8819444444444446 392.50000000000006 115.50000000000001 14.500000000000002 167.50000000000003 4254.5000000000009 160.50000000000003 56.750000000000007 60.500000000000007 136.50000000000003 342.50000000000006 56850.000000000007 5.5000000000000009 328.50000000000006 117.50000000000001 145.12500000000003 86.125000000000014 2173.5000000000005 359.50000000000006 11.85416666666667 5576.5000000000009
decision_type=2 2 2 2 2 2 2 2 2 2 2 2 2 2 2 2 2 2 2 2 8 2 2 2 2 2 2 2 2 2 2 2 2 2 2 2 8 2 2 2 2 2 2 2 2 2 2 2 2 2 2 2 2 2 2 2 8 2 2 2 2 2 2 2 2 2
left_child=1 3 6 11 9 8 47 10 27 -3 -6 30 25 20 16 38 58 21 22 24 -5 -14 23 -8 -12 -7 28 -4 29 -13 32 -32 33 34 35 -1 -36 -10 -16 -31 -39 42 -33 -9 -20 -46 -23 48 -2 54 51 -24 53 -53 -49 -56 -57 -19 62 60 61 -60 -15 -58 65 -52
right_child=2 4 5 13 7 12 18 43 37 -11 19 26 17 14 15 -17 -18 57 44 -21 -22 46 50 -25 -26 -27 -28 -29 -30 39 31 41 -34 -35 36 -37 -38 40 -40 -41 -42 -43 -44 -45 45 -47 -48 49 -50 -51 64 52 -54 -55 55 56 63 -59 59 -61 -62 -63 -64 -65 -66 -67
leaf_value=-1.6612476853038185 -2.3803620787148332 -0.016750662207380973 -2.4570231709744323 -2.1571232105097926 -0.76058738693112704 -2.3343542169049329 -2.028093763145268 -0.3174179791309264 -2.3714234254676292 0.77700148543424952 -0.18630920410878016 -2.2670354623632352 -2.3066308024598388 -1.6595795539753735 -1.1682329817742192 -1.3379137236289762 -1.6623743523864247 -2.1027312974817853 -1.9966150006313979 -0.74811970896681945 -1.4307179661797242 -2.0166494479897779 -2.1137857730669367 -2.2773719769525527 -0.85741303615088937 -2.2132309908392305 -2.3081121901818706 -2.4860368718275909 -1.7196794702763278 -2.0285534091868946 -2.1149294789313089 -1.8353196733925989 -1.4156602206742226 -1.9816468035811667 -1.7255446902405081 -1.1109391060114009 -2.3292086310034041 -1.8739292692628831 -0.3696436753187009 -2.3891990642637935 -2.2835983876044699 -2.115567489709314 -1.4269066416633138 0.6734064750363502 -1.2478055945789128 -1.9703255128406643 -1.5023038660336252 -2.2623879162496259 -2.1479161355078462 -2.3258289887848482 -1.5307628050019892 -1.8314974709536245 -2.2188587401618198 -1.1556290217770051 -2.1451163647550886 -2.322935660869081 -2.314208411717285 -1.7446288769641991 -0.98735893992015811 -1.4341400348526534 -1.373573338133514 -0.15106000510382778 -1.2060210373634708 -2.088680175708955 -1.8362552392008884 -2.1817938979178333
leaf_weight=41.987523883581161 64.799643158912659 64.716990552842617 4436.0480203852057 7.4387345463037482 172.49598886817694 282.50660754740238 691.30639716982841 8.1826080009341222 2364.6084070578218 84.553616009652615 145.46858668327332 71.659809462726116 8.2652606070041639 15.125426910817621 8.1826080009341258 16.530521214008331 20.084583275020123 214.81412317603827 18.266225941479206 24.713129214942455 31.160032488405704 12.06728048622608 129.10337068140507 47.359943278133869 11.984627880156038 430.28946720063686 59.840486794710159 7812.4896309524775 16.034605577588081 207.70599905401468 40.41712436825037 99.431085102260113 23.390687517821789 45.128322914242744 16.530521214008335 11.654017455875872 10.662186183035372 13.307069577276705 21.572330184280872 18.100920729339123 144.89001844078302 22.398856244981289 16.117258183658123 29.341675154864788 14.960121698677542 11.323407031595705 25.704960487782955 1187.4699914082885 397.80699301511049 395.74067786335945 9.4223970919847471 9.0917866677045875 10.662186183035372 11.736670061945913 377.06118889153004 195.14280293136835 54.137456975877285 16.034605577588081 14.546858668327337 13.389722183346747 7.6866923645138732 8.0999553948640806 55.955814309418201 106.29125140607357 184.97653238475323 41.574260853230953
leaf_count=508 784 783 53671 90 2087 3418 8364 99 28609 1023 1760 867 100 183 99 200 243 2599 221 299 377 146 1562 573 145 5206 724 94522 194 2513 489 1203 283 546 200 141 129 161 261 219 1753 271 195 355 181 137 311 14367 4813 4788 114 110 129 142 4562 2361 655 194 176 162 93 98 677 1286 2238 503
internal_value=-2.30247 -1.19395 -2.38537 -1.79227 -0.178106 -2.44002 -2.1678 -0.418432 -2.45643 0.443318 -0.519254 -1.97735 -2.19507 -1.20435 -1.1299 -0.823755 -1.241 -2.02522 -1.99694 -0.296505 -1.56635 -1.77437 -2.00796 -2.04404 -0.231749 -2.26122 -2.12237 -2.47554 -2.08697 -2.10789 -1.81276 -1.89258 -1.71945 -1.77978 -1.67026 -1.5299 -1.95779 -2.36365 -0.562667 -2.05762 -2.24765 -1.82853 -1.77415 0.491743 -1.72354 -1.54479 -1.65961 -2.24041 -2.18054 -2.2524 -1.94125 -2.02874 -1.69009 -1.42931 -2.23726 -2.1966 -2.25137 -2.07648 -1.17097 -0.983372 -0.804973 -0.640761 -1.29638 -2.16456 -1.88256 -2.05397
internal_weight=0 1462.29 19719.3 920.833 541.457 15761 3958.23 392.187 14771.3 149.271 354.662 701.059 989.682 219.773 181.175 46.2855 134.889 276.886 1179.78 182.166 38.5988 46.0375 1135.23 738.666 157.453 712.796 373.342 12248.5 313.501 297.467 327.718 178.364 149.353 125.963 80.8342 53.6415 27.1927 2522.81 29.7549 225.807 158.197 137.947 115.548 37.5243 44.5498 26.2835 37.7722 2778.45 462.607 2315.84 396.567 160.594 31.4906 20.8285 1920.1 732.633 355.572 230.849 114.804 43.7232 30.3335 22.6468 71.0812 160.429 235.973 50.9967
internal_count=256272 17692 238580 11141 6551 190690 47890 4745 178716 1806 4291 8482 11974 2659 2192 560 1632 3350 14274 2204 467 557 13735 8937 1905 8624 4517 148193 3793 3599 3965 2158 1807 1524 978 649 329 30523 360 2732 1914 1669 1398 454 539 318 457 33616 5597 28019 4798 1943 381 252 23231 8864 4302 2793 1389 529 367 274 860 1941 2855 617
is_linear=0
shrinkage=1


Tree=1
num_leaves=67
num_cat=0
split_feature=75 72 5 5 51 72 31 29 34 50 38 32 2 44 2 5 35 57 45 38 72 32 38 18 38 72 74 50 29 74 72 54 32 2 20 20 20 48 9 57 54 2 32 48 38 72 32 44 44 50 20 2 2 74 72 72 43 32 50 20 2 54 32 38 74 25
split_gain=486.86 697.479 255.934 164.381 21.9675 23.0481 17.8019 16.961 14.996 14.8891 13.7213 12.8801 10.8867 13.8305 12.772 12.0798 11.545 13.8231 10.3023 9.93178 11.8018 9.92384 9.85913 9.6124 9.58545 8.90732 9.82524 8.87149 8.7971 8.52282 12.1845 8.45361 8.22733 14.8865 8.19787 8.01601 7.97331 7.74982 8.98763 8.47056 13.256 8.07237 9.76136 7.6559 7.52158 7.21575 7.1826 9.52285 8.61094 7.15089 7.49987 7.0718 7.0643 10.1468 7.06003 8.19887 6.99761 6.99699 7.11462 6.97373 14.1295 8.85903 6.91609 6.88613 6.65673 6.60645
threshold=1.0000000180025095e-35 72.500000000000014 0.13392857142857145 0.34848484848484856 2.5000000000000004 9317.5000000000018 0.58333333333333337 1.8333333333333337 1.5000000000000002 344.50000000000006 746.50000000000011 107.16666666666667 144.50000000000003 118.08333333333336 115.50000000000001 0.27922077922077926 7.5000000000000009 1.6458333333333337 0.77500000000000013 186.50000000000003 1173.5000000000002 157.16666666666671 836.50000000000011 184.50000000000003 358.50000000000006 11648.500000000002 932.50000000000011 256.50000000000006 2.1666666666666674 423.50000000000006 5967.5000000000009 15.020833333333334 52.166666666666679 88.500000000000014 185.50000000000003 47.500000000000007 25.500000000000004 30.125000000000004 70.267857142857153 1.8166666666666669 66.050000000000011 131.50000000000003 75.833333333333357 178.87500000000003 144.50000000000003 1137.5000000000002 42.166666666666679 53.708333333333336 51.708333333333336 572.50000000000011 191.50000000000003 27.500000000000004 116.50000000000001 348.50000000000006 8890.5000000000018 9813.5000000000018 0.81666666666666676 120.83333333333336 404.50000000000006 122.50000000000001 9.5000000000000018 114.16666666666667 75.166666666666671 198.50000000000003 208.50000000000003 1.5000000000000002
decision_type=2 2 2 2 2 2 2 2 2 2 2 2 2 2 2 2 2 2 2 2 2 2 2 2 2 2 2 2 2 2 2 2 2 2 2 2 2 2 2 2 2 2 2 2 2 2 2 2 2 2 2 2 2 2 2 2 2 2 2 2 2 2 2 2 2 2
left_child=1 7 9 4 5 19 12 24 23 25 11 -10 13 15 16 34 21 -18 57 20 -3 59 -14 35 -1 26 65 46 -5 -23 -31 32 33 -20 -4 51 -7 41 54 40 -40 -17 -43 -41 -38 -11 -28 48 -48 50 -36 -8 53 -26 -39 -56 -47 58 -6 60 -15 -61 -34 -9 -58 -2
right_child=2 3 6 28 18 36 8 63 10 45 -12 -13 22 14 -16 37 17 -19 31 -21 -22 29 -24 -25 52 -27 27 -29 -30 30 -32 -33 62 -35 49 -37 44 38 39 43 -42 42 -44 -45 -46 56 47 -49 -50 -51 -52 -53 -54 -55 55 -57 64 -59 -60 61 -62 -63 -64 -65 -66 -67
leaf_value=-0.27152887893356298 -0.068293434923791724 0.3080579402612727 0.00263216135172579 0.17722905546829468 0.2524409767006971 0.59871373350902068 0.2682247195827544 -0.591236072628325 0.19331387262899166 -0.1415115386652713 0.60441966159286031 -0.11770361994325994 0.077733796305377911 0.47253689086415468 -0.12501595671468216 -0.0061327361674148196 0.65799504377481066 0.047021989820172666 -0.13336139914335235 0.44379117445925598 0.6654187207349046 -0.046318327448439313 0.4854558956513042 0.38211216788973279 -0.28142483337462498 -0.11533641295513558 -0.1091109268108343 -0.10244592466274151 0.10977422438337879 0.021101069827520563 0.34426107664522343 0.27194453241540734 0.58611319931052164 0.45258796176792943 0.528923301196497 -0.083504706856228114 0.05232259375395077 0.13904330748146654 0.10411046392312198 -0.030080513534001423 0.61133030074523376 0.01766869238075439 0.60971828964781338 0.15819300804100314 0.31853765986349941 -0.091912242870705374 0.12670932735286489 0.013038910257084068 0.61655624691191224 -0.065328480134056732 0.10183656760366033 -0.0066706130515560604 -0.2493731706439441 -0.031113237847967035 0.6800117982893521 0.23012899343578136 0.050323119423267074 0.38480915078562017 -0.11915671974229265 -0.08725970283599975 0.0026940472017956099 0.26563293278200462 0.38498860996214662 -0.30828575906218469 -0.20931763551534471 -0.10545491116200328
leaf_weight=354.48282118886709 6570.7468574568629 20.565329775214195 750.54152227193117 839.39321884512901 14.822367005050181 11.524878472089766 18.032043538987637 32.018313348293304 57.853936865925789 654.36340969800949 8.5548676848411542 37.19459680467844 975.13961207121611 11.230465352535246 149.0885491296649 219.67838610708714 9.5435285940766352 17.45673119276762 13.457331195473673 149.81713942438364 105.41137978434563 43.096071116626263 9.7480973154306394 8.0924861356616002 38.238346353173256 780.15993605554104 70.157240509986877 156.87588449567556 559.00028431415558 40.540440820157528 39.388920806348324 172.95904571563005 39.268490739166737 15.581659130752085 13.098838888108732 466.81919489055872 27.306126073002815 115.60017314553261 359.76281026750803 163.63314861059189 8.5327902808785421 11.255573868751528 7.8088962733745566 47.468342736363411 56.379859380424023 4592.5596640482545 29.201564557850361 337.51814079284668 7.416434019804 12.714459024369715 15.407920457422732 118.94784685969353 94.516300037503242 99.507197611033916 9.0700730457901937 29.592046432197094 19.003266267478466 13.636557370424269 20.320402756333351 266.48683562129736 161.58373830467463 12.264290057122706 164.54313941299915 32.135895974934101 145.066556237638 944.08501851558685
leaf_count=2925 86673 165 8659 3658 100 99 215 144 641 8830 91 409 10923 125 1686 2515 95 171 101 1314 862 495 110 92 328 10328 920 2107 2436 472 450 1002 298 111 150 5536 215 1287 3926 1817 93 130 91 486 487 61914 382 4447 98 147 179 1398 824 867 99 320 264 105 160 3046 1827 132 1351 140 2007 12797
internal_value=0 0.12655 -0.0569471 0.2371 0.383867 0.459312 0.0329012 -0.251045 -0.0267129 -0.0834189 0.118826 0.0716179 0.0450917 0.0305968 -0.0165613 0.0506628 0.0104113 0.272555 0.321772 0.520323 0.608813 -0.00217403 0.0820613 -0.0514486 -0.228452 -0.0729681 -0.0688871 -0.0178241 0.150323 0.102 0.181736 0.34347 0.395765 0.183779 0.0125974 -0.057632 0.280436 0.081629 0.102745 0.0789005 0.116833 0.0166401 0.271354 0.0125746 0.232671 -0.100591 0.0121494 0.0350283 0.234227 0.191391 0.304928 0.0305115 -0.162176 -0.101521 0.191648 0.344411 -0.0949441 0.139268 0.0391336 -0.030655 0.0347512 -0.0711961 0.425339 -0.453657 -0.179164 -0.0729702
internal_weight=0 2874.89 18522.4 2223.99 825.594 371.005 4215.23 650.899 715.495 14307.2 103.603 95.0485 3499.73 2514.84 750.68 1764.16 601.591 27.0003 454.589 275.794 125.977 574.591 984.888 611.892 586.745 8896.16 8116 601.169 1398.39 123.025 79.9294 405.81 232.851 29.039 791.763 603.799 95.2109 972.402 733.659 579.397 368.296 238.743 19.0645 211.101 83.686 5410.99 444.293 374.136 36.618 41.2212 28.5068 136.98 232.262 137.746 154.262 38.6621 4756.63 48.7793 35.1428 451.565 172.814 278.751 203.812 64.1542 164.07 7514.83
internal_count=256272 17692 238580 12464 6370 3142 47813 5228 8382 190767 1141 1050 39431 28398 8499 19899 6813 266 3228 2341 1027 6547 11033 7241 4944 117752 107424 7954 6094 1417 922 2863 1861 212 9135 7149 801 10764 8028 6322 4019 2736 221 2303 702 73015 5847 4927 480 476 329 1613 2019 1195 1706 419 64185 365 260 5130 1952 3178 1649 284 2271 99470
is_linear=0
shrinkage=0.414902


Tree=2
num_leaves=67
num_cat=0
split_feature=70 75 72 70 72 64 69 23 74 4 38 3 72 38 0 74 72 74 47 74 9 9 24 24 73 54 74 74 0 14 27 0 22 26 26 75 45 53 14 72 72 14 14 72 0 0 14 14 11 9 43 0 9 14 51 9 9 15 33 0 73 9 5 74 26 12
split_gain=369.466 189.608 170.832 156.634 40.1389 24.4935 22.1038 17.3639 13.6069 11.9274 10.3606 8.71031 9.21807 10.2235 8.99709 8.53081 8.76486 10.0347 10.1032 8.47428 7.5672 13.2253 7.4857 7.45611 8.62385 7.59398 7.44156 12.5199 7.42747 7.36687 9.91505 8.51198 8.4529 8.03909 7.97854 7.60983 7.36064 9.71817 7.28321 11.0839 9.30958 8.47562 7.18085 7.47327 8.67919 8.60845 7.15739 8.19223 6.97514 6.9596 12.0051 11.6258 11.0538 10.1982 11.2258 6.93032 6.8714 6.80067 6.70107 9.30573 8.95971 14.999 8.62336 10.2126 7.82081 8.11623
threshold=1.5000000000000002 1.0000000180025095e-35 37.500000000000007 2.5000000000000004 37.500000000000007 0.17424242424242428 0.38750000000000007 4.5000000000000009 111.50000000000001 1.5000000000000002 214.50000000000003 3.5000000000000004 5494.5000000000009 521.50000000000011 28.500000000000004 708.50000000000011 13022.500000000002 292.50000000000006 2.5000000000000004 984.50000000000011 29.708333333333339 46.535714285714292 323.25000000000006 120.12500000000001 1.5000000000000002 36.013888888888893 435.50000000000006 635.50000000000011 70.500000000000014 135.50000000000003 7.5000000000000009 45.500000000000007 1.0000000180025095e-35 426.50000000000006 178.50000000000003 1.0000000180025095e-35 1.7750000000000001 1.3095238095238098 107.50000000000001 1835.5000000000002 4115.5000000000009 53.500000000000007 70.500000000000014 11911.500000000002 64.500000000000014 42.500000000000007 75.500000000000014 116.50000000000001 3.5000000000000004 150.18333333333337 0.45000000000000007 60.500000000000007 156.06250000000003 62.500000000000007 8.5000000000000018 107.05555555555557 183.83333333333334 1.5000000000000002 0.83333333333333337 25.500000000000004 4.5000000000000009 97.527777777777786 0.27922077922077926 929.50000000000011 408.50000000000006 52.250000000000007
decision_type=2 2 2 2 2 2 2 2 2 2 2 2 2 2 2 2 2 2 2 2 2 2 2 2 2 2 2 2 2 2 2 2 2 2 2 2 2 2 2 2 2 2 2 2 2 2 2 2 2 2 2 2 2 2 2 2 2 2 2 2 2 2 2 2 2 2
left_child=4 2 7 5 6 11 46 36 -5 19 -8 12 13 -3 -13 16 20 -18 -19 -4 -6 42 23 25 -25 38 -14 -28 29 32 34 -32 35 -34 -31 -23 37 -2 39 -11 -40 -41 43 44 45 -22 -1 -48 -16 53 51 52 -51 54 55 -10 -54 -57 60 -60 62 -62 63 -55 65 -61
right_child=1 3 9 8 15 -7 10 -9 49 22 -12 14 26 -15 48 -17 17 18 -20 -21 21 28 -24 24 -26 -27 27 -29 -30 30 31 -33 33 -35 -36 -37 -38 -39 40 41 -42 -43 -44 -45 -46 -47 47 -49 -50 50 -52 -53 56 58 -56 57 -58 -59 59 64 61 -63 -64 -65 -66 -67
leaf_value=-0.14709784616527047 -0.18730493519508012 -0.068247686085401965 0.12929225948927459 0.47697696297617165 -0.01467591062582081 -0.042776064883056852 -0.44990459446152536 0.18545415001688387 0.12862649306165883 -0.2260485169204752 -0.15549856846015017 -0.13870124478306983 -0.12424361209057729 0.32032226477243664 -0.096480657955067217 0.059883443270587658 0.58554747167378196 -0.065825365505365524 0.46500512962782486 0.39922544031759938 0.27577238330647191 0.25523415815722228 0.28572739120226548 -0.17978655875792063 0.039413347219048538 0.19184121286943517 -0.038546360500366562 -0.10727061502356518 -0.058110029823758291 0.23214093462179497 -0.26312636338132861 0.091738278009635035 0.12498987260853887 -0.11456457712601011 0.1186461100665263 0.053063288079936335 -0.30359947545472626 0.095269236948786432 0.35467480036808408 0.14552829117766594 0.057529217757886622 -0.064132704495482487 0.53382676494309778 0.55382209465223231 0.54720685921284928 0.039833311671727517 0.52227113747146781 0.057138159081134669 0.14744452514869924 0.67931306647650125 -0.070154562276640506 -0.10242347203248585 0.15196964288822276 0.013245775362623335 0.41487887142825841 -0.15551423985819618 0.52905531721847188 0.22415737718885964 -0.16014507261046804 0.0088237920927382116 0.7499823317788572 0.074389563290667274 0.33476169774455528 0.28909243503215881 -0.1874108570258031 0.20955421763802867
leaf_weight=12.18750638514757 304.6447357237339 3174.0126283466816 1173.8872797042131 14.311625421047209 104.48437702655792 2089.4051909223199 30.603127285838127 20.98988251388073 270.10971761494875 27.412383817136288 63.848746217787266 1137.3774441108108 1201.2054340317845 11.120584011077879 2703.6296345703304 1541.379084572196 12.794835545122622 15.937390744686128 9.3494871258735639 19.929296098649502 43.069901451468468 32.432539664208889 25.66483311355114 33.204099610447884 359.76379249244928 113.60394906997681 709.69812313839793 1282.7463337555528 54.725657649338245 122.50205921381712 19.966665796935558 26.300302587449551 671.97241219133139 24.562671661376953 845.95458120107651 1147.1765205413103 88.797186426818371 22.136590965092182 27.962099432945251 81.011192828416824 50.643681451678276 55.481743663549423 11.325170077383516 8.7144457176327688 8.8873009681701642 68.863175615668297 9.7600661441683787 18.074198834598064 19.824086256325245 12.764144405722616 23.671750567853451 11.809618666768072 35.810346640646458 262.47293051332235 20.989332921802998 29.879541248083115 10.610929563641546 10.497934907674788 57.609557941555977 154.37996868789196 8.2065126001834887 16.2723673209548 17.278703942894936 24.748306669294834 25.553880766034126 44.151589140295982
leaf_count=142 3225 46957 6691 170 1148 25886 195 96 3013 120 502 17145 17911 172 40762 16132 135 191 77 116 452 204 112 140 1506 482 10591 18999 566 1293 156 212 5368 193 8928 13961 735 125 123 342 222 238 118 89 95 711 106 196 251 150 286 139 420 3220 192 339 127 106 632 1758 96 194 170 290 272 421
internal_value=0 -0.051347 0.0558954 -0.0706259 0.0790159 -0.0837339 -0.144093 -0.178749 0.0830812 0.107971 -0.253121 -0.0920883 -0.0826522 -0.0668311 -0.107663 0.0853226 0.0974524 0.294143 0.136574 0.133996 0.0950503 0.0987673 0.0677957 0.0601065 0.0206449 0.103541 -0.0984153 -0.0828108 0.09279 0.0956584 0.124172 -0.0627753 0.0802016 0.11645 0.133137 0.0587488 -0.197386 -0.168021 0.0618037 0.0118306 0.165118 0.0603877 0.222837 0.19332 0.164721 0.131608 0.113122 0.227799 -0.0946728 0.0773724 0.184369 0.269129 0.343569 0.0665105 0.125043 0.10469 0.243796 -0.0549494 0.0346458 -0.0123144 0.0748099 0.313356 0.0550552 0.0375669 0.026009 0.0539635
internal_weight=0 15785.3 2405.13 13380.1 4904.87 12329 134.474 436.568 1051.13 1968.56 94.4519 10239.6 6378.78 3185.13 3860.83 4770.4 3229.02 38.0817 25.2869 1193.82 3190.94 3086.45 774.748 749.083 392.968 356.115 3193.65 1992.44 2945.59 2890.87 1014.72 46.267 1876.14 696.535 968.457 1179.61 415.579 326.781 242.511 163.905 78.6058 136.493 140.86 129.535 120.82 111.933 40.0218 27.8343 2723.45 1036.82 94.6668 70.995 59.1854 942.15 331.477 310.487 46.4213 40.3775 610.674 281.695 328.979 24.4789 304.5 287.221 224.085 198.532
internal_count=256112 204942 14273 190669 51170 178674 1141 4181 11995 10092 697 152788 94630 47129 58158 50029 33897 403 268 6807 33494 32346 3285 3173 1646 1527 47501 29590 30881 30315 10589 368 19726 5561 10221 14165 4085 3350 1045 700 345 580 1465 1347 1258 1163 444 302 41013 11825 1122 836 697 10703 3650 3458 547 445 7053 3083 3970 290 3680 3510 2451 2179
is_linear=0
shrinkage=0.414902


Tree=3
num_leaves=67
num_cat=0
split_feature=52 72 75 72 75 47 65 2 72 8 8 1 74 72 8 71 74 36 20 2 37 44 2 66 44 71 8 8 56 52 74 2 71 66 46 72 20 38 8 43 71 20 44 48 8 36 72 31 66 20 20 74 1 1 2 8 1 8 2 74 74 1 38 71 72 72
split_gain=55.6344 31.4559 20.084 47.6783 12.5672 10.5204 9.71529 11.4012 10.2578 11.0269 8.66683 7.71118 10.7789 12.1133 10.1528 7.56176 9.01868 9.20221 8.21993 7.80057 7.4961 8.9462 8.38117 8.6069 8.27637 7.50652 7.25203 7.21677 9.49896 9.46173 7.06451 10.337 6.94899 6.82519 9.21644 9.74027 7.76765 6.60955 9.0584 10.9287 8.47788 7.81843 7.67712 6.6992 6.85642 6.50381 6.59468 7.04884 6.43785 6.35203 6.54802 7.74907 6.64559 6.12613 6.00346 5.93628 11.4041 6.32715 5.81497 7.91406 7.36494 5.7357 5.70394 5.92883 6.92325 5.51219
threshold=0.18333333333333338 37.500000000000007 1.0000000180025095e-35 37.500000000000007 1.0000000180025095e-35 6.5000000000000009 0.73863636363636376 178.50000000000003 3275.5000000000005 278.50000000000006 846.50000000000011 96350.000000000015 715.50000000000011 3420.5000000000005 386.50000000000006 3888.5000000000005 842.50000000000011 159.12500000000003 181.50000000000003 88.500000000000014 1.5000000000000002 120.08333333333336 187.50000000000003 13.520833333333334 114.55000000000001 2433.5000000000005 217.50000000000003 298.50000000000006 123.06250000000001 0.11805555555555557 176.50000000000003 100.50000000000001 3235.5000000000005 9.7638888888888911 1.5000000000000002 8478.5000000000018 79.500000000000014 661.50000000000011 803.50000000000011 0.55000000000000016 11718.500000000002 188.50000000000003 121.08333333333336 9.1250000000000018 17.500000000000004 157.12500000000003 8535.5000000000018 1.0000000180025095e-35 47.015625000000007 104.50000000000001 183.50000000000003 593.50000000000011 51650.000000000007 10050.000000000002 167.50000000000003 237.50000000000003 11250.000000000002 152.50000000000003 96.500000000000014 797.50000000000011 660.50000000000011 33850.000000000007 497.50000000000006 5617.5000000000009 6884.5000000000009 2300.5000000000005
decision_type=2 2 2 2 2 2 2 2 2 2 2 10 2 2 2 2 2 2 2 2 2 2 2 2 2 2 2 2 2 2 2 2 2 2 2 2 2 2 2 2 2 2 2 2 2 2 2 2 2 2 2 2 10 10 2 2 8 2 2 2 2 10 2 2 2 2
left_child=2 5 3 26 6 -2 7 8 9 -3 -4 37 -13 -14 -15 16 17 33 32 48 21 54 23 53 25 -22 -1 -5 29 62 31 -28 -19 -8 36 -36 -35 43 39 40 41 42 -39 44 -6 -40 47 -47 -18 -30 51 52 -51 -23 -12 56 -46 -58 59 -57 -60 -21 63 -29 -65 -17
right_child=1 4 10 27 11 -7 15 -9 -10 -11 20 12 13 14 -16 65 19 18 -20 61 24 22 -24 -25 -26 -27 30 28 49 -31 -32 -33 -34 34 35 -37 -38 38 45 -41 -42 -43 -44 -45 55 46 -48 -49 -50 50 -52 -53 -54 -55 -56 58 57 -59 60 -61 -62 -63 -64 64 -66 -67
leaf_value=-0.18045539764097238 -0.18571526925914239 -0.0017453385525613967 -0.030732242950766316 0.11789429136484469 0.36767467253273911 0.066869869871357984 -0.091160657195735545 0.39387465854526521 0.032069654035346819 0.37836317279245246 -0.23401086487608927 0.026472396738632397 -0.023394195057860709 0.62122572757737338 0.13334943933238941 -0.035683195566218358 -0.074057924859856128 -0.012560787283589283 -0.21226222537193959 0.12757347919149342 0.29908619501112976 -0.31811871105601414 -0.36917815772060808 0.34371399757211413 -0.22694965640562742 -0.10853773424620952 -0.11595663245784478 -0.13802888148326029 0.36806999714744387 0.19480646375813448 -0.076887585159734664 0.55933436900590516 0.21212833505520809 0.32079420045448193 -0.040464670240458724 0.21062494930207201 0.11862999736056194 0.31643169060223997 -0.21714296821010962 -0.18016262917489276 0.56297832307949525 0.43527421046866649 0.035105595008214731 -3.1273422157039269e-05 0.38087010905241614 -0.042729766785278005 -0.1884476452553393 0.35784753468487157 0.22705904237741328 -0.033721019110769176 0.28951675332388782 -0.17275231386276896 0.34865337486323561 0.061499598776209488 0.145085101411837 -0.07339410858754139 0.04269878339174888 -0.19932060463041065 0.35924339272440547 0.34460488494704045 0.013214206910712506 0.38361113372247768 -0.24397428968233029 -0.056024261368845037 0.27204846950820333 0.037414140052256399
leaf_weight=131.51616890355945 164.26478202268481 20.230849668383598 13016.516457751393 468.62478780001402 12.758366487920282 33.962901972234249 27.63668592274189 25.787332817912102 121.11997636407614 36.815540000796318 42.759343415498734 95.970892705023289 16.018829241394997 17.523558735847477 13.036698810756205 226.70490705221891 27.248772516846657 151.03210970759392 29.338719740509987 26.323279350996017 9.761190187186001 7.7638794519007197 7.1309957876801482 16.651672784239054 108.95293721556664 30.631281960755587 7.6086542122066003 45.881692491471767 15.907317526638506 24.560590572655201 165.88804273679852 7.0631359778344631 27.49488964676857 53.14426001906395 82.622963272035122 38.520917430520058 86.874951735138893 21.998014517128468 22.851493038237095 14.851067364215849 9.2522756606340391 14.285557895898817 64.755537405610085 3325.522573158145 10.050863914191721 14.60580348968506 12.775161214172838 14.826056174933909 21.257501676678658 16.831775873899463 18.599530152976513 22.961836375296116 13.865363404154776 58.195287249982357 8.1964234150946123 33.406395390629768 36.868198528885841 36.55820020288229 29.008156888186932 9.5245991647243482 16.569478422403336 37.531590849161148 28.80639461427927 28.060878753662109 17.521700821816921 812.25391402095556
leaf_count=1551 1098 90 192458 2747 150 167 127 117 563 176 620 1023 180 186 144 999 122 658 128 116 151 116 93 188 1639 463 107 328 111 173 2304 102 119 242 354 164 393 206 238 175 94 152 702 35905 114 123 113 127 95 118 131 163 97 841 116 399 418 413 331 111 191 166 221 202 127 3556
internal_value=0 0.0198654 -0.0280275 0.0282547 0.0255266 -0.142362 0.0535978 0.138913 0.100815 0.244914 -0.0323163 0.0119927 0.106483 0.268895 0.419665 0.0429922 0.0796804 0.0555297 -0.0110318 0.185567 -0.103192 -0.034231 0.0446201 0.0827392 -0.167758 -0.00708941 -0.106533 0.0882483 0.028468 -0.036889 -0.0522659 0.218185 0.0226265 0.103366 0.124117 0.0400052 0.196403 0.00833583 0.0835428 0.148596 0.193604 0.15667 0.108125 0.00424698 0.0810179 -0.0417829 0.05483 0.16211 0.0590318 0.135372 0.0815399 0.00704216 0.142298 0.0143521 -0.172037 0.0585512 -0.0207985 -0.0784171 0.133043 0.022758 0.235265 0.280235 -0.0849402 -0.0335861 0.0719394 0.0214515
internal_weight=0 5893.18 14320.3 1013.7 5694.96 198.228 1851.94 203.954 178.166 57.0464 13306.6 3843.02 142.55 46.5791 30.5603 1647.99 609.027 496.665 207.866 112.361 290.043 140.698 89.7418 82.6108 149.345 40.3925 312.076 701.622 232.997 144.831 180.56 14.6718 178.527 288.8 261.163 121.144 140.019 3700.47 190.201 125.142 110.291 101.039 86.7536 3510.27 184.744 65.0585 42.207 29.4319 48.5063 88.1658 72.2585 53.659 30.6971 65.9592 50.9558 171.986 83.4773 73.4264 88.5086 42.931 45.5776 63.8549 120.271 91.4643 45.5826 1038.96
internal_count=256112 50945 205167 8482 49680 1265 8185 946 829 266 196685 41495 1533 510 330 7239 2684 2185 905 499 4227 1974 1238 1145 2253 614 4064 4418 1671 1051 2513 209 777 1280 1153 518 635 39962 1930 1329 1154 1060 908 38032 2127 601 363 250 217 620 509 378 215 957 736 1977 945 831 1032 510 522 282 878 657 329 4555
is_linear=0
shrinkage=0.414902


end of trees

feature_importances:
cat__postalAddress_clean=23
cat__shopID=21
price_lst_06_sum=17
price=16
price_lst_01_sum=13
hist_price_avg=11
price_lst_01_avg=10
price_lst_03_avg=10
cat__residentialAddress_clean=10
hist_price_sum=9
income=8
age=7
price_lst_03_sum=6
price_lst_06_avg=6
cat__sex=6
cat__same_address=6
hist_default_avg=5
default_lst_09_avg=5
money_lost_lst_09_avg=5
price_lst_09_sum=4
late_payment_first_lst_09_avg=4
money_lost_lst_12_sum=4
money_lost_lst_01_avg=3
late_payment_first_lst_03_sum=3
money_lost_lst_06_sum=3
late_lst_06_avg=3
late_payment_first_lst_06_avg=3
money_lost_lst_09_sum=3
money_lost_lst_12_avg=3
default_lst_03_sum=2
defualted_payment_lst_03_sum=2
money_lost_lst_03_sum=2
defualted_payment_lst_03_avg=2
late_lst_03_avg=2
default_lst_09_sum=2
defualted_payment_lst_09_sum=2
late_payment_first_lst_09_sum=2
defualted_payment_lst_12_avg=2
cat__geo_risk_rank=2
hist_trans_count=1
hist_default_sum=1
hist_late_sum=1
defualted_payment_lst_01_sum=1
money_lost_lst_01_sum=1
late_payment_first_lst_01_sum=1
late_lst_03_sum=1
money_lost_lst_03_avg=1
late_payment_first_lst_03_avg=1
default_lst_06_sum=1
defualted_payment_lst_06_sum=1
late_lst_06_sum=1
money_lost_lst_06_avg=1
defualted_payment_lst_09_avg=1
price_lst_09_avg=1
default_lst_12_avg=1
late_payment_first_lst_12_avg=1

parameters:
[boosting: gbdt]
[objective: binary]
[metric: auc,average_precision,binary_logloss]
[tree_learner: serial]
[device_type: cpu]
[linear_tree: 0]
[data: ]
[valid: ]
[num_iterations: 300]
[learning_rate: 0.414902]
[num_leaves: 67]
[num_threads: 0]
[deterministic: 1]
[force_col_wise: 0]
[force_row_wise: 0]
[histogram_pool_size: -1]
[max_depth: 10]
[min_data_in_leaf: 90]
[min_sum_hessian_in_leaf: 0.001]
[bagging_fraction: 0.808818]
[pos_bagging_fraction: 1]
[neg_bagging_fraction: 1]
[bagging_freq: 2]
[bagging_seed: 22734]
[feature_fraction: 0.658059]
[feature_fraction_bynode: 1]
[feature_fraction_seed: 5052]
[extra_trees: 0]
[extra_seed: 5559]
[early_stopping_round: 15]
[first_metric_only: 0]
[max_delta_step: 0]
[lambda_l1: 0.00296698]
[lambda_l2: 0.595144]
[linear_lambda: 0]
[min_gain_to_split: 0]
[drop_rate: 0.1]
[max_drop: 50]
[skip_drop: 0.5]
[xgboost_dart_mode: 0]
[uniform_drop: 0]
[drop_seed: 23992]
[top_rate: 0.2]
[other_rate: 0.1]
[min_data_per_group: 100]
[max_cat_threshold: 32]
[cat_l2: 10]
[cat_smooth: 10]
[max_cat_to_onehot: 4]
[top_k: 20]
[monotone_constraints: ]
[monotone_constraints_method: basic]
[monotone_penalty: 0]
[feature_contri: ]
[forcedsplits_filename: ]
[refit_decay_rate: 0.9]
[cegb_tradeoff: 1]
[cegb_penalty_split: 0]
[cegb_penalty_feature_lazy: ]
[cegb_penalty_feature_coupled: ]
[path_smooth: 0]
[interaction_constraints: ]
[verbosity: 1]
[saved_feature_importance_type: 0]
[max_bin: 255]
[max_bin_by_feature: ]
[min_data_in_bin: 3]
[bin_construct_sample_cnt: 200000]
[data_random_seed: 2213]
[is_enable_sparse: 1]
[enable_bundle: 1]
[use_missing: 1]
[zero_as_missing: 0]
[feature_pre_filter: 0]
[pre_partition: 0]
[two_round: 0]
[header: 0]
[label_column: ]
[weight_column: ]
[group_column: ]
[ignore_column: ]
[categorical_feature: ]
[forcedbins_filename: ]
[objective_seed: 29849]
[num_class: 1]
[is_unbalance: 0]
[scale_pos_weight: 1]
[sigmoid: 1]
[boost_from_average: 1]
[reg_sqrt: 0]
[alpha: 0.9]
[fair_c: 1]
[poisson_max_delta_step: 0.7]
[tweedie_variance_power: 1.5]
[lambdarank_truncation_level: 30]
[lambdarank_norm: 1]
[label_gain: ]
[eval_at: ]
[multi_error_top_k: 1]
[auc_mu_weights: ]
[num_machines: 1]
[local_listen_port: 12400]
[time_out: 120]
[machine_list_filename: ]
[machines: ]
[gpu_platform_id: -1]
[gpu_device_id: -1]
[gpu_use_dp: 0]
[num_gpu: 1]

end of parameters

pandas_categorical:null
