tree
version=v3
num_class=1
num_tree_per_iteration=1
label_index=0
max_feature_idx=75
objective=binary sigmoid:1
feature_names=age income price hist_trans_count hist_default_sum hist_default_avg hist_late_sum hist_late_avg hist_price_sum hist_price_avg default_lst_01_sum defualted_payment_lst_01_sum money_lost_lst_01_sum late_lst_01_sum price_lst_01_sum late_payment_first_lst_01_sum default_lst_01_avg defualted_payment_lst_01_avg money_lost_lst_01_avg late_lst_01_avg price_lst_01_avg late_payment_first_lst_01_avg default_lst_03_sum defualted_payment_lst_03_sum money_lost_lst_03_sum late_lst_03_sum price_lst_03_sum late_payment_first_lst_03_sum default_lst_03_avg defualted_payment_lst_03_avg money_lost_lst_03_avg late_lst_03_avg price_lst_03_avg late_payment_first_lst_03_avg default_lst_06_sum defualted_payment_lst_06_sum money_lost_lst_06_sum late_lst_06_sum price_lst_06_sum late_payment_first_lst_06_sum default_lst_06_avg defualted_payment_lst_06_avg money_lost_lst_06_avg late_lst_06_avg price_lst_06_avg late_payment_first_lst_06_avg default_lst_09_sum defualted_payment_lst_09_sum money_lost_lst_09_sum late_lst_09_sum price_lst_09_sum late_payment_first_lst_09_sum default_lst_09_avg defualted_payment_lst_09_avg money_lost_lst_09_avg late_lst_09_avg price_lst_09_avg late_payment_first_lst_09_avg default_lst_12_sum defualted_payment_lst_12_sum money_lost_lst_12_sum late_lst_12_sum price_lst_12_sum late_payment_first_lst_12_sum default_lst_12_avg defualted_payment_lst_12_avg money_lost_lst_12_avg late_lst_12_avg price_lst_12_avg late_payment_first_lst_12_avg cat__sex cat__residentialAddress_clean cat__postalAddress_clean cat__geo_risk_rank cat__shopID cat__same_address
feature_infos=[7:90] [0:100000] [3:200] [1:14] [0:10] [0:1] [0:11] [0:1] [3:1808] [3:200] [0:1] [0:4] [0:200] [0:1] [3:200] [0:4] [0:1] [0:4] [0:200] [0:1] [3:200] [0:4] [0:3] [0:12] [0:490.5] [0:3] [3:597] [0:12] [0:1] [0:4] [0:200] [0:1] [3:200] [0:4] [0:6] [0:24] [0:822.25] [0:6] [3:1120] [0:23] [0:1] [0:4] [0:200] [0:1] [3:200] [0:4] [0:9] [0:28] [0:970] [0:9] [3:1460] [0:28] [0:1] [0:4] [0:200] [0:1] [3:200] [0:4] [0:10] [0:30] [0:970] [0:11] [3:1732] [0:30] [0:1] [0:4] [0:200] [0:1] [3:200] [0:4] [1:3] [1:13260] [1:13261] [0:5] [100:999] [0:1]
tree_sizes=7964 8023 8063 8078 8103

Tree=0
num_leaves=76
num_cat=0
split_feature=75 5 5 5 5 26 32 59 25 0 59 26 9 4 6 0 0 7 42 7 14 0 14 26 32 0 5 14 26 32 1 26 57 26 9 0 32 26 0 1 1 1 1 1 27 9 14 21 1 0 73 14 26 1 57 9 0 57 32 26 32 26 57 42 73 26 26 14 1 26 9 9 6 14 0
split_gain=4259.22 2064.01 229.753 207.548 53.6527 31.0015 28.4219 26.2385 20.9179 15.3285 18.0916 15.3284 15.0815 12.2525 10.088 10.4792 9.71729 9.63266 9.49868 9.47246 11.6733 9.46543 9.45238 9.39587 9.23873 10.9175 9.90992 9.1459 11.0266 8.99267 8.77151 8.3869 8.32549 8.99627 8.36164 9.42258 8.06355 8.05024 7.89027 7.52295 7.41316 7.4021 7.30938 7.23279 7.1348 7.11652 7.87538 6.34718 6.30631 8.07483 9.30477 7.74702 15.471 7.36879 6.28761 6.23876 6.09037 5.90315 5.72897 10.5688 5.60353 5.57797 5.51863 5.40803 5.69675 5.36367 5.35559 5.34712 7.65165 5.28751 5.18944 6.47064 5.10296 12.2157 5.02717
threshold=1.0000000180025095e-35 0.37980769230769235 0.19090909090909094 0.14835164835164838 0.5634920634920636 138.50000000000003 64.166666666666671 4.5000000000000009 1.0000000180025095e-35 49.500000000000007 3.5000000000000004 302.50000000000006 34.100000000000009 1.5000000000000002 1.0000000180025095e-35 24.500000000000004 23.500000000000004 0.10555555555555557 9.2708333333333339 0.27922077922077926 128.50000000000003 57.500000000000007 56.500000000000007 408.50000000000006 52.166666666666679 46.500000000000007 0.37980769230769235 35.500000000000007 254.50000000000003 156.16666666666671 23350.000000000004 494.50000000000006 0.84523809523809534 378.50000000000006 128.5277777777778 45.500000000000007 186.16666666666671 22.500000000000004 50.500000000000007 64450.000000000007 16650.000000000004 16250.000000000002 4050.0000000000005 94850.000000000015 1.5000000000000002 88.527777777777786 34.500000000000007 2.5000000000000004 86850.000000000015 27.500000000000004 1.5000000000000002 40.500000000000007 212.50000000000003 25850.000000000004 1.6458333333333337 99.954545454545467 30.500000000000004 0.78888888888888908 162.16666666666671 341.50000000000006 15.16666666666667 332.50000000000006 0.30952380952380959 27.520833333333339 3.5000000000000004 246.50000000000003 341.50000000000006 13.500000000000002 65250.000000000007 288.50000000000006 101.52777777777779 81.527777777777786 1.5000000000000002 97.500000000000014 46.500000000000007
decision_type=2 2 2 2 2 2 2 2 2 2 2 2 2 2 2 2 2 2 2 2 2 2 2 2 2 2 2 2 2 2 10 2 2 2 2 2 2 2 2 10 10 8 8 10 2 2 2 2 8 2 2 2 2 10 2 2 2 2 2 2 2 2 2 2 2 2 2 2 10 2 2 2 2 2 2
left_child=1 2 5 17 -3 6 12 8 24 10 18 16 -1 -6 -7 30 -9 27 -4 20 22 74 -18 32 25 47 -27 37 65 45 -16 -31 56 42 54 -36 -26 67 -25 -32 44 -11 -34 60 -23 -13 -47 -5 49 -17 -51 -52 -53 -54 -35 -48 63 -14 62 -60 -42 -44 -30 64 -10 -29 69 -2 -69 -55 71 -39 73 -63 -19
right_child=3 4 9 7 13 14 -8 11 23 41 -12 29 57 -15 15 48 19 21 -20 -21 -22 40 -24 38 36 26 -28 28 58 31 39 -33 33 34 35 -37 -38 70 -40 -41 43 -43 61 -45 -46 46 55 -49 -50 50 51 52 53 66 -56 -57 -58 -59 59 -61 -62 72 -64 -65 -66 -67 -68 68 -70 -71 -72 -73 -74 -75 -76
leaf_value=-1.7162182967708808 -2.4299060370179753 -0.56232592296175743 -2.1822029797072089 -2.0680385112638584 -0.49034563088126371 -1.9897065038706547 -1.4457044908445171 -2.303681725342555 -2.5375661528702409 -1.6401916759254018 -1.2128079997931016 -1.8976920622744404 -2.0622024429219361 0.045149944452898882 -2.3411677845870105 -2.554528051526364 -1.9691620748576395 -2.4300496032840533 -1.590640912898422 -2.1392818142850554 -2.2737810376731686 -2.4649087787273256 -1.5822610144854909 -2.3253530237461306 -2.2441887954258721 -1.9789313112604052 -2.4025394038883063 -2.3710842312568858 -2.439631990693004 -1.6193170010952977 -1.5802711617922518 -2.2701161929625888 -2.5465681285246671 -2.155877166919979 -2.6360013301658709 -2.045621447426401 -1.8304223561529567 -2.465102722106975 -2.5761402967227078 -2.1239649166429011 -2.0684507969948429 -0.99603389020616273 -2.2682398688194008 -2.2603398063055775 -2.2712188748304944 -1.8949984233084036 -2.6062623727829539 -1.6406437705780519 -2.4591589184450693 -2.3751778672632402 -2.4108532600890831 -1.5617880924960517 -2.407896895406147 -1.9668276468982788 -1.6872525816429513 -2.2963574722652926 -2.4925123471947312 -2.4552206825848151 -2.0953094768139264 -2.4075004757893042 -2.4285949643822464 -1.863171144058211 -2.1715551923803673 -1.9973218758988946 -2.1397292648871686 -2.2324586182942241 -1.7993844424583039 -2.3596531320146141 -1.9883293589781665 -2.4270954377890903 -2.3562589731120576 -2.6046102395503654 -2.4940422983523693 -2.4286564358751628 -2.4665199575400285
leaf_weight=16.613173820078373 47.938511520624161 77.197534069418907 7.5213871523737934 16.199910789728168 27.93658085167408 78.767933584749699 24.713129214942455 15.703995153307913 13.059111759066587 6.6948610916733733 20.828456729650497 6.6122084856033316 14.8774690926075 101.5800528600812 6.2815980613231686 7.9346501827239981 26.44883394241333 1497.6652219891548 12.976459152996538 36.119188852608204 10.000965334475039 39.673250913619995 21.159067153930664 41.491608247160912 540.8786541223526 14.216248244047163 20.497846305370331 1233.2595351710916 782.05895863473415 6.1989454552531225 9.7530075162649172 6.5295558795332909 17.770310305058956 11.240754425525667 7.1081241220235816 8.7611762434244138 6.9428189098834983 228.45180317759514 40.251819156110287 8.6785236373543722 6.1162928491830817 36.94571491330862 331.27164512872696 44.549754671752453 121.99524655938148 6.1162928491830817 11.240754425525664 10.331575758755205 16.282563395798206 20.001930668950081 7.7693449705839148 9.5877023041248304 10.08361794054508 7.2734293341636675 8.9264814555644971 73.312861584126949 58.518045097589493 9.0917866677045804 22.481508851051331 67.36187394708395 665.43613146990538 7.6866923645138767 11.57136484980583 7.6040397584438315 8.9264814555644971 45.210975520312786 10.08361794054508 24.382518790662289 12.811153940856455 6.9428189098834991 49.012995399534702 74.717955887317657 36.367146670818329 20.993761941790581 1111.5948990359902
leaf_count=201 580 934 91 196 338 953 299 190 158 81 252 80 180 1229 76 96 320 18120 157 437 121 480 256 502 6544 172 248 14921 9462 75 118 79 215 136 86 106 84 2764 487 105 74 447 4008 539 1476 74 136 125 197 242 94 116 122 88 108 887 708 110 272 815 8051 93 140 92 108 547 122 295 155 84 593 904 440 254 13449
internal_value=-2.30247 -1.23938 -1.83491 -2.38716 -0.238136 -2.02102 -1.78162 -2.25094 -2.27386 -1.26423 -1.48187 -2.12352 -2.00116 -0.0576481 -2.10164 -2.17705 -2.01758 -2.4196 -1.79062 -1.9691 -1.86769 -2.43347 -1.78615 -2.32554 -2.22115 -2.07392 -2.22816 -2.40092 -2.39007 -2.23103 -1.94792 -1.92455 -2.30606 -2.28414 -2.09444 -2.30804 -2.23809 -2.45409 -2.45141 -1.81325 -2.397 -1.07892 -2.30124 -2.4145 -2.31877 -2.27484 -2.30472 -1.8836 -2.23947 -2.19232 -2.14865 -2.0596 -1.99469 -2.13227 -1.92837 -2.339 -2.41823 -2.21503 -2.42461 -2.32723 -2.4249 -2.28954 -2.43548 -2.27313 -2.37205 -2.36607 -2.0146 -2.34172 -2.23014 -2.19218 -2.48085 -2.5005 -2.39571 -2.27222 -2.44567
internal_weight=0 556.417 349.703 7534.78 206.714 264.736 65.2956 1448.49 1229.04 84.9669 41.3263 219.443 40.5824 129.517 199.441 120.673 109.432 6086.29 20.4978 93.7281 57.6089 3487.03 47.6079 619.977 609.067 61.2456 34.7141 2599.26 2161.94 110.011 24.7131 12.7285 538.234 450.126 36.0365 15.8693 547.821 437.315 81.7434 18.4315 877.771 43.6406 414.09 716.102 161.668 97.2821 90.6699 26.5315 95.9597 79.6771 71.7425 51.7405 43.9712 34.3835 20.1672 84.5536 88.1077 23.9693 883.474 89.8434 671.552 396.319 793.63 29.5896 21.9856 1278.47 24.2999 85.1322 37.1937 14.2162 352.183 303.17 65.0476 28.6805 2609.26
internal_count=97894 6732 4231 91162 2501 3203 790 17525 14870 1028 500 2655 491 1567 2413 1460 1324 73637 248 1134 697 42189 576 7501 7369 741 420 31448 26157 1331 299 154 6512 5446 436 192 6628 5291 989 223 10620 528 5010 8664 1956 1177 1097 321 1161 964 868 626 532 416 244 1023 1066 290 10689 1087 8125 4795 9602 358 266 15468 294 1030 450 172 4261 3668 787 347 31569
is_linear=0
shrinkage=1


Tree=1
num_leaves=76
num_cat=0
split_feature=75 72 64 5 13 51 38 2 63 38 72 2 9 5 9 5 41 54 20 5 50 72 72 72 72 50 54 2 72 38 18 18 57 38 38 20 72 9 20 9 2 2 72 2 72 20 9 2 51 9 38 37 57 29 9 38 15 50 66 48 41 72 18 54 38 72 9 72 72 59 38 18 2 9 54
split_gain=228.511 249.253 82.7512 55.4093 12.6929 10.6875 11.9031 10.5608 9.09487 9.05501 8.8851 8.54788 7.81457 6.99691 9.12361 8.1822 7.96301 7.47243 8.84116 7.12551 6.89159 10.0975 13.1809 9.42693 6.86222 8.90037 9.06991 6.79209 6.58923 6.4919 7.32984 8.09317 7.20589 6.27946 6.25988 6.16364 6.12739 6.02693 7.5418 8.93074 5.93976 5.65925 5.45649 6.29464 10.2134 6.26015 5.39969 5.26095 5.18989 7.20437 6.68825 10.3288 5.89023 6.93771 5.73641 5.00025 4.93751 4.87304 7.48631 7.20461 6.91172 9.69854 8.72734 8.30482 6.46807 5.45276 13.4683 12.0404 9.98302 10.2902 8.53156 8.19732 6.97772 11.5371 6.89936
threshold=1.0000000180025095e-35 37.500000000000007 0.17424242424242428 0.34848484848484856 1.0000000180025095e-35 3.5000000000000004 88.500000000000014 169.50000000000003 4.5000000000000009 166.50000000000003 11206.500000000002 196.50000000000003 79.63333333333334 0.58571428571428574 63.062500000000007 0.78888888888888908 3.4500000000000006 47.513888888888893 136.50000000000003 0.43650793650793657 284.50000000000006 845.50000000000011 6993.5000000000009 8147.5000000000009 11080.500000000002 576.50000000000011 24.267857142857146 105.50000000000001 12178.500000000002 715.50000000000011 137.12500000000003 161.50000000000003 0.73214285714285732 355.50000000000006 543.50000000000011 73.500000000000014 6176.5000000000009 89.050000000000011 135.50000000000003 121.52272727272729 92.500000000000014 134.50000000000003 11459.500000000002 74.500000000000014 6502.5000000000009 39.500000000000007 86.527777777777786 120.50000000000001 7.5000000000000009 107.05555555555557 318.50000000000006 2.5000000000000004 1.1547619047619049 1.1666666666666667 148.26785714285717 369.50000000000006 1.5000000000000002 776.50000000000011 37.359375000000007 321.87500000000006 1.7750000000000001 6176.5000000000009 6.1250000000000009 100.12500000000001 243.50000000000003 6176.5000000000009 96.527777777777786 5603.5000000000009 6884.5000000000009 1.5000000000000002 380.50000000000006 24.875000000000004 156.50000000000003 95.527777777777786 24.015625000000004
decision_type=2 2 2 2 2 2 2 2 2 2 2 2 2 2 2 2 2 2 2 2 2 2 2 2 2 2 2 2 2 2 2 2 2 2 2 2 2 2 2 2 2 2 2 2 2 2 2 2 2 2 2 2 2 2 2 2 2 2 2 2 2 2 2 2 2 2 2 2 2 2 2 2 2 2 2
left_child=1 34 8 10 11 9 -7 13 28 12 20 24 -5 19 -15 17 -17 -16 -19 -8 21 -3 -23 -24 57 -26 -27 37 -2 30 32 -32 -6 -9 -1 42 -13 -22 56 -40 -36 -29 43 44 45 -34 -12 -25 52 50 -50 -52 53 -37 -54 -48 -39 59 -59 60 65 -62 -63 64 -64 67 68 71 -67 -70 -71 -4 -73 -74 -72
right_child=2 3 4 5 29 6 7 33 -10 -11 46 36 -14 14 15 16 -18 18 -20 -21 27 22 23 47 25 26 -28 41 -30 -31 31 -33 35 -35 40 48 -38 38 39 -41 -42 -43 -44 -45 -46 -47 55 -49 49 -51 51 -53 54 -55 -56 -57 -58 58 -60 -61 61 62 63 -65 -66 66 -68 -69 69 70 74 72 73 -75 -76
leaf_value=-0.24867429103532868 -0.06760062965266854 0.11984171686156159 0.08042684303632229 0.26052652779905899 -0.30697310530985572 0.44960193778659213 0.037429295545147998 -0.1701123592012839 -0.11281029020157597 0.38137661319062854 -0.02835017789359133 0.48749611012566929 -0.034085075704165704 -0.14786777084886929 0.17396849606053358 0.27201711772406983 0.025865616916024819 -0.15816596916260331 0.13496886803999109 0.27865090777922874 0.13434146920247808 0.62682426273963554 0.031871073017772811 0.28370078905514284 -0.076943814404905206 0.54455024280355946 -0.032026958917699133 0.038399520427871259 -0.13384358124833387 0.28137502290655952 0.4468853433489412 -0.049890050821403895 0.096122890126761409 0.07616298052547954 0.13340675874401298 0.21103284349571222 0.035897114071672037 0.69767369920796463 0.012481295852821546 0.48550423398271519 -0.19697639325379482 0.30387134194078608 0.28013271764624947 -0.082372860538172679 -0.12467398839434901 0.54759641721903807 0.44808682283497808 0.64588799099515803 -0.15558283328121775 -0.1407881579155783 0.55016994481488857 0 -0.22591076541003266 -0.2127225144626646 0.089636603429214201 0.075790538633716653 0.32324588192575482 0.38295543176665542 -0.074203567501015533 -0.33452363229923071 0.054346223250951391 -0.004246738436021147 0.29642661956278932 0 0.68995362778453928 -0.160023931839442 -0.090597760487094087 0.29566386992005 0.47799856574133803 0.016516283119704267 0.12598384110175312 -0.099411705059644959 -0.24042599223583358 0.34936046172888774 0.59759922864205517
leaf_weight=206.6664389744401 4335.3876512050629 12.978088393807409 300.42670671269298 38.836102351546288 17.920061253011227 17.705546617507935 26.461440160870552 27.958448454737663 1059.2322027795017 59.026390627026558 12.390750117599962 11.496964283287527 21.682398825883865 19.989811182022095 45.726693078875542 79.709372088313103 29.961175337433815 38.480386525392532 27.48599037528038 91.486383080482483 11.750404216349123 67.290511548519135 13.010446593165396 19.435976006090641 118.78863532096148 7.1570252701640156 8.9290080964565259 18.467078492045403 258.69520207494497 8.9501430653035623 8.9459238424897212 10.500580195337532 12.308624111115934 38.111661866307259 14.050183467566965 13.77348677441478 8.9074820503592473 25.074895747005939 11.683698683977129 14.67138549685478 19.950687929987907 51.979031123220921 11.172259606420992 62.628112941980362 14.428268834948538 8.7528437599539739 13.287947788834574 13.02615514397621 7.7200527712702778 27.182252135127783 9.5155513212084788 11.028289102017878 81.057528652250767 9.8934710882604104 9.5499964281916601 11.63264851272106 11.572810299694536 16.381863269954923 7.8446800857782355 6.770199939608573 111.24935314059258 15.595719821751116 28.488341867923737 9.7581041380763036 10.307409502565859 20.357275582849979 142.31054017692804 33.110888622701168 12.095686532557009 67.42950826138258 15.757244527339937 86.218998625874519 7.2362176850438145 14.685493856668471 7.4626579955220214
leaf_count=1675 57528 103 3456 165 238 74 116 115 14155 250 95 131 92 80 183 319 123 154 110 395 92 558 105 153 1344 83 98 141 3434 106 106 125 143 157 134 176 101 199 91 113 163 393 128 734 168 102 106 110 90 330 110 131 979 120 124 88 80 182 84 76 1216 174 302 105 109 228 1665 382 141 763 176 988 82 171 78
internal_value=0 0.137754 -0.0576092 0.237497 0.0297472 0.162031 0.132511 0.118269 -0.0791682 0.269065 0.374158 0.0508661 0.154454 0.145327 0.104946 0.128637 0.206269 0.0506728 -0.0345236 0.225917 0.399855 0.472719 0.511393 0.330629 0.0456317 -0.0381373 0.233031 0.33386 -0.0713734 -0.0393105 -0.0493636 0.182958 -0.0653386 -0.0275076 -0.222386 -0.0486514 0.303516 0.420633 0.470228 0.28576 -0.0579415 0.236773 0.0248007 -0.00542578 0.126688 0.301232 0.180652 0.443962 -0.0963704 0.00269319 0.143855 0.262228 -0.144897 0.0290359 -0.191167 0.285679 0.591412 0.0581213 0.233729 0.0530271 0.0564071 0.127654 0.251131 0.333702 0.41526 0.0384805 -0.00659033 0.0657301 0.0897566 0.140982 0.0911827 0.0463264 -0.0474762 0.149085 0.296379
internal_weight=0 1111.54 7047.41 870.874 1394.09 562.622 443.077 425.371 5653.32 119.545 308.252 1068.77 60.5185 359.301 241.353 221.364 109.671 111.693 65.9664 117.948 270.94 125.741 112.763 45.4726 1048.36 134.875 16.086 145.199 4594.08 325.327 316.377 19.4465 296.931 66.0701 240.667 279.011 20.4044 74.7532 63.0028 26.3551 34.0009 70.4461 109.29 98.1178 35.4897 21.0615 37.3113 32.4621 169.721 55.4461 28.2639 20.5438 114.274 23.667 90.6075 24.9206 36.6477 913.487 24.2265 889.26 882.49 175.399 64.1496 48.5539 38.7958 707.091 265.413 441.678 123.102 102.745 90.6494 408.567 108.141 21.9217 23.2199
internal_count=97894 6732 91162 4760 16045 2333 1826 1752 75117 507 2427 12135 257 1480 969 889 442 447 264 511 2138 1029 926 368 11903 1525 181 1109 60962 3910 3804 231 3573 272 1972 3335 232 575 483 204 297 534 1275 1147 413 245 289 263 2060 661 331 241 1399 296 1103 194 279 10378 266 10112 10036 1906 690 516 411 8130 3051 5079 1386 1158 1017 4697 1241 253 254
is_linear=0
shrinkage=0.400607


Tree=2
num_leaves=76
num_cat=0
split_feature=70 70 75 23 14 14 26 9 9 73 38 27 73 43 54 12 14 9 36 0 39 26 27 45 12 38 14 26 45 9 54 38 54 26 36 73 38 26 14 0 39 54 73 53 41 36 26 0 43 45 14 43 9 38 38 39 14 0 43 38 38 12 38 45 9 36 14 9 64 26 0 53 38 27 54
split_gain=430.25 115.741 76.289 14.6589 11.0958 12.8736 9.73283 9.72413 13.1381 9.06139 11.6067 8.94631 8.15728 7.80804 10.7403 7.9501 8.05671 10.9922 9.20947 8.63786 8.37333 7.64128 8.70869 8.20103 7.33618 7.27474 7.01438 7.35973 7.01204 6.78981 13.0945 7.83004 6.61719 6.92151 6.37571 6.2737 9.4695 7.58103 6.16209 6.14302 6.07808 6.78093 5.82651 5.78239 12.6371 5.71878 5.38958 5.19602 5.01248 4.8036 7.25401 9.20868 6.54819 13.7994 9.86776 5.03167 5.63575 4.86439 4.76952 6.98065 4.72635 4.71521 5.70384 10.8541 7.00145 4.66008 9.46435 5.58875 4.61613 5.8503 10.1809 6.19105 4.80314 5.96551 9.50877
threshold=1.5000000000000002 2.5000000000000004 1.0000000180025095e-35 2.5000000000000004 74.500000000000014 84.500000000000014 328.50000000000006 123.06250000000001 110.04545454545456 1.5000000000000002 112.50000000000001 7.5000000000000009 1.0000000180025095e-35 0.55000000000000016 25.322916666666668 52.250000000000007 65.500000000000014 135.61250000000004 240.87500000000003 54.500000000000007 8.5000000000000018 238.50000000000003 2.5000000000000004 0.63333333333333341 64.250000000000014 578.50000000000011 139.50000000000003 296.50000000000006 0.36666666666666675 135.05555555555557 5.4409722222222232 755.50000000000011 59.366666666666674 432.50000000000006 146.12500000000003 2.5000000000000004 567.50000000000011 408.50000000000006 13.500000000000002 59.500000000000007 5.5000000000000009 62.020833333333336 2.5000000000000004 1.5277777777777779 1.1833333333333336 176.62500000000003 274.50000000000006 44.500000000000007 0.70833333333333337 0.29166666666666669 32.500000000000007 0.55000000000000016 60.071428571428577 348.50000000000006 274.50000000000006 5.5000000000000009 42.500000000000007 34.500000000000007 0.36666666666666675 683.50000000000011 115.50000000000001 141.37500000000003 464.50000000000006 1.2250000000000003 135.61250000000004 138.12500000000003 157.50000000000003 107.05555555555557 0.40833333333333338 430.50000000000006 29.500000000000004 1.1547619047619049 407.50000000000006 4.5000000000000009 17.013888888888893
decision_type=2 2 2 2 2 2 2 2 2 2 2 2 2 2 2 2 2 2 2 2 2 2 2 2 2 2 2 2 2 2 2 2 2 2 2 2 2 2 2 2 2 2 2 2 2 2 2 2 2 2 2 2 2 2 2 2 2 2 2 2 2 2 2 2 2 2 2 2 2 2 2 2 2 2 2
left_child=3 2 68 7 6 -6 -3 8 9 38 -11 35 -5 15 -15 16 18 20 46 -19 45 22 -10 28 -16 -9 49 39 -23 30 -27 58 34 -34 65 36 -7 48 -1 42 60 43 -28 44 -42 -18 -14 -38 -37 -12 51 52 -51 54 -54 56 -52 -55 59 -31 -17 62 63 -62 -65 -4 67 -67 69 71 -71 72 73 74 -2
right_child=1 4 32 12 5 11 -8 25 21 10 26 -13 13 14 24 40 17 19 -20 -21 -22 23 -24 -25 -26 29 27 -29 -30 31 -32 -33 33 -35 -36 37 47 -39 -40 -41 41 -43 -44 -45 -46 -47 -48 -49 -50 50 55 -53 53 57 -56 -57 -58 -59 -60 -61 61 -63 -64 64 -66 66 -68 -69 -70 70 -72 -73 -74 -75 -76
leaf_value=-0.028178306425095247 0.051692358988465123 0.25377561477213756 -0.10420751058873233 -0.090154581950796009 -0.21076183718500924 -0.030667099039626774 -0.091709504157103619 0.16366196965044397 0.049212429228602715 0.21152307129975956 -0.013978802067742635 0.47127642542256637 0.18407195162311205 0.71053220925015104 0 -0.041088009497927624 0.35488084214260046 -0.077557454937520823 0.4719979491727091 0.38195749426455988 0.62195673905537663 -0.0047735200621784914 0.48648399148310184 -0.15298960665012953 0.4572014276657278 0.23513084039724327 0.23625568554195156 0.33380774997149698 0.34617025485082753 -0.020976029180260428 0.83447748321365856 -0.050767777382159492 -0.03324824528081375 0.3459945800579538 -0.19279137511228558 0.22188272039583495 0.0038487164225395592 -0.083681618340670727 0.23489028705829293 0.36946299425848239 -0.19532021255316154 0.1911059591766614 -0.11611464741040585 -0.17892507973574745 0.37625859295976988 0.032780675570081824 -0.018718284337759565 0.50016175865149914 -0.10716511554248784 -0.0067417933429680284 -0.15380379382116532 -0.16104129182071586 0.33050172559334151 0.3619140571864673 0.98683593719101415 -0.086414404480725349 0.11785323703427866 -0.061146216077088568 0.60748190472226549 0.50301984200446037 -0.14100048285112005 0.089025694374446365 0.63511669929141168 0.48076895369275652 0.050638052908928616 0.39307181494069232 -0.3268091926603453 -0.021957987988147944 -0.0068325258139334214 -0.089864036648766937 0.36525680725629311 0.18188314872350278 -0.049020938177999483 -0.10743302606685962 0.38979605047985139
leaf_weight=14.779607620090244 244.69133809581399 139.15962097421288 4705.7325693704188 12.575951039791105 20.825571186840534 87.251521203666925 13.624144256114958 257.73401475325227 32.099451009184122 130.6921876706183 124.31686336174607 9.9480617940425855 96.108972191810608 12.170486379414795 11.193540602922441 9.1805168353021127 83.25573431327939 17.654596578329805 14.993261668831108 9.2672578357160074 19.413367964327335 50.146988026797771 8.9863061830401403 56.887536689639091 10.168201353400944 16.909827992320064 10.090789109468458 30.412928096950054 10.228688105940817 9.6707900837063807 9.6388653591275197 12.696529336273668 93.596537139266729 7.5962227843701831 134.10951944068074 94.719569306820631 5.9541852176189414 17.202087439596653 167.24480633065104 7.9639503657817832 11.210351675748827 34.490743432193995 23.452338188886642 23.380744393914938 11.894106365740297 10.779512867331503 25.684715621173382 8.4110128283500654 7.2009967379271975 9.2226017862558347 13.108021605759857 8.0931409820914251 11.711796130985023 5.9097933992743519 6.3676679953932753 37.132341146469116 93.467822588980198 11.182464338839052 6.6319446489214888 5.8128139004111281 8.239104498177765 21.735565964132547 7.8185776136815539 21.349975645542148 9.3295372985303384 10.465114936232572 6.4366443865001193 8.8030468784272653 377.62615497410297 11.141711633652447 22.305460639297962 43.53010393679142 105.77711430191994 32.993097368627787 13.468314722180365
leaf_count=203 1932 1662 65182 130 248 1098 172 3395 409 1692 1705 81 840 132 116 76 823 160 83 93 146 684 121 751 102 239 132 401 133 126 110 167 1024 87 1537 1115 75 202 2251 107 118 199 305 147 101 96 226 111 91 113 169 112 143 74 82 464 1215 140 90 73 90 204 75 192 79 118 77 106 1552 86 153 208 815 258 70
internal_value=0 -0.0702671 -0.0846828 0.158983 0.136723 0.0839792 0.22206 0.134604 0.112077 0.135476 0.108038 0.111622 0.218299 0.226897 0.416185 0.211378 0.252856 0.321508 0.180268 0.0839337 0.376101 0.00715014 0.154579 -0.0444514 0.22454 0.194844 0.0729801 0.185808 0.0570199 0.32052 0.474338 0.192547 -0.103678 -0.00136872 -0.105787 0.0933387 0.0189266 0.155507 0.213008 0.0709139 0.137425 0.0582064 -0.00441262 -0.0400889 0.0979526 0.319503 0.140732 0.311591 0.197095 0.0469769 0.0859556 0.21262 0.284399 0.361669 0.598927 0.0381354 0.0826931 0.0898931 0.333005 0.185494 0.21743 0.253464 0.325218 0.248982 0.357505 -0.103269 0.0630838 0.205762 0.0259984 0.0523156 0.212489 0.0395799 0.0234081 0.0500931 0.0708463
internal_weight=0 6222.57 5818.27 1664.49 404.297 251.513 152.784 1182.59 863.498 705.149 523.125 230.687 481.895 469.319 33.5322 435.787 277.157 140.37 136.787 26.9219 113.449 158.349 41.0858 117.263 21.3617 319.095 392.433 71.92 60.3757 61.3608 26.5487 34.8121 4966.74 101.193 4865.55 220.739 101.617 119.123 182.024 41.5071 158.629 80.9759 33.5431 46.4852 23.1045 94.0352 121.794 14.3652 101.921 320.513 196.196 52.4875 44.3943 35.1717 18.0795 143.708 106.576 17.0923 22.1155 15.4836 77.6533 68.4728 46.7372 38.9186 30.6795 4731.44 25.7048 19.2682 851.533 473.907 33.4472 440.46 396.93 291.153 258.16
internal_count=97894 78060 73205 19834 4855 3021 1834 15606 11406 9308 6854 2773 4228 4098 350 3748 2467 1318 1149 253 1065 2098 530 1568 218 4200 5162 945 817 805 349 456 68131 1111 67020 2692 1284 1408 2454 544 1281 565 437 366 219 919 1066 186 1206 4217 2512 664 552 439 225 1848 1384 214 289 199 716 640 436 361 271 65483 301 224 5074 3522 239 3283 3075 2260 2002
is_linear=0
shrinkage=0.400607


Tree=3
num_leaves=76
num_cat=0
split_feature=75 47 8 2 2 71 8 74 2 20 8 21 8 71 74 74 20 2 71 44 71 74 71 38 44 44 8 20 20 24 74 20 20 12 71 12 66 65 47 12 21 2 74 65 65 12 66 8 2 6 74 20 44 74 44 74 44 2 74 8 74 71 20 74 8 8 2 44 20 20 2 71 7 2 44
split_gain=31.7134 12.9123 8.4413 7.35793 8.69745 9.9757 10.59 7.43093 6.08074 8.85911 7.61765 6.44042 9.44904 7.5852 7.09717 10.1181 6.2487 6.96571 6.16677 9.70105 6.20686 10.5261 6.08884 5.96356 5.95106 5.74131 5.72883 5.72513 7.95499 5.57329 5.57247 8.11963 10.072 5.11946 6.24113 6.08531 7.69076 7.07773 5.89424 5.68161 6.76757 6.29552 5.59821 5.53378 8.48108 5.89853 5.10589 5.08083 6.28054 5.39017 4.8433 8.66357 4.88461 5.73216 4.73395 4.86031 5.86865 4.66811 6.37321 6.40797 6.25199 7.60286 7.6536 6.80055 17.2905 11.2127 6.43849 6.70234 7.57145 7.14032 6.18688 5.35041 5.2149 5.18328 5.07935
threshold=1.0000000180025095e-35 1.5000000000000002 344.50000000000006 25.500000000000004 16.500000000000004 11214.500000000002 48.500000000000007 744.50000000000011 92.500000000000014 49.500000000000007 1023.5000000000001 2.5000000000000004 790.50000000000011 4254.5000000000009 260.50000000000006 364.50000000000006 124.50000000000001 129.50000000000003 12876.500000000002 109.55000000000001 8784.5000000000018 902.50000000000011 8559.5000000000018 515.50000000000011 118.55000000000001 132.55000000000004 253.50000000000003 135.50000000000003 129.50000000000003 289.12500000000006 851.50000000000011 57.500000000000007 123.50000000000001 1.0000000180025095e-35 460.50000000000006 37.125000000000007 9.0208333333333339 1.8989898989898992 5.5000000000000009 44.875000000000007 1.5000000000000002 169.50000000000003 719.50000000000011 1.5634920634920637 1.3875000000000002 77.750000000000014 16.525000000000002 156.50000000000003 40.500000000000007 1.0000000180025095e-35 965.50000000000011 186.50000000000003 92.916666666666671 830.50000000000011 115.08333333333336 463.50000000000006 101.08333333333336 169.50000000000003 120.50000000000001 334.50000000000006 156.50000000000003 4390.5000000000009 51.500000000000007 872.50000000000011 121.50000000000001 97.500000000000014 67.500000000000014 101.91666666666667 108.50000000000001 88.500000000000014 71.500000000000014 5617.5000000000009 0.30384615384615393 98.500000000000014 62.083333333333336
decision_type=2 2 2 2 2 2 2 2 2 2 2 2 2 2 2 2 2 2 2 2 2 2 2 2 2 2 2 2 2 2 2 2 2 2 2 2 2 2 2 2 2 2 2 2 2 2 2 2 2 2 2 2 2 2 2 2 2 2 2 2 2 2 2 2 2 2 2 2 2 2 2 2 2 2 2
left_child=33 2 3 4 7 6 -6 -2 -4 54 11 12 18 -13 -15 -16 17 -17 20 -20 21 22 -11 -22 -23 -25 30 28 57 -3 31 -9 -33 34 46 36 -35 42 -39 -37 -41 43 -38 44 45 -42 -1 48 -29 -50 52 -52 53 -49 55 -10 -57 60 -59 -60 -5 62 72 66 65 73 67 69 -69 -64 71 -63 -62 -65 -72
right_child=1 29 8 27 5 -7 -8 26 9 10 -12 13 -14 14 15 16 -18 -19 19 -21 23 24 -24 25 -26 -27 -28 47 -30 -31 -32 32 -34 35 -36 39 37 38 -40 40 41 -43 -44 -45 -46 -47 -48 50 49 -51 51 -53 -54 -55 -56 56 -58 58 59 -61 61 70 63 64 -66 -67 -68 68 -70 -71 74 -73 -74 -75 -76
leaf_value=-0.22866922695961653 -0.066628328208647378 0.0073132298274101474 -0.083281021234004257 -0.12450667354603927 0.5017022086745514 -0.19597014958402428 0.10463664062287106 0 -0.17805085657936889 0.029888462848528939 0.32924019626883044 -0.23645046249184981 -0.19211819087698501 -0.29921183806015683 0.45317216619776252 0.43849179026158608 -0.15290806628092349 -0.038271663794579726 -0.11122396991656447 0.55341138610196494 -0.12880752722903482 -0.25777806515884572 0.33603834064522003 0.10767772604964775 0 -0.13062660821335581 -0.10324011490078142 -0.24159195404820585 -0.16966498199163726 -0.29156837173137223 0.039436865509128491 0.79332631908701934 0.05804762319104375 -0.037082416752147102 0.03098911755192248 -0.107150991594405 0.38800511979531438 0.2549192487223243 0.01147857295661291 0.22559098462031432 -0.12282791447882462 -0.098791941821546977 0.10456466156642785 0.02753217395674934 0.3950386082675863 0.1757253619270146 0.063477666709089886 0.10316588276619722 0.17964716159069485 -0.03491542796904714 0.013471769444578922 0.56819712100684883 -0.036353799294705363 -0.15021097465644401 -0.25248931931911411 -0.086123917127139224 0.15781484892365791 0.26440239717760233 -0.095162344467583482 0.27049100417082272 -0.092417810029860714 -0.22143509068915485 0.14704055933207891 -0.053102155472198417 0.016708069078382386 0.87447980676721648 -0.011205077330717078 0.48483183056072293 0.060091432919699247 -0.12677730672278367 0.027461254079708338 -0.069333118084137779 0.019824122739282173 0.44259781354175504 -0.049143079839735704
leaf_weight=26.967966001480818 157.530303735286 1486.4926069267094 857.95376396924257 100.50437327846885 11.421188239008186 14.5770275183022 113.44837355241179 7.5870744287967709 53.016239732503891 446.5321582108736 9.012689318507908 46.63294705748558 42.867731988430023 11.57853404805064 7.1887999139726153 6.8644325733184841 28.087244298309088 12.556307498365639 5.5562635846436006 7.1808188706636429 107.53529324010015 31.564964957535267 9.9493567384779436 44.134791012853384 25.936033599078655 24.427724599838257 16.25777343660593 7.7283702529966822 75.317208793014288 9.2574956193566305 26.8406618013978 7.2327221669256669 5.423410028219223 30.277450997382402 641.47226088121533 34.451965153217316 35.181989915668964 24.186685547232628 46.717418447136879 35.298016771674156 15.558291174471377 42.959499374032021 18.79039540886879 167.05077810585499 17.950530171394348 28.65930288285017 13.595197036862372 83.207841154187918 62.192157186567783 25.527294982224703 17.718890063464645 5.4423673823475829 524.25484436377883 16.284807290881872 35.092370077967644 58.394360277801752 20.684366952627897 7.5923993475735179 343.39436173811555 6.9805753976106635 139.86709195747972 44.556471332907677 38.247841268777847 5.5963837802410143 38.071549095213413 6.7357103414833537 217.37912701815367 13.43346829339862 14.319214940071104 24.084287073463202 212.24803221225739 239.10144194588065 123.3970160074532 6.3315512463450432 393.3221144489944
leaf_count=211 2290 16820 12921 1471 158 216 1638 111 808 6648 139 718 657 177 113 108 432 196 84 112 1612 474 148 660 387 360 239 110 1097 97 389 103 78 146 4328 149 148 100 194 153 72 186 78 691 74 138 64 1211 868 384 260 78 7561 237 528 893 312 109 4975 107 2019 641 549 79 558 96 3144 196 206 345 3053 3497 1820 88 5777
internal_value=0 -0.0273894 -0.0370806 -0.0243266 0.0293726 0.107499 0.144679 -0.0197595 -0.0582608 -0.0373805 -0.020929 -0.0250172 -0.011327 -0.113914 -0.0245342 0.0355196 -0.0323749 0.136641 0 0.267558 -0.00533962 0.0167721 0.0373431 -0.0701668 -0.143237 0.0209418 0.0947687 -0.0312933 -0.0422043 0.005246 0.165609 0.320653 0.507432 0.0439451 0.0211846 0.074908 0.140807 0.184614 0.097722 0.0444802 0.0619995 0.039846 0.293982 0.0664773 0.167993 0.0683591 -0.129256 -0.00102161 0.084725 0.116444 -0.0139023 0.162411 -0.020796 0.0599161 -0.121705 -0.0849528 -0.0202358 -0.0372306 -0.0787263 -0.0870123 -0.027955 -0.0214345 0.0122103 0.0498899 0.176584 0.483792 0.025816 0.115441 0.276775 0.0395468 -0.0452657 -0.0941054 -0.0395681 0.214411 -0.0221447
internal_weight=0 6541.65 5045.9 3153.16 360.319 139.447 124.87 220.872 1892.75 1034.79 867.606 858.593 745.685 112.908 66.2753 54.6968 47.508 19.4207 702.817 12.7371 690.08 513.983 456.482 176.098 57.501 68.5625 63.3416 2792.84 2050.48 1495.75 47.0839 20.2432 12.6561 1179.12 682.035 497.082 155.154 124.876 70.9041 341.928 307.476 272.178 53.9724 229.219 62.1681 44.2176 40.5632 742.357 95.4478 87.7195 646.909 23.1613 623.747 99.4926 167.187 132.095 79.0787 1975.16 357.967 350.375 1617.2 1516.69 627.463 364.199 56.7352 18.6636 307.464 90.0848 27.7527 62.3321 889.228 283.658 263.264 11.9279 605.57
internal_count=97894 91162 74245 45758 5222 2012 1796 3210 28487 15566 13025 12886 11142 1744 1026 849 736 304 10485 196 10289 7657 6796 2632 861 1020 920 40536 29827 16917 681 292 181 6732 4603 2129 666 520 294 1463 1314 1161 226 975 284 210 275 10709 1362 1252 9347 338 9009 1448 2541 2013 1205 28730 5191 5082 23539 22068 9100 5261 821 263 4440 1296 402 894 12968 4138 3839 167 8830
is_linear=0
shrinkage=0.400607


Tree=4
num_leaves=76
num_cat=0
split_feature=70 70 72 56 72 60 38 52 3 72 60 57 53 72 60 38 72 71 27 51 38 38 7 0 30 27 71 0 38 71 0 38 34 0 45 57 57 56 0 51 71 35 60 27 39 56 0 56 0 0 7 60 60 52 72 38 57 3 0 60 0 30 51 56 60 47 38 0 0 72 3 72 45 71 71
split_gain=186.471 64.1883 23.6899 13.2158 11.5783 11.6027 9.90924 9.61191 9.48634 9.02314 8.33863 8.24467 8.10929 7.66751 7.45399 7.2387 6.93213 10.2989 9.28043 8.05659 7.87361 8.65067 7.54385 11.451 12.0026 9.66678 9.23379 9.15726 6.94008 6.85916 8.54043 8.34369 7.00536 6.74277 6.56809 10.975 10.2561 6.73322 6.51735 6.39235 6.33951 6.27034 6.76237 6.23898 6.00391 5.94709 5.92528 5.92028 5.88472 5.85921 8.41797 7.5746 15.1912 7.25565 6.27034 6.14227 13.5066 7.23516 8.23864 6.73581 5.95663 6.40248 6.39837 12.1944 6.12586 5.85761 5.74003 5.72636 5.75262 6.85763 6.08469 6.87056 5.70611 8.46997 9.16137
threshold=1.5000000000000002 2.5000000000000004 37.500000000000007 29.708333333333339 6884.5000000000009 315.25000000000006 48.500000000000007 0.78888888888888908 7.5000000000000009 37.500000000000007 10.125000000000002 2.4365079365079372 0.35416666666666669 13022.500000000002 17.125000000000004 162.50000000000003 7843.5000000000009 3433.5000000000005 2.5000000000000004 5.5000000000000009 166.50000000000003 196.50000000000003 0.45804195804195807 51.500000000000007 10.708333333333334 2.5000000000000004 7340.5000000000009 48.500000000000007 334.50000000000006 8092.5000000000009 22.500000000000004 372.50000000000006 1.5000000000000002 25.500000000000004 0.81666666666666676 1.1547619047619049 1.3095238095238098 115.05555555555557 27.500000000000004 9.5000000000000018 72.500000000000014 5.5000000000000009 107.12500000000001 1.5000000000000002 3.5000000000000004 43.690476190476197 16.500000000000004 134.06250000000003 28.500000000000004 51.500000000000007 0.6515151515151516 77.125000000000014 13.125000000000002 0.30952380952380959 5658.5000000000009 243.50000000000003 1.2361111111111114 2.5000000000000004 63.500000000000007 35.375000000000007 20.500000000000004 29.354166666666668 3.5000000000000004 98.055555555555571 154.12500000000003 5.5000000000000009 494.50000000000006 26.500000000000004 25.500000000000004 10758.500000000002 2.5000000000000004 1173.5000000000002 1.7083333333333337 3667.5000000000005 1061.5000000000002
decision_type=2 2 2 2 2 2 2 2 2 2 2 2 2 2 2 2 2 2 2 2 2 2 2 2 2 2 2 2 2 2 2 2 2 2 2 2 2 2 2 2 2 2 2 2 2 2 2 2 2 2 2 2 2 2 2 2 2 2 2 2 2 2 2 2 2 2 2 2 2 2 2 2 2 2 2
left_child=3 2 65 -1 5 8 -6 11 9 -5 15 39 14 38 -12 45 20 19 -19 -18 -8 -22 23 24 28 26 -25 -24 -23 -20 -31 32 44 -33 -35 37 -37 -36 41 47 -17 43 -43 -14 -32 -4 -11 -3 67 51 54 52 -48 -54 55 59 -57 -58 -59 -51 -53 -62 -63 64 -64 -2 -49 68 -42 70 -70 -72 -45 74 -74
right_child=1 7 10 4 6 -7 16 -9 -10 46 12 -13 13 -15 -16 40 17 18 29 -21 21 22 27 25 -26 -27 -28 -29 -30 30 31 33 -34 34 35 36 -38 -39 -40 -41 48 42 -44 72 -46 -47 49 66 -50 50 -52 60 53 -55 -56 56 57 58 -60 -61 61 62 63 -65 -66 -67 -68 -69 69 -71 71 -73 73 -75 -76
leaf_value=-0.07169010414846709 -0.21459248634720507 0.070000047147055433 -0.07667732252059016 -0.081604228794617678 0.55081622295003152 0.39321227083209426 0.016847700454008331 0.32856177620700155 -0.15947467179878042 -0.1984360796284213 0.33484090950169487 -0.13753198164803451 0.12853675498836153 0.25855967792268586 0.038042267338522034 0.20281353723293127 0.49846042586196709 0.064014756130648248 0.00019556073671843255 0.058138997802253865 0.67535230184048411 0.54686774578685282 -0.30947492241811392 0.63893804509653573 0.72847342951249783 -0.11291272995439613 0.032390310835457445 0.25681730957494792 0.074884665335582898 0.42425385506968516 0.19093272212693119 -0.034716217868488518 0.32120337744927507 0.020751631083729499 0.91551485863457294 -0.16227601099472616 0.33393047329206688 0.29288661104837721 -0.050783422395517308 0.36832023323104796 -0.097358527085921645 0.38785282968966883 0.060120947801224477 -0.096695198804566021 -0.041522675925847151 -0.0088901313015311168 0.11563791622609729 0.28228241141352944 -0.057757115369782813 0.22922556440060468 -0.096820808839653105 -0.23034542225062171 0.46219773916447415 0.2017776324046042 -0.034555403615973694 -0.0089073928012420277 -0.095685502123105018 0.34087552329751675 -0.0045427894516281942 0.0057019207938359632 -0.084368395631666204 0.36717469549778714 0.08873683777823059 -0.056762919708223711 0.50990238345090699 0.098517275685667482 0.00018056973661882751 -0.17747871067644116 0.1539768086954835 0.29642016421468009 0.22843084665227681 -0.1669298393981466 -0.08487655366871126 -0.057771693289601835 0.32916833141428026
leaf_weight=62.734946392476559 167.36644201353192 316.8038045167923 293.75397117808461 47.026747044175863 9.4960099384188634 18.957820296287537 21.705816470086575 28.555876262485981 24.585320599377155 9.919159069657324 15.710927251726387 23.238181889057159 40.198288556188345 13.739041727036236 83.970782585442066 12.823430657386778 20.137098725885156 273.57150841504335 32.518661327660084 10.855490136891602 8.1991881467401964 7.3733189888298538 7.4301934055984047 7.1383983790874543 14.839744076132773 14.684646155685185 9.0286429487168771 9.5000641755759698 15.110837027430533 24.266242917627096 25.515089996159077 10.044293243438004 15.929780248552559 11.712101195007561 7.6126842126250249 7.2843254953622809 38.314069986343384 6.6320130862295628 925.25706569477916 13.575929362326859 599.87117052078247 11.612687468528746 62.85184520855546 127.75306371971965 53.536281198263168 718.33374616131186 322.23952915892005 43.89619904384017 1942.746115822345 92.795836355537176 45.303415141999722 10.980131663382052 31.992403227835894 45.285709545016289 59.562467854470015 139.76832673326135 10.041888181120155 45.285061620175838 13.888953648507593 29.279322486370802 30.50807249546051 14.090728878974913 12.539335802197458 41.786847412586212 10.8612764775753 9.3112961575388891 16.485129401087761 126.93675594031811 19.391204062849283 11.135625947266815 7.4855911396443835 43.553342752158642 12.395317178219555 61.594495184719563 23.380329541862011
leaf_count=659 1716 3602 4277 393 108 110 229 175 257 109 193 234 420 138 1087 198 147 3359 233 65 94 89 88 88 123 124 114 114 192 254 291 109 109 134 91 75 390 84 8669 128 9408 74 393 1389 601 10425 4070 560 30708 1081 536 96 317 373 635 1650 90 406 118 226 275 126 95 342 70 45 194 2013 292 185 119 707 113 571 216
internal_value=0 -0.0409246 -0.0531094 0.107294 0.113908 0.0875617 0.155641 0.105483 0.0815881 0.0876496 -0.0481224 0.0892657 -0.0213338 -0.0299807 0.088045 -0.0578713 0.149079 0.12926 0.114893 0.352486 0.239442 0.289677 0.245439 0.304257 0.452353 0.115243 0.323262 0.0004283 0.247199 0.173724 0.201259 0.168305 0.0850555 0.262321 0.305181 0.358341 0.251271 0.663054 -0.0333494 0.10324 -0.0685092 0.0138684 0.11606 -0.0147413 0.0335591 -0.0286996 0.0960428 0.0926901 -0.0698661 0.0993574 0.0644869 0.128255 0.154874 0.314428 0.0835869 0.105146 0.0623752 0.206034 0.259338 0.176738 0.039008 0.0682545 0.12837 0.0715036 0.298484 -0.197209 0.207759 -0.0987688 -0.0837812 0.0149563 -0.0311563 -0.104539 -0.0410935 0.0311384 0.184555
internal_weight=0 5773.73 5331.17 1781.87 1719.13 1056.7 662.436 442.555 1037.74 1013.16 5154.49 413.999 1378.46 1278.78 99.6817 3776.03 652.94 537.93 506.937 30.9926 115.011 93.305 85.1058 68.1756 37.3239 30.8517 16.167 16.9303 22.4842 233.366 200.847 176.581 94.9812 81.5995 71.5552 59.8431 45.5984 14.2447 1265.04 390.761 2763.94 339.786 74.4645 265.321 79.0514 1012.09 966.128 377.185 2751.12 956.209 435.925 520.284 399.518 77.2781 390.622 331.059 208.984 69.2159 59.174 122.075 120.766 109.786 79.2782 65.1875 23.4006 176.678 60.3813 808.374 681.437 81.5658 70.4301 51.0389 225.123 97.3701 35.7756
internal_count=97588 78249 73356 19339 18680 11375 7305 4893 11265 11008 71595 4718 13263 11983 1280 58332 7197 5942 5730 212 1255 1026 932 730 404 326 202 202 281 2371 2138 1884 1001 883 774 640 465 175 11845 4484 43630 3176 467 2709 892 14702 10615 4356 43432 10506 4742 5764 4760 690 4206 3571 2264 614 524 1307 1004 908 633 507 165 1761 754 12724 10711 1303 1118 826 2289 900 329
is_linear=0
shrinkage=0.400607


end of trees

feature_importances:
price_lst_06_sum=28
age=27
hist_price_avg=22
cat__postalAddress_clean=22
price_lst_03_sum=20
price=18
price_lst_01_sum=15
price_lst_01_avg=14
cat__residentialAddress_clean=14
cat__shopID=12
late_payment_first_lst_09_avg=10
income=9
hist_default_avg=9
hist_price_sum=9
money_lost_lst_09_avg=9
price_lst_06_avg=8
money_lost_lst_12_sum=8
money_lost_lst_01_sum=7
late_payment_first_lst_03_sum=7
price_lst_03_avg=6
late_payment_first_lst_06_avg=6
cat__geo_risk_rank=6
hist_late_avg=5
late_payment_first_lst_09_sum=5
price_lst_09_avg=5
money_lost_lst_01_avg=4
money_lost_lst_06_sum=4
late_payment_first_lst_06_sum=4
late_lst_06_avg=4
cat__sex=4
cat__same_address=4
hist_trans_count=3
hist_late_sum=3
late_payment_first_lst_01_avg=3
defualted_payment_lst_06_avg=3
defualted_payment_lst_09_sum=3
price_lst_09_sum=3
defualted_payment_lst_09_avg=3
defualted_payment_lst_12_sum=3
defualted_payment_lst_12_avg=3
money_lost_lst_12_avg=3
money_lost_lst_03_avg=2
money_lost_lst_06_avg=2
default_lst_09_avg=2
default_lst_12_avg=2
hist_default_sum=1
late_lst_01_sum=1
late_payment_first_lst_01_sum=1
defualted_payment_lst_03_sum=1
money_lost_lst_03_sum=1
late_lst_03_sum=1
defualted_payment_lst_03_avg=1
default_lst_06_sum=1
defualted_payment_lst_06_sum=1
late_lst_06_sum=1
money_lost_lst_09_sum=1
late_payment_first_lst_12_sum=1

parameters:
[boosting: gbdt]
[objective: binary]
[metric: auc,average_precision,binary_logloss]
[tree_learner: serial]
[device_type: cpu]
[linear_tree: 0]
[data: ]
[valid: ]
[num_iterations: 300]
[learning_rate: 0.400607]
[num_leaves: 76]
[num_threads: 0]
[deterministic: 1]
[force_col_wise: 0]
[force_row_wise: 0]
[histogram_pool_size: -1]
[max_depth: 14]
[min_data_in_leaf: 74]
[min_sum_hessian_in_leaf: 0.001]
[bagging_fraction: 0.309038]
[pos_bagging_fraction: 1]
[neg_bagging_fraction: 1]
[bagging_freq: 4]
[bagging_seed: 22734]
[feature_fraction: 0.42751]
[feature_fraction_bynode: 1]
[feature_fraction_seed: 5052]
[extra_trees: 0]
[extra_seed: 5559]
[early_stopping_round: 15]
[first_metric_only: 0]
[max_delta_step: 0]
[lambda_l1: 0.224503]
[lambda_l2: 0.812527]
[linear_lambda: 0]
[min_gain_to_split: 0]
[drop_rate: 0.1]
[max_drop: 50]
[skip_drop: 0.5]
[xgboost_dart_mode: 0]
[uniform_drop: 0]
[drop_seed: 23992]
[top_rate: 0.2]
[other_rate: 0.1]
[min_data_per_group: 100]
[max_cat_threshold: 32]
[cat_l2: 10]
[cat_smooth: 10]
[max_cat_to_onehot: 4]
[top_k: 20]
[monotone_constraints: ]
[monotone_constraints_method: basic]
[monotone_penalty: 0]
[feature_contri: ]
[forcedsplits_filename: ]
[refit_decay_rate: 0.9]
[cegb_tradeoff: 1]
[cegb_penalty_split: 0]
[cegb_penalty_feature_lazy: ]
[cegb_penalty_feature_coupled: ]
[path_smooth: 0]
[interaction_constraints: ]
[verbosity: 1]
[saved_feature_importance_type: 0]
[max_bin: 255]
[max_bin_by_feature: ]
[min_data_in_bin: 3]
[bin_construct_sample_cnt: 200000]
[data_random_seed: 2213]
[is_enable_sparse: 1]
[enable_bundle: 1]
[use_missing: 1]
[zero_as_missing: 0]
[feature_pre_filter: 0]
[pre_partition: 0]
[two_round: 0]
[header: 0]
[label_column: ]
[weight_column: ]
[group_column: ]
[ignore_column: ]
[categorical_feature: ]
[forcedbins_filename: ]
[objective_seed: 29849]
[num_class: 1]
[is_unbalance: 0]
[scale_pos_weight: 1]
[sigmoid: 1]
[boost_from_average: 1]
[reg_sqrt: 0]
[alpha: 0.9]
[fair_c: 1]
[poisson_max_delta_step: 0.7]
[tweedie_variance_power: 1.5]
[lambdarank_truncation_level: 30]
[lambdarank_norm: 1]
[label_gain: ]
[eval_at: ]
[multi_error_top_k: 1]
[auc_mu_weights: ]
[num_machines: 1]
[local_listen_port: 12400]
[time_out: 120]
[machine_list_filename: ]
[machines: ]
[gpu_platform_id: -1]
[gpu_device_id: -1]
[gpu_use_dp: 0]
[num_gpu: 1]

end of parameters

pandas_categorical:null
