tree
version=v3
num_class=1
num_tree_per_iteration=1
label_index=0
max_feature_idx=75
objective=binary sigmoid:1
feature_names=age income price hist_trans_count hist_default_sum hist_default_avg hist_late_sum hist_late_avg hist_price_sum hist_price_avg default_lst_01_sum defualted_payment_lst_01_sum money_lost_lst_01_sum late_lst_01_sum price_lst_01_sum late_payment_first_lst_01_sum default_lst_01_avg defualted_payment_lst_01_avg money_lost_lst_01_avg late_lst_01_avg price_lst_01_avg late_payment_first_lst_01_avg default_lst_03_sum defualted_payment_lst_03_sum money_lost_lst_03_sum late_lst_03_sum price_lst_03_sum late_payment_first_lst_03_sum default_lst_03_avg defualted_payment_lst_03_avg money_lost_lst_03_avg late_lst_03_avg price_lst_03_avg late_payment_first_lst_03_avg default_lst_06_sum defualted_payment_lst_06_sum money_lost_lst_06_sum late_lst_06_sum price_lst_06_sum late_payment_first_lst_06_sum default_lst_06_avg defualted_payment_lst_06_avg money_lost_lst_06_avg late_lst_06_avg price_lst_06_avg late_payment_first_lst_06_avg default_lst_09_sum defualted_payment_lst_09_sum money_lost_lst_09_sum late_lst_09_sum price_lst_09_sum late_payment_first_lst_09_sum default_lst_09_avg defualted_payment_lst_09_avg money_lost_lst_09_avg late_lst_09_avg price_lst_09_avg late_payment_first_lst_09_avg default_lst_12_sum defualted_payment_lst_12_sum money_lost_lst_12_sum late_lst_12_sum price_lst_12_sum late_payment_first_lst_12_sum default_lst_12_avg defualted_payment_lst_12_avg money_lost_lst_12_avg late_lst_12_avg price_lst_12_avg late_payment_first_lst_12_avg cat__sex cat__residentialAddress_clean cat__postalAddress_clean cat__geo_risk_rank cat__shopID cat__same_address
feature_infos=[7:90] [0:100000] [3:200] [1:14] [0:10] [0:1] [0:11] [0:1] [3:1808] [3:200] [0:1] [0:4] [0:200] [0:1] [3:200] [0:4] [0:1] [0:4] [0:200] [0:1] [3:200] [0:4] [0:3] [0:12] [0:490.5] [0:3] [3:597] [0:12] [0:1] [0:4] [0:200] [0:1] [3:200] [0:4] [0:6] [0:24] [0:822.25] [0:6] [3:1120] [0:23] [0:1] [0:4] [0:200] [0:1] [3:200] [0:4] [0:9] [0:28] [0:970] [0:9] [3:1460] [0:28] [0:1] [0:4] [0:200] [0:1] [3:200] [0:4] [0:10] [0:30] [0:970] [0:11] [3:1732] [0:30] [0:1] [0:4] [0:200] [0:1] [3:200] [0:4] [1:3] [1:13260] [1:13261] [0:5] [100:999] [0:1]
tree_sizes=17579 17732 17706 17853 17811 17636 17682 17871 17844 17809 17900 17956 17900 17809 17927 17872 17868 17844 17902 17777

Tree=0
num_leaves=169
num_cat=0
split_feature=75 5 70 52 70 70 60 70 36 5 38 22 60 74 56 38 53 38 46 50 32 1 42 5 50 57 38 74 74 35 7 71 14 18 2 0 1 56 14 26 2 1 2 2 71 71 18 9 42 2 71 38 74 14 30 26 71 2 18 71 36 36 30 1 14 14 14 45 74 60 2 53 45 38 1 1 18 26 57 38 26 2 0 9 53 9 30 30 50 0 73 1 60 1 71 1 32 27 71 14 1 2 57 50 26 71 74 74 9 74 74 53 14 14 29 2 50 74 1 71 74 14 50 27 74 9 45 27 53 14 38 1 14 18 73 14 74 71 74 23 71 71 45 50 18 74 30 57 9 30 37 0 74 2 74 0 74 14 52 71 2 1 0 14 2 1 73 32
split_gain=9650.1 4381.78 1132.63 497.026 363.658 314.482 243.038 186.433 135.224 97.3684 90.4394 88.5939 56.4396 26.1198 23.4267 28.9196 20.6787 20.4985 19.6456 19.242 18.3738 15.3645 17.8563 17.6723 19.1817 15.167 14.7462 15.8556 14.3541 16.457 15.3337 21.631 22.0836 14.345 19.5323 14.326 14.2898 13.732 13.7206 12.8768 13.3026 12.5372 13.2971 13.8221 12.1655 13.3911 12.1355 13.2755 15.1433 26.1723 26.5819 22.8087 12.0425 11.8971 11.6474 11.5744 11.5099 12.6384 17.2397 12.4245 11.8572 19.4441 13.932 11.4965 12.1927 14.3453 16.6584 14.1577 13.1765 11.6293 15.0389 14.4494 13.6536 11.389 11.3663 11.2394 11.2141 13.4427 14.0608 11.1487 12.4891 11.1156 15.2069 11.8777 11.0832 11.0776 11.0556 13.4146 11.0263 11.024 16.3162 12.0472 20.8066 16.95 17.2564 14.8124 10.994 12.4274 10.9803 10.9228 12.6313 10.8914 10.8814 10.7016 12.0831 10.5849 11.625 16.5683 10.4855 10.3812 13.9038 10.371 11.4113 10.4652 10.2432 10.3869 10.1773 10.8796 11.0475 10.6646 10.1455 10.1015 10.0656 9.99993 9.89932 9.48383 9.43516 9.40541 12.4226 16.1507 29.166 14.9563 9.5296 9.2092 9.09653 9.03461 11.1082 10.1711 9.03046 22.5399 10.8489 19.3809 8.9367 9.1848 14.2476 18.2082 11.6101 11.0929 9.43145 8.92921 8.74403 8.72981 8.71926 8.71562 18.0017 10.887 9.80223 8.63402 10.9083 8.76989 8.56339 8.89497 12.8564 11.0306 10.7805 12.1469 8.38041 10.0744
threshold=1.0000000180025095e-35 0.37980769230769235 1.5000000000000002 0.18333333333333338 1.5000000000000002 2.5000000000000004 4.1250000000000009 2.5000000000000004 2.1250000000000004 0.76388888888888895 194.50000000000003 1.5000000000000002 3.1250000000000004 887.50000000000011 124.52777777777779 512.50000000000011 0.5634920634920636 237.50000000000003 2.5000000000000004 440.50000000000006 113.16666666666667 5650.0000000000009 97.125000000000014 0.47222222222222227 722.50000000000011 1.5857142857142861 530.50000000000011 312.50000000000006 503.50000000000006 9.5000000000000018 0.5634920634920636 2395.5000000000005 27.500000000000004 2.8750000000000004 90.500000000000014 21.500000000000004 44750.000000000007 147.07142857142858 13.500000000000002 306.50000000000006 97.500000000000014 18750.000000000004 38.500000000000007 48.500000000000007 460.50000000000006 852.50000000000011 10.375000000000002 114.53571428571429 6.2708333333333348 64.500000000000014 4998.5000000000009 340.50000000000006 463.50000000000006 17.500000000000004 64.145833333333357 86.500000000000014 4254.5000000000009 160.50000000000003 56.750000000000007 4434.5000000000009 29.125000000000004 159.12500000000003 22.708333333333339 41850.000000000007 13.500000000000002 178.50000000000003 194.50000000000003 1.2916666666666667 431.50000000000006 34.125000000000007 112.50000000000001 0.94444444444444453 1.1833333333333336 237.50000000000003 72850.000000000015 72050.000000000015 7.1250000000000009 273.50000000000006 1.8819444444444446 188.50000000000003 296.50000000000006 139.50000000000003 41.500000000000007 90.527777777777786 0.21111111111111114 133.05555555555557 13.04166666666667 30.958333333333339 344.50000000000006 25.500000000000004 2.5000000000000004 27050.000000000004 158.12500000000003 33850.000000000007 9960.5000000000018 77250.000000000015 42.166666666666679 7.5000000000000009 1105.5000000000002 152.50000000000003 19150.000000000004 14.500000000000002 1.3095238095238098 268.50000000000006 212.50000000000003 1542.5000000000002 403.50000000000006 613.50000000000011 38.100000000000009 585.50000000000011 722.50000000000011 0.47222222222222227 150.50000000000003 100.50000000000001 2.1666666666666674 141.50000000000003 363.50000000000006 872.50000000000011 98850.000000000015 11914.500000000002 932.50000000000011 139.50000000000003 540.50000000000011 3.5000000000000004 605.50000000000011 127.52777777777779 1.2916666666666667 2.5000000000000004 1.7321428571428574 121.50000000000001 174.50000000000003 52450.000000000007 19.500000000000004 98.125000000000014 3.5000000000000004 42.500000000000007 107.50000000000001 1837.5000000000002 276.50000000000006 3.5000000000000004 10016.500000000002 11087.500000000002 0.18333333333333338 642.50000000000011 21.875000000000004 292.50000000000006 2.0416666666666674 0.5634920634920636 124.52777777777779 28.708333333333339 1.5000000000000002 57.500000000000007 751.50000000000011 149.50000000000003 423.50000000000006 47.500000000000007 276.50000000000006 68.500000000000014 0.21111111111111114 4739.5000000000009 26.500000000000004 6950.0000000000009 41.500000000000007 32.500000000000007 128.50000000000003 2750.0000000000005 3.5000000000000004 142.41666666666671
decision_type=2 2 2 2 2 2 2 2 2 2 2 2 2 2 2 2 2 2 2 2 2 10 2 2 2 2 2 2 2 2 2 2 2 2 2 2 10 2 2 2 2 8 2 2 2 2 2 2 2 2 2 2 2 2 2 2 2 2 2 2 2 2 2 8 2 2 2 2 2 2 2 2 2 2 10 8 2 2 2 2 2 2 2 2 2 2 2 2 2 2 2 10 2 10 2 8 2 2 2 2 10 2 2 2 2 2 2 2 2 2 2 2 2 2 2 2 2 2 8 2 2 2 2 2 2 2 2 2 2 2 2 10 2 2 2 2 2 2 2 2 2 2 2 2 2 2 2 2 2 2 2 2 2 2 2 2 2 2 2 2 2 8 2 2 2 10 2 2
left_child=1 3 6 10 9 8 88 11 73 -3 44 28 52 21 26 125 19 54 25 20 53 -13 23 -23 -25 37 27 99 29 30 31 121 -33 34 -9 122 85 63 124 40 -28 -22 -43 -44 -1 55 47 48 49 -40 -51 -50 135 151 -11 -46 57 123 60 -58 -59 62 -62 64 67 79 68 -8 -67 70 111 103 75 120 -41 -73 77 -20 -79 -66 84 82 -48 -84 -81 -17 -61 138 160 90 -30 92 134 -93 -95 -96 108 127 -45 100 -5 -21 -38 -72 -105 -78 -107 -108 -37 -54 -111 112 113 -65 -10 -116 -90 118 -118 -119 -4 -6 -14 -27 -29 -16 -39 132 -129 130 -130 -132 -98 -19 -91 137 -137 -7 139 -88 -140 -142 -71 -144 145 146 -145 -147 -149 -102 -150 -12 -99 154 155 -100 -155 159 -159 -53 -2 162 163 -162 -165 -166 -112 -168
right_child=2 4 5 14 7 12 18 33 114 17 16 13 35 -15 15 36 -18 133 76 101 41 22 -24 24 -26 56 39 38 89 -31 -32 32 -34 -35 -36 96 102 126 46 74 -42 42 43 98 45 -47 81 -49 51 50 -52 157 109 -55 -56 -57 59 58 -60 86 61 -63 -64 69 65 66 -68 -69 -70 142 71 72 -74 -75 -76 -77 105 78 -80 80 -82 -83 83 -85 -86 -87 87 -89 116 91 -92 93 -94 94 95 -97 97 152 153 -101 149 -103 -104 104 -106 106 107 -109 -110 110 166 -113 -114 -115 115 -117 117 119 -120 -121 -122 -123 -124 -125 -126 -127 -128 128 129 -131 131 -133 -134 -135 -136 136 -138 -139 140 -141 141 -143 143 144 -146 147 -148 148 150 -151 -152 -153 -154 156 -156 -157 -158 158 -160 -161 161 -163 -164 164 165 -167 167 -169
leaf_value=-2.2723207953131785 -2.2630076940662085 -1.7326484791875096 -2.3424976981171257 -2.2358869237580565 -1.756965861933018 -2.3707805150656012 -2.1962593497525069 -1.9993659256761274 -2.3191923437154136 -1.5568171129886479 -2.1265172257907747 -1.6451577610270047 -2.3482320709118989 -1.9302539507872152 -1.6921902392167965 -2.1412349564206994 -2.1155962742895698 -1.431180396309621 -2.2179538391350739 -2.174040197388428 -2.286486473489838 -1.9867367354412662 -1.9695119237622183 -1.7727896068307092 -1.9860750257038604 -2.3318398959635092 -1.9062177170184229 -2.302467096027125 -1.9837513204994468 -1.7313790172161092 -2.1365877870603822 -2.1948091737724136 -1.9713912524249528 -1.5638579862069286 -1.6021326395913267 -2.2318121959082533 -2.2475123448257142 -2.2660438602853397 -2.2893242320547511 -2.2738897161264897 -2.1823977027104253 -2.2819267220614288 -1.9837570679914815 -2.302467096027125 -1.8858707010804698 -2.1722502942872604 -2.1786978004584858 -2.146475053830629 -2.0074921952062974 -2.169186739532933 -1.8271787091993232 -1.5927082558577885 -2.2501541322734488 -2.2766782970392319 -1.7404191617109162 -2.1538801645817731 -2.0391874713803722 -2.2915953578152903 -2.2914147603536517 -2.2500417517786193 -2.1646796457943593 -2.2888897059512887 -1.8936402126386411 -2.1791557559498815 -2.302467096027125 -1.9598060089032172 -2.300110326058856 -1.9426183133782988 -2.1730401176690108 -2.4002311108112324 -2.0117236228631343 -2.0527566589381867 -2.3842393118293028 -2.3479835712382435 -2.0603913004357741 -2.302467096027125 -2.3502526987158778 -1.9353131727293933 -2.2075215968511306 -2.0380724501350893 -2.2548394176011142 -2.1992089394382606 -2.1112166282019742 -1.8672357940957387 -2.20957578097426 -1.874555396494624 -1.842315626302766 -2.2095201419148141 -2.3336577100685596 -1.7099899716171465 -1.7354636242143466 -2.1693582047275037 -2.0706934898758371 -1.8975785340128786 -1.9679703486373978 -2.2583279103777301 -2.0498078444317764 -2.0889588236071983 -2.159245947716308 -2.2568000076604648 -2.0894689309160182 -2.2980496520531006 -2.0237004119165758 -2.3221629706241318 -2.1360077539611346 -2.302467096027125 -1.9618525572976999 -2.2208588729090426 -2.0251446151503778 -2.3233495337564598 -2.2882513057465284 -2.2928624203623098 -2.0277397318250419 -2.3580713116470635 -2.3094121440446895 -2.2519337226513385 -2.2920148653991195 -2.3335729532295639 -2.2141266877953569 -2.2164432057255246 -2.3235996206409189 -1.9939448442434931 -2.1886038934766026 -2.2428133784141684 -2.0561135379739564 -1.920603374337684 -2.370361862892024 -2.272915111274636 -2.2832801205258977 -2.2896871429010863 -1.8670834454914813 -2.1694705303873372 -2.2189948460223921 -1.6279394059489505 -1.9361808922088981 -2.1598188931109461 -2.3248096082234273 -2.2498375170208056 -2.2136815900294335 -2.197767366531123 -1.9002598441330556 -2.1984840663237186 -2.2684538728924752 -2.1924143877752598 -2.3206334319757791 -2.091518123758255 -1.9251845108495091 -2.306324695988323 -2.1138793696566025 -1.8896295868428288 -2.302467096027125 -2.302467096027125 -2.2888897059512887 -2.3703131750055846 -2.1968287604903169 -1.9495588981815974 -2.1944806878621685 -2.1128611502717849 -1.8550333787190918 -1.8963244159821653 -2.3127854411021365 -2.2888012147117318 -2.2864755734196764 -2.2369045894509467 -2.2413968019552337 -2.0161771705594886 -2.2591024396126045 -2.1211752944549844
leaf_weight=13.224416971206663 187.12550014257431 63.973117098212242 4018.7350123375654 5.3724193945527139 8.1826080009341222 8.3479132130742055 9.5050496980547887 3.4714094549417487 2027.2204690799117 17.27439466863871 10.000965334475039 9.7530075162649137 17.77031030505896 21.654982790350914 3.6367146670818356 3.4714094549417513 10.992796607315539 25.291697457432747 6.9428189098835018 7.7693449705839148 18.679488971829414 6.6948610916733733 9.1744392737746221 105.5473779514432 6.4469032734632483 14.216248244047163 4.2152829095721263 3.4714094549417487 5.703029818832877 3.5540620610117903 7.4387345463037482 6.1989454552531233 36.532451882958412 25.787613093852997 3.4714094549417496 6.3642506673932058 6.3642506673932058 28.43249648809433 4.4632407277822486 9.7530075162649137 4.5458933338522911 14.960121698677538 4.0499776974320403 7.2734293341636649 3.4714094549417478 205.5570312961936 6.1989454552531305 6.1989454552531233 25.787613093852997 5.1244615763425809 5.537724606692791 3.5540620610117939 83.892395161092281 122.24320437759161 11.901975274085997 5.2071141824126244 5.2071141824126235 3.7193672731518808 9.5050496980547887 45.458933338522911 4.2152829095721227 3.636714667081832 5.8683350309729576 9.6703549101948756 21.324372366070747 5.6203772127628353 5.7856824249029151 3.4714094549417487 9.4223970919847471 4.3805881217122069 6.6122084856033352 3.7193672731518728 5.3724193945527077 6238.0401379242539 3.8020198792219153 4.2152829095721245 4.0499776974320438 7.025471515953539 3.6367146670818329 4.3805881217122069 92.736224010586739 7.2734293341636649 4.7938511520624143 6.6948610916733742 92.075003162026405 6.0336402431130409 3.5540620610117895 113.39937552809715 75.048566311597824 10.083617940545084 12.56319612264633 4.2979355156421652 4.2152829095721236 34.052873700857162 5.0418089702725384 3.5540620610117921 3.9673250913619986 10.08361794054508 6.1162928491830808 5.4550720006227484 14.794816486537458 121.99524655938148 4.2152829095721245 3.8846724852919605 18.018268123269081 4.8765037581324604 4.2979355156421652 8.0999553948640806 5.537724606692791 92.240308374166489 143.15431371331215 33.061042428016663 3.4714094549417487 4.6285459399223319 103.23310498148203 46.616069823503494 651.38518843799829 101.41474764794111 19.506015032529831 8.4305658191442472 330.11450864374638 4.8765037581324568 5.1244615763425818 95.711717829108238 3.4714094549417496 17.522352486848831 12.893806546926497 106.04329358786345 7.3560819402337101 11.819322668015955 4.4632407277822477 3.8846724852919579 58.518045097589493 8.7611762434244138 5.1244615763425818 4.1326303035020819 188.03467880934477 39.838556125760078 21.489677578210831 4.8765037581324577 3.9673250913619977 6.7775136977434158 210.84679808467627 4.2979355156421644 10.331575758755205 5.1244615763425854 3.9673250913619995 15.538689941167833 6.5295558795332891 3.884672485291957 3.8020198792219162 3.8020198792219153 3.636714667081832 3.6367146670818356 23.555992729961872 7.0254715159535408 16.365216001868248 3.4714094549417469 8.182608000934124 4.1326303035020828 7.5213871523737899 1263.3450837805867 60.832318067550659 17.439699880778793 4.9591563642024976 6.9428189098834991 40.91304000467062 6.6948610916733733
leaf_count=160 2264 774 48622 65 99 101 115 42 24527 209 121 118 215 262 44 42 133 306 84 94 226 81 111 1277 78 172 51 42 69 43 90 75 442 312 42 77 77 344 54 118 55 181 49 88 42 2487 75 75 312 62 67 43 1015 1479 144 63 63 45 115 550 51 44 71 117 258 68 70 42 114 53 80 45 65 75473 46 51 49 85 44 53 1122 88 58 81 1114 73 43 1372 908 122 152 52 51 412 61 43 48 122 74 66 179 1476 51 47 218 59 52 98 67 1116 1732 400 42 56 1249 564 7881 1227 236 102 3994 59 62 1158 42 212 156 1283 89 143 54 47 708 106 62 50 2275 482 260 59 48 82 2551 52 125 62 48 188 79 47 46 46 44 44 285 85 198 42 99 50 91 15285 736 211 60 84 495 81
internal_value=-2.30247 -2.03251 -2.32326 -2.17784 -1.78647 -2.33641 -2.27102 -1.84169 -2.3404 -1.63831 -2.22311 -1.86678 -2.27663 -1.81232 -2.03494 -1.96284 -2.2538 -1.54485 -2.22952 -2.25813 -2.24089 -1.79444 -1.80679 -1.79497 -1.78429 -2.23243 -2.05532 -2.04118 -1.92472 -1.96649 -1.98149 -1.96209 -2.00225 -1.60742 -1.78558 -2.23536 -2.05876 -2.24191 -2.02024 -2.13947 -2.04047 -2.20788 -2.19085 -2.17163 -2.17231 -2.1664 -2.00923 -1.98412 -1.96858 -2.06982 -1.98374 -1.93643 -2.29334 -2.26599 -1.62754 -2.03695 -2.21477 -2.23868 -2.17521 -2.19907 -2.11525 -2.07159 -1.9992 -2.23802 -2.22062 -2.22646 -2.14422 -2.12203 -2.08807 -2.25007 -2.21853 -2.17275 -2.26562 -2.34515 -2.2088 -2.17898 -2.15746 -2.09508 -2.02149 -2.23491 -2.22706 -2.07924 -2.03373 -1.96183 -2.20096 -1.96366 -2.20364 -2.19033 -2.28872 -1.89285 -1.8078 -1.91782 -1.83852 -1.95273 -1.93249 -2.08008 -2.22744 -2.23331 -2.18485 -2.11351 -2.08347 -2.29013 -2.1516 -2.1315 -2.17126 -2.21213 -2.17673 -2.12476 -2.12974 -2.28171 -2.29126 -2.25739 -2.1947 -2.24057 -2.31729 -2.29185 -2.29806 -2.29457 -2.28966 -2.32404 -2.34108 -1.83822 -2.30992 -2.25481 -2.17472 -1.87595 -2.29991 -2.24035 -2.25639 -2.19494 -2.12743 -1.99817 -2.20701 -1.47794 -1.77965 -2.31088 -2.32092 -2.27195 -2.13847 -2.0379 -2.16716 -2.08068 -2.26132 -2.25875 -2.21869 -2.1906 -2.05475 -2.22923 -2.25925 -2.04299 -2.18431 -2.17592 -2.13774 -2.16979 -2.13912 -2.04128 -2.22917 -1.84653 -1.92498 -1.74124 -2.28359 -2.28646 -2.25669 -2.2091 -2.18086 -2.10435 -2.27548 -2.23826
internal_weight=0 1267.97 17043.4 797.35 470.624 13615.8 3427.6 343.422 12764 127.202 605.926 310.691 851.818 159.272 191.423 41.2437 378.466 63.2292 1023.65 367.473 237.709 137.617 127.864 118.689 111.994 984.723 150.18 127.864 151.42 66.7833 63.2292 55.7905 42.7314 32.7304 6.94282 244.569 20.0846 643.12 98.3566 22.3162 8.76118 101.663 82.9832 68.0231 227.46 214.236 91.4138 66.4527 60.2537 15.1254 10.6622 45.1283 607.249 136.046 29.1764 8.67852 341.603 136.873 26.9447 204.731 17.4397 13.7203 10.0836 601.794 244.321 231.345 20.8285 12.9765 15.0428 357.473 92.6536 41.8222 13.3071 10586.9 13.555 7.93465 38.9294 17.605 10.6622 210.516 189.192 24.9611 17.6877 11.4887 96.4556 9.50505 199.523 154.064 2403.95 84.6363 18.2662 66.37 19.4234 46.9467 42.6487 8.59587 221.674 209.772 63.9731 29.507 24.0519 129.765 10.5795 28.5151 21.9029 21.3244 17.2744 12.3979 11.902 366.895 283.003 50.8314 17.7703 14.2989 2177.07 149.849 855.785 780.737 670.891 109.845 4348.85 13.0591 22.8948 109.928 6.94282 21.1591 41.3263 196.052 133.567 27.5233 15.704 8.34791 62.4854 34.0529 15.2081 240.354 192.167 48.1865 40.6651 8.43057 32.2345 10.7448 264.819 260.438 49.5916 39.26 8.26526 30.9947 25.8703 18.6795 10.3316 13.803 13.7203 56.6997 36.6978 13.1418 20.0019 19.3407 11.654 7.68669 1548.17 1361.04 97.6954 36.8631 29.3417 11.902 190.762 47.6079
internal_count=221546 15341 206205 9647 5694 164735 41470 4155 154429 1539 7331 3759 10306 1927 2316 499 4579 765 12385 4446 2876 1665 1547 1436 1355 11914 1817 1547 1832 808 765 675 517 396 84 2959 243 7781 1190 270 106 1230 1004 823 2752 2592 1106 804 729 183 129 546 7347 1646 353 105 4133 1656 326 2477 211 166 122 7281 2956 2799 252 157 182 4325 1121 506 161 128089 164 96 471 213 129 2547 2289 302 214 139 1167 115 2414 1864 29085 1024 221 803 235 568 516 104 2682 2538 774 357 291 1570 128 345 265 258 209 150 144 4439 3424 615 215 173 26340 1813 10354 9446 8117 1329 52616 158 277 1330 84 256 500 2372 1616 333 190 101 756 412 184 2908 2325 583 492 102 390 130 3204 3151 600 475 100 375 313 226 125 167 166 686 444 159 242 234 141 93 18731 16467 1182 446 355 144 2308 576
is_linear=0
shrinkage=1


Tree=1
num_leaves=169
num_cat=0
split_feature=75 72 5 5 52 50 66 46 31 52 9 50 14 2 18 35 14 74 1 9 2 9 2 50 18 29 2 2 2 1 2 1 74 74 1 46 1 14 54 14 1 38 1 38 1 74 18 14 72 2 49 2 38 13 74 27 14 74 50 38 1 74 18 2 2 1 72 74 38 74 14 2 72 39 54 74 38 32 1 15 53 44 2 14 50 50 74 48 9 1 51 57 9 2 2 45 9 74 54 74 1 43 18 2 73 74 48 50 47 14 2 74 1 32 2 50 1 50 74 1 74 54 29 14 72 48 72 74 27 32 32 38 48 38 38 1 18 2 38 74 2 74 74 1 18 57 54 7 41 2 48 53 54 54 38 54 9 9 38 2 9 74 74 14 38 1 74 2
split_gain=6115.94 2339.61 495.526 481.892 83.9188 74.9903 67.6273 41.0227 28.4564 24.7519 22.881 20.1174 19.9283 17.5036 16.9974 16.7177 15.7461 18.746 14.9317 13.4018 13.5865 14.2268 13.3394 15.7434 13.193 12.3912 15.1176 13.9058 14.0766 13.4153 13.0065 12.0118 11.6612 23.0263 21.2429 11.6484 12.6412 11.5884 11.501 11.3346 11.2516 12.1223 10.9684 10.8908 10.0795 13.2124 12.7745 11.2093 11.1208 10.1969 10.0033 9.73141 9.48954 9.47214 9.21888 9.82162 9.08354 8.90477 8.79113 8.75753 11.5637 9.94511 11.6056 12.1769 8.74973 8.74814 8.70071 9.65568 20.9901 10.7286 10.5446 10.6651 8.66924 11.5786 10.1192 10.177 8.56678 8.51096 9.83998 8.90311 17.5718 11.2004 8.48229 12.1823 11.5898 8.45257 8.41798 8.38142 8.30774 8.19593 7.94537 9.44094 7.8755 7.81035 8.91777 8.68602 14.7274 7.89473 9.42022 7.76334 13.2817 7.455 9.99668 8.97422 7.8394 11.4613 7.45382 7.37581 8.25303 8.7337 7.37102 9.86352 8.4497 11.406 10.6831 7.32604 7.31508 7.23434 7.55787 8.65892 8.08519 7.92059 9.84296 10.7281 13.0348 8.82088 8.73961 7.62341 7.20988 7.15045 8.4829 8.01458 8.51184 8.38635 7.14425 7.32891 7.13652 7.00157 6.95529 10.9266 6.92983 6.88592 21.0607 8.94117 8.49932 6.88146 16.6149 9.522 17.0255 6.84496 8.47935 12.828 7.74378 10.1822 10.3134 6.7448 6.65929 11.7444 16.2308 9.31398 7.4018 7.74027 11.6981 9.49347 14.937 7.87957 16.2608 9.40864
threshold=1.0000000180025095e-35 72.500000000000014 0.13392857142857145 0.43650793650793657 0.15476190476190479 256.50000000000006 8.7165178571428594 1.5000000000000002 0.58333333333333337 0.69047619047619058 122.05555555555557 342.50000000000006 193.50000000000003 164.50000000000003 172.50000000000003 6.5000000000000009 127.50000000000001 308.50000000000006 96350.000000000015 154.07142857142858 168.50000000000003 118.05555555555557 144.50000000000003 512.50000000000011 184.50000000000003 2.1666666666666674 45.500000000000007 157.50000000000003 100.50000000000001 68050.000000000015 179.50000000000003 93350.000000000015 597.50000000000011 908.50000000000011 37050.000000000007 2.5000000000000004 7450.0000000000009 58.500000000000007 62.020833333333336 185.50000000000003 12450.000000000002 494.50000000000006 11250.000000000002 22.500000000000004 7850.0000000000009 667.50000000000011 8.8750000000000018 67.500000000000014 9378.5000000000018 27.500000000000004 1.5000000000000002 196.50000000000003 272.50000000000006 1.0000000180025095e-35 932.50000000000011 2.5000000000000004 47.500000000000007 292.50000000000006 443.50000000000006 304.50000000000006 96350.000000000015 220.50000000000003 21.875000000000004 13.500000000000002 8.5000000000000018 38250.000000000007 1250.5000000000002 180.50000000000003 521.50000000000011 132.50000000000003 188.50000000000003 194.50000000000003 10697.500000000002 5.5000000000000009 21.517857142857146 542.50000000000011 188.50000000000003 80.833333333333357 5250.0000000000009 1.5000000000000002 1.1547619047619049 84.083333333333357 7.5000000000000009 137.50000000000003 443.50000000000006 627.50000000000011 455.50000000000006 193.12500000000003 154.07142857142858 55250.000000000007 2.5000000000000004 0.47222222222222227 45.083333333333336 169.50000000000003 158.50000000000003 2.6333333333333337 146.69047619047623 364.50000000000006 4.2071428571428582 111.50000000000001 84450.000000000015 0.36666666666666675 59.750000000000007 33.500000000000007 3.5000000000000004 542.50000000000011 67.125000000000014 485.50000000000006 3.5000000000000004 164.50000000000003 43.500000000000007 447.50000000000006 59250.000000000007 105.16666666666667 145.50000000000003 366.50000000000006 72450.000000000015 233.50000000000003 684.50000000000011 54850.000000000007 565.50000000000011 48.708333333333336 1.1666666666666667 94.500000000000014 8829.5000000000018 76.125000000000014 5017.5000000000009 111.50000000000001 1.5000000000000002 86.833333333333357 94.166666666666671 318.50000000000006 40.125000000000007 464.50000000000006 392.50000000000006 61650.000000000007 65.750000000000014 77.500000000000014 446.50000000000006 569.50000000000011 153.50000000000003 332.50000000000006 292.50000000000006 24550.000000000004 6.1250000000000009 1.1833333333333336 19.515625000000004 0.37980769230769235 1.2916666666666667 182.50000000000003 43.125000000000007 0.47222222222222227 55.354166666666679 36.775000000000006 377.50000000000006 52.862500000000004 90.050000000000011 93.950000000000017 160.50000000000003 73.500000000000014 86.045454545454561 684.50000000000011 264.50000000000006 32.500000000000007 100.50000000000001 64450.000000000007 451.50000000000006 62.500000000000007
decision_type=2 2 2 2 2 2 2 2 2 2 2 2 2 2 2 2 2 2 10 2 2 2 2 2 2 2 2 2 2 8 2 10 2 2 10 2 8 2 2 2 8 2 8 2 10 2 2 2 2 2 2 2 2 2 2 2 2 2 2 2 8 2 2 2 2 10 2 2 2 2 2 2 2 2 2 2 2 2 10 2 2 2 2 2 2 2 2 2 2 10 2 2 2 2 2 2 2 2 2 2 10 2 2 2 2 2 2 2 2 2 2 2 8 2 2 2 8 2 2 8 2 2 2 2 2 2 2 2 2 2 2 2 2 2 2 10 2 2 2 2 2 2 2 8 2 2 2 2 2 2 2 2 2 2 2 2 2 2 2 2 2 2 2 2 2 8 2 2
left_child=1 6 11 4 5 39 -1 8 18 14 42 54 19 32 16 57 17 87 22 20 77 -22 23 40 56 27 -27 28 38 30 -29 66 34 65 -12 82 -37 -28 128 156 41 44 -7 -42 48 49 47 -47 -4 -46 -17 59 53 -20 -2 -56 -10 -8 134 61 -61 76 -63 -64 106 -34 141 68 140 -70 93 72 73 74 -72 -76 -11 79 -79 -6 81 -81 83 84 -9 115 -23 -5 -57 -41 91 -80 -58 94 97 149 -97 98 -69 100 -13 102 103 -38 -104 -106 -25 -54 109 -109 111 -18 113 -112 137 -59 -113 -45 119 120 127 122 123 124 126 -125 -122 -119 -19 -92 -131 -132 133 -133 135 -44 -103 -115 -117 -140 -68 142 144 -143 -24 -96 147 148 -147 150 -95 -152 153 -151 -155 -39 160 -158 -159 -160 161 162 163 -3 -165 166 -164 -167
right_child=2 3 7 9 12 10 15 35 24 51 13 99 -14 -15 -16 50 110 25 52 -21 21 86 31 64 -26 26 37 29 -30 -31 -32 -33 33 -35 -36 36 101 155 -40 89 43 -43 58 117 45 46 -48 -49 -50 -51 -52 -53 107 -55 55 88 92 85 -60 60 -62 62 63 -65 -66 -67 67 70 69 -71 71 -73 -74 -75 75 -77 -78 78 90 80 -82 -83 -84 -85 -86 -87 -88 -89 -90 -91 129 -93 -94 95 145 96 -98 -99 -100 -101 -102 136 104 -105 105 -107 -108 108 -110 -111 112 116 -114 114 -116 138 -118 118 -120 -121 121 -123 -124 125 -126 -127 -128 -129 -130 130 131 132 -134 -135 -136 -137 -138 -139 139 -141 -142 143 -144 -145 -146 146 -148 -149 -150 152 151 -153 -154 154 -156 -157 157 158 159 -161 -162 -163 165 164 -166 167 -168 -169
leaf_value=-0.038851699221583179 -0.0258047031880527 0.24260458949402391 -0.0055352882803094017 0.32118848132238859 0.31088374722811518 0.17215963466197881 -0.021276271428921682 0.055470697473003545 0.011522674393875018 0.19528764722102596 0.09895616510253058 -0.018650378853712915 0.063800315051547637 0.035647673177526144 0.1554155219210806 0.21171294292046838 0.37902856088539078 0.15463834439426261 0.12722103381135247 0.41011827116459448 0.26162656111695665 0.54636517290321451 -0.057988749049571138 0.15449016420217912 0.13144640955435319 0.079087412940888641 0.3387362049316443 0.17355582694239938 0.36634994616800598 0.10217169818027753 0.35953475842337379 -0.053908977268679451 0.13998231696719224 0.31869030452227409 0.30306620417743152 -0.078338228829043413 0.24297278925173721 0.092558517716976055 0.10740087212759417 0 0.10982736750548655 0.19349377414242125 0.097045342715091978 0.020601525022197 0.136432441833854 0.28991010034949988 0.025310078461122733 0.09443330540753693 0.074256938686445201 0.00087988190141462968 0.027097609591393762 0.18915702136677848 0 -0.039053319780456536 -0.0045961114256029174 -0.039854662096100335 0.11345081029542345 0.035009029842629519 0.0061785192895984897 0.38331243360184364 0.22426962744610382 0.40454181976069964 0.155636320564074 0.33208947433127289 -0.012977744493693736 -0.010526837872984869 0.14342152588942184 0.11657296372196195 0.043486194036481997 0.28193552158461466 0.23460990249937508 0.25200861337389407 -0.045512996292639038 -0.036344409551206866 -0.04933545028214964 0.16195468822717773 0.3472715161743663 0.32613930452589218 0.19403243362079084 0.068550124791392136 0.36048933363898422 0.27850796290528312 0.031770394468359733 -0.020029180199024756 0.30859709570906585 -0.053226087220051739 0.2910910504768473 0.45464529789083075 0.049262884724468929 0.18636495377370543 0.090045382178492561 0.37735330259521627 -0.02249115367471222 -0.051568264221166608 0.032684916392408461 0.032157349484159381 0.26013737057197173 0.034201465686312202 -0.052918766946468548 -0.033478676105593005 0.10175622881210734 -0.030414112305698137 -0.046236931257173271 0.10589209212481408 0.21760008343488757 -0.00078717312716699379 0.0003340087555101944 0.062579222648472668 0.0048316717504281381 0.24830010394848701 0.41921999035216762 0.12382625566917892 0.40803514514929179 0.23436828794852227 0.20320641554672447 0.17438179099524898 0.30541539377494215 0.13117727411269503 -0.011259360680997208 -0.00257919592887165 0.11426671587702476 0.1711440281741311 -0.027504931069862838 -0.022907987092810247 -0.011644900915706727 0.15553066442465657 0.33263871951075857 0.010492796760161164 0.30213060368374939 0.28940646484670224 0.068182146610096625 0.17701528839557784 0.18083511529629798 0.40219980758084034 0.17849384675967789 0.0034938548981675258 0.12931931277119604 0.38655095803998912 0.15197508467180434 -0.023206884682765869 0.019450989114494704 -0.083886735901418721 0.25588118798749609 0.0028798086590310981 0.096101270410139494 0 0.041545421789664284 0.26843349541627015 0.25021402002444715 0.016451761095270225 0.17490499191023079 -0.0030467098621945209 -0.069339980330600196 0.037681680555096929 0.21544697814637642 0.25530884772962559 0.41188341785048949 0.27781758926142736 0.089153763184233625 0.20915752961937484 0.054326402960218963 0.15228868588155098 0.37976051815836004 0.18632704506803704 -0.056705545388885656 0.072189155032851657 0.20208201636324113 0.24524473727423501
leaf_weight=319.82617027312517 7564.0657923966646 5.7804157212376586 76.819537840783596 34.062092274427414 29.615062557160854 9.761015482246874 18.813249513506889 4.5002899020910245 113.99592559784651 14.014575801789762 9.324499614536764 59.665909476578236 7.0828474462032309 11.317529596388338 9.4164945930242521 10.519078120589255 6.9663799405097988 5.7179987579584113 25.214172847568992 6.1939542666077605 27.009026579558849 4.4367158785462362 10.439203917980199 5.8532104194164267 6.4144880026578894 8.4242415651679057 10.023546986281874 10.206802725791936 33.577757053077221 8.9661275595426542 9.1721701920032483 18.435726828873158 6.5877287685871151 4.5151962637901297 16.163874626159668 4.6660452559590331 6.6291921287775031 6.9206225052475911 5.1375192776322356 5.3375088572502118 11.17641983181238 5.0844432115554801 23.980320021510124 368.27877666801214 7.1008443087339392 6.3693546652793911 9.2395329102873784 8.0779373049736005 23.146215446293354 31.943142108619213 5.246937006711959 5.6838184520602217 32.834636107087135 3.5507532358169547 443.87799405306578 156.60061280429363 4.2299852371215811 33.016879446804523 27.085426948964596 125.34577016532421 7.1388729959726325 33.330243058502674 5.6609550043940535 105.62386429309845 361.93583250790834 8.4858823865652067 5.7122284993529311 3.7209409400820759 3.559182256460188 6.7601002529263496 6.520219415426264 3.692620374262332 5.4260387346148482 4.7546980679035178 4.1488721519708616 4.574344776570797 8.271863751113413 9.236503489315508 8.9724911972880381 9.6937749683856982 5.7971981465816489 4.1758859306573859 485.44749790430069 3.8858788609504691 4.1463795602321625 5.9705652743577948 4.5450161024928093 9.748808950185774 11.026666842401026 4.5145043805241585 8.6034259945154172 7.0293653234839431 386.05370701849461 37.893312200903893 45.993984065949917 17.896328635513786 3.6071022972464553 93.469725988805294 23.300622582435608 5053.5012211203575 11.14194981753826 9.3265097588300687 6.9807009100914028 37.741086341440678 4.0817960947751981 4.9948655962944031 8.5969194769859296 9.5708082914352399 11.756796203553677 4.2954771444201478 12.866220399737356 7.2908700406551334 34.394495919346809 7.8561697453260448 13.36879291385412 10.920689873397352 5.0818908214569101 5.5793502479791632 248.88283702731133 244.03952652961016 6.4573970213532466 6.2188969030976287 12.672120206058024 12.011620506644247 3.5503261983394614 3.54791685193777 3.6890851110219955 176.29135231673717 46.977327838540077 12.098501868546007 6.8891714811325064 4.9683650955557805 66.263580560684204 4.7337368428707123 7.0944809392094603 15.344614259898661 3.9309575334191313 14.310266911983488 6.5806500464677793 7.2219243720173836 32.069973006844521 16.540171056985855 3.9253850206732741 42.887584909796715 5.562676027417182 6.5799737796187419 30.065408647060394 6.7336622774600974 4.5524442046880722 102.4218073785305 4.3608667328953734 59.250763133168221 8.5406059697270376 10.476574607193472 5.6710351407527915 6.584570050239563 4.4632366672158232 34.114922523498535 11.76818837225437 25.659421071410179 5.1228129342198363 34.985713467001915 12.393199354410173 5.1877833977341634 4.6368584185838699 6.2661911174654987 13.631901524960993 10.556189790368078
leaf_count=3630 93659 63 915 289 289 114 180 52 1368 117 108 740 72 133 80 85 58 49 299 58 261 42 124 71 77 68 81 85 280 77 77 219 77 52 180 53 73 56 44 60 134 60 279 4398 85 76 111 97 276 380 46 45 395 43 5444 1930 51 294 323 944 54 260 45 850 4337 98 69 44 42 81 77 44 65 57 50 55 62 89 89 100 58 40 5730 46 49 64 44 79 136 50 83 67 4657 452 550 207 42 1115 278 62870 137 108 81 416 47 57 103 115 142 51 107 61 288 66 112 97 43 66 2989 2935 77 75 152 144 42 43 44 2104 397 117 67 48 634 49 82 178 45 119 63 72 383 197 46 511 66 79 356 80 54 1221 52 710 103 123 68 54 49 373 131 288 56 385 136 56 52 69 149 115
internal_value=0 0.190098 -0.0190647 0.264227 0.19498 0.161172 -0.0160878 0.0152023 0.0102286 0.326475 0.104085 -0.0279841 0.242847 0.154818 0.304234 0.0574279 0.308711 0.289468 0.0149231 0.248339 0.243209 0.305742 0.0133169 0.00842934 -0.0114872 0.270503 0.206498 0.286948 0.307979 0.216395 0.265747 0.0258174 0.183453 0.117866 0.231139 0.0399963 0.0769497 0.249378 0.27257 0.20404 0.013858 0.0384886 0.0689534 0.0100598 0.0332029 0.0653128 0.125664 0.185668 0.0124955 0.0271487 0.154094 0.348575 0.0563694 0.104867 -0.0248273 -0.0126511 -0.0134348 0.0381618 0.0543173 0.35136 0.375322 0.331796 0.343009 0.323735 -0.00975457 0.0524587 0.0282748 0.0328875 0.0769648 0.20591 0.0284733 0.0884054 0.0616535 0.0933453 0.137072 0.0563699 0.255421 0.230101 0.213797 0.271099 0.207201 0.137122 0.0340643 0.117834 0.185045 0.0565149 0.427956 0.353126 -0.0336609 0.0873091 0.204397 0.279779 -0.0208556 0.0245872 0.0389318 0.0120754 0.0738995 0.0199704 -0.0273237 -0.0330102 0 0.0875749 0.102858 0.128075 0.0296342 0.0933589 0.0669706 0.031484 0.0722438 0.125273 0.344694 0.271834 0.360709 0.325167 0.288477 0.0688208 0.20455 0.00898026 0.00298773 0.0105754 0.0247468 0.0620799 0.0442827 0.0770907 0.142842 0.015365 0.20138 0.0145525 0.28745 0.191969 0.200553 0.186593 0.196548 0.295398 0.081233 0.0619419 0.0138414 0.336345 0.11157 0.0572205 0.0399021 -0.00257912 0.0482375 -0.0205299 -0.000978079 0.0626638 0.0902312 0.168568 0.101573 0.00600497 -0.0133675 0.00864309 0.021872 0.0289289 0.10429 0.177085 0.210277 0.236412 0.224129 0.173156 0.189363 0.19615 0.221193 0.136654 0.0671741 0.250364 0.289902 0.184685
internal_weight=0 1581.68 16760.2 1163.57 551.424 324.079 418.116 3460.35 2884.02 612.141 139.661 13299.9 227.345 56.3947 307.071 98.29 297.655 195.52 2373.33 220.262 214.068 35.9908 2286.11 1646.56 510.694 151.709 31.953 119.756 91.4106 28.3451 19.379 639.544 45.0772 19.5888 25.4884 576.331 78.3512 23.5287 57.8328 184.419 1270.18 167.781 83.2659 1102.4 162.697 62.7308 23.6868 14.4473 99.9658 39.044 15.766 305.07 87.2226 28.7649 8175.57 611.505 504.28 82.524 73.5048 299.386 132.485 166.902 144.615 111.285 376.386 15.0736 621.108 541.753 48.1015 10.3193 493.652 29.1168 25.4242 19.9981 15.2434 8.72322 22.2864 178.077 128.795 49.2819 19.6669 13.8697 497.98 12.5325 8.64667 63.7107 8.98173 43.8109 167.627 9.85201 119.559 16.0019 390.284 464.535 214.417 250.118 21.5034 120.491 27.0216 5124.31 70.8079 73.6851 60.4276 44.3703 16.0574 9.07666 14.4501 58.4577 25.6231 13.8663 102.135 19.3391 82.7959 48.4014 35.5352 57.7401 12.3728 1091.22 722.94 474.058 230.018 48.1474 41.9285 29.2563 13.6968 15.5595 10.1465 181.871 52.6953 103.557 94.9534 82.8549 75.9657 9.7021 46.4194 39.3249 13.2575 22.1664 24.7233 13.8026 37.7822 79.355 19.9273 59.4278 16.0019 93.9255 47.9315 17.8661 11.1324 228.615 101.505 63.6116 127.11 118.569 16.1476 13.5052 174.567 76.0058 71.5425 37.4276 98.5611 93.4383 58.4525 15.6051 9.82464 42.8475 26.0251 16.8224
internal_count=221546 15341 206205 10810 5863 3656 4531 41289 34532 4947 1624 164916 2207 648 2570 901 2490 1636 28379 2135 2077 347 27334 19714 6153 1268 259 1009 770 239 162 7620 515 227 288 6757 880 191 490 2032 15203 2000 976 13203 1940 749 284 173 1191 465 131 2377 1045 342 101169 7510 6076 770 862 2332 998 1334 1155 895 4511 175 7401 6457 575 123 5882 348 304 239 182 105 179 1730 1243 487 198 140 5877 147 101 590 86 368 2066 110 1154 156 4708 5534 2556 2978 249 1437 322 63747 877 827 674 489 185 104 174 703 308 166 854 162 692 404 297 526 104 13069 8671 5682 2747 577 502 350 163 187 121 2170 446 998 915 798 731 97 539 457 153 185 232 135 452 944 236 708 190 1119 569 213 133 2729 1214 762 1515 1412 191 110 1922 841 792 419 1081 1025 640 171 108 469 285 184
is_linear=0
shrinkage=0.101682


Tree=2
num_leaves=169
num_cat=0
split_feature=75 72 70 70 40 54 41 70 54 70 3 48 35 72 0 53 70 35 0 26 38 51 0 0 74 3 2 38 72 0 48 72 2 5 32 69 36 54 74 2 27 9 28 74 72 2 38 36 14 9 73 54 14 48 43 33 54 38 38 38 33 14 72 27 26 36 9 48 32 24 47 29 0 26 32 14 31 3 48 39 72 0 26 67 9 33 27 74 38 74 14 74 74 36 54 2 47 24 73 0 73 52 9 38 2 72 2 14 9 14 74 72 72 74 0 39 74 74 0 5 29 74 74 38 72 26 74 74 31 72 14 38 74 14 0 27 74 2 73 72 48 14 12 43 49 14 33 2 14 14 72 2 2 0 14 14 9 73 0 0 72 45 74 27 74 51 72 70
split_gain=4295.22 1364.78 920.806 261.832 238.037 137.018 94.4467 84.4463 54.2298 45.8434 35.628 32.8591 25.6404 13.5421 16.8452 13.0752 12.1189 12.0409 11.2564 10.8287 17.2756 13.3359 10.1378 9.82699 9.60154 9.58701 8.88552 12.8 11.1705 8.86504 13.7094 9.89672 8.77415 9.8368 14.5675 12.0267 13.7673 11.6354 10.7384 13.7545 13.625 17.6414 10.8226 10.8466 10.5348 15.8141 11.697 10.4347 12.5803 10.6136 10.2519 14.0447 10.2337 9.99251 9.17174 8.95513 11.572 8.73921 8.43169 8.25445 8.09635 12.1355 11.9974 10.7217 8.04593 12.1905 8.04153 7.99832 7.96515 8.22645 7.92843 7.87705 18.9703 7.8717 7.79764 7.77589 7.94889 10.3654 9.25998 11.8249 11.7712 8.77376 8.33384 7.76478 8.55471 12.6294 8.00636 7.7139 8.69726 11.4524 10.1506 7.63711 8.68294 19.6294 7.63669 19.9781 15.8469 9.31517 13.137 11.5714 9.6936 8.13135 9.43735 8.18226 12.272 7.60204 9.51895 7.57946 9.02256 7.88006 10.3166 7.50996 10.3391 9.56886 8.52534 8.43185 8.18546 7.57931 8.85802 7.50007 7.47996 7.41689 11.0491 8.40283 7.38229 9.53526 7.34931 7.30432 7.90221 9.16805 7.29988 7.22222 7.19748 7.18878 7.17402 7.86527 7.13824 7.6481 8.14489 7.09517 11.2678 10.8335 7.31157 8.35276 7.0944 7.08022 7.05303 7.03987 11.9338 9.05019 23.8774 7.53888 11.0146 14.0045 7.01968 7.01628 12.9061 8.20146 7.00032 7.70329 6.97806 6.93422 7.35299 8.41804 11.8127 13.9022 12.1002 13.6382
threshold=1.0000000180025095e-35 72.500000000000014 1.5000000000000002 2.5000000000000004 0.22500000000000003 1.3819444444444446 0.29166666666666669 1.5000000000000002 8.7165178571428594 2.5000000000000004 2.5000000000000004 5.8750000000000009 3.5000000000000004 8375.5000000000018 61.500000000000007 1.3875000000000002 1.5000000000000002 8.5000000000000018 57.500000000000007 456.50000000000006 512.50000000000011 4.5000000000000009 69.500000000000014 21.500000000000004 463.50000000000006 2.5000000000000004 167.50000000000003 149.50000000000003 5076.5000000000009 48.500000000000007 171.12500000000003 3784.5000000000005 158.50000000000003 0.29285714285714287 115.83333333333336 2.2361111111111116 116.12500000000001 10.765625000000002 708.50000000000011 32.500000000000007 2.5000000000000004 101.52777777777779 0.41666666666666669 475.50000000000006 4298.5000000000009 114.50000000000001 677.50000000000011 94.125000000000014 166.50000000000003 132.06250000000003 2.5000000000000004 19.515625000000004 33.500000000000007 140.12500000000003 0.22500000000000003 1.5833333333333337 34.112500000000004 346.50000000000006 401.50000000000006 746.50000000000011 1.8333333333333337 132.50000000000003 2839.5000000000005 1.5000000000000002 248.50000000000003 17.125000000000004 197.25000000000003 84.125000000000014 105.83333333333336 143.12500000000003 3.5000000000000004 2.1666666666666674 52.500000000000007 311.50000000000006 185.16666666666671 196.50000000000003 0.58333333333333337 5.5000000000000009 41.125000000000007 7.5000000000000009 5916.5000000000009 53.500000000000007 276.50000000000006 0.73863636363636376 71.683333333333351 0.41666666666666669 7.5000000000000009 144.50000000000003 342.50000000000006 872.50000000000011 136.50000000000003 407.50000000000006 581.50000000000011 16.125000000000004 16.265625000000004 90.500000000000014 3.5000000000000004 121.12500000000001 4.5000000000000009 24.500000000000004 4.5000000000000009 0.41428571428571431 97.050000000000011 377.50000000000006 103.50000000000001 1173.5000000000002 132.50000000000003 41.500000000000007 99.045454545454561 130.50000000000003 764.50000000000011 4389.5000000000009 3060.5000000000005 415.50000000000006 51.500000000000007 2.5000000000000004 244.50000000000003 744.50000000000011 22.500000000000004 0.5634920634920636 3.1666666666666674 585.50000000000011 722.50000000000011 170.50000000000003 10129.500000000002 277.50000000000006 467.50000000000006 352.50000000000006 0.41666666666666669 8431.5000000000018 31.500000000000004 539.50000000000011 660.50000000000011 193.50000000000003 19.500000000000004 1.0000000180025095e-35 733.50000000000011 100.50000000000001 1.5000000000000002 12801.500000000002 166.12500000000003 77.500000000000014 22.875000000000004 0.29166666666666669 1.0000000180025095e-35 100.50000000000001 1.5833333333333337 26.500000000000004 158.50000000000003 180.50000000000003 7735.5000000000009 127.50000000000001 144.50000000000003 48.500000000000007 113.50000000000001 121.50000000000001 141.69047619047623 1.0000000180025095e-35 29.500000000000004 23.500000000000004 11844.500000000002 1.7083333333333337 256.50000000000006 4.5000000000000009 684.50000000000011 5.5000000000000009 10822.500000000002 1.5000000000000002
decision_type=2 2 2 2 2 2 2 2 2 2 2 2 2 2 2 2 2 2 2 2 2 2 2 2 2 2 2 2 2 2 2 2 2 2 2 2 2 2 2 2 2 2 2 2 2 2 2 2 2 2 2 2 2 2 2 2 2 2 2 2 2 2 2 2 2 2 2 2 2 2 2 2 2 2 2 2 2 2 2 2 2 2 2 2 2 2 2 2 2 2 2 2 2 2 2 2 2 2 2 2 2 2 2 2 2 2 2 2 2 2 2 2 2 2 2 2 2 2 2 2 2 2 2 2 2 2 2 2 2 2 2 2 2 2 2 2 2 2 2 2 2 2 2 2 2 2 2 2 2 2 2 2 2 2 2 2 2 2 2 2 2 2 2 2 2 2 2 2
left_child=1 8 5 6 10 26 25 22 -1 15 13 24 161 16 107 19 18 -10 -3 20 57 -22 -6 131 -5 -4 66 28 -28 30 -23 -31 33 35 37 47 -37 91 39 40 -39 42 54 -44 55 46 74 48 50 133 51 52 144 70 -42 -36 -57 -9 73 -49 63 62 -62 105 65 -54 87 -14 71 -70 -47 160 -73 -58 -46 76 77 -34 -79 80 82 -81 -80 84 85 -25 -86 -2 90 -90 155 -35 93 -93 95 -41 -97 98 120 -99 101 102 -101 104 -103 106 -18 132 -109 154 -111 112 114 116 117 -115 -114 118 -92 -59 -96 -26 123 -123 -17 -126 -120 -30 129 -129 -78 -13 -15 -50 135 -124 137 138 -67 -8 141 142 143 -141 -7 -69 -94 148 -113 150 -150 -149 153 -153 -110 -89 157 -157 159 -119 -40 162 -12 164 165 166 167 -164
right_child=2 4 3 11 7 32 139 9 17 -11 12 23 67 14 -16 124 60 -19 -20 -21 21 29 -24 83 121 -27 27 -29 127 31 -32 -33 75 34 44 36 -38 38 68 94 41 -43 43 -45 45 53 -48 59 49 -51 -52 -53 64 -55 -56 56 58 119 -60 -61 61 -63 -64 -65 -66 136 -68 145 69 -71 -72 72 -74 -75 -76 -77 130 78 79 81 -82 -83 -84 -85 86 -87 -88 88 89 -91 111 92 146 -95 97 96 -98 99 -100 100 -102 103 -104 -105 -106 -107 -108 108 109 110 -112 147 113 115 -116 -117 -118 158 126 -121 -122 122 134 -125 125 -127 -128 128 -130 -131 -132 -133 -134 -135 -136 -137 -138 -139 -140 140 -142 -143 -144 -145 -146 -147 -148 151 149 -151 -152 152 -154 -155 -156 156 -158 -159 -160 -161 -162 -163 163 -165 -166 -167 -168 -169
leaf_value=-0.036056987093955196 -0.0096568877560927191 0.20034731728420074 -0.033953869912666156 -0.004626643629388901 0.27749092401642494 0.063231630651861326 -0.014667865515299746 0.16473055537126949 0.039361498176794879 0.28818031657404053 0.041796358582915132 -0.039708103628537765 0.27063524020111474 0.28296386308235699 0 0.20123814917921731 0.0056207854210615542 0.18579504794791557 0.39000892224429501 0.27032528774507997 -0.025549502295904553 0.29924866888511537 0.13781817320069273 0.27153258263064295 0.047846511239936447 -0.040427604435580002 -0.0016805072267321783 -0.0082995784124317365 0.13042639424822275 0.18298278869172979 0.090359384947447274 0.027279854221324621 0.069230912267561937 -0.006725794008314437 -0.029006273681801944 0.047378855267286892 0.27601904678865047 0.018779663761082602 0.030396625918133247 0.038222063971632969 0.10067782071686296 0.32375788504928305 -0.0073423150845956667 0.19215198997807675 0.061550956862866421 0 0.22064343921286125 0.0031476138504999297 0.15570136193989009 -0.01274047855911783 0.017230956615283979 0.23109623790578751 0.27580540237662399 -0.065772685599936237 0.33681325423007441 0.1748870859171455 0.0076990977225698592 0.20157623417705084 -0.052719146421756312 0.084717451431345001 0.39849129215873347 0.11334787522219143 0.19310752259238345 0.050050018864099079 0.043888105449377608 0.15643399118167406 0.14306760870672794 0.22645564491905518 0.16775869610100344 0 0.16366320252327468 0.19902099033605541 -0.04132359083272865 0.13984443497042162 0.21618541486574669 0.21555256431308809 0.11997210021729116 0.24254246927950854 6.7337062866181942e-05 0.28608521990321267 -0.022736500551448453 0.073414906462072674 0.19772230106547051 -0.036787062544484564 0.048315117873677774 0.085301453194623317 0.1325691136292553 0.021829512229285225 0.015412038607516434 -0.021956739320422768 -0.0004366200769022197 0.27439394545655038 -0.002583847503628597 0 0.02862226913267028 0.38613918132374664 0.1165524988897047 -0.0012531733468262693 0.15686355692266538 0.19561755343226506 0 0.24206137936371044 0 0.34880390259256444 0.013722266956650197 0.17714501834984306 0.17919787825188863 0.06356191592355856 0.12820250875042727 0.056022509866900036 0.22733446792564363 -0.010584341225786831 0.13934138375896626 0.17756563257151639 0.0070598604979419935 0.017525458119620023 -0.034298209090587221 -0.0094815156181390324 0.066706641812537895 0.33784653775318924 0.14533590460495893 0.032875800949708302 0.016139482576041832 -0.035863571631143107 0.20521510956653999 0.29064435015239976 0.17968959003309715 0.14424699253590059 -0.023574759368128039 0.016501680433188993 -0.0056581352441561414 0.096086915974124887 0.096006873018019745 0.012822715716181108 0.022609885269961286 0.23213753044196442 -0.026322625850157325 0.24047509836607706 -0.031303527794488396 -0.0525847935701503 0.15625394269108667 -0.036179908898095428 0.19466553920633889 0.10793643736839476 -0.081807407290406614 0.058359516122866571 0.1013539861117473 0.0019961096330062115 0 0.03773241634635964 0.33425756989486488 0.0059446959341915443 0.01118647696297643 0.2015438373563874 0.31621632433136349 0.078498713166909762 0.10883017295840679 -0.03343622491964772 -0.061788756494167443 0.17317335646440832 -0.099126734134337882 0.025307897867518105 0.296674691034156 0.19107222111557992 0.054356813915667893 0 0.024263638529721823 0.13479683504980147
leaf_weight=309.87706717848778 98.07746597379446 14.889179490506651 4226.6344802901149 235.4430830180645 250.41564766317606 5.4500281065702429 1998.9528656080365 124.5209046676755 96.163483262062073 65.238748371601105 27.698851555585861 17.7072928249836 10.776984661817552 7.6794131696224195 10.37686590105295 324.07329224050045 7.9642707332968694 6.3427831232547751 5.6379560828208914 14.332656048238276 5.9560079351067534 7.0633077323436719 7.3293341025710097 4.5424751266837111 86.103668078780174 5886.9940315708518 45.718542486429214 313.20289643108845 14.00095298886299 6.8199913278222111 7.9100241586565971 13.487163767218588 161.24978416413069 24.440061174333096 33.449467994272709 7.8874968439340574 4.7595216557383537 6.5409602969884864 47.834878638386726 10.389579564332964 4.4689790308475548 7.9286111816763869 7.2052931413054448 4.0851503983139992 69.614093616604805 10.463235326111318 6.1537953689694396 112.04251942783594 23.954268679022793 5.6066026613116255 102.90466549992561 5.1036972254514685 4.4991512820124653 14.075929477810858 4.0947967022657394 5.7573754116892806 14.800851419568064 74.39997186511755 11.047567851841448 14.624338664114473 6.1335134133696583 8.6101159304380399 9.6362887397408468 11.346754282712935 41.211183406412601 4.2809303924441355 5.3199380859732619 5.3655018210411054 10.985395587980745 4.3772543966770163 4.5228584110736838 8.5628755018115026 5.0289981141686431 7.3821296095848075 3.7865721136331549 4.4115909412503234 5.8273091092705753 6.9206936359405509 4.0558137670159393 5.3876967877149564 9.5909450873732549 4.5648807436227798 6.630111426115036 7.4032573029398909 173.84941355884075 35.544370345771313 13.340891428291796 811.49585266411304 572.65448272228241 98.438591569662094 6.8452164828777304 5.5630994215607625 18.880956858396534 5.8457309156656265 69.244075693190098 4.7018366977572423 5.9230431169271469 5.9169089123606673 11.782497391104696 4.3777165710926109 3.7817753925919524 7.2247918397188169 5.5455432310700417 4.2025719955563536 4.402072861790657 71.554614298045635 6.3121708780527115 20.05173522233963 5.5673808380961436 13.291219994425775 5.7103033438324919 9.5355225056409854 4.1897493749856931 18.378417536616329 44.057171143591404 5.096692979335784 7.2604630216956139 4.476775646209715 15.053800500929357 5.95269551873207 6.4329561218619338 24.994914688169956 4.3581936508417121 64.02692062407732 41.479618348181248 30.94333229213953 13.012099891901014 10.858041353523733 12.135805189609526 14.646674752235411 21.349528521299362 5.054222770035266 4.5247386991977692 5.2497504502534857 184.0847482085228 3.6200859323143959 4.1607969254255286 3.8094181567430487 4.4230248183012009 6.1039556115865725 5.8119791448116294 24.935345098376274 3.7426550984382621 6.6554986089468002 8.4901482090353948 7.231161929666996 9.6789953857660276 105.02516861259937 3.6857548132538813 7.7816614955663672 5.2706983461976051 7.3335193842649486 27.680751986801624 9.1781292259693128 5.6724842563271523 7.1671868935227385 8.4715103358030301 69.463719613850117 7.2506224587559691 4.0353735089302063 4.479334905743598 20.007839359343052 6.9591960236430159 11.409600533545015 49.741324506700039 8.1570376530289632 9.1608425974845868 44.21185114979744
leaf_count=3629 1194 141 53936 2932 1542 62 24242 974 857 394 293 217 93 69 98 2240 76 45 52 109 48 55 44 49 1021 75677 557 3839 170 55 62 109 1780 276 383 88 54 73 534 116 50 84 79 44 784 118 65 1290 267 64 1176 59 51 155 45 64 171 563 123 166 56 83 90 111 472 49 64 44 124 49 50 95 56 83 42 49 64 75 46 58 107 48 73 84 1973 392 139 9861 7058 1245 83 62 212 65 773 53 66 66 128 49 41 80 63 45 49 670 60 187 53 127 55 114 51 223 536 62 88 54 183 39 72 314 53 807 286 213 158 132 148 178 242 56 44 60 2225 44 48 43 51 74 70 304 45 81 96 67 109 1280 44 93 63 89 336 112 51 87 103 844 88 49 50 208 70 118 523 85 96 457
internal_value=0 0.147647 -0.0174364 -0.0298572 0.195669 0.0290162 -0.0336938 0.223102 -0.0147564 0.204906 0.130835 0.0243246 0.0992521 0.160024 0.12175 0.196511 0.179186 0.0491101 0.256736 0.177182 0.171431 0.107816 0.273778 0.0547759 0.011224 -0.0377276 0.0153303 0.00158234 0.0338655 0.131774 0.193755 0.0827746 0.0588394 0.0539237 0.0632581 0.0406167 0.139072 0.0763448 0.0860948 0.100416 0.16005 0.191281 0.134313 0.0615709 0.0395314 0.0596297 0.083079 0.0368253 0.0503329 0.107181 0.0392635 0.0664227 0.0544242 -0.00289383 0.222332 0.00864993 0.042245 0.183921 0.017231 0.0130321 0.165448 0.222991 0.278436 0.15025 0.0721966 0.12439 0.0181605 0.200866 0.0539647 0.121186 0.0528556 0.0373475 0.106781 0.0544332 0.0705363 0.0770384 0.0739988 0.0811516 0.131167 0.103194 0.0545771 0.195489 0.128182 0.0609854 0.0644099 0.108366 0.0546666 0.0177895 0.0192544 0.00985229 0.0244613 0.0361924 0.0636472 0.139547 0.0857286 0.145087 0.243368 0.0750444 0.0559965 0.120284 0.146257 0.168504 0.0860096 0.216066 0.160889 0.162823 0.0866914 0.141639 0.121347 0.157614 0.111192 0.0406252 0.0594999 0.107653 0.0411055 0.145219 0.0255861 0.0696256 0.0961343 0.212759 0.0394136 0.0215239 0.0132643 -0.0159771 0.209026 0.242808 0.121396 0.0662504 0.0407184 0.0732606 0.0198032 -0.00701296 0.219275 0.131895 0.0270832 0.122279 0.07894 0.117882 0.0560939 -0.0137309 0.0247772 0.00474296 0.0694595 0.0274145 -0.0214405 0.135319 0.0311301 0.0263621 0.0753765 0.127103 0.197728 0.0173419 0.0525692 0.118349 0.229746 0.0188991 -0.00844086 -0.0222065 0.00745382 0.072354 0.0181501 0.0854553 0.0927581 0.10321 0.0941291 0.122139 0.138957 0.158403
internal_weight=0 1807.99 16500.1 13019.9 1395.6 3480.23 12159.8 979.923 412.383 722.178 415.679 860.074 200.72 214.959 72.8741 656.939 142.085 102.506 20.5271 260.443 246.11 41.2365 257.745 257.442 602.632 10113.6 2386.8 410.563 97.36 35.2805 14.9733 20.3072 1093.43 863.438 504.981 358.458 12.647 323.927 259.518 178.249 34.3238 27.7828 19.8542 11.2904 181.054 108.616 79.5545 345.811 219.144 34.8106 184.333 81.4284 76.3247 29.062 8.56378 72.4374 38.9879 204.874 33.2305 126.667 121.558 24.3799 15.7698 97.1778 62.3845 21.1733 1976.24 23.3736 81.2687 15.3626 14.9861 65.9061 13.5919 22.183 73.4007 229.988 225.577 198.4 37.1501 30.2294 20.2769 9.95258 10.6859 234.68 227.277 40.0868 187.19 1970.92 1872.84 671.093 1201.75 64.4088 39.9688 11.4088 143.925 21.0145 10.6249 122.911 87.4595 35.4514 29.5345 25.7527 9.92326 15.8294 11.6269 85.8311 14.2764 62.4973 50.2931 30.2414 19.0015 305.148 129.656 34.9253 94.7311 23.4751 11.4502 50.6739 34.9111 80.3527 75.677 367.189 281.085 89.0218 396.496 72.423 28.0659 51.6415 37.6405 25.5047 27.1768 22.7615 12.2042 29.204 192.063 7.97828 16.6742 12.5134 8.70396 2046.2 47.2494 41.4375 16.5021 12.7595 13.9402 12.5967 28.56 175.491 26.2736 16.7381 8.95645 149.218 44.1924 16.5116 11.2399 896.598 85.1024 76.6309 15.7628 8.51215 52.3142 177.347 157.339 129.64 118.23 68.4889 60.3319 51.171
internal_count=221546 15341 206205 164735 10810 41470 154429 6733 4531 5147 4077 10306 2054 2023 684 4753 1339 902 193 2014 1905 329 1586 2910 7396 129613 29186 5024 1185 281 117 164 12284 9742 5646 4096 142 3608 2884 1976 375 302 218 123 2038 1214 891 3954 2498 391 2107 931 872 323 95 824 441 1576 377 1456 1146 229 146 917 714 242 24162 204 908 173 168 735 151 254 826 2542 2493 2187 407 332 226 106 119 2637 2553 441 2112 24098 22904 8303 14601 724 448 127 1601 235 119 1366 973 393 327 286 112 174 129 806 136 586 473 286 182 3706 1575 424 1151 285 139 615 424 602 845 4464 3443 1121 2739 499 341 628 458 310 306 273 113 327 2322 97 191 143 100 24816 574 504 200 155 158 111 321 2131 314 200 107 1817 537 201 104 10895 1034 931 191 103 584 1850 1642 1349 1231 708 623 527
is_linear=0
shrinkage=0.101682


Tree=3
num_leaves=169
num_cat=0
split_feature=75 72 5 5 66 36 8 46 31 38 74 35 12 1 20 2 20 1 1 37 21 39 8 52 58 12 8 71 8 1 42 2 42 36 72 1 1 44 74 8 31 74 71 71 20 20 20 56 2 72 51 2 38 24 44 24 2 20 20 71 66 48 1 74 74 20 36 72 43 74 12 44 24 41 71 44 1 8 1 74 2 74 2 1 74 74 20 56 42 44 38 28 1 6 74 8 2 1 44 1 20 74 8 42 74 1 71 2 12 1 56 44 74 20 74 2 71 20 74 71 30 1 2 1 66 8 30 20 20 36 65 74 2 72 71 48 42 1 30 39 20 2 41 1 6 2 39 48 48 20 1 1 36 8 24 20 72 66 42 24 12 74 20 8 56 72 20 72
split_gain=3164.6 888.257 340.841 151.163 38.6906 27.687 28.7747 24.9725 20.3146 16.3412 12.568 12.2707 11.3339 11.0816 9.82162 9.29015 11.3225 9.66029 8.69136 9.98524 16.011 9.34379 8.66109 8.58331 8.76599 9.32789 8.31993 9.50569 7.86332 11.9467 7.70433 12.598 11.771 8.05503 9.49182 7.71387 14.813 8.94916 12.0136 12.3993 7.28463 7.22563 7.16488 24.1643 16.3811 7.79054 7.53805 7.07394 7.49611 10.2229 7.67506 11.0141 9.03376 7.71292 10.8079 10.6853 7.41583 7.5858 7.9039 10.227 13.2291 7.23114 7.03814 7.00086 6.94725 6.90573 6.85215 6.85139 6.8077 7.30625 7.28812 15.1194 7.80796 11.1566 6.74702 6.69614 8.69685 7.93063 8.22828 11.3325 7.75182 6.53431 6.4608 10.0574 12.3036 9.7993 16.0976 6.45105 11.0352 13.3024 6.42333 6.4051 12.2385 8.94473 6.85988 6.36091 8.9136 9.30401 15.1981 8.41417 10.0367 8.40357 7.5746 6.3573 6.57211 6.55684 6.34203 6.24614 6.32705 6.21942 6.2309 7.49563 7.56425 6.18293 6.17686 7.82591 6.02721 6.02656 7.47596 12.1552 12.4691 9.79439 5.97711 5.96712 7.07057 5.95069 10.5636 5.94968 6.47078 5.94604 7.21187 8.39076 10.4568 8.3292 5.82765 5.82759 10.04 7.94212 8.96409 7.18048 14.3658 11.7445 10.8934 8.91117 8.313 7.47974 14.5183 7.74956 8.90183 7.64069 7.28746 15.469 6.62802 9.21623 6.50649 13.0091 6.84273 6.02983 8.34085 6.20263 5.86366 9.33303 5.82554 5.95592 5.8231 6.17411 11.2257 10.5847
threshold=1.0000000180025095e-35 37.500000000000007 0.13392857142857145 0.43650793650793657 8.7165178571428594 2.8750000000000004 322.50000000000006 1.5000000000000002 0.58333333333333337 224.50000000000003 932.50000000000011 6.5000000000000009 191.50000000000003 96350.000000000015 194.50000000000003 144.50000000000003 122.50000000000001 93350.000000000015 98850.000000000015 3.5000000000000004 1.5000000000000002 4.5000000000000009 886.50000000000011 0.69047619047619058 4.5000000000000009 172.50000000000003 714.50000000000011 7003.5000000000009 632.50000000000011 74450.000000000015 49.531250000000007 83.500000000000014 53.341666666666676 191.12500000000003 4907.5000000000009 6950.0000000000009 33450.000000000007 107.08333333333336 515.50000000000011 264.50000000000006 1.0000000180025095e-35 764.50000000000011 5617.5000000000009 7173.5000000000009 157.50000000000003 146.50000000000003 53.500000000000007 115.05555555555557 24.500000000000004 257.50000000000006 4.5000000000000009 35.500000000000007 422.50000000000006 105.12500000000001 98.083333333333357 139.12500000000003 124.50000000000001 150.50000000000003 159.50000000000003 1254.5000000000002 12.020833333333334 89.125000000000014 50050.000000000007 962.50000000000011 605.50000000000011 47.500000000000007 8.8750000000000018 12521.500000000002 0.36666666666666675 953.50000000000011 9.1250000000000018 74.291666666666671 136.12500000000003 0.63333333333333341 293.50000000000006 40.083333333333336 4850.0000000000009 115.50000000000001 71650.000000000015 982.50000000000011 183.50000000000003 107.50000000000001 46.500000000000007 31250.000000000004 764.50000000000011 308.50000000000006 22.500000000000004 92.055555555555571 11.025000000000002 98.083333333333357 443.50000000000006 0.83333333333333337 44250.000000000007 1.0000000180025095e-35 487.50000000000006 186.50000000000003 168.50000000000003 33850.000000000007 113.08333333333336 17450.000000000004 146.50000000000003 312.50000000000006 274.50000000000006 8.0208333333333339 581.50000000000011 56050.000000000007 72.500000000000014 22.500000000000004 49.875000000000007 86450.000000000015 123.52777777777779 110.08333333333336 785.50000000000011 187.50000000000003 959.50000000000011 83.500000000000014 9151.5000000000018 103.50000000000001 308.50000000000006 7120.5000000000009 12.79166666666667 56450.000000000007 130.50000000000003 1050.0000000000002 1.3819444444444446 617.50000000000011 13.60416666666667 164.50000000000003 74.500000000000014 153.12500000000003 0.5634920634920636 878.50000000000011 66.500000000000014 6502.5000000000009 9213.5000000000018 305.12500000000006 83.531250000000014 14450.000000000002 84.583333333333357 3.5000000000000004 40.500000000000007 136.50000000000003 0.91666666666666685 55250.000000000007 1.0000000180025095e-35 98.500000000000014 14.500000000000002 101.12500000000001 89.875000000000014 72.500000000000014 80050.000000000015 92350.000000000015 53.125000000000007 521.50000000000011 195.12500000000003 63.500000000000007 8767.5000000000018 29.763888888888893 20.770833333333339 131.12500000000003 10.375000000000002 435.50000000000006 184.50000000000003 334.50000000000006 92.527777777777786 4490.5000000000009 116.50000000000001 3921.5000000000005
decision_type=2 2 2 2 2 2 2 2 2 2 2 2 2 10 2 2 2 10 8 2 2 2 2 2 2 2 2 2 2 8 2 2 2 2 2 10 10 2 2 2 2 2 2 2 2 2 2 2 2 2 2 2 2 2 2 2 2 2 2 2 2 2 8 2 2 2 2 2 2 2 2 2 2 2 2 2 10 2 8 2 2 2 2 10 2 2 2 2 2 2 2 2 10 2 2 2 2 10 2 10 2 2 2 2 2 10 2 2 2 10 2 2 2 2 2 2 2 2 2 2 2 10 2 10 2 2 2 2 2 2 2 2 2 2 2 2 2 10 2 2 2 2 2 10 2 2 2 2 2 2 8 8 2 2 2 2 2 2 2 2 2 2 2 2 2 2 2 2
left_child=1 4 9 5 63 6 74 8 13 10 -2 116 65 15 123 16 30 22 21 -20 -21 106 26 24 25 117 28 -28 113 40 33 35 -33 -4 -35 -32 107 -38 -39 -40 41 -30 -8 44 90 46 -45 48 -18 62 53 52 -52 61 55 -55 57 -49 129 60 -60 87 -50 109 -62 66 -10 -61 69 70 72 -72 73 127 -3 76 -12 78 -77 114 -79 -23 83 -68 85 -85 -87 103 134 -90 -44 135 -93 94 -94 -76 97 99 -99 122 -101 -100 -103 104 105 -51 -11 -37 -109 110 111 -1 -113 -17 115 -80 125 118 119 120 -5 -121 -97 -7 -125 126 -6 128 -15 130 -59 132 -132 -134 162 139 137 -137 160 140 -9 142 143 -142 -143 146 152 148 150 -150 -147 -152 153 -141 156 -156 -149 158 -158 -159 161 -139 163 -89 165 166 167 -108
right_child=2 3 7 23 11 14 42 91 12 18 75 -13 -14 68 -16 17 47 -19 19 20 -22 81 -24 -25 -26 -27 27 -29 29 -31 31 32 -34 34 -36 36 37 38 39 -41 -42 -43 43 45 -46 -47 -48 56 49 50 51 -53 -54 54 -56 -57 -58 58 59 67 64 -63 -64 -65 -66 -67 82 -69 -70 -71 71 -73 -74 -75 95 77 -78 80 79 -81 -82 -83 -84 84 -86 86 -88 88 89 -91 -92 92 93 -95 -96 96 -98 98 101 100 -102 102 -104 -105 -106 -107 164 108 -110 -111 -112 112 -114 -115 -116 -117 -118 -119 -120 121 -122 -123 -124 124 -126 -127 -128 -129 -130 -131 131 -133 133 -135 -136 136 -138 138 -140 145 141 144 -144 -145 -146 147 -148 154 149 -151 151 -153 -154 -155 155 -157 157 159 -160 -161 -162 -163 -164 -165 -166 -167 -168 -169
leaf_value=-0.022875937822526879 -0.02062761745058599 0.026919147617126372 0.0094246004959376573 0.1233127273038257 0.14959515761706524 0.23059151916537368 0.02887591880060689 -0.058180104767665566 -0.063162808289877345 0.010844422252703479 0.11072327470945989 0.11861350975807525 0.16040472251651089 0.1241591874315347 0.020782835611100337 0.018715435981384875 -0.02898966906332183 -0.05186571813215192 -0.012323654905059685 0.20879248454686306 -0.021174148464820287 0.025141431334501994 0.13507507311018044 0.19446337020414819 0.051796187784699195 0.075732901579227976 0.013896229308482924 -0.099287987263624367 0.14520439697381923 0.20253420015321344 -0.049994012605315503 0.12897554588868407 -0.02968230531112297 0.23088896378240628 0 0.046761179499869389 -0.0024710187528049336 0.0065729166192281113 0.31112607053232305 0.037076673919046108 -0.019425069905786269 -0.014223309349157052 0.37815847788402046 0.093252424575348006 0.027478800055608304 0.097751915890539068 -0.025855827671882613 -0.030588817094884233 0.23532852241007504 0.13923408649429828 -0.013840674789707215 -0.025188467556003642 0.18487218057418614 0.2218591443845721 0.011929500723545497 0.036873768082141219 -0.048736053560572534 -0.011576033967247198 0.22349206642465563 -0.018705434903365264 -0.032465174668972127 -0.055274583758653101 0.016454337233350623 -0.10718450797090337 0.084019407619388226 -0.018456523627787918 -0.046928546117499997 0.082221421258114463 -0.017404913443925148 0.17485169743218054 0.23717931182424692 0.046314511988644079 0.14499203651931006 -0.030544159489953013 0.13423191341926782 0.0087189228499919228 -0.042463841020538226 9.0543601313205693e-05 0.15373264210182783 -0.030624466142429772 -0.064596342720624506 -0.03435561124741035 0.0040392180547769952 0.0051025082328354952 -0.031809921071280035 0.033883807605190081 0.3237850539907613 -0.098251484974021155 0.24701124293271362 0.055361710695771178 0.17177579334185755 0.0083599830475178192 0.059027858052350522 0.019644124296462635 0.20892676878096597 0.14049875105505197 0.028343725757186456 0.03527194057064361 0.26071005350371168 0.27400388739143144 0.078585959852775847 0.15123215501416648 0 -0.052494561395663226 -0.025861871202961767 -0.0013474694539837853 -0.03713306048743277 0.13185861576539254 0.3192622826209065 -0.068221886187879319 -0.050463886502889098 0.0034053867779125025 0.12785686349889566 0.06450306322154678 0.17542928655269385 -0.01039610276111109 -0.023057130349186383 0.19121939834030713 0.15089058361993854 0.062663649061380222 0.28673035301630678 0.21981806835126655 0 0.26029573829548086 0.13959727666563257 -0.046734755268549484 0.028926014124357902 0.18046402755180913 -0.021664922317640743 -0.021140194559701717 0.03902210957667001 -0.017994669146765781 0.32081756338043788 0.086603587813888633 -0.07548864899417719 -0.0095801844268394026 -0.041375657460346348 0.059555193412262994 0 -0.076706641696584255 -0.087244224596983444 0.30237589276412091 0.16200436019828732 0.085314532592971754 0.086731445243771133 0 0.22664052453755459 -0.023638598573791209 0.21582229250978444 0.03961986400749478 0.21109889319506717 -0.045141523822240098 0.035650134451743309 0.064410744770413128 0.19573229048323212 0.0097909247106338412 -0.046563751211983008 -0.046229035945994583 0.11525962739410502 0.051104335721734062 0.050031862934839362 0.25249499522116481 0.11963055125837561 0.035677993001869301 -0.023614822801861418 -0.037335705642994495 0.00077218838558808906 0.01181098357466691
leaf_weight=151.11263174563646 4623.6920744925737 9.5292676314711553 919.86409453302622 8.1691986992955226 9.2598505318164808 10.386181369423864 54.826130628585815 6.6437527611851683 11.600168935954569 47.966728217899799 3.8341832980513564 16.921858854591846 3.8305155336856833 4.8838354125618952 7.6684821471571913 543.04367638379335 45.712470032274723 17.896561183035374 232.20236530154943 5.4923321679234487 6.2649401351809502 18.227418959140778 7.0951791405677787 433.81818079948425 7.5049436986446372 11.799824848771093 18.818453103303913 12.153794780373572 8.4019258245825785 6.1967337802052489 4.1688943579792967 5.6226877942681304 30.102233380079269 3.6289781853556624 4.23037239164114 4.1017226278781882 17.079368472099304 8.0823475345969182 4.1113543435931197 3.7177121415734291 10.379248857498169 3.6312261819839486 4.3429292812943441 7.5120273455977467 4.5854149609804145 16.404931642115116 18.899235807359219 99.270343922078609 3.5793685242533675 7.3978080898523348 3.6287175342440587 75.509928166866302 4.8969647735357285 7.3757481500506419 16.771993964910507 7.129730686545372 52.299978189170361 6.5896498933434513 4.0110229998827007 159.27233019471169 10.884028963744642 13.520590074360369 3.5421718657016754 13.037395417690275 9.5447038039565069 386.39381312578917 5.5356124192476299 7.0067870691418639 13.385902591049669 5.4086996093392363 5.8626299276948002 19.402253970503807 4.875867284834384 26.713594548404217 175.63716623932123 64.716050013899803 58.320568583905697 210.17235232889652 4.7274874225258881 6.9583914354443541 20.7964978069067 1793.9934296905994 80.829593658447266 3.9043587371706989 4.4689829796552649 3.8011184334754926 5.3972180932760239 4.5795629173517325 4.8745314404368427 20.867930792272091 5.0868911817669868 21.224274538457394 6.1606166064739289 8.0012717396020872 10.805667400360106 11.64713123440743 17.277456134557724 30.710930608212948 5.6657654196023968 10.459222398698328 4.9380139037966719 12.21980442106724 5.6398504227399817 17.974866814911366 11.228673696517943 5.0351194068789482 385.97788583487272 6.3692085146903974 4.2687577605247498 38.438894510269165 65.453779712319374 25.174567833542827 6.5187614336609832 33.387252524495125 9.6812444031238538 6.5505524948239326 21.057487957179546 196.36632265895605 166.75174434483051 11.272046834230425 21.654596343636513 7.9148280024528495 4.9470933824777594 6.1875473856925955 288.47480867803097 6.9001220092177382 48.600483052432537 4.2316466048359862 7.3033558055758476 8.3938653618097288 7.0378095209598568 3.7987441197037688 4.2621237933635694 3.7886331677436829 7.1526500657200804 5.3897959515452412 6.423828460276126 4.9283690080046716 4.7535482645034781 12.917378440499308 6.298468425869947 4.4464076533913595 6.0416144132614127 5.8420989364385605 4.7969862371683121 40.232049576938152 3.9500674456357947 111.92118458449841 5.0177104473113996 6.9614434689283371 5.4088195860385868 3.8166961520910272 223.40336968749762 7.1445104256272307 4.6898192167282131 24.442863546311855 3.9063053205609348 16.006280995905403 12.196464590728281 11.408630467951296 5.8412721306085578 8.6361256912350637 5.4217492267489424 12.683445639908312 4234.3048369511962 794.05801142752171 146.87734607607126 50.054992124438286
leaf_count=1814 59456 86 10833 49 82 73 553 76 140 624 48 120 41 57 66 6276 535 219 3010 72 83 231 78 2381 45 77 214 140 95 67 49 65 349 43 51 46 197 92 46 44 120 42 42 74 44 161 191 1189 42 84 43 905 59 86 198 84 628 79 47 1887 129 161 42 157 114 4744 66 82 156 61 62 215 57 310 1440 810 733 2640 59 87 262 23575 953 47 53 45 64 56 57 244 53 229 68 87 117 111 165 302 45 96 48 106 50 213 134 59 5014 71 48 461 793 310 80 369 122 82 189 1154 1017 67 124 47 46 48 2088 74 412 42 85 99 84 45 51 45 85 59 71 52 51 147 71 50 69 65 55 451 41 1252 54 78 59 43 2467 83 50 276 44 178 138 126 62 88 64 150 55130 10319 1910 649
internal_value=0 0.120172 -0.0159509 0.154558 -0.0145507 0.11965 0.101433 0.0119521 0.00803115 -0.0237149 -0.0191557 0.0390437 -0.0104498 0.0119092 0.142763 0.0105134 0.00643073 0.0207508 -0.0266682 -0.00748879 0.0829373 -0.0272876 0.0228592 0.183247 0.171803 0.173794 0.0215039 -0.0290842 0.0241823 0.0768173 0.0131658 0.0421585 -0.00296987 0.010368 0.112731 0.0741375 0.0861318 0.0458627 0.100565 0.189743 0.0389697 0.0932298 0.0566369 0.0824175 0.198791 0.0427225 0.00635991 -0.003932 0.00822677 0.0157509 0.011691 -0.0122465 0.095341 0.0262113 0.0710811 0.135387 -0.0130811 -0.00715169 0.002992 -0.00481396 0.05604 0.0130211 0.135422 -0.0330981 0.0196504 -0.0118903 0.009627 -0.014095 0.0466505 0.0582012 0.0486449 0.0934565 0.0238449 0.00863592 0.118556 -0.00138107 -0.0320167 0.00435548 0.0295595 0.0758315 -0.00554286 -0.0337277 0.0182979 0.0657292 0.104162 0.154254 0.211289 0.0230936 0.0458448 0.0945292 0.275473 0.0307029 0.0678404 0.116116 0.158214 0.12149 0.0992572 0.112823 0.0847961 0.158296 0.215626 0.146826 0.106472 -0.00610294 0.0270864 0.078754 -0.0252157 0.171819 0.214327 -0.0295115 -0.0232855 -0.0132519 0.030959 0.0214675 0.113557 0.0547853 0.022629 0.176457 0.162694 0.201383 0.244293 0.131022 0.100973 0.145655 0.142402 0.0382806 0.0493651 0.075226 0.0332465 0.0483093 0.0731659 0.105296 0.139577 0.21952 0.00195087 0.0275555 0.0679254 0.0934641 0.118481 0.0246924 0.0704336 0.103542 0.0516904 -4.63923e-05 0.198271 0.021416 0.0339669 0.00857744 0.0398564 0.11894 0.019452 0.100388 0.0305296 -0.0238577 -0.00157729 0.0420953 -0.0101132 0.0234808 0.0728239 -0.00383766 0.149014 0.187168 0.0288451 0 -0.0255332 -0.0313931 -0.0232053 -0.0313965
internal_weight=0 1980.77 16263.8 1578.3 402.476 713.046 400.329 3538.88 2929.22 12724.9 5009.45 102.74 505.761 2423.46 312.717 2331.4 1670.39 661.004 7715.42 243.96 11.7573 7471.46 643.107 865.252 431.434 423.929 636.012 30.9722 605.04 28.6091 1015.35 87.6243 35.7249 927.723 7.85935 51.8994 47.7305 32.9908 15.9114 7.82907 22.4124 12.0332 111.658 56.8314 14.0152 42.8162 26.4113 655.044 278.884 233.172 226.05 84.0356 8.52568 142.014 31.2775 14.5055 376.16 323.86 224.59 190.719 24.4398 110.737 7.12154 299.736 20.4287 501.931 115.537 166.279 92.0678 78.6819 73.2732 25.2649 48.0083 43.1324 288.672 385.757 62.1548 323.603 92.6337 27.9177 230.969 1812.22 103.937 23.1073 17.5717 13.1027 9.19834 97.2163 55.5799 25.7425 9.42982 609.658 46.1918 24.9676 16.9663 279.142 103.505 86.2278 54.2364 31.9915 15.3972 23.5254 17.8597 41.6365 23.6616 12.4329 5659.24 14.7397 10.638 286.699 248.26 182.806 31.6933 576.431 20.9593 11.278 85.8179 412.129 215.762 49.0107 29.8238 19.1869 16.5942 305.049 294.662 64.7605 57.8603 16.4188 12.1872 33.8708 25.477 18.8873 15.0886 8.05076 29.8374 563.466 35.9729 29.5491 24.1593 527.493 34.0693 27.4256 18.1822 12.1406 9.24339 493.424 247.415 246.008 61.4367 11.9792 49.4576 9.22552 243.465 20.0619 184.572 29.1327 155.439 43.5177 16.1028 27.4149 19.4058 13.5645 22.6848 17.263 5611.27 1376.97 582.91 436.033
internal_count=221546 15341 206205 10849 4492 5888 3613 41289 34532 164916 64299 877 6153 28379 2275 27334 19714 7620 100617 3165 155 97452 7401 4961 2580 2535 7323 354 6969 324 11934 1007 414 10927 94 593 544 379 182 90 257 137 1118 565 139 426 265 7780 3301 2766 2682 1007 102 1675 368 170 4479 3851 2662 2259 290 1307 84 3615 243 6112 1368 1969 1045 889 828 277 551 494 2495 4843 781 4062 1160 350 2902 23806 1228 275 209 156 109 1146 656 301 95 6757 501 272 185 2409 969 804 503 301 144 201 156 490 277 143 73646 165 119 3458 2997 2204 390 6645 263 141 757 2458 1304 287 173 114 157 2209 2136 568 494 184 142 403 304 225 180 96 355 6256 383 312 253 5873 386 310 205 136 105 5487 2738 2749 685 132 553 102 2697 230 2064 326 1738 486 182 304 202 140 270 206 73022 17892 7573 5663
is_linear=0
shrinkage=0.101682


Tree=4
num_leaves=169
num_cat=0
split_feature=75 70 72 70 64 60 41 70 36 70 48 36 3 71 1 72 1 48 34 74 20 7 57 0 20 74 1 7 3 1 48 0 50 71 56 0 26 38 20 7 26 1 26 26 26 74 71 20 38 56 26 20 0 74 53 0 1 50 71 20 15 3 0 38 0 1 72 71 38 74 72 20 0 74 71 72 74 50 74 48 26 26 1 0 50 20 36 18 36 39 72 27 20 20 32 71 26 26 71 71 30 0 32 32 38 30 53 50 26 0 72 20 30 1 41 20 0 38 45 71 0 74 71 0 0 74 18 57 0 30 52 56 30 30 1 20 30 27 48 36 30 74 3 26 18 27 1 32 32 1 26 38 56 38 36 72 18 50 0 74 74 74 50 38 32 36 1 72
split_gain=2394.11 744.421 614.335 215.566 104.412 76.6485 64.8218 35.7234 29.5679 24.5682 18.4271 17.8815 27.6892 10.6033 9.57587 9.01898 8.60141 9.09465 8.45058 8.29694 8.24999 22.9371 12.8654 10.3791 9.56654 9.93547 9.17796 12.7147 8.0017 9.83375 8.15199 10.3076 7.9672 7.89192 10.3909 9.75221 9.44376 8.01332 7.7666 7.66564 11.6818 7.65255 15.6813 7.53469 7.4854 10.5932 9.24765 12.5861 7.34021 7.27346 8.37156 8.87824 11.6286 7.24058 7.28616 7.23762 9.53017 10.2828 8.60356 8.60342 7.87856 7.35536 7.80854 7.21885 9.50315 9.29101 10.0044 9.43741 9.19848 8.87086 9.25151 8.42464 7.33185 7.17587 9.07402 12.3542 7.09466 7.98067 6.97294 10.2157 8.2876 7.94164 10.2031 6.92207 6.786 6.72007 8.17101 6.94365 6.65691 6.64493 7.93255 11.7247 11.4531 8.5467 8.08287 6.6168 8.29701 7.90408 6.58891 11.5168 13.0796 10.0657 9.29143 10.6409 8.33214 8.91113 8.73855 10.1226 8.14251 8.74055 8.54541 8.08486 7.45453 9.08527 7.75664 11.4552 15.0225 8.22731 16.2588 7.3015 6.8669 6.84657 6.74664 10.5179 8.48356 8.9106 14.6946 18.3391 11.5273 13.8264 9.03177 8.36899 8.32814 8.22202 8.35336 8.21038 8.19528 7.87349 7.42393 7.02278 9.72105 9.24509 7.72371 10.3204 14.2375 6.52852 7.06069 7.18963 13.0498 10.4184 8.93028 8.81986 6.38281 9.49449 8.02655 6.5929 6.36652 6.72346 6.31128 7.64147 6.29564 6.28655 6.15553 6.14929 6.09883 6.09113 8.7098 7.97499
threshold=1.0000000180025095e-35 1.5000000000000002 37.500000000000007 2.5000000000000004 0.43650793650793657 4.1250000000000009 0.29166666666666669 1.5000000000000002 46.375000000000007 2.5000000000000004 5.8750000000000009 2.8750000000000004 3.5000000000000004 1335.5000000000002 4050.0000000000005 5916.5000000000009 3150.0000000000005 153.12500000000003 2.5000000000000004 144.50000000000003 56.500000000000007 0.6515151515151516 1.2361111111111114 33.500000000000007 198.50000000000003 455.50000000000006 46350.000000000007 0.10555555555555557 5.5000000000000009 93650.000000000015 3.1250000000000004 21.500000000000004 666.50000000000011 11718.500000000002 78.055555555555571 25.500000000000004 244.50000000000003 765.50000000000011 187.50000000000003 0.13392857142857145 128.50000000000003 87250.000000000015 280.50000000000006 152.50000000000003 519.50000000000011 878.50000000000011 1654.5000000000002 187.50000000000003 500.50000000000006 85.535714285714292 180.50000000000003 20.500000000000004 51.500000000000007 292.50000000000006 0.5277777777777779 23.500000000000004 67250.000000000015 714.50000000000011 11403.500000000002 171.50000000000003 3.5000000000000004 2.5000000000000004 59.500000000000007 443.50000000000006 56.500000000000007 67250.000000000015 8478.5000000000018 11914.500000000002 636.50000000000011 487.50000000000006 4343.5000000000009 99.500000000000014 57.500000000000007 228.50000000000003 3749.5000000000005 8375.5000000000018 419.50000000000006 536.50000000000011 740.50000000000011 17.125000000000004 299.50000000000006 360.50000000000006 37050.000000000007 22.500000000000004 660.50000000000011 7.5000000000000009 9.1250000000000018 166.50000000000003 271.12500000000006 1.5000000000000002 3875.5000000000005 4.5000000000000009 107.50000000000001 72.500000000000014 83.166666666666671 8030.5000000000009 334.50000000000006 246.50000000000003 4343.5000000000009 4434.5000000000009 19.354166666666668 21.500000000000004 186.16666666666671 173.16666666666671 334.50000000000006 50.541666666666679 0.58571428571428574 622.50000000000011 422.50000000000006 16.500000000000004 4014.5000000000005 192.50000000000003 2.9583333333333335 9250.0000000000018 0.63333333333333341 140.50000000000003 48.500000000000007 464.50000000000006 0.55000000000000016 7120.5000000000009 70.500000000000014 601.50000000000011 12526.500000000002 48.500000000000007 42.500000000000007 176.50000000000003 89.125000000000014 1.5634920634920637 55.500000000000007 62.041666666666679 0.64583333333333337 129.5277777777778 22.354166666666668 7.041666666666667 70050.000000000015 97.500000000000014 15.60416666666667 3.5000000000000004 89.875000000000014 155.12500000000003 46.708333333333336 815.50000000000011 3.5000000000000004 374.50000000000006 20.125000000000004 1.0000000180025095e-35 42650.000000000007 91.833333333333357 72.416666666666671 21250.000000000004 56.500000000000007 416.50000000000006 82.527777777777786 272.50000000000006 67.125000000000014 9134.5000000000018 122.12500000000001 730.50000000000011 47.500000000000007 368.50000000000006 929.50000000000011 947.50000000000011 540.50000000000011 118.50000000000001 143.83333333333334 229.62500000000003 59250.000000000007 1835.5000000000002
decision_type=2 2 2 2 2 2 2 2 2 2 2 2 2 2 8 2 10 2 2 2 2 2 2 2 2 2 10 2 2 8 2 2 2 2 2 2 2 2 2 2 2 10 2 2 2 2 2 2 2 2 2 2 2 2 2 2 8 2 2 2 2 2 2 2 2 8 2 2 2 2 2 2 2 2 2 2 2 2 2 2 2 2 8 2 2 2 2 2 2 2 2 2 2 2 2 2 2 2 2 2 2 2 2 2 2 2 2 2 2 2 2 2 2 10 2 2 2 2 2 2 2 2 2 2 2 2 2 2 2 2 2 2 2 2 10 2 2 2 2 2 2 2 2 2 2 2 10 2 2 10 2 2 2 2 2 2 2 2 2 2 2 2 2 2 2 2 8 2
left_child=2 5 8 6 11 19 28 -6 161 165 13 12 -4 -5 -12 76 17 32 84 41 22 24 23 26 25 -22 -15 43 44 30 -30 -32 -7 35 -35 53 -36 38 85 -25 -41 -2 -43 -28 -3 46 47 -46 -38 50 51 -24 -53 -16 -55 56 57 58 59 60 89 62 -57 64 69 67 -67 68 72 -27 71 -71 -65 -17 -75 -76 77 -14 79 80 -33 -81 -83 -58 -10 -37 -87 156 -13 145 91 92 93 94 -91 -92 97 -97 108 100 -100 104 103 112 105 -101 107 -106 109 -18 120 -110 113 -103 115 117 -117 118 -115 -108 -111 158 124 132 131 126 127 137 129 133 139 -114 -124 -127 152 136 -136 -126 -138 140 -130 142 -141 144 -144 146 147 148 150 -150 -21 -149 -135 154 -154 -155 157 -88 159 -112 -31 -1 -77 -152 -133 166 167 -9
right_child=1 3 4 10 7 16 -8 9 18 -11 14 88 15 20 33 73 98 -19 -20 55 21 -23 49 39 -26 63 27 -29 29 160 31 78 -34 34 36 37 48 -39 -40 40 -42 42 -44 -45 45 -47 -48 -49 -50 -51 -52 52 -54 54 -56 61 83 -59 -60 -61 -62 -63 -64 65 -66 66 -68 -69 -70 70 -72 -73 -74 74 75 162 -78 -79 -80 81 -82 82 -84 -85 -86 86 87 -89 -90 90 95 -93 -94 -95 -96 96 -98 -99 99 101 -102 102 -104 -105 106 -107 119 -109 111 110 121 -113 122 114 -116 116 -118 -119 -120 -121 -122 -123 123 -125 125 128 -128 -129 130 -131 -132 164 -134 134 135 -137 138 -139 -140 141 -142 -143 143 -145 -146 -147 -148 151 149 -151 163 -153 153 155 -156 -157 -158 -159 -160 -161 -162 -163 -164 -165 -166 -167 -168 -169
leaf_value=-0.024772441609682932 -0.02059570665461942 -0.032569701320091897 0.097666020852228433 -0.020806540077255666 0.18030879491542545 0.013452834243841937 -0.013321648526569807 0.071108522534092833 0.036324746548028204 0.1933059540498708 -0.048647690694158384 0.11877136250683397 0 0.013911857283895121 -0.070827447782597072 -0.032825514901839901 -0.098026133378337724 -0.071730678843226842 0.13099641163017101 0.15672977951435266 -0.0057197191666595723 -0.057174290223602701 0 -0.022592509369344711 0.16580257151798233 0.1453299690760585 0.075297164790314106 0.010595923932593091 -0.048449437075471467 -0.017731635821378926 0.11270011778762153 0.18039463592539018 0.14790942817494171 0.23330203144578379 -0.055478247332190561 0.16775012594770375 0.17621745736848762 0.16864696437783039 -0.02676441191046099 0.17026448238139072 0.0064488433082505814 -0.015404604251459449 0.19370945639952941 0.25299388740108159 -0.020236499820516295 0.11787344585340091 -0.031638724955565224 0.23554308703444163 0.018634821726324483 0.019324580607384432 0.28244976144450246 0.040387806916961658 0.284840051416548 0.11731102704078378 0 0.016617807466900687 -0.006045714565884072 -0.066129304806915201 -0.01080775388373585 0 -0.018415006448465446 0.0091040517019715973 0.040013342385146797 0.11083495985168317 -0.020261321690307865 -0.047068653280315981 0.12369837456440202 -0.043813226435793599 0.017895581780843207 -0.002160673987778825 0.0059842331042827537 0.1114686320973519 0.2643873024350053 0.0075438118760086884 0.22024444009578767 0.11446091461899206 -0.031411406706635191 0.13377044041311528 -0.075621779499073699 -0.059372858079288889 -0.0015282109562974413 0.16871903895122869 -0.027937026047878007 0.052377746740804351 -0.058505798738463913 0.15422784789832672 0.051243157071566556 0.18034708102999175 0.014391939148633601 0.057424946560482748 0.023224643027158601 -0.010240574124202968 0.27894740355390735 -0.012189618485900186 0.28502137520822163 0.1356819546795906 0.26193101525675977 -0.041743606284307476 0.30583094798755139 0.0090260764870442305 0.049533324352515222 0.13524816466563866 0.18423470025847863 -0.054157265885075863 0.34609813846607557 0.16232130876148484 0.013051635027593335 0.087510179207924824 -0.01769227460494871 0.052778846861859366 0 0.11211620076878928 0.049612315439698025 -0.049535748353935941 -0.0059051349543533943 0.23454384019656904 0.016977183958276958 -0.02625053255313281 0.16904526764223071 0.13733226546723815 -0.052452979081242523 -0.048898809840454298 -0.019380395927939553 -0.040895148653227152 0.013660895479735194 0.15385593813346293 -0.03235714848567231 0.28099365080412764 0.051287532811810865 0.16537363635280911 -0.017770349920933213 -0.077252321877488997 0.13814560030492529 0.028646217679393654 -0.026024938992301648 -0.031295318445768376 0.19607162521671045 0.17541378816510539 0.0099008460946865273 0.25471354696089088 -0.054416927001840212 -0.026138749910938435 0.25933432494943198 0 0 -0.01443566821679328 0.020671548618475408 0.014641211223073932 0.095452106044217305 0.33536417169874022 -0.064774262750330297 0.14872091516649733 0.081664680981933746 0.10837896530194997 0.29920841285161098 0.01912734164417448 -0.039135034311777665 -0.041659774285382263 -0.0054865544864860826 0.19904942216250418 0.080499886414727051 -0.089835734751434165 -0.0095136530733276829 0.085581152746703609 0.0286211133506598 0.15003307972770027 0.14043493476990201 0.11879824804005999
leaf_weight=289.53900415450335 101.28600992262363 8589.8733855262399 342.37227462232113 83.510370872914791 284.59869349002838 43.5120480209589 2037.8652415797114 51.725598901510239 73.567086823284626 73.309913605451584 10.324057221412657 334.63594105094671 11.649963684380056 21.413218334317207 10.970790430903433 5.6491159051656714 4.0621414333581916 11.149450965225695 9.1125239282846433 6.9384854957461419 119.12880966067314 45.918327704071999 5.6097957417368951 49.631656534969807 4.5187553614377967 7.243776023387908 5.6625668779015559 8.7032199278473836 807.77856104820967 80.440865077078342 6.0747884064912787 4.9835314005613309 5.1827076226472846 5.3292821273207691 4.4666604846715954 5.4956459179520598 7.469624422490595 6.2233283817768088 12.281007170677183 5.8822389394044903 21.095246747136116 10.064034849405287 5.4205022379755965 6.7536140829324722 3.9665707573294631 7.2876386716961852 41.9435074031353 3.3031129613518715 6.5101334378123283 8.9119326770305616 3.6606151759624472 4.9837925583124143 4.1507536768913269 6.7615893036127082 29.420379586517811 678.57891207188368 89.072851069271564 8.0258873403072339 21.677033580839634 26.94812423735857 10.383199684321879 1033.012888610363 195.17957173287868 15.708294376730924 42.783774189651012 11.878190316259863 4.9118774980306616 3.8039405718445769 8.2231232896447164 8.8068809509277362 68.604352846741676 20.208976179361343 5.1939555257558814 12.071561798453329 8.527697794139387 8.987250439822672 27.322309628129005 7.085948832333087 18.919786289334297 24.726141020655632 4.1740382984280586 4.1098630502819988 6.7647058069705972 26.931655503809452 8.2540583834052068 7.7123534679412833 138.71548990160227 3.9083223864436141 7.6039365679025641 4.4719338268041664 19.957864798605442 3.5255215018987647 7.5974256619811049 3.5885036960244179 3.3811293914914131 6.3122754916548711 3.32656605541706 3.7059139236807823 4.148663826286791 17.760108605027202 5.2019627243280411 7.498238891363143 5.5366635993123046 9.5030954256653768 4.0025400295853606 5.2550506368279448 8.3568896055221575 3.7529116943478584 38.799302153289318 363.78630647808313 4.2030367180705088 5.5688170790672293 110.64090324193239 5.636674501001834 57.21067513525486 6.7701802998781186 7.358956940472126 19.371159613132477 8.0246730893850309 16.309429384768009 5.9578672572970381 16.509577624499798 4.8814069628715542 17.439502194523811 8.3744670227170044 11.888386934995649 4.3874378874897948 8.5042810812592489 80.966911822557449 20.073373079299927 20.49026607722044 9.9706428945064562 8.6012996807694417 20.218878485262394 5.2278180271387091 16.712487518787384 5.981892526149748 5.7196171507239333 4.4534536227583885 4.4665104523301187 9.5709318965673429 4.113058775663375 5.7402982041239756 6.5950123965740195 4.037820428609848 12.040182135999201 31.097438141703606 23.701966956257824 4.603050269186495 4.578047588467598 5.546563468873499 6.7764507830142966 4.3683223724365217 26.687067098915577 4.4630615413188934 14.900291733443735 8.9776318892836553 7.8612870797514907 11.683278672397135 4.3033626973628998 7.1343212425708762 16.888373367488384 6.2973959222435942 5.3589563220739365 11.78978321701288 134.5472844094038 189.22891399264336 214.14852222800255
leaf_count=3520 1266 115708 2755 1040 1358 463 24816 287 615 344 114 2224 111 260 122 58 45 121 56 84 1532 571 68 606 57 86 69 105 11053 1082 78 63 56 54 48 53 80 65 130 72 261 125 66 83 54 99 571 45 69 110 45 61 51 72 332 8221 1098 101 266 331 128 12859 2372 193 521 146 61 46 101 107 834 246 64 123 79 85 268 70 247 322 54 53 88 332 86 82 1462 42 51 55 246 44 93 44 42 78 42 46 42 187 51 81 55 103 42 53 86 42 428 3878 45 60 1147 61 626 70 78 218 86 171 66 176 53 184 90 125 46 82 866 202 208 107 90 207 55 181 61 59 45 46 104 45 55 69 41 148 382 288 55 56 67 85 46 282 45 159 99 86 122 44 96 215 64 65 129 726 1055 1191
internal_value=0 -0.0145579 0.100479 -0.0261898 0.126809 0.0266696 -0.0298367 0.149541 -0.0133526 0.136228 0.0226189 0.098832 0.0845396 0.0124951 0.0446002 0.032594 0.0480033 0.00937739 0.0372924 0.0161046 0.0180142 0.00967966 0.0385258 0.0234897 0.0194172 0.0171089 0.0637105 0.111472 -0.0333328 -0.0422923 -0.0455496 -0.0112181 0.0291102 0.0484859 0.105731 0.0425153 0.0649527 0.0527279 0.0484533 0.000437587 0.044598 -0.010039 0.0554119 0.177403 -0.0323264 0.00375966 -0.0123398 0.0909229 0.107167 0.101891 0.138772 0.0978208 0.159064 9.23923e-06 0.0230383 0.0174867 0.0313023 0.0436155 0.04797 0.0548071 0.0634127 0.0149982 0.0219064 0.0311403 0.0193357 0.0650548 0.000376582 0.0963842 0.116528 0.0359787 0.0271877 0.0753626 0.152614 0.0669044 0.0840675 0.120523 0.000468184 0.0495598 -0.0240126 -0.000931492 0.092986 -0.0267269 0.0427323 0.00711847 0.026072 0.0541106 0.0499615 0.0444958 0.116606 0.0691746 0.0983898 0.146721 0.178325 0.105058 0.164422 0.063741 0.119866 0.0653053 0.0500429 0.0567891 0.170887 0.0550231 0.0509184 0.0495292 0.0974696 0.0468397 0.131565 0.230448 0.0402357 0.0447087 0.0462867 -1.70241e-05 0.0513472 0.0268895 0.0184823 0.0490832 0.125817 0.0144158 0.0755063 0.0975238 0.0509306 0 0.0571609 0.00927045 0.0604809 0.0702126 0.127878 0.161228 0.0642317 0.0856665 0.0425294 0.0381579 0.0776922 0.0711527 0.0609592 0.0161243 0.0697996 0.0837417 0.122381 0.0536735 0.0395001 0.102669 0.130517 0.0920551 0.15784 0.0523618 0.0620177 0.0834129 0.122756 0.223147 0.0672048 0.0465469 0.0807332 0.100507 0.199652 0.0777554 0.0406291 0.0458866 0.0391039 0.105508 -0.00905778 -0.0285554 0.0603901 0.00462429 -0.017718 0.129011 0.122649 0.109745
internal_weight=0 16049.4 2117.12 12518.7 1719.76 3530.77 11649.3 947.559 397.361 662.96 869.33 772.203 429.964 596.902 272.428 87.5912 1167.68 59.8442 90.9337 2363.09 513.392 366.933 146.459 119.142 321.015 316.496 42.5326 21.1194 9611.48 965.107 877.531 69.7529 48.6948 262.104 23.7757 238.328 18.4464 191.175 184.952 76.6091 26.9775 116.771 15.4845 12.4162 8646.37 56.5008 49.2132 7.26968 13.9798 27.3169 18.405 14.7443 9.13455 47.1528 36.182 2246.32 339.547 223.543 215.517 193.84 166.891 1906.77 873.758 197.367 147.648 49.7194 16.7901 32.9293 29.1254 104.864 97.6202 29.0159 20.9022 41.533 35.8839 23.8123 46.0582 18.7359 63.6781 44.7583 9.15757 35.6007 10.8746 116.005 81.8211 172.671 167.175 159.463 342.24 156.508 55.8671 22.5645 19.039 11.4416 7.85306 33.3026 13.3448 10.0182 1107.84 652.963 9.35063 643.612 588.176 582.639 55.4369 23.0152 32.4218 7.75545 454.874 410.506 406.443 44.3681 573.136 111.871 104.372 47.1616 14.1291 33.0325 13.6613 24.6663 369.744 36.6993 461.265 30.9222 430.343 297.942 26.9858 22.5984 270.956 134.975 135.981 132.401 13.4827 114.902 103.013 32.3757 15.6632 14.0941 10.4353 115.491 90.5378 24.9527 20.8396 16.3731 9.77812 100.641 88.601 57.5035 27.0251 9.1811 17.844 30.4784 70.6376 50.4187 8.83138 41.5874 155.554 146.577 20.1897 8.5064 87.5752 306.427 15.2846 10.9055 21.7604 589.65 455.103 265.874
internal_count=221546 206205 15341 164735 10849 41470 154429 4961 4492 3603 10306 5888 3613 7396 2910 858 12385 640 757 29085 6356 4565 1791 1456 3994 3937 517 257 129613 13136 11958 905 519 2796 251 2545 197 2019 1954 939 333 1457 191 152 116477 769 670 99 149 335 225 180 112 526 404 27628 4176 2746 2645 2379 2048 23452 10593 2405 1794 611 207 404 358 1273 1187 353 257 409 351 228 449 181 827 580 117 463 141 1430 701 1824 1771 1689 2275 1920 690 278 234 141 97 412 166 124 11745 6881 93 6788 6207 6152 581 240 341 84 4864 4376 4331 488 6049 1220 1139 513 148 365 147 257 3944 387 4829 327 4502 3119 277 231 2842 1408 1434 1383 143 1206 1081 342 161 149 106 1226 970 256 211 165 96 1230 1082 700 327 111 216 373 739 532 91 441 1647 1548 211 89 1178 3735 149 132 236 3259 2533 1478
is_linear=0
shrinkage=0.101682


Tree=5
num_leaves=169
num_cat=0
split_feature=75 52 5 40 47 3 53 3 7 30 24 73 71 0 74 0 1 36 1 9 30 12 14 74 50 33 0 71 74 1 36 60 71 54 12 12 74 24 3 73 0 71 29 54 42 0 51 66 0 0 26 1 71 66 71 71 30 9 22 14 26 71 26 71 1 29 14 9 2 50 71 73 71 51 9 0 14 12 38 73 47 38 14 2 54 53 57 14 52 14 2 57 38 14 12 74 0 36 23 0 57 9 0 30 29 51 5 50 54 73 24 26 14 24 26 71 3 57 71 0 0 1 11 74 1 73 42 42 36 14 14 26 60 14 1 42 36 26 1 9 9 65 53 42 14 2 71 71 60 71 60 36 60 73 2 26 14 60 26 57 9 0 0 26 1 24 73 9
split_gain=1844.06 287.767 231.741 32.5703 18.0723 17.6497 17.1241 15.926 12.6564 10.6837 9.28824 18.9014 12.0721 9.00533 9.70925 10.2162 10.4868 9.18739 8.78358 9.13049 11.9104 12.0569 9.90281 8.34963 8.27385 8.21206 8.08686 8.05048 7.89915 7.78404 13.6565 10.3915 7.76393 7.74565 7.7431 7.69272 7.51533 9.55414 14.2936 9.72533 9.81167 10.9416 20.9667 12.2523 9.1711 9.86458 7.68047 10.9094 9.12959 13.3362 12.9815 8.47929 8.99526 7.62174 8.28167 7.50324 7.43412 10.4123 10.1801 7.98954 7.37817 7.37173 9.43324 13.0873 13.1032 9.33492 8.04042 14.3953 10.3244 11.0587 7.84648 7.53978 7.29255 7.26191 7.16875 7.14252 7.12981 8.39888 7.66495 9.19761 11.9477 14.6931 6.85279 9.70762 7.76844 8.34481 7.22024 21.1645 8.00122 6.81969 6.80863 7.66522 12.1309 7.8345 7.68974 8.83276 6.78939 12.0456 8.7877 6.72786 6.71109 11.7675 8.71064 17.1638 7.1808 9.1264 6.85465 9.9416 7.72256 6.70876 11.3657 7.03171 7.83626 8.86984 7.1725 6.5815 6.54353 6.52248 7.76082 6.50653 8.55489 6.50067 9.15111 10.7716 9.26393 6.48794 6.4858 10.7456 6.46999 6.4124 13.302 9.35982 10.0404 13.7118 6.68226 6.33456 6.2581 7.09604 6.7909 6.1954 6.18744 6.53437 9.5627 15.6826 13.2035 12.5908 8.36084 10.3103 8.76127 8.37492 8.00905 7.31363 7.00965 6.96922 6.95916 6.1869 6.92377 9.22818 6.15179 6.88883 6.20166 7.14012 8.73209 7.68988 12.9369 8.21961 7.36898 11.8864
threshold=1.0000000180025095e-35 0.23611111111111113 0.095454545454545472 0.55000000000000016 6.5000000000000009 2.5000000000000004 0.64583333333333337 2.5000000000000004 0.15476190476190479 36.041666666666679 34.875000000000007 1.5000000000000002 7060.5000000000009 25.500000000000004 726.50000000000011 31.500000000000004 60050.000000000007 20.125000000000004 12050.000000000002 97.050000000000011 37.708333333333336 52.250000000000007 155.50000000000003 932.50000000000011 672.50000000000011 1.8333333333333337 71.500000000000014 13177.500000000002 573.50000000000011 90350.000000000015 190.12500000000003 107.12500000000001 3235.5000000000005 4.6909722222222232 157.50000000000003 186.50000000000003 320.50000000000006 28.125000000000004 4.5000000000000009 4.5000000000000009 19.500000000000004 981.50000000000011 1.1666666666666667 18.513888888888893 17.520833333333339 46.500000000000007 9.5000000000000018 7.5916666666666677 57.500000000000007 49.500000000000007 313.50000000000006 74050.000000000015 2747.5000000000005 2.4409722222222228 12388.500000000002 11528.500000000002 33.708333333333336 31.708333333333339 2.5000000000000004 151.50000000000003 328.50000000000006 10081.500000000002 204.50000000000003 2610.5000000000005 86850.000000000015 2.5833333333333335 30.500000000000004 89.527777777777786 26.500000000000004 488.50000000000006 3925.5000000000005 2.5000000000000004 9702.5000000000018 5.5000000000000009 93.055555555555571 30.500000000000004 8.5000000000000018 6.1250000000000009 559.50000000000011 4.5000000000000009 2.5000000000000004 419.50000000000006 55.500000000000007 175.50000000000003 45.031250000000007 1.8166666666666669 1.3095238095238098 92.500000000000014 0.41428571428571431 19.500000000000004 150.50000000000003 0.61250000000000016 404.50000000000006 134.50000000000003 47.875000000000007 565.50000000000011 49.500000000000007 30.125000000000004 1.5000000000000002 63.500000000000007 2.3875000000000006 114.05000000000001 18.500000000000004 3.7083333333333335 1.8333333333333337 14.500000000000002 0.27922077922077926 679.50000000000011 22.013888888888893 1.5000000000000002 43.625000000000007 230.50000000000003 62.500000000000007 41.875000000000007 140.50000000000003 5671.5000000000009 6.5000000000000009 3.0555555555555558 901.50000000000011 26.500000000000004 51.500000000000007 86450.000000000015 3.5000000000000004 833.50000000000011 45950.000000000007 2.5000000000000004 27.354166666666668 21.520833333333339 180.12500000000003 159.50000000000003 184.50000000000003 283.50000000000006 74.875000000000014 87.500000000000014 62850.000000000007 6.5208333333333348 11.125000000000002 120.50000000000001 58050.000000000007 134.05000000000004 149.77500000000003 1.2111111111111115 0.73214285714285732 9.7708333333333339 13.500000000000002 164.50000000000003 8784.5000000000018 7797.5000000000009 25.125000000000004 10836.500000000002 41.875000000000007 13.125000000000002 50.125000000000007 2.5000000000000004 79.500000000000014 212.50000000000003 127.50000000000001 159.12500000000003 162.50000000000003 2.2678571428571432 69.055555555555571 59.500000000000007 66.500000000000014 337.50000000000006 60850.000000000007 65.875000000000014 3.5000000000000004 104.95454545454547
decision_type=2 2 2 2 2 2 2 2 2 2 2 2 2 2 2 2 8 2 8 2 2 2 2 2 2 2 2 2 2 10 2 2 2 2 2 2 2 2 2 2 2 2 2 2 2 2 2 2 2 2 2 8 2 2 2 2 2 2 2 2 2 2 2 2 8 2 2 2 2 2 2 2 2 2 2 2 2 2 2 2 2 2 2 2 2 2 2 2 2 2 2 2 2 2 2 2 2 2 2 2 2 2 2 2 2 2 2 2 2 2 2 2 2 2 2 2 2 2 2 2 2 8 2 2 10 2 2 2 2 2 2 2 2 2 8 2 2 2 8 2 2 2 2 2 2 2 2 2 2 2 2 2 2 2 2 2 2 2 2 2 2 2 2 2 10 2 2 2
left_child=1 5 7 34 8 -1 73 23 10 27 11 12 13 33 15 -15 96 -18 19 20 126 -22 -21 -2 25 -8 56 36 99 -20 31 32 -31 -4 140 -36 37 38 -10 40 -39 42 43 -42 45 -41 47 48 49 51 115 52 -40 54 72 -25 57 75 -58 117 -24 62 63 65 119 -6 67 70 69 -68 -64 -71 76 -7 -54 -5 -38 78 79 80 -78 -82 -70 86 -85 -86 87 -84 -89 -69 91 -34 93 94 -93 -96 -17 98 -98 -13 102 104 103 125 105 109 121 -108 -109 110 -102 114 -113 -114 -111 -50 -43 118 -60 -65 -121 122 -104 -124 -125 -55 127 -12 155 131 -131 132 -49 134 -134 -16 137 138 -30 -130 141 142 144 -144 -3 146 147 148 151 -148 -150 -146 -152 -147 -153 -63 157 -157 -145 160 -160 163 -163 166 165 -165 167 -162
right_child=2 3 4 26 61 6 24 -9 9 -11 18 28 -14 14 135 16 17 -19 29 22 21 -23 60 55 -26 -27 -28 -29 136 30 -32 -33 90 -35 35 -37 53 39 46 44 41 116 -44 -45 -46 -47 -48 129 50 -51 -52 -53 74 100 -56 -57 58 -59 59 -61 -62 128 66 64 -66 -67 68 89 82 71 -72 -73 -74 -75 -76 -77 77 -79 -80 -81 81 -83 83 84 85 -87 -88 88 -90 -91 -92 92 -94 -95 95 -97 97 -99 -100 -101 101 -103 106 -105 -106 -107 107 108 -110 111 -112 112 113 -115 -116 -117 -118 -119 -120 120 -122 -123 123 124 -126 -127 -128 -129 139 130 -132 -133 133 -135 -136 -137 -138 -139 -140 -141 -142 -143 143 158 145 153 149 -149 150 -151 152 154 -154 -155 -156 156 -158 -159 159 -161 161 162 -164 164 -166 -167 -168 -169
