tree
version=v3
num_class=1
num_tree_per_iteration=1
label_index=0
max_feature_idx=45
objective=binary sigmoid:1
feature_names=age income same_address shopID price hist_trans_count hist_default_sum hist_default_avg hist_late_sum hist_late_avg hist_price_sum hist_price_avg default_lst_01_sum late_lst_01_sum price_lst_01_sum default_lst_01_avg late_lst_01_avg price_lst_01_avg default_lst_03_sum late_lst_03_sum price_lst_03_sum default_lst_03_avg late_lst_03_avg price_lst_03_avg default_lst_06_sum late_lst_06_sum price_lst_06_sum default_lst_06_avg late_lst_06_avg price_lst_06_avg default_lst_09_sum late_lst_09_sum price_lst_09_sum default_lst_09_avg late_lst_09_avg price_lst_09_avg default_lst_12_sum late_lst_12_sum price_lst_12_sum default_lst_12_avg late_lst_12_avg price_lst_12_avg cat__sex cat__residentialAddress_clean cat__postalAddress_clean cat__geo_risk_rank
feature_infos=[5:89] [0:100000] [0:1] [100:999] [3:200] [1:14] [0:9] [0:1] [0:10] [0:1] [3:1763] [3:200] [0:1] [0:1] [3:200] [0:1] [0:1] [3:200] [0:3] [0:3] [3:599] [0:1] [0:1] [3:200] [0:6] [0:6] [3:1094] [0:1] [0:1] [3:200] [0:8] [0:9] [3:1487] [0:1] [0:1] [3:200] [0:9] [0:10] [3:1763] [0:1] [0:1] [3:200] [-0.21435653926138298:0.49057014375225372] [-1.7268835299641221:2.2984681607710273] [-1.6527755578104002:2.0471537324901208] [0:5]
tree_sizes=1831 1861 1881 1880 1873 1873 1881 1894

Tree=0
num_leaves=16
num_cat=0
split_feature=44 39 24 44 24 7 44 7 44 7 44 44 7 44 7
split_gain=6964.22 4347.2 2517.22 1487.07 951.022 861.853 843.274 661.401 374.81 354.933 326.235 321.579 216.855 213.566 176.043
threshold=0.51370181253034219 0.35416666666666669 1.5000000000000002 -0.096895461049069972 2.5000000000000004 0.68333333333333346 1.0048995245525778 0.19090909090909094 0.86555283628100366 0.11805555555555557 -0.28866419816800154 -0.3366050840196429 0.22649572649572652 -0.4011784811729921 0.78888888888888908
decision_type=2 10 10 2 10 10 2 10 2 10 2 2 10 2 10
left_child=2 6 3 13 8 11 9 -5 -3 -2 -7 -4 -8 -1 -6
right_child=1 4 5 7 14 10 12 -9 -10 -11 -12 -13 -14 -15 -16
leaf_value=-2.4221282908524784 -2.2635280219525624 -2.0417834977081464 -2.3802623587172702 -2.3354781404249807 -1.6914068153300847 -2.2779416831118962 -2.1584101377717371 -2.2482526537656105 -1.8302263745457681 -2.1706743774225452 -1.7715540227501985 -2.1392101226940961 -1.9936051169952007 -2.3753367657794326 -1.3475301650354532
leaf_weight=3018.2524710893631 4155.40396527946 304.64449392259121 99.668666765093803 8859.2343548387289 57.214126512408257 22.47105548530817 1272.392422221601 1500.8343331515789 212.60437735915184 712.77192971110344 122.13972225040197 443.36802095919847 130.6803817152977 2778.6994109526277 41.874107085168362
leaf_count=36400 50114 3674 1202 106842 690 271 15345 18100 2564 8596 1473 5347 1576 33511 505
internal_value=-2.29853 -2.19568 -2.34073 -2.35042 -1.88777 -2.11308 -2.22597 -2.32284 -1.95446 -2.24991 -1.84965 -2.18357 -2.14295 -2.39971 -1.54265
internal_weight=0 6887.59 16844.7 16157 616.337 687.647 6271.25 10360.1 517.249 4868.18 144.611 543.037 1403.07 5796.95 99.0882
internal_count=286210 83064 203146 194853 7433 8293 75631 124942 6238 58710 1744 6549 16921 69911 1195
is_linear=0
shrinkage=1


Tree=1
num_leaves=16
num_cat=0
split_feature=2 43 33 43 43 43 43 43 43 43 7 43 33 43 43
split_gain=10691.4 3734.95 2743.85 1736.33 1007.24 634.78 586.528 423.75 412.058 220.328 209.973 134.352 129.049 128.677 25.2446
threshold=1.0000000180025095e-35 0.29393651603590037 0.23611111111111113 0.12182607786691337 0.85746640665820328 -0.3366050840196429 0.39778944200071392 -0.38242936790241172 0.61309907368230376 1.2211356793123158 0.095454545454545472 0.81971263040413078 0.13392857142857145 -0.38242936790241172 -0.46359385686983784
decision_type=2 2 8 2 2 2 2 2 2 2 10 2 10 2 2
left_child=2 5 6 7 10 14 13 -4 -5 -6 -3 -8 -7 -1 -2
right_child=1 4 3 8 9 12 11 -9 -10 -11 -12 -13 -14 -15 -16
leaf_value=-0.11279329594230271 -0.12465933540191849 -0.004103361683138575 -0.051595771893102438 0.4231376692689956 0.07438646720360316 -0.062101800284585583 0.17276486911127717 0.25973452090071086 0.60782738601701114 0.16062270867200651 0.044262154904993238 0.34000561577702121 -0.02328481488340875 0.04827736451279345 -0.098917786805450686
leaf_weight=92.708276838064194 2432.8515041023493 6320.2359767109156 87.89933318644762 375.01660510152578 2092.0957249999046 6562.8458923697472 211.52495032548904 239.34551191329956 355.60603649169207 555.561318770051 1676.9131195768714 109.71641673147678 1573.2353593036532 342.62532866001129 774.9282408580184
leaf_count=1144 31669 76290 936 3761 23325 82399 2596 2454 3481 5890 18329 1338 18453 4211 9934
internal_value=0 -0.0241503 0.28276 0.409137 0.0275522 -0.0726703 0.10588 0.175996 0.513354 0.0925196 0.00603376 0.230357 -0.0546034 0.0137977 -0.118468
internal_weight=0 21988.7 1814.44 1057.87 10644.8 11343.9 756.575 327.245 730.623 2647.66 7997.15 321.241 8136.08 435.334 3207.78
internal_count=286210 266289 19921 10632 123834 142455 9289 3390 7242 29215 94619 3934 100852 5355 41603
is_linear=0
shrinkage=0.121531


Tree=2
num_leaves=16
num_cat=0
split_feature=2 44 44 42 43 44 43 44 42 39 43 44 43 43 44
split_gain=6506.47 3311.84 3106.68 1781.89 797.865 530.882 501.075 483.218 320.35 227.548 213.23 109.74 103.041 67.5525 22.6539
threshold=1.0000000180025095e-35 1.0000000180025095e-35 0.22201170258444319 1.0000000180025095e-35 -0.26297241036118629 -0.3366050840196429 0.62644867685992389 0.69913160199568669 1.0000000180025095e-35 0.43650793650793657 0.36813408489923555 -0.52484386963709895 0.63469041010254723 -0.46359385686983784 -0.46888491153510631
decision_type=2 2 2 2 2 2 2 2 2 10 2 2 2 2 2
left_child=1 9 5 6 13 14 -4 -5 -7 12 -6 -11 -1 -3 -2
right_child=2 4 3 7 10 8 -8 -9 -10 11 -12 -13 -14 -15 -16
leaf_value=-0.042317185657271064 -0.122413756811205 -0.072099164912327068 -0.034028963070792631 0.060846663580701336 0.28120645454489746 -0.069291212528869842 0.024577608411632229 0.15963407415780542 -0.0087090825007431222 -0.064496301876266385 0.38732949736415612 0.16862343078375397 0.063079648544252159 0.11677788509405485 -0.096092057395101321
leaf_weight=524.44728956371546 2216.123666472733 64.308277919888496 4829.0336651280522 1858.9437078312039 462.79247147589922 5187.4770318493247 3889.4373070001602 1208.887631945312 1718.1948595643044 35.407057985663414 751.17566579580307 174.75987804681063 184.81370507180691 48.838620059192181 656.2492096349597
leaf_count=5948 32116 729 58704 22093 3917 67360 42317 12567 21963 338 5424 1373 1725 467 9169
internal_value=0 0.195452 -0.0218634 0.0201484 0.318248 -0.0725077 -0.00787815 0.0998044 -0.0542262 0.0180978 0.34701 0.129073 -0.0147663 0.00910803 -0.11643
internal_weight=0 2246.54 21564.3 11786.3 1327.12 9778.04 8718.47 3067.83 6905.67 919.428 1213.97 210.167 709.261 113.147 2872.37
internal_count=286210 19921 266289 135681 10537 130608 101021 34660 89323 9384 9341 1711 7673 1196 41285
is_linear=0
shrinkage=0.121531


Tree=3
num_leaves=16
num_cat=0
split_feature=2 43 44 42 43 43 42 44 44 42 43 33 43 43 43
split_gain=4397.03 2615.96 1780.49 1132.56 599.758 396.979 394.989 357.437 329.033 180.682 163.48 125.91 55.5124 33.3424 27.7937
threshold=1.0000000180025095e-35 0.28579231540345268 1.0000000180025095e-35 1.0000000180025095e-35 -0.3366050840196429 -0.23610039544617153 1.0000000180025095e-35 0.42923668361964523 0.53617995935969731 1.0000000180025095e-35 0.25308479033391879 0.43650793650793657 -0.46359385686983784 -0.44112962649034271 -0.46359385686983784
decision_type=2 2 2 2 2 2 2 2 2 2 2 10 2 2 2
left_child=2 4 10 7 14 12 -6 -3 -5 -7 13 -12 -4 -1 -2
right_child=1 3 5 8 6 9 -8 -9 -10 -11 11 -13 -14 -15 -16
leaf_value=-0.11333266656220996 -0.12085692307316262 -0.04251246743036817 -0.067388571295335264 0.033370642766578966 -0.063194626261284984 0.21648767941173341 0.00066585703013702661 0.0137180617902775 0.11535815228794297 0.310538914162306 0.024211257185253257 0.1591132925403459 0.097249652973430814 -0.025269198935607456 -0.091725311737631349
leaf_weight=79.719299279153347 2018.8027341067791 2376.481638289988 60.703195534646511 1175.7263994291425 5514.2457762360573 1058.3290683999658 1929.5534693971276 5610.4893918707967 1887.0139903947711 431.70418129861355 389.36608315259218 138.86546604335308 59.387881718575954 321.58098149299622 668.44832308590412
leaf_count=1062 31669 30317 729 13768 75766 6800 24687 62040 18108 2494 3864 938 514 3520 9934
internal_value=0 -0.019812 0.149404 0.0210808 -0.064417 0.226709 -0.0466351 -0.00300807 0.0839085 0.243839 0.0154089 0.0598533 0.0136692 -0.0429722 -0.113642
internal_weight=0 21180.8 2539.66 11049.7 10131.1 1610.12 7443.8 7986.97 3062.74 1490.03 929.532 528.232 120.091 401.3 2687.25
internal_count=286210 266289 19921 124233 142056 10537 100453 92357 31876 9294 9384 4802 1243 4582 41603
is_linear=0
shrinkage=0.121531


Tree=4
num_leaves=16
num_cat=0
split_feature=2 43 43 33 43 43 43 7 43 43 33 43 10 43 43
split_gain=3137.12 2184.51 602.355 553.613 428.285 289.95 178.766 160.545 156.754 104.873 73.6547 68.4255 63.5852 34.661 29.1771
threshold=1.0000000180025095e-35 0.16168069754783596 0.75802311982387838 0.18333333333333338 -0.3366050840196429 -0.074773698756307252 0.16168069754783596 0.13392857142857145 1.1405530008989941 0.95671361467798099 0.18333333333333338 -0.46359385686983784 187.50000000000003 -0.38242936790241172 -0.46359385686983784
decision_type=2 2 2 8 2 2 2 10 2 2 10 2 10 2 2
left_child=3 4 7 6 14 11 13 -3 -4 -7 -6 -5 -8 -1 -2
right_child=1 2 8 5 10 9 12 -9 -10 -11 -12 -13 -14 -15 -16
leaf_value=-0.1046762451794699 -0.11876103833122847 -0.013540402648490742 0.038029041453807269 -0.06871039223865133 -0.056087351331011982 0.16263085563735369 0.13352426402552084 0.026454599992642235 0.094173740897962002 0.2444684092774945 -0.018895462164343041 0.074728679430313 0.050714936311825456 -0.0088963842931993505 -0.087655405487433974
leaf_weight=72.625169470906258 1817.396496117115 7013.1249761246145 3129.2983301877975 67.797041643410921 4442.9646898917854 1309.9696242287755 221.61870434135199 1878.8297948241234 962.58738021552563 286.86474940180779 961.39139976352453 173.65924897044897 367.79362621903419 243.49586355686188 617.75094694271684
leaf_count=1097 31669 87832 31665 830 64166 7529 1876 20174 8592 1447 12257 1299 3266 2577 9934
internal_value=0 -0.0179145 0.0126692 0.120324 -0.0685719 0.158643 0.0424467 -0.00508338 0.0512559 0.177416 -0.049482 0.0342075 0.0819976 -0.0311508 -0.110905
internal_weight=0 20823.3 12983.8 2743.82 7839.5 1838.29 905.533 8891.95 4091.89 1596.83 5404.36 241.456 589.412 316.121 2435.15
internal_count=286210 266289 148263 19921 118026 11105 8816 108006 40257 8976 76423 2129 5142 3674 41603
is_linear=0
shrinkage=0.121531


Tree=5
num_leaves=16
num_cat=0
split_feature=44 39 44 44 33 27 44 44 44 33 44 24 44 24 24
split_gain=2478.73 908.219 638.14 414.377 322.332 231.808 129.707 87.7808 73.7868 65.7766 45.549 45.0389 12.4177 15.656 2.41612
threshold=0.16262143159768874 0.17424242424242428 -0.4011784811729921 0.80239093466797373 0.35416666666666669 0.55000000000000016 0.85482787810778127 1.2168066479407584 0.42923668361964523 0.15476190476190479 0.77422674130126723 3.5000000000000004 -0.58255753061906124 1.5000000000000002 3.5000000000000004
decision_type=2 10 2 2 10 10 2 2 2 10 2 10 2 10 10
left_child=2 3 12 8 9 6 -3 -5 -2 -4 -7 -6 14 -14 -1
right_child=1 5 4 7 11 10 -8 -9 -10 -11 -12 -13 13 -15 -16
leaf_value=-0.12009468925234174 -0.017742014562069801 0.046876520438287432 -0.049693774104400477 0.037318417908371003 0.032930756152012096 0.11224221427230321 0.1066305160212444 0.087144526771836331 0.0061480640617682667 -0.013262688905795969 0.16861169535292334 0.14881975534504577 -0.10332808291303361 -0.018287376576355679 -0.010665711141614199
leaf_weight=1287.2063054479659 3365.7793876864016 2002.5103106610477 4995.5029875785112 2640.9833901897073 668.78991793096066 589.66738314926624 736.49755245447159 653.97836517542601 4408.5343726836145 862.53388530015945 345.03697107732296 53.536829207092524 748.57272860407829 35.060540791600943 4.0489797443151465
leaf_count=23795 44982 19128 73233 26219 6416 3878 5365 5593 50824 10814 1820 279 13386 444 34
internal_value=0 0.0284974 -0.0534346 0.0111139 -0.03489 0.0808562 0.0629738 0.0472312 -0.00418884 -0.0443392 0.13316 0.0416586 -0.112207 -0.0995961 -0.119793
internal_weight=0 14743 8655.25 11069.3 6580.36 3673.71 2739.01 3294.96 7774.31 5858.04 934.704 722.327 2074.89 783.633 1291.26
internal_count=286210 157809 128401 127618 90742 30191 24493 31812 95806 84047 5698 6695 37659 13830 23829
is_linear=0
shrinkage=0.121531


Tree=6
num_leaves=16
num_cat=0
split_feature=2 44 42 44 44 44 44 42 33 42 44 44 44 5 44
split_gain=2105.49 1600.95 962.838 807.628 291.506 239.907 149.041 139.028 122.112 104.492 70.2755 57.6506 41.4629 25.2937 7.94482
threshold=1.0000000180025095e-35 0.048933833218254348 1.0000000180025095e-35 0.16262143159768874 -0.4011784811729921 0.74409714554216888 0.69913160199568669 1.0000000180025095e-35 0.43650793650793657 1.0000000180025095e-35 0.92118305240247578 -0.52484386963709895 -0.4011784811729921 3.5000000000000004 -0.58255753061906124
decision_type=2 2 2 2 2 2 2 2 10 2 2 2 2 10 2
left_child=3 4 5 8 14 -3 -4 -6 12 10 -5 -10 -1 -11 -2
right_child=1 2 6 9 7 -7 -8 -9 11 13 -12 -13 -14 -15 -16
leaf_value=-0.094385812404242125 -0.11891043873233413 -0.026930258100101676 0.036619692318223797 0.11397277005898809 -0.066254568726504717 0.012478070200790076 0.083761310796421448 -0.013758796706278385 -0.068849207613683239 0.21941674444535691 0.18517996480493468 0.090240541790921711 0.0014507373949691415 0.15981423067659875 -0.10101404594808625
leaf_weight=72.678994592279196 1084.4631758295 7178.004966147244 2687.8177198246121 938.56834942474961 2790.3535585179925 3342.5237256735563 1575.3462037444115 1020.3179945573211 36.527530007064342 301.91522276028991 267.53676676750183 356.23527374863625 755.24834391102195 184.15431049093604 671.7794916331768
leaf_count=856 22992 94420 30683 5364 44858 32871 12567 14529 339 1519 1337 2011 7655 840 13369
internal_value=0 -0.0155797 0.00533483 0.0948862 -0.0711266 -0.014405 0.0540569 -0.0522142 0.0194853 0.149234 0.12986 0.0752701 -0.00694069 0.197073 -0.112115
internal_weight=0 20350.6 14783.7 2912.86 5566.91 10520.5 4263.16 3810.67 1220.69 1692.17 1206.11 392.763 827.927 486.07 1756.24
internal_count=286210 266289 170541 19921 95748 127291 43250 59387 10861 9060 6701 2350 8511 2359 36361
is_linear=0
shrinkage=0.121531


Tree=7
num_leaves=16
num_cat=0
split_feature=44 2 42 44 2 44 42 44 44 44 7 42 44 27 27
split_gain=1646.51 1458.39 671.63 484.431 244.215 166.397 152.263 102.761 91.8126 84.9371 36.1364 33.9966 12.1472 14.8267 2.10186
threshold=0.10124358343480781 1.0000000180025095e-35 1.0000000180025095e-35 -0.4011784811729921 1.0000000180025095e-35 0.65854989844208311 1.0000000180025095e-35 -0.025936679069153212 1.2934032898762238 0.62449172719935564 0.43650793650793657 1.0000000180025095e-35 -0.58255753061906124 0.18333333333333338 0.70833333333333337
decision_type=2 2 2 2 2 2 2 2 2 2 8 2 2 10 10
left_child=3 9 5 12 7 -3 -6 -5 -4 10 -2 -11 14 -14 -1
right_child=1 2 8 4 6 -7 -8 -9 -10 11 -12 -13 13 -15 -16
leaf_value=-0.11669947521261337 0.067509445533905546 -0.024599640313263779 0.042905115676346445 0.089715584194315454 -0.059246233182321008 0.0072567240325714906 -0.0085140700157702448 -0.00071992139883317124 0.12783844927137208 0.13150966443877574 0.11558041139732589 0.18389738140686446 -0.10262319923661266 -0.054656402580619545 -0.075627389476651444
leaf_weight=1012.6348393820226 409.4840615876019 5633.6902621537447 4050.0851369723678 244.42976931110024 3149.2820306383073 4244.0650921203196 1212.7576460056007 762.81868598982692 197.59403162449598 632.17764633893967 558.50820289552212 273.48668992519379 532.03795446828008 123.61281106993556 28.446425020694733
leaf_count=23238 2557 76403 39486 1910 52886 42835 17187 7018 1282 3149 2652 1218 11534 2233 457
internal_value=0 0.0198351 0.00646658 -0.0506022 -0.0326967 -0.0109075 -0.0451545 0.0212019 0.0468782 0.120573 0.0953289 0.147451 -0.107216 -0.09369 -0.115651
internal_weight=0 15999.1 14125.4 7066.02 5369.29 9877.76 4362.04 1007.25 4247.68 1873.66 967.992 905.664 1696.73 655.651 1041.08
internal_count=286045 169582 160006 116463 79001 119238 70073 8928 40768 9576 5209 4367 37462 13767 23695
is_linear=0
shrinkage=0.121531


end of trees

feature_importances:
cat__postalAddress_clean=40
cat__residentialAddress_clean=33
cat__sex=11
hist_default_avg=8
default_lst_09_avg=8
same_address=7
default_lst_06_sum=5
default_lst_06_avg=3
default_lst_12_avg=3
hist_trans_count=1
hist_price_sum=1

parameters:
[boosting: gbdt]
[objective: binary]
[metric: auc,average_precision,binary_logloss]
[tree_learner: serial]
[device_type: cpu]
[linear_tree: 0]
[data: ]
[valid: ]
[num_iterations: 300]
[learning_rate: 0.121531]
[num_leaves: 16]
[num_threads: 0]
[deterministic: 1]
[force_col_wise: 0]
[force_row_wise: 0]
[histogram_pool_size: -1]
[max_depth: 4]
[min_data_in_leaf: 47]
[min_sum_hessian_in_leaf: 0.001]
[bagging_fraction: 0.927889]
[pos_bagging_fraction: 1]
[neg_bagging_fraction: 1]
[bagging_freq: 7]
[bagging_seed: 22734]
[feature_fraction: 0.629358]
[feature_fraction_bynode: 1]
[feature_fraction_seed: 5052]
[extra_trees: 0]
[extra_seed: 5559]
[early_stopping_round: 15]
[first_metric_only: 0]
[max_delta_step: 0]
[lambda_l1: 0.403935]
[lambda_l2: 0.363755]
[linear_lambda: 0]
[min_gain_to_split: 0]
[drop_rate: 0.1]
[max_drop: 50]
[skip_drop: 0.5]
[xgboost_dart_mode: 0]
[uniform_drop: 0]
[drop_seed: 23992]
[top_rate: 0.2]
[other_rate: 0.1]
[min_data_per_group: 100]
[max_cat_threshold: 32]
[cat_l2: 10]
[cat_smooth: 10]
[max_cat_to_onehot: 4]
[top_k: 20]
[monotone_constraints: ]
[monotone_constraints_method: basic]
[monotone_penalty: 0]
[feature_contri: ]
[forcedsplits_filename: ]
[refit_decay_rate: 0.9]
[cegb_tradeoff: 1]
[cegb_penalty_split: 0]
[cegb_penalty_feature_lazy: ]
[cegb_penalty_feature_coupled: ]
[path_smooth: 0]
[interaction_constraints: ]
[verbosity: 1]
[saved_feature_importance_type: 0]
[max_bin: 255]
[max_bin_by_feature: ]
[min_data_in_bin: 3]
[bin_construct_sample_cnt: 200000]
[data_random_seed: 2213]
[is_enable_sparse: 1]
[enable_bundle: 1]
[use_missing: 1]
[zero_as_missing: 0]
[feature_pre_filter: 0]
[pre_partition: 0]
[two_round: 0]
[header: 0]
[label_column: ]
[weight_column: ]
[group_column: ]
[ignore_column: ]
[categorical_feature: ]
[forcedbins_filename: ]
[objective_seed: 29849]
[num_class: 1]
[is_unbalance: 0]
[scale_pos_weight: 1]
[sigmoid: 1]
[boost_from_average: 1]
[reg_sqrt: 0]
[alpha: 0.9]
[fair_c: 1]
[poisson_max_delta_step: 0.7]
[tweedie_variance_power: 1.5]
[lambdarank_truncation_level: 30]
[lambdarank_norm: 1]
[label_gain: ]
[eval_at: ]
[multi_error_top_k: 1]
[auc_mu_weights: ]
[num_machines: 1]
[local_listen_port: 12400]
[time_out: 120]
[machine_list_filename: ]
[machines: ]
[gpu_platform_id: -1]
[gpu_device_id: -1]
[gpu_use_dp: 0]
[num_gpu: 1]

end of parameters

pandas_categorical:null
