tree
version=v3
num_class=1
num_tree_per_iteration=1
label_index=0
max_feature_idx=75
objective=binary sigmoid:1
feature_names=age income price hist_trans_count hist_default_sum hist_default_avg hist_late_sum hist_late_avg hist_price_sum hist_price_avg default_lst_01_sum defualted_payment_lst_01_sum money_lost_lst_01_sum late_lst_01_sum price_lst_01_sum late_payment_first_lst_01_sum default_lst_01_avg defualted_payment_lst_01_avg money_lost_lst_01_avg late_lst_01_avg price_lst_01_avg late_payment_first_lst_01_avg default_lst_03_sum defualted_payment_lst_03_sum money_lost_lst_03_sum late_lst_03_sum price_lst_03_sum late_payment_first_lst_03_sum default_lst_03_avg defualted_payment_lst_03_avg money_lost_lst_03_avg late_lst_03_avg price_lst_03_avg late_payment_first_lst_03_avg default_lst_06_sum defualted_payment_lst_06_sum money_lost_lst_06_sum late_lst_06_sum price_lst_06_sum late_payment_first_lst_06_sum default_lst_06_avg defualted_payment_lst_06_avg money_lost_lst_06_avg late_lst_06_avg price_lst_06_avg late_payment_first_lst_06_avg default_lst_09_sum defualted_payment_lst_09_sum money_lost_lst_09_sum late_lst_09_sum price_lst_09_sum late_payment_first_lst_09_sum default_lst_09_avg defualted_payment_lst_09_avg money_lost_lst_09_avg late_lst_09_avg price_lst_09_avg late_payment_first_lst_09_avg default_lst_12_sum defualted_payment_lst_12_sum money_lost_lst_12_sum late_lst_12_sum price_lst_12_sum late_payment_first_lst_12_sum default_lst_12_avg defualted_payment_lst_12_avg money_lost_lst_12_avg late_lst_12_avg price_lst_12_avg late_payment_first_lst_12_avg cat__sex cat__residentialAddress_clean cat__postalAddress_clean cat__geo_risk_rank cat__shopID cat__same_address
feature_infos=[7:90] [0:100000] [3:200] [1:14] [0:10] [0:1] [0:11] [0:1] [3:1808] [3:200] [0:1] [0:4] [0:200] [0:1] [3:200] [0:4] [0:1] [0:4] [0:200] [0:1] [3:200] [0:4] [0:3] [0:12] [0:490.5] [0:3] [3:597] [0:12] [0:1] [0:4] [0:200] [0:1] [3:200] [0:4] [0:6] [0:24] [0:822.25] [0:6] [3:1120] [0:23] [0:1] [0:4] [0:200] [0:1] [3:200] [0:4] [0:9] [0:28] [0:970] [0:9] [3:1460] [0:28] [0:1] [0:4] [0:200] [0:1] [3:200] [0:4] [0:10] [0:30] [0:970] [0:11] [3:1732] [0:30] [0:1] [0:4] [0:200] [0:1] [3:200] [0:4] [1:3] [1:13260] [1:13261] [0:5] [100:999] [0:1]
tree_sizes=18253 18376 18373 18397 18476

Tree=0
num_leaves=175
num_cat=0
split_feature=75 5 72 70 72 70 70 60 52 70 52 3 52 5 22 3 66 5 3 26 9 3 46 14 33 0 74 26 14 72 3 9 1 8 74 0 9 70 72 24 54 8 14 26 38 14 74 24 74 1 36 1 25 8 38 36 24 42 45 72 73 14 72 1 2 1 40 72 53 53 72 45 71 12 33 71 26 30 9 74 2 74 71 30 36 30 1 1 1 44 35 2 42 26 8 74 45 72 1 72 71 14 1 9 72 33 72 1 71 39 2 1 14 0 24 2 1 12 1 14 45 74 74 8 8 5 8 9 0 73 74 8 33 44 1 8 2 74 72 38 1 1 50 1 2 1 72 74 42 2 30 33 74 44 1 2 15 12 70 33 71 36 8 8 2 8 14 71 32 74 2 73 57 2
split_gain=12480.8 5709.21 1550.52 1455.94 528.432 551.798 432.194 322.484 288.885 287.469 163.792 123.576 64.678 64.4787 56.4346 49.6722 29.6334 23.1333 22.8898 37.2111 23.9115 21.6968 17.7905 17.677 25.0304 16.9355 16.4408 15.7952 15.2289 16.7308 15.1293 15.1099 19.3367 14.9822 14.385 13.7578 13.3743 15.0307 12.9318 13.4403 15.6781 12.8176 13.3355 12.2873 13.7174 11.9545 11.902 11.7909 11.6443 13.8193 11.4525 11.4429 11.3988 11.0124 14.1541 10.9503 13.0471 10.7575 16.7627 14.4307 10.5752 10.5532 11.0992 10.5454 10.3943 19.9823 14.9265 13.7313 16.333 11.7935 19.4184 19.5283 11.6967 11.5728 11.3001 16.5473 10.6384 12.9032 20.9081 12.5525 12.3141 12.5973 11.9802 11.4574 11.3944 16.8044 14.3987 11.2429 10.8238 10.2352 11.3166 11.8475 15.1468 10.1295 10.0205 9.91288 9.80682 11.2418 13.4029 10.7147 16.0172 13.6157 9.78593 9.59154 9.49995 13.9467 10.3548 9.47596 12.6463 9.45928 12.6615 10.5238 9.43029 9.30234 9.2649 9.15711 23.1367 10.242 9.13734 11.9946 9.12432 9.10161 8.92889 8.91158 8.97456 8.85674 8.71302 10.2508 10.3434 8.70618 8.66206 11.7149 8.45384 9.70636 8.40965 11.2171 8.85772 8.23465 8.15023 10.3855 8.13453 8.07846 7.98201 8.11653 13.552 7.92955 7.8934 9.45158 7.87939 11.7915 11.2365 11.0627 7.7681 7.76547 7.71704 14.1078 7.67165 9.85311 7.66945 11.0561 7.74601 7.65691 8.91304 11.5232 22.4406 8.49683 7.62172 7.58817 7.54749 7.53435 7.52378 7.48813 9.59979 7.23133
threshold=1.0000000180025095e-35 0.37980769230769235 37.500000000000007 1.5000000000000002 72.500000000000014 1.5000000000000002 2.5000000000000004 4.1250000000000009 0.15476190476190479 2.5000000000000004 0.13392857142857145 2.5000000000000004 0.69047619047619058 0.095454545454545472 1.5000000000000002 2.5000000000000004 8.7165178571428594 0.5277777777777779 4.5000000000000009 371.50000000000006 119.53571428571429 4.5000000000000009 2.5000000000000004 142.50000000000003 1.8333333333333337 23.500000000000004 463.50000000000006 272.50000000000006 58.500000000000007 5291.5000000000009 3.5000000000000004 81.527777777777786 17850.000000000004 637.50000000000011 411.50000000000006 16.500000000000004 121.52272727272729 1.5000000000000002 1500.5000000000002 103.12500000000001 56.020833333333336 115.50000000000001 135.50000000000003 394.50000000000006 701.50000000000011 14.500000000000002 224.50000000000003 184.12500000000003 751.50000000000011 93050.000000000015 190.12500000000003 93950.000000000015 1.0000000180025095e-35 227.50000000000003 422.50000000000006 192.12500000000003 244.62500000000003 28.020833333333339 0.55000000000000016 5345.5000000000009 1.5000000000000002 175.50000000000003 4343.5000000000009 94550.000000000015 159.50000000000003 88450.000000000015 0.18333333333333338 2425.5000000000005 0.5634920634920636 0.58571428571428574 4343.5000000000009 0.81666666666666676 3154.5000000000005 82.250000000000014 0.83333333333333337 2521.5000000000005 300.50000000000006 50.083333333333336 109.04545454545456 635.50000000000011 109.50000000000001 463.50000000000006 11783.500000000002 47.375000000000007 80.125000000000014 19.708333333333339 35050.000000000007 55650.000000000007 82050.000000000015 80.083333333333357 3.5000000000000004 177.50000000000003 23.979166666666668 208.50000000000003 598.50000000000011 585.50000000000011 1.7083333333333337 10822.500000000002 52450.000000000007 5760.5000000000009 3839.5000000000005 133.50000000000003 13250.000000000002 145.05555555555557 9317.5000000000018 0.83333333333333337 11330.500000000002 15850.000000000002 7514.5000000000009 3.5000000000000004 172.50000000000003 42650.000000000007 10.500000000000002 39.500000000000007 92.125000000000014 41.500000000000007 42250.000000000007 97.250000000000014 67250.000000000015 72.500000000000014 1.3666666666666669 439.50000000000006 292.50000000000006 500.50000000000006 589.50000000000011 0.37980769230769235 256.50000000000006 126.52777777777779 54.500000000000007 3.5000000000000004 747.50000000000011 170.50000000000003 0.58333333333333337 114.08333333333336 15350.000000000002 642.50000000000011 104.50000000000001 107.50000000000001 5494.5000000000009 524.50000000000011 14450.000000000002 29150.000000000004 813.50000000000011 48850.000000000007 96.500000000000014 79650.000000000015 5916.5000000000009 396.50000000000006 41.408333333333339 100.50000000000001 37.708333333333336 1.1666666666666667 638.50000000000011 75.225000000000009 55650.000000000007 64.500000000000014 1.5000000000000002 57.250000000000007 1.5000000000000002 1.1666666666666667 7571.5000000000009 95.125000000000014 473.50000000000006 346.50000000000006 48.500000000000007 260.50000000000006 20.500000000000004 1880.5000000000002 91.166666666666671 695.50000000000011 167.50000000000003 2.5000000000000004 1.5634920634920637 117.50000000000001
decision_type=2 2 2 2 2 2 2 2 2 2 2 2 2 2 2 2 2 2 2 2 2 2 2 2 2 2 2 2 2 2 2 2 8 2 2 2 2 2 2 2 2 2 2 2 2 2 2 2 2 8 2 10 2 2 2 2 2 2 2 2 2 2 2 8 2 8 2 2 2 2 2 2 2 2 2 2 2 2 2 2 2 2 2 2 2 2 10 10 8 2 2 2 2 2 2 2 2 2 10 2 2 2 10 2 2 2 2 8 2 2 2 8 2 2 2 2 10 2 8 2 2 2 2 2 2 2 2 2 2 2 2 2 2 2 10 2 2 2 2 2 8 8 2 10 2 10 2 2 2 2 2 2 2 2 8 2 2 2 2 2 2 2 2 2 2 2 2 2 2 2 2 2 2 2
left_child=1 2 16 7 15 12 10 41 11 14 30 23 -6 26 47 122 158 -17 19 20 112 96 35 24 31 94 137 -20 29 153 138 118 -33 -18 53 -9 173 -38 -24 121 129 45 170 55 61 -2 -29 -7 57 -50 93 104 166 -31 -55 64 60 58 59 -30 -57 -45 -63 -23 66 67 -37 68 -66 70 -69 168 74 -70 75 161 77 82 79 146 81 -80 83 148 85 88 -87 169 102 -71 -91 92 -92 171 -15 -28 97 99 -99 126 -101 -102 -78 -39 105 -34 -106 -26 -109 110 -44 120 -10 -104 -16 116 -86 -117 119 -4 -111 -40 -3 141 -125 -94 -13 -128 -129 -41 131 -97 133 -52 -62 136 -136 -8 139 -5 -105 -59 143 144 -46 -120 -79 -148 150 -150 151 -74 -93 -27 155 -64 -67 -158 159 160 167 162 163 164 -68 -166 -36 -1 -72 -84 -43 172 -12 -25
right_child=3 4 8 6 5 9 13 22 18 -11 50 21 -14 25 114 17 33 -19 27 -21 -22 63 38 36 107 28 95 46 48 34 -32 32 51 -35 52 43 37 103 39 40 -42 42 109 44 142 -47 -48 -49 49 -51 132 -53 -54 54 -56 56 -58 123 -60 -61 134 62 154 -65 65 156 72 69 73 89 71 -73 76 -75 -76 -77 84 78 80 -81 -82 -83 87 -85 115 86 -88 -89 -90 90 91 152 125 -95 -96 130 -98 98 -100 100 101 -103 113 140 106 -107 -108 108 -110 111 -112 -113 -114 -115 -116 117 -118 -119 145 -121 -122 -123 -124 124 -126 -127 127 128 -130 -131 -132 -133 -134 -135 135 -137 -138 -139 -140 -141 -142 -143 -144 -145 -146 -147 147 -149 149 -151 -152 -153 -154 -155 -156 -157 157 -159 -160 -161 -162 -163 -164 -165 165 -167 -168 -169 -170 -171 -172 -173 -174 -175
leaf_value=-2.3589364189948214 -2.3273030734071387 -2.3509115307782693 -1.6398042978812946 -2.4032227158586292 -0.62963891782931958 -1.1782463570831214 -2.0285498242515825 -2.3902484841265212 -1.8818680605216787 -0.22986727218501279 -2.2382621147303596 -1.7340611069505618 -0.1636631223174061 -2.3311995770858109 -0.74399144850847931 -1.8702347215947079 -2.0918229317108694 -1.1594113022658938 -1.3442979562189379 -1.0407957494851285 -2.0083517528176515 -2.1876326195926539 -2.2536448706408678 -2.3125426090581334 -1.8667364081027171 -1.98622979988783 -2.1616238400867664 -2.1321500895564283 -1.6397645872736177 -2.3631863243808739 -2.4308027550811881 -1.9554865955106007 -1.2598901761119001 -2.453769694117486 -1.2247606824163451 -2.211071250753029 -1.360072352124116 -1.5095185524504149 -2.302467096027125 -1.929246030756955 -2.052049657629472 -2.2795072188940537 -2.2182585846602305 -2.2653899856799478 -2.1255466083464385 -2.2064203671742173 -1.6294399729445379 -1.763467201019004 -2.302467096027125 -1.85563792315336 -2.3196748356671963 -2.0127899052894134 -1.996855217583783 -1.6171409781412711 -2.2903604532790474 -2.2344558051330976 -2.3145425920830283 -2.151599922273459 -2.2376694516902704 -2.196684195586875 -2.2040700758469915 -2.2742289158562614 -2.2455756202415729 -1.763274742347257 -2.2096836510933344 -2.3856024050325546 -2.309850050663051 -2.302467096027125 -1.6988571988435708 -2.2371067580434225 -2.302467096027125 -1.4570890279001885 -2.1157970979933625 -2.2020831678532362 -2.1911782579800145 -2.3548033217524029 -1.9139432209850009 -1.9567152325940251 -2.2373066162959754 -1.9984927924236251 -2.3402759199287533 -1.8089949143197419 -1.9554865955106007 -2.403258598783109 -1.7184759367870455 -2.1509220587739941 -1.5103547645626134 -2.4026383594062888 -1.8665854238648951 -2.1943029830985608 -1.4618465430126306 -2.2468685121872856 -2.2745936906051174 -2.3595616926445722 -1.9973360752371376 -2.1868230048099009 -2.1619914295707918 -1.9042553849254182 -2.4148122782644457 -2.0193073782337523 -1.4535797555294754 -1.9877114034069787 -2.0735214161184548 -1.5933650257671197 -2.0412778282211619 -1.8068235910878865 -1.4723542019360161 -1.1366810445643825 -1.7357055763639835 -2.4602800644704081 -2.3182103636862879 -2.2450774373772489 -1.3588913916508889 -2.3966388413213173 -1.0063850935894416 -2.3297928202907219 -2.302467096027125 -2.06308272032516 -2.2077148721538857 -2.1143045929961768 -2.2867754855805602 -1.9118259309754861 -1.9843844560430715 -2.443330873185344 -2.0429439061638042 -1.7937263977782956 -2.1121232164022459 -1.6006307115661462 -2.177121405369097 -1.3428740870431857 -2.2255433110813376 -2.365929397375317 -2.2943356153873782 -1.8783811205661807 -1.6061187587636976 -2.1993159995812697 -1.9490689748922441 -2.3262225439090765 -2.4199280579314366 -2.1719218757700447 -1.9726582121759819 -1.8702499595300663 -2.1653854455451649 -2.1300877197589765 -1.4576429554411341 -1.8336674591422784 -1.8344900902864025 -1.1443693375514052 -1.6488592316066795 -2.228852238246827 -2.302467096027125 -1.979471484203559 -1.9080530769070458 -2.2421419431205627 -2.1607870398727966 -1.6222907500059556 -1.9177803216551685 -2.3754866013394711 -2.4047044020365598 -2.4857711287961055 -2.3927979697497683 -2.2204709231977562 -1.5374557288880077 -2.2435685201107169 -1.9300644236059155 -1.3298312454660872 -1.7919385440577407 -2.0779748466743988 -1.8680106492174484 -2.3472376174349403 -2.3304536584148394 -2.3432050535684548 -2.3393438527234998 -1.8888112669371597
leaf_weight=9.5050496980547887 72.651640735566616 5.9509876370430019 33.391652852296829 4336.7822404950857 62.402717582881451 169.68580026179552 6.6948610916733733 12.232585698366163 5.2071141824126235 37.606935761868954 154.47772074490786 13.141764365136622 90.339298434555531 40.582429580390453 41.574260853230953 8.5132184252142924 42.648744732141495 9.5877023041248304 22.564161457121372 34.796747155487537 6.4469032734632483 47.855858914554119 9.0091340616345388 6.0336402431130391 4.7111985459923771 16.94378424435854 107.36573528498411 5.3724193945527068 7.1907767280936232 6.2815980613231686 4962.0492054149508 10.992796607315539 27.523317821323872 10.331575758755205 4.6285459399223354 111.66367080062628 7.4387345463037482 7.2734293341636649 7.4387345463037517 5.207114182412627 9.0091340616345388 1314.9203099682927 672.37895037978888 101.0014846175909 5.2897667884826678 440.70369556546211 36.449799276888371 5.3724193945527068 48.269121944904327 5.3724193945527068 6.1989454552531225 4.6285459399223319 10.414228364825247 5.0418089702725393 4.8765037581324577 8.5132184252142888 7.0254715159535399 13.55502739548683 63.394548855721951 8.3479132130742055 6.4469032734632483 18.762141577899456 4.9591563642025021 4.7111985459923735 9.3397444859147054 15.703995153307917 5.0418089702725508 6.5295558795332935 27.93658085167408 32.565126791596413 4.7111985459923762 9.0917866677045804 96.207633465528488 5.0418089702725402 166.37969601899385 9.3397444859147054 6.281598061323165 5.455072000622752 10.083617940545084 12.728501334786413 9.8356601223349553 13.389722183346747 10.992796607315542 6.281598061323165 8.5132184252142924 5.6203772127628309 7.0254715159535408 15.703995153307913 8.8438288494944555 26.44883394241333 6.9428189098835018 14.216248244047167 6.2815980613231641 1851.9969442114234 7.6866923645138732 39.177335277199745 13.885637819766997 7.7693449705839139 6.6948610916733742 12.728501334786413 17.27439466863871 7.1081241220235816 9.9183127284050006 6.281598061323165 6.8601663038134557 7.4387345463037482 5.785682424902916 17.77031030505896 6.7775136977434149 44.467102065682411 113.48202813416719 119.8462788015604 88.025025464594364 19.175404608249664 152.98997383564711 47.359943278133869 12.645848728716372 13.802985213696955 8.5958710312843341 6.281598061323165 47.194638065993786 10.662186183035372 20.911109335720539 6.2815980613231686 10.331575758755205 6.2815980613231659 32.069211155176163 7.4387345463037473 4.7111985459923744 8.4305658191442472 227.12936148047447 98.025990799069405 159.93279274553061 7.8519975766539574 16.94378424435854 6.3642506673932067 15.951952971518038 303.91363251954317 4359.5943597704172 14.216248244047163 33.226347640156746 33.061042428016663 20.911109335720539 9.4223970919847471 5.7030298188328743 12.397890910506247 5.2071141824126226 5.289766788482666 9.0091340616345388 4.7111985459923735 14.298900850117205 111.58101819455624 9.0091340616345388 23.142729699611664 13.224416971206663 8.1826080009341222 7.9346501827239972 5.4550720006227493 315.65030258148909 17.687657698988914 14.960121698677538 8.1826080009341222 4.8765037581324568 9.5050496980547887 6.4469032734632474 4.6285459399223328 9.3397444859147054 24.713129214942455 7.3560819402337074 4.7938511520624152 270.52197966724634 454.34137556701899 136.87271565198898 4.8765037581324577
leaf_count=115 879 72 404 52470 755 2053 81 148 63 455 1869 159 1093 491 503 103 516 116 273 421 78 579 109 73 57 205 1299 65 87 76 60035 133 333 125 56 1351 90 88 90 63 109 15909 8135 1222 64 5332 441 65 584 65 75 56 126 61 59 103 85 164 767 101 78 227 60 57 113 190 61 79 338 394 57 110 1164 61 2013 113 76 66 122 154 119 162 133 76 103 68 85 190 107 320 84 172 76 22407 93 474 168 94 81 154 209 86 120 76 83 90 70 215 82 538 1373 1450 1065 232 1851 573 153 167 104 76 571 129 253 76 125 76 388 90 57 102 2748 1186 1935 95 205 77 193 3677 52746 172 402 400 253 114 69 150 63 64 109 57 173 1350 109 280 160 99 96 66 3819 214 181 99 59 115 78 56 113 299 89 58 3273 5497 1656 59
internal_value=-2.30247 -1.55839 -1.95944 -2.35837 -0.878173 -0.804061 -2.39441 -2.21494 -1.66571 -0.979525 -2.40578 -1.80644 -0.344983 -2.22563 -1.0598 -1.81223 -2.35922 -1.45985 -1.39033 -1.31564 -1.42066 -1.98423 -2.09896 -1.66553 -1.60888 -2.12109 -2.26928 -1.55678 -2.09444 -1.99059 -2.41833 -1.67419 -1.5683 -2.16549 -1.86292 -2.10581 -1.80626 -1.74834 -1.9323 -1.86589 -1.71975 -2.26417 -2.27226 -2.10289 -2.17127 -2.22375 -1.68763 -1.1934 -2.13873 -2.25313 -2.34381 -1.49446 -1.72567 -2.09105 -1.91554 -2.09103 -1.97228 -2.09678 -2.16998 -1.91503 -1.92633 -2.21334 -2.10156 -2.14107 -2.09862 -2.03967 -2.11375 -2.00342 -1.86059 -2.05305 -1.88771 -1.76141 -2.09825 -1.7689 -2.15478 -2.03428 -2.0732 -2.04548 -1.92638 -1.75045 -2.0892 -1.98135 -2.07374 -2.05254 -2.14177 -2.04506 -1.76432 -2.24202 -2.1348 -2.1016 -2.04067 -1.95132 -1.78877 -2.34847 -2.27675 -2.23642 -1.91926 -1.8904 -2.14223 -1.85444 -1.72785 -1.59201 -2.21193 -1.82513 -1.45118 -1.36138 -1.74338 -1.35677 -1.27778 -2.24694 -2.23283 -2.29991 -1.38364 -2.28745 -0.94447 -2.21147 -2.05539 -2.2694 -1.79333 -1.70773 -2.3703 -2.06921 -2.06877 -2.00954 -2.20029 -2.01194 -1.94406 -2.01666 -1.79693 -1.53045 -2.25899 -2.31367 -2.27494 -2.07228 -1.87317 -1.82422 -1.75852 -2.31886 -2.4112 -2.40242 -1.89853 -1.94635 -2.029 -1.90353 -1.74032 -1.97389 -1.57986 -1.42712 -2.04246 -1.82737 -2.05767 -2.04124 -2.10328 -2.12777 -1.9866 -1.83502 -2.25932 -2.10655 -2.38654 -2.30225 -2.23242 -1.95453 -1.89009 -1.9796 -1.83925 -1.62772 -1.5548 -2.15875 -2.03249 -2.07804 -2.28828 -2.32075 -2.2861 -2.11937
internal_weight=0 1632.97 1028.03 21959.9 604.934 559.971 17551.4 4408.52 592.537 407.229 16444.3 393.674 152.742 1107.05 369.622 44.963 435.497 18.1009 198.862 134.476 99.679 175.389 1312.36 218.286 153.155 324.742 782.307 64.3864 276.473 80.6689 13672.6 123.896 63.2292 52.9803 40.5824 1262.6 65.1303 54.2201 49.7569 40.7477 22.6468 3096.17 2582.81 1250.37 187.456 513.355 41.8222 175.058 195.804 53.6415 2771.67 52.2364 24.3825 16.1999 9.91831 1062.91 61.2456 142.162 78.9332 15.5387 54.2201 146.13 45.1283 52.5671 1001.67 200.846 800.821 171.752 42.3181 129.434 27.6886 21.1591 689.157 32.9784 214.401 48.0212 474.757 335.57 61.9895 28.6805 33.309 23.4733 273.58 242.089 139.187 56.865 12.6458 31.4906 44.2191 101.745 69.1802 42.7314 19.506 2597.69 48.2691 471.698 122.822 108.936 14.4642 94.4719 37.111 24.3825 35.3753 46.7814 47.6079 34.9621 12.6458 29.259 24.5478 997.369 785.861 211.508 93.2321 29.0937 194.564 82.322 21.1591 61.1629 60.667 39.6733 91.6617 18.1009 26.8621 63.2292 16.6132 12.5632 57.3609 44.2191 12.1499 13.6377 364.333 137.203 173.984 14.0509 45.7069 39.26 32.8957 310.608 8710.59 4351 39.5079 46.6161 41.3263 20.4152 10.9928 20.9938 15.952 10.4969 235.808 13.7203 222.088 207.789 23.2254 40.0865 26.3662 13.1418 29.0937 13.3897 382.516 66.866 49.1783 38.6814 30.4988 25.6223 16.1173 11.0754 13.9683 34.2182 12.0673 15.7866 1585.44 745.692 291.35 10.9101
internal_count=285446 19757 12438 265689 7319 6775 212351 53338 7169 4927 198957 4763 1848 13394 4472 544 5269 219 2406 1627 1206 2122 15878 2641 1853 3929 9465 779 3345 976 165423 1499 765 641 491 15276 788 656 602 493 274 37460 31249 15128 2268 6211 506 2118 2369 649 33534 632 295 196 120 12860 741 1720 955 188 656 1768 546 636 12119 2430 9689 2078 512 1566 335 256 8338 399 2594 581 5744 4060 750 347 403 284 3310 2929 1684 688 153 381 535 1231 837 517 236 31429 584 5707 1486 1318 175 1143 449 295 428 566 576 423 153 354 297 12067 9508 2559 1128 352 2354 996 256 740 734 480 1109 219 325 765 201 152 694 535 147 165 4408 1660 2105 170 553 475 398 3758 105388 52642 478 564 500 247 133 254 193 127 2853 166 2687 2514 281 485 319 159 352 162 4628 809 595 468 369 310 195 134 169 414 146 191 19182 9022 3525 132
is_linear=0
shrinkage=1


Tree=1
num_leaves=175
num_cat=0
split_feature=75 72 5 5 36 46 31 38 8 47 1 38 72 14 0 2 2 51 12 39 1 74 0 36 2 74 26 2 2 24 38 1 71 43 2 1 32 14 14 74 14 2 8 0 14 74 33 26 38 71 26 26 2 2 1 0 72 2 71 74 26 1 2 72 12 0 13 1 23 1 14 14 14 38 26 74 1 8 1 25 63 46 8 74 8 1 1 54 71 32 26 72 51 0 74 41 2 38 0 26 2 74 73 14 26 24 74 71 1 29 72 42 72 2 1 8 2 0 71 3 1 36 26 8 30 72 14 12 14 14 8 74 14 14 71 71 72 32 74 14 71 36 1 74 15 42 2 48 73 36 71 32 74 1 27 71 71 32 14 72 26 42 42 48 38 2 1 14 72 2 2 14 9 9
split_gain=2404.41 431.136 412.23 58.2253 32.0881 31.5769 23.9568 20.0914 18.1183 13.379 11.6963 11.8671 10.7183 10.9448 9.88851 9.22598 12.0764 8.45681 8.3202 8.22973 17.7527 8.13611 8.13097 10.2959 8.03214 12.8458 11.28 8.42174 7.95306 14.6393 9.03577 7.93412 8.24508 7.87133 7.60874 9.88123 8.36499 8.73615 9.99491 7.46468 7.82637 9.83668 9.64323 8.56209 8.5115 13.2505 16.6265 8.64769 7.86997 7.6715 7.36021 10.2908 10.1741 8.8429 8.66873 7.33941 9.38053 11.0824 7.30498 8.88398 8.24724 8.06929 9.30175 7.99726 10.7631 8.82518 7.83172 7.63388 9.40791 7.24009 7.18371 19.6118 7.17773 7.13091 8.79452 7.13042 7.2051 7.07545 7.31586 7.22137 6.97512 9.71086 24.0102 9.51175 12.7314 9.40904 7.94443 18.7125 7.59698 9.6969 16.2291 9.68341 11.1563 7.52774 6.92274 6.87365 9.67261 6.81912 7.84659 8.11085 11.8792 13.4275 7.04764 6.77022 8.35583 6.72114 6.68833 6.83425 8.36867 8.34239 7.00542 11.5382 7.61192 6.62463 6.60845 10.1526 6.59755 7.06913 8.17762 8.25275 6.48553 18.4009 11.8029 15.2875 6.49226 7.82765 6.97863 12.3873 14.9344 13.6938 8.0393 8.7125 6.4377 17.993 13.9887 8.96051 9.44098 9.44876 8.64586 8.62592 6.3799 8.71618 10.0463 7.80078 10.1 9.3939 6.32099 6.37924 6.43665 8.63459 7.21964 6.86826 6.40358 6.31824 6.31395 7.68185 19.3195 6.29558 8.07844 6.28535 6.26852 6.26476 9.55713 9.32942 9.45483 10.6327 9.9988 8.9853 6.9698 9.40665 16.5745 15.4134 9.4663 10.224
threshold=1.0000000180025095e-35 37.500000000000007 0.13392857142857145 0.22649572649572652 3.1250000000000004 1.5000000000000002 0.58333333333333337 190.50000000000003 160.50000000000003 6.5000000000000009 96350.000000000015 434.50000000000006 12315.500000000002 11.500000000000002 17.500000000000004 36.500000000000007 32.500000000000007 8.5000000000000018 191.50000000000003 4.5000000000000009 95750.000000000015 236.50000000000003 59.500000000000007 97.125000000000014 150.50000000000003 320.50000000000006 372.50000000000006 3.5000000000000004 8.5000000000000018 104.12500000000001 443.50000000000006 1950.0000000000002 423.50000000000006 0.36666666666666675 169.50000000000003 53650.000000000007 60.166666666666679 17.500000000000004 31.500000000000004 124.50000000000001 47.500000000000007 27.500000000000004 194.50000000000003 48.500000000000007 164.50000000000003 407.50000000000006 1.8333333333333337 337.50000000000006 765.50000000000011 4998.5000000000009 308.50000000000006 325.50000000000006 161.50000000000003 173.50000000000003 42250.000000000007 61.500000000000007 8259.5000000000018 108.50000000000001 4343.5000000000009 681.50000000000011 384.50000000000006 91750.000000000015 40.500000000000007 10950.500000000002 149.12500000000003 50.500000000000007 1.0000000180025095e-35 63650.000000000007 2.5000000000000004 93050.000000000015 176.50000000000003 153.50000000000003 45.500000000000007 524.50000000000011 369.50000000000006 300.50000000000006 99150.000000000015 56.500000000000007 29950.000000000004 1.5000000000000002 9.5000000000000018 2.5000000000000004 622.50000000000011 168.50000000000003 525.50000000000011 56850.000000000007 80850.000000000015 40.13750000000001 1210.5000000000002 71.833333333333357 277.50000000000006 392.50000000000006 6.5000000000000009 64.500000000000014 962.50000000000011 0.22500000000000003 117.50000000000001 586.50000000000011 67.500000000000014 297.50000000000006 86.500000000000014 384.50000000000006 2.5000000000000004 101.50000000000001 282.50000000000006 130.12500000000003 890.50000000000011 4067.5000000000005 16250.000000000002 2.5833333333333335 5545.5000000000009 45.954166666666673 10440.500000000002 38.500000000000007 93050.000000000015 686.50000000000011 91.500000000000014 62.500000000000007 901.50000000000011 4.5000000000000009 90350.000000000015 84.125000000000014 244.50000000000003 156.50000000000003 133.25000000000003 6884.5000000000009 96.500000000000014 48.125000000000007 90.500000000000014 70.500000000000014 206.50000000000003 384.50000000000006 118.50000000000001 101.50000000000001 7740.5000000000009 6952.5000000000009 1920.5000000000002 145.16666666666671 609.50000000000011 67.500000000000014 8973.5000000000018 95.125000000000014 27050.000000000004 860.50000000000011 1.5000000000000002 62.020833333333336 196.50000000000003 10.125000000000002 1.5000000000000002 7.1250000000000009 3384.5000000000005 73.833333333333357 569.50000000000011 65250.000000000007 5.5000000000000009 7456.5000000000009 5324.5000000000009 102.16666666666667 56.500000000000007 9317.5000000000018 182.50000000000003 17.270833333333339 29.770833333333339 41.125000000000007 479.50000000000006 58.500000000000007 69250.000000000015 176.50000000000003 3692.5000000000005 19.500000000000004 85.500000000000014 60.500000000000007 113.05555555555557 102.04166666666667
decision_type=2 2 2 2 2 2 2 2 2 2 10 2 2 2 2 2 2 2 2 2 10 2 2 2 2 2 2 2 2 2 2 8 2 2 2 8 2 2 2 2 2 2 2 2 2 2 2 2 2 2 2 2 2 2 10 2 2 2 2 2 2 8 2 2 2 2 2 10 2 8 2 2 2 2 2 2 8 2 8 2 2 2 2 2 2 8 10 2 2 2 2 2 2 2 2 2 2 2 2 2 2 2 2 2 2 2 2 2 8 2 2 2 2 2 8 2 2 2 2 2 8 2 2 2 2 2 2 2 2 2 2 2 2 2 2 2 2 2 2 2 2 2 10 2 2 2 2 2 2 2 2 2 2 10 2 2 2 2 2 2 2 2 2 2 2 2 10 2 2 2 2 2 2 2
left_child=1 3 7 94 8 6 10 72 12 21 11 58 13 -3 -7 16 22 31 39 -9 116 -5 73 -24 27 26 -26 -13 29 30 -16 -10 -33 -12 36 103 -34 -38 -39 -8 41 42 -41 44 -42 46 -46 49 -45 -47 52 53 54 -52 -27 -15 57 -57 69 95 61 62 67 64 66 -66 140 -61 -69 146 71 -28 -2 -6 -75 76 -22 -74 79 -79 81 88 -83 84 -82 -84 93 114 89 -30 -91 -92 -93 160 -1 96 -60 161 99 100 101 -99 -100 -36 -105 -95 113 109 -109 -108 111 -110 -112 -17 115 -88 -21 -118 119 -119 124 122 123 -122 126 -126 127 128 -97 -129 -130 -132 133 139 -135 136 138 -138 -134 -40 143 142 -142 145 -145 -64 147 148 152 150 -150 -151 -4 -37 -120 156 -156 158 -148 -125 -85 163 168 164 -29 166 -166 -167 -163 -170 171 -171 173 -173
right_child=2 4 5 9 15 14 18 19 17 -11 33 24 -14 55 28 106 -18 -19 -20 20 75 -23 23 -25 25 50 70 97 80 -31 -32 32 34 -35 35 153 37 38 132 40 43 -43 -44 48 45 47 -48 -49 -50 -51 51 -53 -54 -55 -56 56 -58 -59 59 60 -62 -63 63 -65 65 -67 -68 68 -70 -71 -72 -73 77 74 -76 -77 -78 78 -80 -81 83 82 85 86 -86 -87 87 -89 -90 90 91 92 -94 105 -96 120 -98 98 102 -101 -102 -103 -104 104 -106 -107 107 108 110 -111 112 -113 -114 -115 -116 -117 117 118 154 -121 121 -123 -124 159 125 -127 -128 129 130 -131 131 -133 135 134 -136 -137 137 -139 -140 -141 141 -143 -144 144 -146 -147 157 -149 149 151 -152 -153 -154 -155 155 -157 -158 -159 -160 -161 -162 162 -164 -165 165 167 -168 -169 169 170 -172 172 -174 -175
leaf_value=-0.056322958020863727 -0.065109961844073125 0.078546087296270425 0.038289655445990507 -0.083495124845097954 0.26671148517656379 -0.16705082480974021 -0.20404994368248872 -0.067000329337616085 -0.079994316561881204 0.35725809006893522 0.14844189169599642 0.30171977804402611 0.01979955921965202 0.34401630021113599 0.1161987860506071 0.50914311710796467 0.091022586988639631 -0.057682862251349325 0.31063289210878792 -0.10687260730897938 0.058047771752245514 0.14813422505703774 0 0.25923419286792559 0.041115648884270453 0.3528764231457962 0.1491629346322145 -0.076791219237095004 -0.01659598132495459 0 0.63039187857777768 0.0074506932524631749 0 -0.048001128412854151 -0.16736499395224519 0.45068946544863014 0.47413736028158826 -0.038621966554941788 0.32659016263622676 -0.080219248551633718 -0.032038818029925822 0.00023850963071797395 0.32656038599604281 -0.086510141175725683 0.5396882199299019 -0.057178701579819545 0 -0.10981983356750522 0.17875856921311573 0.37036267449330634 0.49781405691744174 0.021654496180551694 -0.12737678373613601 0 -0.061260159303376284 0.4984242657622347 -0.082500945654199936 0.061438282432611749 0.012344255013043986 -0.12576332935254403 0.2076847328209612 -0.13155500075525026 -0.058388204133689878 -0.04085343803068156 0.56406757213912329 0.039017716094726866 -0.069564899221403742 0.27939351868021556 -0.070115750595253309 -0.092682035201418447 0.048716014905534712 0.75692441709654801 0.0099210501322491117 0.56112335805117441 0.26777770653453115 -0.011720006843942867 0.42061560684270677 -0.01963089751139329 -0.054212906147880109 -0.12587002538046269 -0.074423625898244458 0.072755547578516128 0.69553049408472523 0.12476429857806531 0.43688382623499944 0.18785599335473868 0.28179905448430714 0.42861386990955663 0.070812406616180476 0.48246851821552733 -0.068712047692768605 0.4078225829436225 0.0041566364264065429 0.33076623866589955 -0.24903070647423406 0.045543069604829595 0.55062236258528907 0.45121325768286213 0.39798986941535636 -0.079382495738232819 -0.10080879481767596 0.024572785002458606 -0.01578838644021573 0.28977132161261587 -0.079549959898166919 -0.054216104528027477 0.37182404479081416 0.020976950985201522 0.43568253852826661 0.12030874779916241 0.066847868975195568 0.13207425016664012 0.32378021606925017 0.31208309881207857 -0.20633410185987056 -0.17214368054888554 -0.084138578162689076 0.38594497249367388 -0.088846966631682761 -0.018023913839543257 0.37620029090907886 -0.040051505625865666 0.48086021271749357 -0.17027495622433675 -0.016683033187989714 0.38408176773405117 0.023224668699247959 0.40127918127249446 0 0.086391355084814103 0.11941008586268957 0.63956681470598997 0.47245901833041237 0.68461612312676423 0.1598061227407343 0.27529726343213112 -0.013541170792036018 0.20183147145690497 0.02685785052092516 0.13099546232319084 0.43512706621304109 -0.035256762645193299 0.12220582501251992 0.2027319450767463 -0.02634315159043589 0.24138427438193041 0.046609503361694359 0.012483314074755449 -0.078800275697759395 0.34421126713113803 0.22415671349963129 0 0.45318437657272337 0.1198745076009847 -0.0051094244411293488 -0.087961519458413837 0.47680362726941861 -0.033451560698720045 0.53711674663426956 0.17802217133117326 -0.056208347369368285 0 -0.019337371106001391 -0.083443405759134809 -0.1414954741649998 0.10420524464392922 0.20336856582496254 0.43605054240298219 -0.1512644112992699 -0.027950044559607111 0.036621745966942135 0.33381843462845068 0.21413096437913429 0.91298645641584719
leaf_weight=353.61777279525995 1725.2334529161453 17.736299507319927 6.0248559862375242 12.884331725537775 178.11525236070156 11.408175885677336 18.421570859849453 8623.8808120191097 7.5324318856000891 22.448919370770454 97.629848301410675 5.8899057582020751 12.205047853291033 159.77663983404636 5.4222444221377391 16.375864930450916 36.086841203272343 10.343953683972357 4.8644103556871405 1081.3874035105109 17.293367803096775 75.666670218110085 20.128358386456966 32.10764180123806 32.189772203564644 6.641297943890093 12.348267056047922 44.192863568663597 14.56372821331024 10.682561136782168 7.4218170046806335 18.778604172170162 11.526324100792406 17.683917291462421 11.676103606820108 6.9822220206260708 11.920413464307783 10.186495766043661 35.262211300432682 5.6119929924607304 184.57788773626089 127.87361595779657 14.432202130556105 253.62342528998852 8.9436480700969714 5.0361976549029333 8.8357991501688939 22.118683055043221 8.1458980962634069 6.4553890749812126 6.3308321535587293 114.85152403265238 49.561732076108456 5.1626484096050262 7.3823752179741859 8.4734520167112404 7.3572338297963134 10.708909206092356 5.7055675238370878 50.883193671703339 16.809053219854832 27.801271297037601 62.719265185296535 63.974577315151691 5.4982152953743917 5.1858876571059227 32.091181717813015 8.9564350694417953 14.597361251711845 42.154205940663815 8.1143980324268323 6.4760146439075461 183.64508083462715 18.109614074230194 22.162924371659756 83.321574375033379 5.6112603470683089 941.15291733294725 2401.0044112429023 52.584818154573441 5.3656160235404959 30.962668657302856 8.4932677373290026 16.114209741353989 9.1553023084998113 6.1421390622854242 8.8652881756424922 10.709485508501528 447.57896458357573 14.195202693343161 12.154248103499411 11.870407812297346 10.288830555975435 8.1720220968127233 14.97182524949312 305.0969442948699 4.9523668587207794 8.2687684521079081 4.9967663362622243 234.7149980738759 22.380984961986542 18.039729192852974 6.165973037481308 8.5321595221757907 8.7536642104387266 4.8807182833552352 56.456192180514336 18.279363811016083 26.296217665076256 15.310705646872519 31.434135913848877 18.566578090190887 13.218829095363615 1285.7859297320247 7.8850725144147864 5.5340944826602927 1172.2742387056351 6.7337888926267606 83.628886088728905 7.2540047094225883 12.044852726161482 23.275887675583363 13.20813228189945 9.6121766269206983 5.1647540777921668 9.5003218725323659 306.98737842589617 18.248214192688465 5.144001446664336 28.92443173378706 5.3893941640853864 6.4837314710021019 9.5985114872455579 13.742420837283136 7.0219777449965468 56.323991611599922 38.204595491290092 25.405843563377857 6.0179904326796523 43.033157244324684 11.815316580235956 12.665233977138994 29.263132654130459 38.164206743240356 22.949902296066284 8.6073281168937665 5.8412403836846369 690.38742066174746 30.994090616703033 10.97578749805689 6.8518016487359992 7.930981032550334 6.7412070035934448 16.335184350609779 23.688772007822994 22.708191826939583 8.0186635479330999 5.4998268261551848 5.3493471816182137 5.8167486041784278 118.24951155483723 40.590181864798069 108.59182982891798 113.46701696515083 23.011104352772239 45.553731583058834 8.2360867336392385 7.3166915923357001 6.7183881402015677 7.4121814519166938 35.309675864875317 8.6046009212732333 13.393945746123789 4.6598375141620627
leaf_count=4544 22135 127 70 141 903 135 220 111518 67 158 1136 71 93 1191 61 82 187 107 54 14218 227 752 108 162 375 78 148 532 160 119 82 162 103 210 97 60 96 90 300 66 2226 1511 173 3038 102 60 109 270 100 77 71 1337 567 62 88 63 58 76 66 581 200 325 724 754 63 58 375 104 167 497 92 76 2337 106 119 1092 74 12046 30729 685 60 312 83 175 103 62 98 112 5005 157 136 133 117 92 194 3481 58 98 60 2799 266 213 75 71 80 54 305 97 144 72 164 92 66 6636 92 61 15414 88 1102 96 135 270 153 111 59 107 3560 205 60 321 61 76 84 116 63 505 349 217 55 357 136 145 338 441 260 98 66 8029 363 124 82 93 75 138 311 299 106 62 59 67 1316 485 1299 1347 276 541 97 86 81 88 428 103 160 57
internal_value=0 0.229874 -0.0437613 -0.0112688 0.278874 0.0302718 0.0196799 -0.0644085 0.220006 0.16513 0.0299528 0.0265487 0.285036 0.300243 0.0812313 0.297596 0.249687 0.179854 -0.0281764 -0.0711722 -0.0854291 0.112814 0.270154 0.16271 0.00187441 0.0454678 0.158435 -0.0121562 0.0851742 0.245454 0.438373 0.187356 0.193764 0.117261 0.204298 0.10097 0.223717 0.234146 0.220717 -0.0311422 -0.0258269 0.0300299 0.20847 -0.0426661 -0.00356743 0.0956526 0.285823 -0.00544037 -0.0773896 0.181284 0.00927722 0.0487086 -0.0670425 0.293549 0.134691 0.320392 0.169031 0.270566 0.0390534 0.0531852 0.0197073 0.0110869 0.0224061 0.0450239 0.0695494 0.336649 0.0549578 -0.064734 0.0623901 0.0185671 0.29013 0.383171 -0.0501787 0.29476 0.409572 0.0253296 0.161197 -0.0429381 -0.0458315 -0.0254465 0.0797882 0.0958188 0.220173 0.033305 0.245875 0.507626 0.01472 0.137366 0.0842185 0.175837 0.235276 0.122409 0.230975 -0.0124955 -0.0648974 0.0710236 0.29036 -0.0149976 -0.0482547 -0.0577318 0.0440597 0.170812 0.17246 -0.00501639 0.100719 0.183277 0.307319 0.250647 0.200834 0.321335 0.2359 0.316337 0.14909 0.314913 -0.00643245 0.100138 -0.0903714 -0.0767655 -0.0190701 0.177898 0.0675201 0.153383 0.265546 0.148921 0.0592684 0.241329 0.054917 0.0808729 0.0605458 0.214513 0.311106 0.431665 0.232525 0.289818 0.52307 0.188598 0.123748 0.072001 0.315862 0.222554 0.0771871 0.158536 0.220522 0.0427011 0.115589 -0.0187269 0.024824 0.0208335 0.101257 0.056848 -0.0180756 0.207825 0.277514 0.233581 -0.0406042 0.0317215 0.120885 0.192167 0.307853 -0.030139 -0.0331646 0.00578169 0.0394142 -0.0251244 0.0257634 0.0811273 -0.0447286 0.157187 0.094821 0.144295 0.175689 0.313075 0.410245 0.580094
internal_weight=0 2841.46 21022.7 479.59 2361.87 4583.23 3797.12 16439.4 573.436 111 3128.18 3012.86 216.258 204.053 786.116 1788.43 306.711 357.178 668.941 11135.8 2511.92 88.551 270.624 52.236 1016.57 249.059 59.1285 767.515 774.707 23.5266 12.8441 346.834 339.302 115.314 320.523 52.2793 268.244 256.718 244.797 664.076 645.655 147.918 20.0442 497.737 235.968 51.3897 17.7794 33.6103 261.769 11.4916 189.93 126.345 63.5854 11.4935 14.0237 186.316 26.5396 19.1824 1996.29 1177.54 411.982 395.173 367.371 292.934 228.96 10.6841 218.276 74.437 23.5538 818.751 26.9387 18.8243 5303.62 218.388 40.2725 106.226 22.9046 3578.39 3394.74 993.738 751.181 556.249 45.5981 194.931 14.5209 14.6354 180.41 32.9939 510.651 63.0724 48.5087 34.3135 22.1592 147.416 368.59 765.555 10.6579 761.625 294.567 283.404 48.6895 26.3085 11.1627 28.9619 17.2858 13.0527 1481.72 179.562 107.795 71.7669 89.5158 44.8628 44.653 1302.16 22.2845 14.3994 2405.69 1324.31 152.032 13.9878 754.897 63.9578 40.6819 27.4738 690.939 14.6651 676.274 369.287 322.114 47.1726 17.0171 11.8731 234.611 99.0598 20.7644 135.551 79.2269 63.6104 15.6165 78.2954 186.184 53.7437 41.0784 132.441 61.1141 71.3266 776.597 759.906 69.5187 56.7527 37.8459 18.9068 12.7661 23.3174 138.045 54.4156 31.7074 16.6904 11.1906 15.4289 134.364 467.058 225.281 241.777 128.31 84.1176 31.2472 52.8704 116.689 76.0986 69.3802 34.0706 26.6584 13.2644
internal_count=285446 19757 265689 5789 13968 53212 44487 212477 4725 1051 36481 35135 1608 1515 8725 9243 1585 3117 8006 144545 33027 893 1398 270 12056 2894 691 9162 8590 262 143 3010 2943 1346 2781 446 2335 2232 2136 7952 7732 1750 239 5982 2844 618 211 407 3138 137 2203 1470 733 133 166 1388 197 139 23079 13559 4769 4569 4244 3392 2638 121 2517 852 271 9520 316 224 67932 1128 225 1393 301 45797 43460 12731 8328 6165 457 2163 163 145 2000 363 5708 703 543 386 250 1637 4738 8790 124 9091 3511 3376 577 311 135 248 151 146 7658 940 563 377 466 236 230 6718 251 159 31634 17416 2002 184 8666 736 466 313 7930 166 7764 4204 3678 526 197 137 2046 836 179 1210 705 566 139 657 2142 619 474 1523 701 822 9023 8836 807 662 445 217 145 198 1818 716 417 187 125 178 1491 5580 2701 2879 1532 1000 373 627 1402 917 836 408 320 160
is_linear=0
shrinkage=0.279228


Tree=2
num_leaves=175
num_cat=0
split_feature=75 70 70 72 42 66 41 5 63 70 2 14 14 74 38 32 14 8 74 36 14 73 14 0 12 45 27 74 43 72 9 70 74 0 12 71 7 24 36 57 2 8 73 38 36 71 26 8 26 8 8 14 0 14 39 9 2 50 43 38 0 50 0 72 0 74 2 26 32 32 38 0 8 38 3 71 0 48 33 60 12 30 72 9 70 71 74 72 14 72 72 57 72 0 9 24 15 71 15 73 72 49 32 72 14 2 74 45 45 9 14 72 9 0 33 71 30 54 2 72 30 2 0 26 2 44 71 2 9 32 2 74 45 8 9 14 8 32 2 2 38 8 2 36 24 0 30 0 8 42 74 2 33 39 55 36 2 53 29 30 48 14 2 30 42 26 14 27 42 71 48 12 2 73
split_gain=1132.21 753.654 237.312 176.784 51.9299 45.694 30.1381 28.3429 13.4553 12.3041 10.4163 9.47473 11.0263 9.40173 11.9383 9.2104 24.7181 9.13484 8.50969 7.97276 7.85644 7.74286 7.70324 7.91121 7.58069 9.59359 7.49128 10.3989 7.4177 10.3791 20.0156 7.41486 7.64918 7.38138 8.04553 7.20337 8.34185 8.18466 7.41285 7.06675 8.45817 6.89656 9.25853 6.78151 11.252 8.00636 7.5284 6.67564 7.61847 6.63916 8.11141 6.525 6.5127 7.66669 8.17809 6.83745 7.64036 6.33058 6.27084 6.07199 6.01947 8.89923 6.18651 7.89966 10.4948 10.0793 9.24591 8.11708 7.32067 7.06841 7.3585 7.32047 8.3103 12.5603 6.01283 6.0509 5.91896 6.5763 7.47221 13.9675 6.87599 8.87375 14.1767 11.3644 11.2177 8.20119 7.82788 8.37662 6.59055 6.44493 6.21955 5.85811 10.5977 5.83315 6.31999 5.82682 5.76928 5.73513 6.37551 8.40405 9.84545 8.16977 8.41468 6.57606 6.09225 5.73301 7.3905 5.68632 10.5588 5.68627 5.67697 5.55025 8.17844 7.26787 6.26615 6.24307 8.92995 7.04006 5.42925 5.3578 5.34909 5.5637 5.34788 6.61144 8.77767 5.96653 5.33251 11.1376 7.90034 14.1081 7.88097 7.86435 8.66615 6.98354 11.116 8.85194 8.82639 7.9211 6.4271 6.02397 5.87386 7.89235 5.32679 5.32532 13.2612 5.54335 6.43959 5.50465 14.1471 6.22605 5.94131 11.0607 9.187 8.50926 9.98418 9.27783 8.21482 12.2188 20.9052 7.60513 10.4417 14.3915 7.2841 7.28079 8.22203 7.3569 8.63092 11.6039 8.68337 8.16138 8.87546 7.02884 7.01119 6.75976
threshold=1.0000000180025095e-35 1.5000000000000002 2.5000000000000004 37.500000000000007 0.52083333333333337 1.3819444444444446 0.63333333333333341 0.43650793650793657 7.5000000000000009 1.5000000000000002 20.500000000000004 58.500000000000007 21.500000000000004 463.50000000000006 765.50000000000011 68.166666666666671 34.500000000000007 377.50000000000006 932.50000000000011 168.12500000000003 34.500000000000007 2.5000000000000004 195.50000000000003 57.500000000000007 46.375000000000007 0.81666666666666676 7.5000000000000009 499.50000000000006 0.36666666666666675 10632.500000000002 67.866071428571445 2.5000000000000004 760.50000000000011 54.500000000000007 84.250000000000014 6135.5000000000009 0.36931818181818188 34.875000000000007 98.125000000000014 0.64583333333333337 98.500000000000014 348.50000000000006 2.5000000000000004 494.50000000000006 107.12500000000001 12053.500000000002 426.50000000000006 274.50000000000006 310.50000000000006 730.50000000000011 700.50000000000011 19.500000000000004 60.500000000000007 42.500000000000007 3.5000000000000004 150.18333333333337 131.50000000000003 962.50000000000011 0.36666666666666675 636.50000000000011 23.500000000000004 757.50000000000011 64.500000000000014 3060.5000000000005 69.500000000000014 670.50000000000011 175.50000000000003 332.50000000000006 44.583333333333336 110.83333333333336 476.50000000000006 65.500000000000014 292.50000000000006 521.50000000000011 4.5000000000000009 9393.5000000000018 72.500000000000014 284.12500000000006 1.8333333333333337 377.62500000000006 4.1250000000000009 70.104166666666671 1835.5000000000002 123.52777777777779 1.5000000000000002 2473.5000000000005 268.50000000000006 845.50000000000011 169.50000000000003 11911.500000000002 2964.5000000000005 1.3541666666666667 461.50000000000006 64.500000000000014 183.83333333333334 52.125000000000007 3.5000000000000004 11337.500000000002 2.5000000000000004 2.5000000000000004 8431.5000000000018 2.5000000000000004 73.833333333333357 1787.5000000000002 110.50000000000001 134.50000000000003 284.50000000000006 1.2916666666666667 0.29166666666666669 130.05555555555557 25.500000000000004 3650.5000000000005 24.125000000000004 51.500000000000007 0.58333333333333337 11087.500000000002 45.041666666666679 19.765625000000004 89.500000000000014 7105.5000000000009 26.041666666666668 70.500000000000014 28.500000000000004 491.50000000000006 89.500000000000014 140.08333333333334 1105.5000000000002 177.50000000000003 103.95000000000002 89.166666666666671 170.50000000000003 340.50000000000006 1.2916666666666667 383.50000000000006 74.77500000000002 38.500000000000007 589.50000000000011 53.166666666666679 180.50000000000003 105.50000000000001 497.50000000000006 149.50000000000003 78.500000000000014 266.12500000000006 146.12500000000003 16.500000000000004 21.958333333333339 18.500000000000004 300.50000000000006 16.270833333333339 730.50000000000011 40.500000000000007 0.58333333333333337 8.5000000000000018 0.2678571428571429 168.12500000000003 35.500000000000007 1.1547619047619049 1.5833333333333337 48.354166666666679 155.12500000000003 99.500000000000014 33.500000000000007 32.708333333333336 30.025000000000002 436.50000000000006 52.500000000000007 4.5000000000000009 4.2041666666666675 10836.500000000002 70.125000000000014 82.250000000000014 68.500000000000014 1.5000000000000002
decision_type=2 2 2 2 2 2 2 2 2 2 2 2 2 2 2 2 2 2 2 2 2 2 2 2 2 2 2 2 2 2 2 2 2 2 2 2 2 2 2 2 2 2 2 2 2 2 2 2 2 2 2 2 2 2 2 2 2 2 2 2 2 2 2 2 2 2 2 2 2 2 2 2 2 2 2 2 2 2 2 2 2 2 2 2 2 2 2 2 2 2 2 2 2 2 2 2 2 2 2 2 2 2 2 2 2 2 2 2 2 2 2 2 2 2 2 2 2 2 2 2 2 2 2 2 2 2 2 2 2 2 2 2 2 2 2 2 2 2 2 2 2 2 2 2 2 2 2 2 2 2 2 2 2 2 2 2 2 2 2 2 2 2 2 2 2 2 2 2 2 2 2 2 2 2
left_child=3 5 4 6 17 60 31 9 13 10 -5 12 -10 21 28 -12 -17 18 -3 -18 -20 52 23 91 25 39 -13 -28 49 51 -31 110 -33 34 -26 -8 37 -37 -38 -23 -41 -14 -43 44 45 74 -45 -39 -49 50 59 -30 53 54 -4 -55 -57 -6 -24 93 61 126 -62 68 65 69 109 -66 -64 70 107 -71 -73 -74 75 -25 77 80 79 -79 89 82 84 88 142 118 -86 -88 -83 -9 -87 92 -11 94 -15 -54 -53 98 99 100 -93 102 -101 -100 -99 106 -27 108 -65 -67 -1 113 -113 -84 -114 117 -117 -116 -85 -95 121 -119 123 -19 125 -125 127 128 129 -2 131 -128 133 134 135 139 -135 -137 -132 -133 141 -140 -82 145 -145 146 -7 148 -147 -150 156 152 -152 154 159 -156 157 162 -159 163 161 -161 -149 165 -165 166 169 168 -168 170 -153 -166 -155 -160
right_child=1 2 8 7 57 143 35 76 11 22 15 26 41 14 -16 16 19 122 20 -21 -22 24 58 43 33 105 27 -29 29 30 -32 32 -34 -35 -36 36 38 47 -40 40 -42 42 -44 46 -46 -47 -48 48 -50 -51 -52 96 95 55 -56 56 -58 -59 -60 -61 62 -63 63 64 67 66 -68 -69 -70 71 -72 72 73 -75 -76 -77 -78 78 -80 -81 81 83 111 85 86 90 87 -89 -90 -91 -92 97 -94 119 -96 -97 -98 104 103 101 -102 -103 -104 -105 -106 -107 -108 -109 -110 -111 -112 112 114 -115 115 116 -118 120 -120 -121 -122 -123 -124 124 -126 -127 130 -129 -130 -131 138 132 -134 136 -136 137 -138 -139 140 -141 -142 -143 -144 144 -146 147 -148 150 149 -151 151 153 -154 172 155 -157 -158 158 173 160 -162 -163 -164 164 171 -167 167 -169 -170 -171 -172 -173 -174 -175
leaf_value=-0.15974230371695644 0.067159256030636633 -0.077620372545663535 0.02517478736849988 -0.0054970354879879139 -0.036302415658760467 0.12486321139362612 0.16694419595478577 0.14600680451066048 0.046911681565399314 0.31341322033111219 0.084292013672630908 0.026234155126881313 0.63745500359681384 0.09277001606587737 0.40698157157726816 0.66755772372036959 0.25239866706343217 -0.11328669679816566 -0.10984655245892548 0 -0.026536233768378194 0.055620553403458631 -0.11558945736007741 0.11860013766347564 0.3063870283006413 -0.20531925613328431 0.44398924896356279 0.033148092402355243 -0.21465028965077362 0.63602928401883885 0.027538376666398977 0 0.4081833733968106 0.42877287944747106 -0.10647451521196202 -0.12719959989417423 0.051202961062730645 -0.0067069054271241867 -0.30541184939196381 0.45134159499316695 0.037664204728598057 0.50931305840584362 0.050442576236476827 -0.055648820655696894 0.31678099749643029 0.31798872672813444 0.19364136688120409 0.46371620538529384 0.09599370642033081 -0.11187433050809643 0.42104310753785368 -0.024135524665337048 -0.18236306992019233 -0.053219821893731069 0.32923052474216141 0 0.40173582685850534 -0.15806132950042662 0.16430195825997687 -0.11318127952228431 0.035746401388647708 -0.15122203358888228 0.26922615449558185 0.12525524877213376 0.071966544076776676 -0.055578595745399056 0.39440910086813696 -0.18857134408644696 -0.022386825945713947 0.5675580535363568 -0.1252710366447613 0.42163054868407845 -0.16005862682207536 0.39067228307094842 -0.073420059184671344 -0.022436599565639662 0.029101015889793223 0.44219092587168735 0.21814124917248165 0.12587197238796455 0.40092376109433459 0.12281684185290311 0.38521085982876868 -0.017369367820437378 0.26927600154664805 0.38619148116891799 0.14489798489561342 -0.040196078086073721 -0.057854693021816984 0.30235048517577895 0.20978158249913403 0.24047227464608462 0.12285721561372409 -0.11053512613852078 0.33922263065901781 0.11201716473899846 0.16521683968782538 0.17441552415654499 -0.00155071207078104 0.50227455457008108 -0.02615868651883578 0.51547239249769983 0.19152402531057819 0.1805442996199815 -0.085881266686496927 0.067706814206360502 0.0015402963670150824 -0.027791609915102562 0.49389663710417669 0.20440221347194568 -0.046699784495090234 0.013751947213482994 0.03938676084946751 0.21281879154926522 0.37286303165887502 0.043827717325079715 0.28107188070941858 0 0.19688069773398972 0.10713481789101859 0.2597609413962621 0.2119873872071695 -0.084849002804015014 0.3098143964190706 -0.1109534830263558 0.0099777097059371815 0.014596631003683559 0.48824097579779707 -0.0099746621835862647 0.54494294614208127 -0.1468150080326229 0.13477313821482295 0.22259514660254143 0.22117799017739212 -0.0041024906557215572 0.48349779603114257 -0.037832513479112692 0.14109273086367083 0.20589140235901407 -0.14960137604685972 0.30662606371198642 -0.090182445937496927 0.1659880901002341 0.43416987286679737 0.093553318809500491 -0.026497323636533343 -0.26090757227563 0.081172543228566096 0.10746321114643378 0.49603068893229818 0.18792497378870074 0.012540889410847383 -0.05780456470517778 0.20849904152199503 0.22314783997328427 -0.020277181447352115 0.10020589589667951 0.4117604636835569 0.36382382235948907 -0.0056176507552053376 0.052651142537696781 0.47136760498083369 0.39529964866014933 -0.26050815374578157 -0.060206587815690285 0.33287876619197054 0.19241235087949288 0.31959709650092832 -0.060575448710526662 0.41501244616489763 0.31406089601005904 0.28345640535949762 -0.10021852938089711 0.056239099440241011
leaf_weight=40.184804614633322 16.759132079780105 7320.2276671081781 24.823660455644131 14.075065240263937 2728.4144464880228 5.3639169707894307 70.005643237382174 304.04889391362667 11.6825924962759 24.409146659076214 27.679331719875336 45.759408995509148 6.731313735246661 411.26921831816435 7.6148812919855109 10.940365165472029 98.094706170260906 1077.2639999017119 109.61894354969263 10.939689472317694 481.53233412653208 102.75286258757114 17.108199991285804 128.24099324643612 5.7570985257625598 23.976751275360584 9.0452864542603511 10.985145121812819 11.568980269134043 5.0376595780253437 17.901798970997334 11.064696140587328 4.5539989471435538 7.3161972910165778 7.5075342804193497 8.4065480902791005 7.8296060264110592 9.8397164493799227 8.4587589651346189 7.8684255331754711 8.4279982820153219 5.8987429440021506 8.797040291130541 40.506757944822311 19.22709521651268 11.09817738085985 11.56538415700197 8.0959118530154246 11.705756545066832 12.193609990179537 5.1754790842533103 97.707988701760769 28.929542258381844 117.76192834973335 9.4754600226879102 10.106666445732115 4.9585349336266509 33.662696190178394 8.8232914283871633 10.822938390076159 2352.2501152530313 12.213898621499537 6.7548172473907462 22.162083134055141 38.637874655425549 29.458574160933495 4.6399090364575377 11.483617372810839 66.224078767001629 8.0507140755653399 5.7177731320261946 9.0321398377418536 7.2332096993923169 4.6652173921465874 17.681970000267029 27.284556373953819 16.967792451381683 37.425418108701706 172.07715345919132 17.780836537480354 15.008271023631094 96.963769629597664 54.394623547792435 16.116629883646965 14.181861653923987 25.822472289204597 34.016677871346474 40.429793566465378 17.445342868566513 23.820490092039108 65.717227712273598 31.585651241242886 495.79103844612837 20.462318234145641 8.0733636990189535 5.3940936475992194 13.692690871655939 14.918849453330042 17.458427093923092 8.9437453523278219 14.986263468861578 14.132297292351721 41.02829696983099 83.659768894314766 11.536708049476145 23.920661702752113 27.354634881019592 6.4743134006857863 8.8542336970567685 7.6961816623806945 293.32030884921551 14.089479520916937 13.394029870629309 40.754625052213669 43.884472608566284 30.394815638661385 22.276347443461418 14.378652438521383 18.235115185379982 14.187127061188219 239.48794960975647 28.656066343188286 2698.1810947284102 7.2316707074642208 31.554733194410801 17.475356459617615 90.846292681992054 6.8254405334591857 21.094774335622787 6.6455626338720313 20.67338365316391 14.719220481812956 45.958143204450607 47.125788368284702 94.376774027943611 8.6042310595512408 11.95002208650112 17.600813142955303 9.3013854473829252 8.4639310240745527 4.9572032317519179 22.915621198713779 22.992117613554001 13.026901990175245 30.547566272318363 9.9707271754741686 6.4915173724293709 98.059578031301498 6.1185128614306477 11.433846160769461 13.397770613431929 29.187333598732948 72.159369118511677 6.3903697654604903 78.227214217185974 13.350349850952623 873.83008120208979 34.827992342412472 6.4093141406774512 6.6443392038345364 27.246612809598446 14.353248722851275 5.7618134170770636 10.805666252970694 16.857595212757591 7.6644012108445159 11.581908509135245 7.7749158889055243 72.290472999215126 7.4671592414379111 10.068807847797869 5.5349302589893332 27.57532462477684 34.805924601852894
leaf_count=542 206 102154 311 87 33504 67 612 1374 112 155 175 506 67 4701 86 65 594 15377 1540 52 6708 1283 115 856 58 286 99 126 134 59 212 149 63 71 75 86 76 84 69 90 98 65 94 267 98 73 75 64 95 141 59 1159 364 1433 106 124 60 442 64 123 28980 154 82 271 473 361 59 142 814 99 72 110 90 58 118 178 75 166 740 79 61 427 239 73 64 118 154 184 76 106 295 190 3223 234 93 51 164 88 102 48 90 92 231 492 71 276 316 80 109 93 3949 64 62 179 191 133 99 63 81 158 1050 123 38441 104 443 244 1113 87 259 82 263 181 571 582 1146 100 149 213 112 104 65 298 93 113 295 97 85 1018 60 113 142 287 749 63 804 125 8713 328 61 66 259 147 61 116 170 81 117 75 727 77 98 56 272 318
internal_value=0 -0.0334557 -0.0627162 0.147309 -0.0724035 0.0655523 -0.0095855 0.175458 0.0592467 0.14329 0.216276 0.157937 0.280258 0.0497674 0.0711677 0.238087 0.271975 -0.0805152 -0.0749975 0.22735 -0.0422804 0.0167631 0.131699 0.135552 0.053705 0.0355602 0.092462 0.232558 0.0664813 0.0103882 0.180429 -0.0518415 0.13028 0.21315 0.0710767 0.107812 0.0284917 0.101324 -0.132363 0.0850055 0.254059 0.397096 0.256302 0.0914989 0.114437 0.0916355 0 0.17118 0.262215 0.083188 0.0886386 -0.0212667 -0.0221454 0.000136998 0.117134 -0.0296962 0.141494 -0.0378651 -0.0144347 0.0840853 0.0455275 0.0752089 0.0401817 0.083493 0.117401 0.164049 0.0503472 0.0083633 0.0053662 0.227271 0.147229 0.336725 0.227636 0.0566528 0.0753003 0.0931622 0.20213 0.2041 0.250404 0.34508 0.195074 0.208688 0.226783 0.160405 0.139988 0.218928 0.0826224 0.0434633 0.0941296 0.158309 0.263244 0.150157 0.132411 0.0891941 0.0983238 -0.131664 0 0.18795 0.203482 0.251754 0.153209 0.319265 0.255369 0.148224 0.057545 -0.0412731 -0.0943996 0.193179 0.242383 0 -0.0609504 0.248249 0.231952 0.314574 0.239467 0.246162 0.148556 0.261231 0.0948467 -0.0179427 0.24264 0.14226 -0.0918634 -0.108401 -0.0126876 0.108081 0.0818375 0.167805 0.109546 0.219058 0.0701904 0.0864624 0.112149 0.0859176 0.0511564 0.157561 0.167108 0.267089 -0.0233597 0.0250184 0.0438035 0 0.267092 0.104223 0.203027 0.10125 -0.0803022 0.102775 0.229034 0.375766 0.100268 0.0720233 -0.0168575 0.0938667 0.108082 0.18658 0.111865 0.167301 0.253116 0.0755306 0.174099 0.319953 0.102142 0.0478235 -0.0674809 0.0749797 0.0583294 0.00697716 -0.0230589 0.155173 0.0967049 0.02587 -0.0359763 0.111878
internal_weight=0 20281.7 15656.1 3115.94 14505.2 4625.59 473.466 2642.48 1150.94 1201.72 161.729 98.8995 33.1097 1052.04 635.708 147.654 119.975 11743.1 7911.38 109.034 591.151 416.332 1039.99 1014.06 214.882 194.301 65.7898 20.0304 628.093 145.909 22.9395 349.124 15.6187 20.5808 13.2646 124.342 54.3363 38.0479 16.2884 119.049 16.2964 21.4271 14.6958 255.605 203.533 184.306 52.0721 29.6414 19.8017 482.184 469.99 122.97 201.45 167.126 34.2991 132.827 15.0652 2762.08 25.9315 464.815 3050.37 461.032 2589.33 237.085 164.106 113.984 41.7947 50.1215 72.9789 72.1897 43.2084 28.9813 20.9306 11.8984 173.208 155.526 1440.76 1423.79 227.283 55.2063 1196.51 868.64 628.34 240.301 126.629 125.891 88.6283 74.4465 114.409 327.869 91.5397 758.45 520.2 453.992 419.343 34.3236 111.401 238.25 211.794 110.676 46.5719 64.1043 49.972 101.118 26.4556 75.252 51.3314 37.4906 31.0163 37.1548 333.505 501.711 406.562 95.1492 392.472 379.078 52.6712 326.407 34.3517 34.6494 282.523 43.0347 3831.71 1133.53 56.2618 24.707 448.818 51.3249 44.4995 23.4047 397.493 339.645 248.799 202.841 143.765 49.3882 59.0758 26.205 57.8476 23.1832 37.1742 32.217 38.0004 1575.23 43.5745 1531.65 11.8554 1519.8 27.5231 17.5524 1492.27 438.578 85.5571 353.021 319.055 91.5776 1053.69 179.865 76.0432 227.477 48.2442 20.9976 103.821 179.233 33.1982 146.035 138.371 91.6473 83.8724 46.7233 39.2561 22.3925 33.9657 41.2152
internal_count=285446 265689 212351 19757 198957 53338 5789 13968 13394 7599 973 1069 338 12325 7323 886 711 165011 110402 646 8248 5002 6626 6447 2553 2349 731 225 7237 1728 271 4703 212 204 133 1086 474 329 145 1471 188 226 159 1665 1323 1225 342 243 159 5509 5368 1457 2449 2034 417 1617 184 33946 179 5309 37578 5685 31893 2913 2017 1402 513 615 896 889 532 357 258 148 1152 1034 6369 6294 985 245 5309 3829 2759 1070 556 567 402 338 503 1480 413 4782 3378 5186 4794 415 1323 1404 1245 651 280 371 279 594 159 878 602 460 380 454 4491 2203 1785 418 1721 1659 232 1427 154 392 1236 186 54609 16168 791 348 5531 634 547 288 4897 4159 3046 2475 1744 598 731 313 738 285 475 410 154 15760 408 15352 152 15200 270 173 14930 4431 891 3540 3205 929 10499 1786 707 2276 472 213 1079 1804 342 1462 1381 919 844 462 385 226 335 379
is_linear=0
shrinkage=0.279228


Tree=3
num_leaves=175
num_cat=0
split_feature=75 70 70 72 41 72 42 5 48 55 63 71 71 14 0 7 65 1 9 3 0 0 8 73 74 0 24 71 2 74 71 42 0 2 29 26 71 24 24 36 12 2 8 2 32 42 33 30 54 0 7 71 25 54 71 72 30 73 32 14 0 74 45 74 45 0 1 2 0 73 9 9 0 15 22 8 1 39 44 14 70 7 35 72 26 26 3 32 74 1 72 0 8 14 32 70 57 2 9 70 32 14 7 32 14 1 1 8 41 1 44 74 65 35 72 37 32 2 44 2 26 74 1 2 42 23 1 74 1 39 15 74 72 2 71 73 2 7 26 8 2 26 71 0 74 2 23 2 7 71 0 2 0 26 71 26 3 2 1 8 25 71 2 2 8 0 1 1 71 14 0 14 26 37
split_gain=573.54 400.963 130.555 85.3234 33.5401 25.5278 19.4094 17.7667 14.1995 10.0606 7.49849 8.09665 7.21067 8.08885 8.86961 8.66287 7.9025 7.15554 9.5538 6.95621 6.6926 7.31901 6.93417 11.7413 6.78074 8.28239 7.45582 6.44319 8.13785 6.37887 6.35491 6.3365 12.3384 8.59466 8.06689 8.0267 10.3239 13.8366 8.70253 9.35598 9.25984 9.24071 7.81427 7.44126 9.19186 6.76453 9.65456 9.77024 8.97718 15.8752 10.4839 9.58129 18.2671 8.37024 7.06612 8.60396 7.89507 7.7664 6.75429 6.52788 7.79598 10.2213 8.76432 8.00082 6.23093 15.7215 9.25902 7.77352 7.65958 7.09114 6.41705 8.59489 10.3708 10.3018 6.06999 7.20575 9.55261 8.50871 6.05179 7.45866 6.04322 6.03033 6.00531 8.29316 8.95676 5.99508 7.26542 6.53593 5.99484 12.8797 9.68332 8.00566 6.43474 5.9853 9.07791 5.98107 8.02095 15.4038 8.85339 7.8392 7.82031 19.1393 8.10035 7.48362 7.20234 6.79637 13.0412 8.61517 5.96767 5.96392 6.2602 7.2138 5.91747 5.89237 9.2686 5.88562 12.7072 11.076 7.7474 5.84882 5.82182 5.79141 5.75673 5.74899 13.1723 5.74403 8.69974 9.86151 7.47608 7.03173 6.08989 5.72764 5.71705 10.7755 8.68555 11.3863 8.21372 17.9381 11.0136 8.67071 8.37453 6.84415 10.4136 7.5073 7.02964 7.52728 13.2116 6.78908 6.75982 6.65252 5.99996 5.9651 9.89308 6.88876 5.88581 5.79016 5.78764 5.67623 7.89747 7.03471 5.65183 11.6841 5.80849 7.95458 7.81203 6.39663 7.66706 6.84866 8.14415 8.6037 7.26286 6.61037 6.36026 6.07847
threshold=1.0000000180025095e-35 1.5000000000000002 2.5000000000000004 72.500000000000014 0.29166666666666669 36.500000000000007 1.2708333333333337 0.43650793650793657 46.375000000000007 0.5277777777777779 5.5000000000000009 11214.500000000002 1335.5000000000002 56.500000000000007 19.500000000000004 0.70714285714285718 1.5857142857142861 5250.0000000000009 69.7638888888889 2.5000000000000004 58.500000000000007 17.500000000000004 560.50000000000011 4.5000000000000009 938.50000000000011 46.500000000000007 121.12500000000001 6513.5000000000009 129.50000000000003 962.50000000000011 7173.5000000000009 5.5208333333333348 24.500000000000004 161.50000000000003 0.41666666666666669 337.50000000000006 692.50000000000011 5.8750000000000009 5.1250000000000009 20.875000000000004 10.375000000000002 69.500000000000014 251.50000000000003 107.50000000000001 69.166666666666671 47.025000000000006 1.4166666666666667 60.541666666666679 66.050000000000011 29.500000000000004 0.37980769230769235 3235.5000000000005 1.0000000180025095e-35 41.767857142857146 10646.500000000002 4115.5000000000009 83.291666666666671 3.5000000000000004 116.83333333333336 11.500000000000002 51.500000000000007 627.50000000000011 1.1833333333333336 893.50000000000011 0.18333333333333338 33.500000000000007 46350.000000000007 100.50000000000001 22.500000000000004 2.5000000000000004 34.100000000000009 73.225000000000009 60.500000000000007 1.0000000180025095e-35 2.5000000000000004 237.50000000000003 94850.000000000015 7.5000000000000009 99.550000000000011 69.500000000000014 1.5000000000000002 0.15476190476190479 11.500000000000002 3096.5000000000005 378.50000000000006 234.50000000000003 5.5000000000000009 91.833333333333357 929.50000000000011 5250.0000000000009 12449.500000000002 41.500000000000007 214.50000000000003 199.50000000000003 165.16666666666671 1.5000000000000002 0.64583333333333337 79.500000000000014 119.05000000000001 2.5000000000000004 114.83333333333336 118.50000000000001 0.13392857142857145 57.166666666666679 75.500000000000014 81250.000000000015 68450.000000000015 338.50000000000006 0.36666666666666675 21250.000000000004 107.55000000000001 681.50000000000011 0.70714285714285718 15.500000000000002 4200.5000000000009 1.0000000180025095e-35 127.83333333333336 148.50000000000003 123.08333333333336 134.50000000000003 325.50000000000006 116.50000000000001 54850.000000000007 192.50000000000003 11.887500000000001 6.5000000000000009 48450.000000000007 304.50000000000006 42250.000000000007 13.500000000000002 3.5000000000000004 356.50000000000006 12382.500000000002 49.500000000000007 4296.5000000000009 2.5000000000000004 20.500000000000004 0.15476190476190479 188.50000000000003 401.50000000000006 36.500000000000007 228.50000000000003 4577.5000000000009 29.500000000000004 491.50000000000006 168.50000000000003 1.0000000180025095e-35 156.50000000000003 0.27922077922077926 8731.5000000000018 64.500000000000014 59.500000000000007 47.500000000000007 328.50000000000006 460.50000000000006 337.50000000000006 2.5000000000000004 152.50000000000003 83250.000000000015 443.50000000000006 2.5000000000000004 11467.500000000002 28.500000000000004 19.500000000000004 256.50000000000006 27.500000000000004 70050.000000000015 12050.000000000002 6296.5000000000009 143.50000000000003 58.500000000000007 126.50000000000001 246.50000000000003 1.0000000180025095e-35
decision_type=2 2 2 2 2 2 2 2 2 2 2 2 2 2 2 2 2 10 2 2 2 2 2 2 2 2 2 2 2 2 2 2 2 2 2 2 2 2 2 2 2 2 2 2 2 2 2 2 2 2 2 2 2 2 2 2 2 2 2 2 2 2 2 2 2 2 10 2 2 2 2 2 2 2 2 2 8 2 2 2 2 2 2 2 2 2 2 2 2 8 2 2 2 2 2 2 2 2 2 2 2 2 2 2 2 10 8 2 2 10 2 2 2 2 2 2 2 2 2 2 2 2 10 2 2 2 8 2 10 2 2 2 2 2 2 2 2 2 2 2 2 2 2 2 2 2 2 2 2 2 2 2 2 2 2 2 2 2 10 2 2 2 2 2 2 2 8 8 2 2 2 2 2 2
left_child=3 6 4 5 19 -1 93 17 10 -10 11 29 16 14 122 20 -4 18 -5 30 21 -15 23 -23 25 108 115 28 -25 95 121 32 34 35 -6 36 37 -34 39 41 -40 -38 -42 44 -43 53 -47 119 49 51 54 -49 -53 59 55 56 -50 -58 -51 60 63 62 -62 -33 65 66 67 -16 -66 -68 -70 72 73 -72 125 -76 77 -77 -12 -80 -19 -44 83 -79 120 -35 87 -87 -61 -90 91 92 -91 160 -95 100 99 -98 103 -97 102 -102 104 -99 -7 106 107 -105 -24 110 111 -73 -110 114 -84 116 -27 118 -117 -48 -85 -3 -14 132 -125 129 128 -128 130 -9 -127 -100 136 -134 -135 -136 137 -82 154 -139 148 142 143 -142 145 150 155 149 -140 -144 156 152 -146 -154 -138 -147 -143 -22 159 -159 162 -162 163 164 172 166 171 173 -169 170 -170 -165 -2 -167
right_child=1 2 12 7 31 8 -8 74 9 -11 78 -13 13 15 64 -17 -18 80 -20 -21 157 22 24 27 -26 26 -28 -29 -30 -31 -32 45 33 85 -36 -37 38 -39 40 -41 42 43 81 -45 -46 46 47 48 50 58 -52 52 -54 -55 -56 -57 57 -59 -60 88 61 -63 -64 -65 68 -67 69 -69 70 -71 71 109 -74 -75 75 76 -78 82 79 -81 123 -83 113 84 -86 86 -88 -89 89 90 -92 -93 -94 94 -96 96 97 98 131 -101 101 -103 -104 105 -106 -107 -108 -109 112 -111 -112 -113 -114 -115 -116 117 -118 -119 -120 -121 -122 -123 -124 124 -126 126 127 -129 -130 -131 -132 -133 133 134 135 -137 138 139 140 -141 141 144 147 -145 151 146 -148 -149 -150 -151 -152 -153 153 -155 -156 -157 -158 158 -160 -161 161 -163 -164 165 -166 167 -168 168 169 -171 -172 -173 -174 -175
leaf_value=0.52803536778112414 0.067728134716731711 -0.14107074486423044 -0.032642561407898445 -0.027914389642022901 0.036324878387700474 -0.03039683437679901 0.068134197913670258 0.13723083653712059 0.094273636195955829 -0.15996237462091142 -0.24098075644935818 -0.15833550046514833 0.096608911730398719 -0.15271315953692444 0.20258638781427271 -0.077018149074414982 0.19297661663130469 0.14026832859431063 0.21010552382170153 -0.06888364824972662 -0.044347327449805372 0.030299270195132778 -0.058833156257530689 0.47882887119868273 0.43344223913195923 0.068067784220022243 -0.060727561307981265 0.088821107845912878 0.040901799436485482 -0.22269553144726084 -0.067903906186005739 -0.088857746738826224 -0.040255844266131512 -0.16151244123884073 -0.18060875383378849 -0.064029173699412564 -0.03850417587781578 0.52192297485943295 -0.030103888139665674 0.42016326159262413 0.44979980690485599 0.051789732266401184 -0.15923771577041793 0.067261587692401134 0.58069090411140767 0.070712151642218876 -0.15133912890857243 0 -0.19415612203682861 0.14198498089652595 -0.14404473319311403 0.055622129469572693 0.76078355605586323 -0.11355340082976498 -0.14759633656037721 0.11161554009930864 -0.053288087715901836 0.24558740800665485 -0.095913231690042233 -0.032957046391501481 0.035063100392073873 -0.029305497512959019 0.49053162836007147 0.27791166131695 -0.083841514734764908 -0.058247740599908754 0.49183707506035224 -0.17053140071397388 -0.027401635951644545 0.097052696430055457 0.31000484085000951 0.4395653924933382 0.48015723862987109 0.047431620573714715 0.044111739208119241 0.32150790272356689 0 -0.013325846715043574 0.2569544002911085 -0.12006872862406624 0.0037489001769184294 0.18562144532650526 0.41629198539612583 0.17365144892098072 0.349422521009778 0.40661949879967302 -0.18303699173518076 0 0.24863601076618444 0.21209975430622155 0.19786441416303888 -0.19631463739664248 -0.085816389148449038 0.021952725151653741 0.44951410604599862 -0.092386918410031174 -0.10696922637476509 -0.0082486206163096525 0.16930603210635489 0.16790912205234046 0.61125415105159531 0.033033362725798467 -0.16733134157315535 0.075320207486504559 0.29532442598788761 0 0.76667718517498951 0.48553129814832724 0.3077342663040295 0.048454168287352502 -0.011019801513112212 0.018456066656578684 0 0.092737155948710445 0.18309324740743541 0.4191473050848617 0.67494103017033891 -0.16530795048961117 0 0 -0.04118132647042376 -0.044724917390216758 0.53736537774271886 0.072915185337150509 0.41972482371555608 -0.0053220054021530161 0.29511582684837218 0.09497516175961318 -0.15534441110426012 0.29760605916322402 0.13730997372762577 -0.16725553524821313 -0.24973608399857961 -0.1172759030629168 0.38980447343277685 -0.0076576937854597685 -0.041851100334517694 0.15690193686866319 0.042149060978685891 0.39041186414578682 0.30607198896701632 0.27711126784684093 -0.1474464590663509 0.015975860061406492 0.30390026907241924 -0.099105101846939214 0.40712769962803341 -0.30123640848206085 -0.1530283334818445 0.078825518790132693 -0.10056433541598626 0.022563856840990194 -0.13717408100961601 0.17307548373503237 0.12824394142146264 0.21903089406535164 0.083499581468885531 -0.074189618422601036 0.36870198187394115 0.20711446035046147 -0.12035183291658871 0.30604158651114488 0.026707724613509003 0.22522870413352294 -0.012057576027281363 0.44107335830455485 0.39730483649704978 -0.025222126949709388 -0.045424960446249135 0.33965202237780912 0.24829642020739637 -0.047764739615047298 0.37083842335043538 0.024624372965278304
leaf_weight=6.1389154717326155 125.6672652810812 50.095884621143341 151.91171338409185 14.647323980927466 19.170678697526455 11.436506919562818 1689.2522487081587 982.02270705997944 108.85492153838277 12.735000427812336 24.941205989569426 32.35932794585824 5.7545411810278875 12.024111367762087 8.2364271730184537 51.351518254727125 12.389492698013781 163.13728841394186 78.169581420719624 6407.4984737411141 109.05989955365658 404.88501923531294 26.151409517973661 9.6737229302525503 5.074150711297988 5.4455170035362261 6.0054586976766577 24.617824926972389 5.9248131588101378 10.005872767418621 1770.8064967691898 29.049752257764339 4.7332361042499533 24.58149741217494 37.237355507910252 30.699666559696198 20.265430726110935 8.5161292776465398 76.177993010729551 8.2922133505344373 5.3514310196042087 5.0385210737586039 5.2601468265056601 16.012029051780701 6.3541717827320099 109.53299812972546 60.945265717804432 4.7521886527538326 17.083578065037727 15.079308077692984 42.655694626271725 5.7241082340478879 6.2031320333480835 112.70136269181967 16.985589139163494 60.693398497998714 20.440508387982849 9.1087335720658285 22.009163431823254 1510.4118868559599 6.1568817570805576 10.546278703957794 8.5522493347525579 4.7433994263410559 14.14534183219075 66.40631427615881 8.4972866624593753 7.7083372026681891 18.539890199899673 7.8141168281435958 21.071836598217487 10.11384514719248 10.203827563673256 28.308730643242598 29.189875438809395 47.956814229488373 18.079355791211128 23.382979243993759 4.4812035448849228 17.857583247125149 36.616679035127163 10.314372465014456 24.461316958069801 28.279028668999672 16.871253535151482 4.5477182343602207 6.5316685922443858 8.7589359208941442 7.0548579432070246 5.9604322835803023 6.1705292016267768 71.074795421212912 33.776892229914665 10.615299217402937 6.0817941278219214 110.97228926047683 32.968084283173084 8.7833210304379445 5.4297054931521407 8.9137591123580915 5.8099603578448322 16.021560348570347 13.703997049480675 13.442305281758317 8.2514840364456159 5.5116397738456717 4.0919778794050208 5.8070491179823867 8.4244029149413127 77.565584827214479 5.8739346303045741 5.3790020979940882 11.118488572537897 20.483656898140907 38.84152290225029 9.3777263574302214 6.1592085584998131 5.40475870668888 5.3354636617004862 30.16296960413456 13.453283235430716 2890.5880559161305 5.0226265415549278 28.938075475394726 12.365697368979452 48.966797828674316 25.626913160085678 88.459540739655495 13.807309955358503 22.923628985881805 41.514064431190491 9.8690769448876363 11.180027805268763 12.446093365550039 9.1855989545583743 11.77297856658697 15.558310702443121 34.497373253107071 26.30111525952816 23.220927521586418 9.4176039993762952 13.47104638814926 20.560644812881947 25.551702849566936 16.184657610952854 8.6306092515587824 16.708453640341759 9.5048502981662732 26.609925977885723 18.132055029273033 11.14297219365835 206.47623149305582 10.651538766920568 10.195243261754511 260.19803006201982 7.5496956482529631 136.20028272271156 19.553433611989025 5.5991090983152381 9.7351688519120199 39.876928623765707 4.9461688920855513 2710.5994296185672 16.758110292255882 137.21659762784839 6.5296983569860441 12.100818715989588 49.86666115373373 18.632701829075817 11.514218948781489 9.0041670724749547 10.174498174339531 5.2214165851473799 5.4968286231160164
leaf_count=52 1462 739 1729 91 244 134 15634 4239 865 117 336 459 67 140 95 616 107 886 472 97332 1240 4564 306 107 56 60 59 269 64 154 26353 366 62 307 465 401 252 103 952 105 66 62 65 201 81 1341 774 59 213 185 542 68 76 1432 205 724 255 114 273 19268 78 133 108 60 157 785 97 90 190 90 201 101 99 275 122 201 76 99 65 253 225 132 102 119 71 58 87 109 92 73 80 911 435 126 72 1592 443 115 76 109 73 199 180 179 96 71 56 81 86 782 62 55 104 85 162 106 62 62 61 377 56 42539 55 193 60 206 107 372 58 97 175 138 70 84 60 73 93 204 155 130 58 84 121 155 91 63 83 60 163 107 71 1209 66 61 1522 58 799 224 60 111 486 61 32149 196 1636 77 139 595 222 132 104 119 62 66
internal_value=0 -0.0256227 -0.0484259 0.100996 -0.0562125 -0.00767355 0.0438927 0.119803 -0.0156268 0.065996 -0.0443165 -0.0275787 0.0395705 0.0481666 0.0869783 0.0322036 -0.0142293 0.0953939 0.171436 -0.0628181 0.0405654 0.0547183 0.059789 0.0450838 0.131598 0.10854 0.20457 0.188229 0.327993 -0.0112004 -0.0545369 -0.0270766 0.0108774 0.0387215 -0.105402 0.0640175 0.088479 0.321093 0.0662836 0.153477 0.0141817 0.0995017 0.17633 0.203924 0.372139 -0.0322025 -8.10521e-05 -0.0253999 0.00594898 0.104833 -0.0255358 0.325171 0.452544 -0.0396324 0.014815 0.0423133 -0.0458671 0.0386823 0 -0.034604 0.0554014 0.171255 0.317105 -0.029672 0.0767456 0.0182188 0.176919 0.015988 0.106199 0.320752 0.122266 0.140506 0.225149 0.164393 0.14081 0.18105 0.197638 0.214075 -0.147488 -0.0342458 0.0892871 0.0605673 0.181135 0.122794 0.17849 -0.070298 0.0389787 0.159464 -0.0379449 -0.0972836 -0.12041 -0.14023 -0.0355614 0.0309699 0.195629 -0.00210879 -0.0244488 0.0396744 0.133259 -0.0712738 0.0784482 0.205751 -0.0040165 0.205505 0.10606 0.272985 0.337148 0.217056 0.0250222 0.0872218 0.21707 0.307156 0.140869 0.235457 0.278427 0.258416 0.418837 0.149816 0.274938 -0.102028 0.102253 -0.0464362 0.331511 0.0810116 0.184533 0.132038 0.0890662 0.142388 0.0291347 0.141199 0.0594525 -0.0387724 0.0764471 -0.0190196 0.0584398 0.168288 0.0810862 0.160115 0.0720536 0.256218 0.0495652 0.0604318 -0.0117743 0.101581 0.0744155 0.114391 0.237156 -0.0965436 -0.0546563 -0.039088 0.0876998 0.041933 0.144632 0.0101191 0.118168 0.0456772 0.102844 -0.0123233 0.0836113 0.0182387 0.0300238 -0.066972 0.0314676 0.0627089 0.0338024 0.116818 0.213765 0.0770941 0.0477943 0.142393 0.050079 0.119485 0.082529 0.271007
internal_weight=0 19719.8 14850.3 3247.93 13644.4 478.387 4869.55 2769.54 472.248 121.59 350.658 303.378 1205.86 1041.56 300.642 740.921 164.301 1285.22 92.8169 11119 689.57 545.622 533.598 445.101 88.4966 83.4224 37.7281 40.2164 15.5985 271.019 4711.49 2525.42 297.843 241.435 56.408 197.015 166.316 13.2494 153.066 55.9624 97.1039 47.6702 20.926 27.4047 11.3927 2227.58 421.377 311.844 220.735 53.7679 166.968 16.6794 11.9272 1806.2 124.312 107.326 46.6328 29.5492 37.0885 1693.5 59.0486 25.2554 14.7091 33.7932 289.864 98.6625 32.2562 15.9448 191.202 16.3114 177.057 158.517 59.5844 49.3806 1484.32 260.999 231.809 213.73 47.28 22.3388 1192.41 15.5745 165.773 81.9865 58.6036 44.4198 19.8383 13.3067 1634.45 124.038 116.983 110.812 39.7373 3180.3 16.6971 261.013 205.789 85.9032 52.9351 119.886 55.2235 21.8315 33.392 37.6363 19.688 28.853 23.3413 19.2494 45.6943 98.9324 21.3668 15.4928 19.5429 83.7865 63.3028 31.7227 11.6047 20.1179 14.7132 91.1082 41.7323 2940.68 10.7772 1029.27 41.3038 1223.32 218.375 114.086 104.288 1004.95 90.4809 15.2988 987.965 44.5847 33.4047 20.9586 943.38 94.335 849.045 57.7183 573.289 520.378 83.1669 34.9693 437.211 193.703 32.8888 48.1976 52.911 38.6927 160.814 243.508 37.0314 20.8468 275.756 16.1803 149.671 143.948 34.8877 29.2886 3163.61 44.8231 3118.78 408.183 268.105 140.078 39.0334 101.044 89.0177 39.1511 27.6369 26.9326 130.889 12.0265
internal_count=285446 265689 212351 19757 198957 5843 53338 13914 5791 982 4809 4155 13394 11558 3201 8357 1836 7567 563 166963 7741 6106 5966 5004 962 906 410 440 171 3696 69631 31994 3752 3043 709 2482 2081 165 1916 701 1215 596 263 344 143 28242 5206 3865 2714 661 2053 203 144 23036 1511 1306 582 369 458 21604 745 319 186 426 3079 1157 372 185 1922 187 1765 1575 575 476 6347 1093 971 895 654 318 7004 197 694 345 246 561 254 167 20859 1591 1499 1419 508 37704 198 3542 2860 1159 716 1701 682 272 410 502 230 387 316 260 496 1000 218 156 190 349 264 351 122 229 167 1151 175 43278 122 6118 253 5254 918 479 439 4336 381 214 5865 287 217 133 5578 559 5019 334 3404 3086 501 213 2585 1158 204 288 318 228 954 1427 218 127 1615 121 883 1635 395 335 37506 547 36959 4810 3160 1650 454 1196 1053 458 326 315 1524 143
is_linear=0
shrinkage=0.279228


Tree=4
num_leaves=175
num_cat=0
split_feature=75 70 70 72 64 52 72 0 24 4 2 11 1 2 74 26 1 11 49 14 26 74 71 3 72 2 51 74 1 38 44 32 32 2 2 8 1 74 72 9 1 71 32 74 26 1 8 72 72 71 74 8 8 38 9 72 9 44 42 14 1 72 54 1 0 73 72 1 44 14 44 0 1 71 14 27 39 9 7 9 8 72 72 71 14 0 25 72 14 37 2 73 0 14 32 14 0 74 8 71 71 0 0 2 2 32 1 0 74 38 44 1 1 42 1 14 14 74 72 32 1 0 51 1 26 74 32 2 72 32 9 0 74 74 1 26 73 8 9 8 1 74 73 9 14 27 0 74 38 74 71 14 1 73 0 14 74 32 38 7 14 44 3 74 0 2 57 74 2 25 14 1 56 12
split_gain=294.026 216.605 70.8351 44.6037 20.2046 12.0324 10.143 9.6285 9.4445 9.07876 7.64466 6.83457 9.43671 7.70239 8.64008 7.79582 6.60002 7.29491 6.66192 13.873 15.8563 7.65836 9.21224 6.62148 8.10318 6.57702 6.51664 6.31399 6.59593 7.68863 7.08619 9.16767 7.34759 6.19327 12.4119 10.7964 10.3992 9.00293 8.36607 8.28379 13.3337 11.9832 14.6293 11.558 15.1484 12.0642 9.9039 9.47837 8.82432 9.13358 13.0685 8.26524 11.8586 10.6789 13.1719 9.9568 9.57357 14.4422 8.25674 7.9569 7.94361 7.7093 7.24138 8.94956 7.10548 6.96222 18.8963 6.94844 7.93811 9.56588 10.8955 12.0258 10.7346 9.50977 10.5743 7.59737 7.59698 7.56615 7.23801 12.9036 6.51401 6.72219 6.48727 7.44287 6.2877 6.0289 5.96635 5.94006 6.27256 5.92791 6.20098 5.82411 5.81184 5.76509 5.7537 7.99334 5.74447 5.72995 10.6539 7.79779 6.10276 8.2027 5.71827 6.25714 7.65422 5.64101 6.63661 6.74164 5.63981 5.58006 7.71275 5.93325 7.06812 8.96016 5.48183 6.83352 9.64991 5.45777 5.42738 7.51767 6.9021 9.53771 6.69896 6.42723 6.24771 8.14783 6.08085 6.01607 12.4481 5.84845 10.1191 6.36023 6.29379 5.34688 5.31865 5.19153 8.8805 5.16453 6.78103 5.16389 8.6185 5.15768 6.82165 5.1164 5.11397 7.557 7.27475 6.44085 6.38978 7.12246 9.38418 5.97925 5.67163 5.41202 8.39944 6.52098 8.16182 5.27209 4.98779 8.70057 9.67705 8.36853 8.35185 6.75084 6.19048 7.83121 7.2699 5.99292 5.92977 5.43937 5.07219 4.99594 4.97696 6.77923
threshold=1.0000000180025095e-35 1.5000000000000002 2.5000000000000004 72.500000000000014 0.19090909090909094 0.69047619047619058 36.500000000000007 66.500000000000014 29.375000000000004 3.5000000000000004 121.50000000000001 2.5000000000000004 94850.000000000015 75.500000000000014 380.50000000000006 416.50000000000006 94850.000000000015 3.5000000000000004 2.5000000000000004 115.50000000000001 322.50000000000006 935.50000000000011 10709.500000000002 5.5000000000000009 1021.5000000000001 198.50000000000003 8.5000000000000018 144.50000000000003 64050.000000000007 610.50000000000011 67.083333333333357 40.583333333333336 85.833333333333357 126.50000000000001 162.50000000000003 830.50000000000011 89650.000000000015 806.50000000000011 224.50000000000003 103.05000000000001 88450.000000000015 11337.500000000002 111.16666666666667 507.50000000000006 355.50000000000006 4850.0000000000009 473.50000000000006 10129.500000000002 10373.500000000002 6846.5000000000009 542.50000000000011 94.500000000000014 485.50000000000006 512.50000000000011 129.53571428571431 5187.5000000000009 122.52777777777779 82.550000000000011 44.38750000000001 109.50000000000001 97950.000000000015 12044.500000000002 18.513888888888893 55250.000000000007 64.500000000000014 2.5000000000000004 8650.5000000000018 70050.000000000015 96.550000000000011 100.50000000000001 54.708333333333336 39.500000000000007 40650.000000000007 10448.500000000002 115.50000000000001 4.5000000000000009 3.5000000000000004 43.690476190476197 0.42261904761904767 79.050000000000011 156.50000000000003 2425.5000000000005 4298.5000000000009 8271.5000000000018 148.50000000000003 54.500000000000007 2.5000000000000004 10632.500000000002 182.50000000000003 2.5000000000000004 194.50000000000003 2.5000000000000004 16.500000000000004 73.500000000000014 108.16666666666667 97.500000000000014 21.500000000000004 956.50000000000011 280.50000000000006 5723.5000000000009 7914.5000000000009 58.500000000000007 70.500000000000014 176.50000000000003 173.50000000000003 146.83333333333334 42650.000000000007 45.500000000000007 996.50000000000011 358.50000000000006 76.708333333333357 87250.000000000015 40250.000000000007 44.38750000000001 42650.000000000007 166.50000000000003 151.50000000000003 708.50000000000011 11521.500000000002 142.41666666666671 38250.000000000007 27.500000000000004 8.5000000000000018 69250.000000000015 92.500000000000014 356.50000000000006 55.166666666666679 6.5000000000000009 2084.5000000000005 79.833333333333357 95.050000000000011 41.500000000000007 670.50000000000011 240.50000000000003 70450.000000000015 406.50000000000006 2.5000000000000004 540.50000000000011 67.866071428571445 298.50000000000006 74850.000000000015 688.50000000000011 1.0000000180025095e-35 102.04166666666667 160.50000000000003 2.5000000000000004 63.500000000000007 204.50000000000003 506.50000000000006 635.50000000000011 2258.5000000000005 26.500000000000004 97650.000000000015 1.5000000000000002 46.500000000000007 41.500000000000007 507.50000000000006 92.833333333333357 737.50000000000011 0.15476190476190479 150.50000000000003 135.08333333333334 5.5000000000000009 773.50000000000011 47.500000000000007 104.50000000000001 0.43650793650793657 364.50000000000006 39.500000000000007 1.5000000000000002 44.500000000000007 76850.000000000015 132.53571428571431 56.750000000000007
decision_type=2 2 2 2 2 2 2 2 2 2 2 2 10 2 2 2 10 2 2 2 2 2 2 2 2 2 2 2 10 2 2 2 2 2 2 2 8 2 2 2 10 2 2 2 2 10 2 2 2 2 2 2 2 2 2 2 2 2 2 2 8 2 2 10 2 2 2 8 2 2 2 2 10 2 2 2 2 2 2 2 2 2 2 2 2 2 2 2 2 2 2 2 2 2 2 2 2 2 2 2 2 2 2 2 2 2 10 2 2 2 2 10 8 2 8 2 2 2 2 2 8 2 2 10 2 2 2 2 2 2 2 2 2 2 10 2 2 2 2 2 10 2 2 2 2 2 2 2 2 2 2 2 10 2 2 2 2 2 2 2 2 2 2 2 2 2 2 2 2 2 2 10 2 2
left_child=3 8 4 6 16 -5 -1 11 27 89 -9 -7 13 14 133 -15 17 23 21 -20 26 25 137 -3 -25 87 -21 28 -2 30 31 -30 -32 58 35 37 51 38 -35 40 67 43 -43 44 46 -45 65 93 49 50 -42 55 64 56 59 -36 57 -54 86 -55 96 -44 63 -56 -53 66 -41 68 69 70 71 72 -40 74 -71 85 -76 -73 -72 -80 -67 -82 -66 -84 117 -69 108 141 -89 90 102 -87 -10 -47 -38 -96 -39 100 99 -99 101 105 103 104 109 106 -98 -108 118 111 -111 112 113 -8 -114 116 139 -61 127 122 -121 -122 124 -123 125 -120 -126 128 -29 -130 -131 -132 -133 -13 -34 -22 -137 138 -23 140 -116 144 -143 -92 145 147 -146 -18 149 150 152 -149 -147 154 -153 156 -155 -157 162 160 -160 -161 -129 164 165 171 167 -166 -168 170 -165 -164 173 -94
right_child=1 2 -4 5 -6 7 9 10 92 -11 -12 12 -14 15 -16 -17 18 -19 19 20 135 22 -24 24 -26 -27 -28 33 29 -31 32 -33 134 34 36 -37 94 60 39 41 48 42 61 45 -46 47 -48 -49 -50 -51 -52 52 53 54 62 -57 -58 -59 -60 84 -62 -63 -64 -65 82 80 -68 75 -70 73 78 77 -74 -75 76 -77 -78 -79 79 -81 81 -83 83 -85 -86 91 -88 88 -90 -91 143 -93 172 -95 95 -97 97 98 -100 -101 -102 -103 -104 -105 -106 -107 107 -109 -110 110 -112 -113 114 -115 115 -117 -118 -119 119 120 121 123 -124 -125 126 -127 -128 158 129 130 131 132 -134 -135 -136 136 -138 -139 -140 -141 -142 142 -144 -145 146 148 -148 151 -150 -151 -152 153 -154 155 -156 157 -158 -159 159 161 -162 -163 163 169 166 -167 168 -169 -170 -171 -172 -173 -174 -175
leaf_value=0.28629551795602765 -0.064463914875288145 -0.047445042640677171 0.026578503895358804 0.072892702477758753 -0.018965658410359514 0.15637042980629276 -0.11299556120194895 -0.12881522839947074 -0.17293572837341109 0.28974711259446351 0.11813051287560752 0.13199083741404424 -0.1075521691798408 0.062174102130925613 0.2009047578455701 0.26628902323162157 -0.14811483535173892 0.08990023832773951 -0.043674121350665104 0.73396062064690415 -0.078105212120770984 0.25112013851418374 0.42964011691629295 -0.13396922430416847 -0.061241816258783374 0.25639480348141419 0.17773130558975569 -0.11016717207528613 -0.04161336518058447 0.35849864823125516 -0.21915289564922169 0.41483740452286322 0.24257322050513611 -0.13069117489651952 0.0039405788598609248 -0.15491710833164782 -0.13511651952072018 -0.17984653776354456 0.10712097856105275 0.41460175219760254 -0.038204141620934738 0.66367292356314955 0.34759073859039974 0.37873736750977377 0.024059234264463325 0.16719395031365789 0.48330378422050213 0.26446153861149457 -0.06947653240835254 0.54974604039971053 0.425005067936292 -0.01905320272752712 0 -0.11415600101301944 0 0.20466027083997307 -0.015451070225584642 0.56564409226128531 0.30028173510805406 0.047960496856679226 0.33023594016388819 0 0.48551045282697541 0.31771201452768499 -0.026394795286258956 -0.14124350007568359 -0.12837525283852447 -0.15898123428052346 -0.081271677349162408 0.55925619410091887 -0.056324455701444967 -0.049966479454241722 0.59704773836441605 -0.091130981639654274 0.27015869636112089 0.23661790015436143 -0.057602160541069619 0.25722858045931563 -0.068979054488706198 0.35130555936062763 -0.066489190762998474 0.24738144842063259 0.38732644842039426 0.025995715584082181 -0.03544904384430439 0.20750833461688362 -0.10017432243914137 -0.15137807058215474 0.12776173723613257 -0.12997653675745124 0 -0.11203957145163516 0.078315414018851115 -0.057240419329098201 0.24255755694637568 -0.058469745672257947 -0.071773461004358566 0.050857881617737209 -0.027217259250549998 0.52304051914435556 -0.11647350421446702 -0.13057778567244446 0.22552272957012126 -0.1236222093034352 0.288984136150504 0.33423685225501065 -0.011547152447801285 0.27368615354740156 0.25110280036419669 0.35056503355045965 0.014968885268674076 -0.15973582267899866 0.27535772663115077 0.16253521697188533 -0.017198676181476392 -0.17331867007970553 0.34343810307083761 0.39523665747204362 0.33299291634135991 -0.071462733113189861 0.47736937637261179 0.23474620752440167 0.21723189764902509 -0.10736219940727609 -0.26696479007506158 -0.018456198362615393 -0.062082202642029724 0.022323007061134142 0.3165760732411072 -0.15119277996377703 0.37400539984489339 -0.053442291532207635 0.28461015749322061 -0.079553217139202173 -0.020313357094220587 -0.071805064450139122 0.42758880014018119 0.31594612467840921 -0.08955614099447598 -0.14397093281527187 0.20365728262050656 0.14009117558462597 -0.10131504203725113 0.33022759885837016 -0.12000227932380068 0.039395191175480085 0.19129961883388522 -0.13826066103140702 0.33822449042164932 0.37210949376899971 -0.044627231448392743 0.090516404850343013 0.43773135193198232 0.034475505146389404 -0.1994885356402144 -0.054818758615939225 0.5806124133528292 0.10216216811324923 0.028882900237172035 0.1618849658076108 0.45417280734348681 -0.13709996449824949 0.060553474592886944 -0.003028084900078604 0.23564844141740707 0.26168091945140487 0.042077540226492266 -0.03968630908710568 -0.179430245122988 0.10651842062287481 -0.2273414250103466 -0.13994208179090759 0.017798496419019896 0.026301048898460831
leaf_weight=8.2099544778466207 122.93826444074512 8921.7974358014762 1242.5458210743964 2117.3918524160981 2246.7467265836895 286.42801670730114 79.883097231388092 21.602484911680222 8.0239289104938489 6.8038776516914359 16.506506934762001 20.19626796245575 15.654606834053991 232.05627718567848 103.73015062510967 15.443040207028387 25.34687103331089 27.908504042774439 37.413137502968311 4.5337876453995722 9.519613843411209 5.0585158094763818 4.8030708879232398 137.25902970135212 1130.5556659325957 5.0058284476399413 4.1794245913624763 14.844251960515974 5.6905301511287671 4.889099456369876 11.780065476894377 6.374541163444519 6.5816844776272765 11.890745379030703 37.455305978655815 15.515035286545752 50.466586425900459 12.296325236558912 8.1901712566614133 21.821468695998195 9.7122343182563871 6.5825801417231586 9.2434543818235415 6.7509993761777869 36.11220857873559 9.4827239215373975 12.046189799904822 9.1828144714236242 5.2716482281684867 7.8620911240577689 7.7795857936143866 370.95798643678427 5.7856714949011829 34.210102654993534 17.188790384680036 41.735253475606441 6.0982244610786429 10.156339701265095 7.3575752526521674 9.6144923344254476 5.1251280680298796 9.8765321224927884 5.151776745915412 10.609194569289683 13.131096541881563 6.1808154508471516 5.7085533142089835 30.834186680614948 23.656874638050795 7.429774850606921 62.748051919043064 18.711416453123096 7.1032851189374915 5.8442353308200827 16.273681432008747 5.6177815422415724 7.1274295747280112 8.3375289142131788 11.084105812013151 9.9920789748430234 6.4020553082227734 18.021159261465073 9.4025855101645011 9.3975376486778242 17.28925483673811 8.1430475339293498 32.989728070795536 57.994999416172504 6.0743623711168757 34.460850942879915 6.251979745924471 7.9257552549242964 666.52443644404411 65.581419389694929 8.1026359573006612 30.626056045293808 18.151190333068371 5.7750108316540736 14.249753445386885 6.1246360316872597 31.118318717926741 16.663160264492035 6.719380557537078 41.12933486700058 5.8787444159388533 5.9721135497093192 10.561379350721838 13.354058310389517 7.4353951141238204 4.952463921159505 128.13811657577753 28.558782517910004 5.6976301483809939 9.4772682189941388 50.656168729066849 13.286452516913412 6.6542486548423758 6.1070042029023162 5.9643703475594547 11.129110205918549 5.7836585193872478 7.6620642244815809 6.340941570699214 7.7195012867450714 12.237601168453692 20.308239869773388 137.70889900624752 1728.842072956264 15.439047425985335 8.3245749995112401 8.8526670038700122 10.328866459429266 6.0625043734908095 15.599667802453039 31.255611419677734 4.3420889563858491 5.188053086400032 3.5501047968864432 20.675127651542425 13.569531850516794 17.842601764947176 9.0560513734817487 102.11554845422506 6.7779726460576057 49.158662185072899 6.9952418319880945 5.7648263834416857 18.554995633661747 6.8725628368556491 4.4436192624270907 37.698872707784176 13.152584936469795 5.1099686920642853 5.4494045674800855 16.395914860069752 26.800581112504005 3.5459693670272827 39.850186806172132 8.6084503233432788 13.716881822794678 8.9072331413626653 14.023153170943258 36.209318991750479 12.002148374915121 8.7209891453385371 11.180468469858168 11.277207434177397 16.074794769287109 36.970175944268703 5.5923772975802413 29.600346304476261 12.38552328199148 250.16095398366451 287.93553840368986
leaf_count=52 1390 141267 13394 10833 28892 1212 1100 92 110 30 70 86 66 984 440 65 400 383 564 69 146 78 75 2160 17768 78 63 167 63 56 130 70 76 133 399 169 576 134 88 250 108 74 106 76 404 109 130 101 60 87 85 4348 59 373 200 458 72 105 56 105 56 109 38 124 149 69 65 345 263 80 690 206 77 64 177 63 77 92 126 110 74 203 99 99 187 92 402 921 97 499 73 87 5793 738 96 356 204 65 161 67 349 190 85 491 67 67 115 152 82 64 1501 376 73 70 666 162 78 62 64 125 60 82 68 84 131 217 1555 19232 166 93 102 117 69 66 356 65 77 56 316 148 226 143 1595 82 769 108 91 292 100 70 584 207 77 86 258 418 56 628 94 156 95 159 393 128 100 122 118 187 394 64 329 131 2248 2452
internal_value=0 -0.019459 -0.0370517 0.0704998 -0.0431389 0.0837262 -0.00849164 0.11502 0.0303067 -0.0143255 -0.0188156 0.122592 0.0980668 0.106844 0.160032 0.0760554 -0.0481737 -0.0497765 -0.0178773 0.0649206 0.212657 -0.0294384 0.0959612 -0.0501759 -0.0692707 -0.0394155 0.511345 0.0234361 -0.0258919 0.0436322 0.0132372 0.20026 -0.0321619 0.0260435 0.041067 0.068521 0.0147604 0.0742348 0.0915988 0.0973619 0.0634102 0.137603 0.317476 0.112594 0.175143 0.037565 0.250345 0.00608813 0.235573 0.303391 0.17002 0.0280457 0.0150523 0.0910525 0.0500993 0.111954 0.265197 0.375384 0.0170732 -0.0196093 0.0104583 0.173853 0.193085 0.124627 -0.00784397 0.195122 0.297723 0.0402799 0.0657505 0.0880345 0.0498242 0.164167 0.357444 0.213202 0.275116 -0.0477758 0.16696 0.0447735 -0.00749486 0.130009 0.0947984 0.16115 0.116661 0.219643 0.0754323 -0.0870761 0.0160177 -0.0434217 -0.122138 -0.0194881 -0.0100857 0.0451864 0.0518511 -0.0261752 -0.0735476 0.00484218 -0.0025495 0.0153329 0.129848 0.317913 -0.0154781 0.0321234 -0.0164461 -0.0210988 -0.00902105 0.0918652 0.0500646 0.146437 0.0178081 -0.0147541 0.0300154 -0.0416602 -0.0234965 -0.0815337 0.0238499 0.00698245 0.0363388 0.200467 0.0169049 -0.0249919 0.0967656 0.189732 -0.0474136 0.0589447 -0.0583653 0.0636902 -0.0806752 0.0214273 0.105693 0.173912 0.100051 0.188961 0.0715528 0.0370188 0.0260628 0.0574225 0.199736 0.0289676 -0.0136333 0.00746477 0.0401875 -0.0295295 -0.079926 0.17396 -0.00783229 0.011593 -0.0833882 -0.0217495 0.0940493 0.0572692 0.0223188 0.0039221 0.230626 0.0307758 -0.0676336 0.0709219 0.287046 0.0374878 0.0185814 0.109939 0.260181 0.00720516 0.016319 -0.0405997 -0.00727397 0.0580565 -0.0622747 0.0565682 -0.12554 -0.130637 -0.166333 0.0059792 0.0535374 0.0627696
internal_weight=0 19287.1 14251.5 3319.56 13008.9 2844.61 474.948 727.217 5035.68 466.739 38.109 689.108 402.68 387.025 139.526 247.499 10762.2 10217.5 544.65 65.1761 27.763 479.474 34.0868 10189.6 1267.81 445.387 8.71321 3823.03 189.51 66.5715 61.6824 12.0651 49.6174 3633.52 1352.92 659.435 693.486 643.92 504.529 492.638 269.645 222.993 25.7026 197.29 106.292 90.998 70.1802 84.247 30.6256 25.3539 17.4918 604.291 525.1 122.211 100.171 79.1906 22.0402 15.942 2280.6 67.2209 139.391 19.12 32.9498 27.798 402.889 58.1341 27.53 239.019 186.499 162.842 126.167 42.3424 15.2935 36.6751 30.8309 52.5208 23.4011 27.0489 83.8242 21.0762 30.604 24.4232 31.9312 18.8001 33.0108 46.903 2273.24 440.381 64.0694 459.935 425.474 16.0688 1212.64 75.0641 89.1953 38.7287 134.266 121.97 26.1494 11.8996 95.8202 64.7019 412.444 405.724 364.595 48.0387 42.0666 23.9154 2240.25 358.716 133.091 225.626 197.067 89.3604 107.707 102.009 88.7226 15.7215 2232.82 214.854 32.2943 21.1652 182.56 15.3816 176.219 26.2726 149.947 2017.96 63.8519 49.0077 33.5686 25.244 16.3914 35.7959 37.8373 19.0498 9.53014 29.2837 25.7336 82.0683 68.4988 376.312 111.172 13.03 265.14 210.217 54.9235 149.097 61.1203 54.2477 49.8041 123.75 12.1052 105.195 29.5485 75.6461 8.99537 66.6508 1954.11 45.2557 17.5157 27.74 1908.86 180.013 132.818 59.7753 73.0432 24.7958 48.2474 47.1949 41.6025 48.5948 1204.62 954.46
internal_count=285446 265689 212351 19757 198957 13914 5843 3081 53338 5791 162 2919 1707 1641 592 1049 170065 161578 8487 984 420 7503 525 161195 19928 6978 132 42735 2141 751 695 133 562 40594 15252 7347 7905 7178 5618 5485 2977 2508 289 2219 1195 1024 791 948 340 280 193 6877 6020 1325 1089 857 236 164 25342 727 1560 215 362 324 4695 661 315 2637 2050 1787 1389 463 165 398 334 587 254 298 926 236 346 277 347 198 354 524 25286 6900 1018 5761 5262 179 10603 847 1028 452 1504 1370 293 132 1077 728 5107 5022 4531 538 471 267 24884 4464 1565 2899 2523 1170 1353 1280 1118 167 24802 2386 351 226 2035 166 1967 281 1686 22416 714 547 381 288 186 152 432 288 142 450 394 1040 892 5882 1738 155 4144 3284 860 2345 939 839 769 1945 185 1653 465 1188 142 1046 21702 504 189 315 21198 1966 1445 646 799 287 512 521 457 524 10493 8245
is_linear=0
shrinkage=0.279228


end of trees

feature_importances:
price=77
income=71
cat__shopID=65
price_lst_01_sum=63
cat__postalAddress_clean=58
age=55
cat__residentialAddress_clean=48
hist_price_sum=46
price_lst_03_sum=35
hist_price_avg=28
price_lst_03_avg=28
price_lst_06_sum=21
cat__sex=18
cat__geo_risk_rank=18
money_lost_lst_06_avg=17
money_lost_lst_06_sum=15
money_lost_lst_03_sum=13
money_lost_lst_03_avg=13
price_lst_06_avg=13
hist_trans_count=12
money_lost_lst_01_sum=12
late_payment_first_lst_03_avg=11
late_payment_first_lst_06_avg=10
hist_late_avg=9
hist_default_avg=8
late_payment_first_lst_06_sum=7
late_payment_first_lst_01_sum=6
late_lst_03_sum=6
money_lost_lst_09_sum=6
money_lost_lst_09_avg=6
late_payment_first_lst_03_sum=5
late_payment_first_lst_09_avg=5
cat__same_address=5
defualted_payment_lst_06_avg=4
late_payment_first_lst_09_sum=4
default_lst_09_avg=4
defualted_payment_lst_03_sum=3
defualted_payment_lst_03_avg=3
defualted_payment_lst_06_sum=3
late_lst_06_sum=3
late_lst_06_avg=3
default_lst_09_sum=3
price_lst_09_sum=3
defualted_payment_lst_09_avg=3
late_payment_first_lst_12_sum=3
defualted_payment_lst_01_sum=2
default_lst_03_sum=2
late_lst_09_sum=2
late_lst_09_avg=2
money_lost_lst_12_sum=2
defualted_payment_lst_12_avg=2
money_lost_lst_12_avg=2
hist_default_sum=1
late_lst_01_sum=1
late_lst_03_avg=1
default_lst_06_avg=1
defualted_payment_lst_09_sum=1
price_lst_09_avg=1
default_lst_12_avg=1

parameters:
[boosting: gbdt]
[objective: binary]
[metric: auc,average_precision,binary_logloss]
[tree_learner: serial]
[device_type: cpu]
[linear_tree: 0]
[data: ]
[valid: ]
[num_iterations: 300]
[learning_rate: 0.279228]
[num_leaves: 175]
[num_threads: 0]
[deterministic: 1]
[force_col_wise: 0]
[force_row_wise: 0]
[histogram_pool_size: -1]
[max_depth: 17]
[min_data_in_leaf: 56]
[min_sum_hessian_in_leaf: 0.001]
[bagging_fraction: 0.900511]
[pos_bagging_fraction: 1]
[neg_bagging_fraction: 1]
[bagging_freq: 5]
[bagging_seed: 22734]
[feature_fraction: 0.981533]
[feature_fraction_bynode: 1]
[feature_fraction_seed: 5052]
[extra_trees: 0]
[extra_seed: 5559]
[early_stopping_round: 15]
[first_metric_only: 0]
[max_delta_step: 0]
[lambda_l1: 0.394589]
[lambda_l2: 0.686508]
[linear_lambda: 0]
[min_gain_to_split: 0]
[drop_rate: 0.1]
[max_drop: 50]
[skip_drop: 0.5]
[xgboost_dart_mode: 0]
[uniform_drop: 0]
[drop_seed: 23992]
[top_rate: 0.2]
[other_rate: 0.1]
[min_data_per_group: 100]
[max_cat_threshold: 32]
[cat_l2: 10]
[cat_smooth: 10]
[max_cat_to_onehot: 4]
[top_k: 20]
[monotone_constraints: ]
[monotone_constraints_method: basic]
[monotone_penalty: 0]
[feature_contri: ]
[forcedsplits_filename: ]
[refit_decay_rate: 0.9]
[cegb_tradeoff: 1]
[cegb_penalty_split: 0]
[cegb_penalty_feature_lazy: ]
[cegb_penalty_feature_coupled: ]
[path_smooth: 0]
[interaction_constraints: ]
[verbosity: 1]
[saved_feature_importance_type: 0]
[max_bin: 255]
[max_bin_by_feature: ]
[min_data_in_bin: 3]
[bin_construct_sample_cnt: 200000]
[data_random_seed: 2213]
[is_enable_sparse: 1]
[enable_bundle: 1]
[use_missing: 1]
[zero_as_missing: 0]
[feature_pre_filter: 0]
[pre_partition: 0]
[two_round: 0]
[header: 0]
[label_column: ]
[weight_column: ]
[group_column: ]
[ignore_column: ]
[categorical_feature: ]
[forcedbins_filename: ]
[objective_seed: 29849]
[num_class: 1]
[is_unbalance: 0]
[scale_pos_weight: 1]
[sigmoid: 1]
[boost_from_average: 1]
[reg_sqrt: 0]
[alpha: 0.9]
[fair_c: 1]
[poisson_max_delta_step: 0.7]
[tweedie_variance_power: 1.5]
[lambdarank_truncation_level: 30]
[lambdarank_norm: 1]
[label_gain: ]
[eval_at: ]
[multi_error_top_k: 1]
[auc_mu_weights: ]
[num_machines: 1]
[local_listen_port: 12400]
[time_out: 120]
[machine_list_filename: ]
[machines: ]
[gpu_platform_id: -1]
[gpu_device_id: -1]
[gpu_use_dp: 0]
[num_gpu: 1]

end of parameters

pandas_categorical:null
