tree
version=v3
num_class=1
num_tree_per_iteration=1
label_index=0
max_feature_idx=45
objective=binary sigmoid:1
feature_names=age income price hist_trans_count hist_default_sum hist_default_avg hist_late_sum hist_late_avg hist_price_sum hist_price_avg default_lst_01_sum late_lst_01_sum price_lst_01_sum default_lst_01_avg late_lst_01_avg price_lst_01_avg default_lst_03_sum late_lst_03_sum price_lst_03_sum default_lst_03_avg late_lst_03_avg price_lst_03_avg default_lst_06_sum late_lst_06_sum price_lst_06_sum default_lst_06_avg late_lst_06_avg price_lst_06_avg default_lst_09_sum late_lst_09_sum price_lst_09_sum default_lst_09_avg late_lst_09_avg price_lst_09_avg default_lst_12_sum late_lst_12_sum price_lst_12_sum default_lst_12_avg late_lst_12_avg price_lst_12_avg cat__sex cat__residentialAddress_clean cat__postalAddress_clean cat__geo_risk_rank cat__shopID cat__same_address
feature_infos=[5:89] [0:100000] [3:200] [1:14] [0:9] [0:1] [0:10] [0:1] [3:1763] [3:200] [0:1] [0:1] [3:200] [0:1] [0:1] [3:200] [0:3] [0:3] [3:599] [0:1] [0:1] [3:200] [0:6] [0:6] [3:1094] [0:1] [0:1] [3:200] [0:8] [0:9] [3:1487] [0:1] [0:1] [3:200] [0:9] [0:10] [3:1763] [0:1] [0:1] [3:200] [1:3] [1:13260] [1:13261] [0:5] [100:999] [0:1]
tree_sizes=993 997 1002 988 1011 991 995 993 1004 1010 994 999 1002 1008 1007 1004 1007 1008 996 996 1008 992 992 1010 1003 1003 1015 998 994 1005 989 1002 1002 1009 884 980 1008 1000 999 998 1011 995 1004 1003 1004 989 1005 1004 1009 998 1008 997 903 903 1004 1006 1000 997

Tree=0
num_leaves=8
num_cat=0
split_feature=45 31 31 25 16 22 28
split_gain=6442.19 2670.13 476.418 424.132 89.9514 34.5071 18.5278
threshold=1.0000000180025095e-35 0.43650793650793657 0.18333333333333338 0.18333333333333338 1.5000000000000002 1.5000000000000002 1.0000000180025095e-35
decision_type=2 10 8 10 10 10 10
left_child=1 2 -1 6 -3 -5 -2
right_child=3 4 -4 5 -6 -7 -8
leaf_value=-2.1966177546041026 -2.3381039309053073 -1.704800264871781 -1.9401844459556927 -2.2749850641046643 -1.5207026580707441 -2.2266551516722206 -2.3061873083061388
leaf_weight=376.20361157506704 9139.1689796298742 118.98879934102297 198.50814329087734 1480.9337674081326 152.3222469612956 323.55003137886524 342.70432590693235
leaf_count=4537 110218 1435 2394 17860 1837 3902 4133
internal_value=-2.29853 -1.94325 -2.10737 -2.32564 -1.59821 -2.26624 -2.33696
internal_weight=0 846.023 574.712 11286.4 271.311 1804.48 9481.87
internal_count=146316 10203 6931 136113 3272 21762 114351
is_linear=0
shrinkage=1


Tree=1
num_leaves=8
num_cat=0
split_feature=37 16 5 5 5 41 5
split_gain=1973.51 329.397 322.003 171.054 46.5997 21.6636 17.9207
threshold=0.35416666666666669 1.5000000000000002 0.17424242424242428 0.68333333333333346 0.095454545454545472 567.50000000000011 0.5277777777777779
decision_type=10 10 10 10 8 2 10
left_child=2 6 4 -3 -1 -4 -2
right_child=1 3 5 -5 -6 -7 -8
leaf_value=-0.030942305904262741 0.095395591983060732 0.18142636834154366 0.10842116900726932 0.35422161611939657 -0.0034785462373002874 0.038167330581109035 0.14341041438659946
leaf_weight=8385.7050912454724 530.73800189048052 244.62067492306232 84.197421595454216 185.60719959437847 1278.8156843334436 1250.0808692574501 209.21955188363791
leaf_count=103942 5732 2235 964 1402 15504 14388 2149
internal_value=0 0.163802 -0.0188078 0.256897 -0.0273151 0.0427386 0.109263
internal_weight=0 1170.19 10998.8 430.228 9664.52 1334.28 739.958
internal_count=146316 11518 134798 3637 119446 15352 7881
is_linear=0
shrinkage=0.133747


Tree=2
num_leaves=8
num_cat=0
split_feature=45 16 34 3 32 36 36
split_gain=2962.28 424.258 204.653 57.9296 23.4397 14.0022 12.2128
threshold=1.0000000180025095e-35 1.0000000180025095e-35 1.0000000180025095e-35 2.5000000000000004 0.5277777777777779 870.50000000000011 659.50000000000011
decision_type=2 8 10 10 10 10 8
left_child=1 3 5 -1 -4 -2 -3
right_child=2 6 4 -5 -6 -7 -8
leaf_value=0.14465226318292906 -0.031922096973861017 0.26755218186715146 0.017481595257827266 0.044255714661669013 -0.022506503719222373 -0.083828134133791879 0.21523630029357524
leaf_weight=191.04094449430704 8546.6682396456599 622.6216519549489 2012.4633404314518 229.24552547931671 299.24060832709074 94.673527926206589 147.73812594264746
leaf_count=2175 108989 4268 22536 2529 3378 1210 1231
internal_value=0 0.198977 -0.0230524 0.0903138 0.0122713 -0.0325092 0.25795
internal_weight=0 1190.65 10953 420.286 2311.7 8641.34 770.36
internal_count=146316 10203 136113 4704 25914 110199 5499
is_linear=0
shrinkage=0.133747


Tree=3
num_leaves=8
num_cat=0
split_feature=40 5 5 5 34 5 34
split_gain=1209.28 420.265 328.806 115.281 76.14 30.3998 27.3127
threshold=1.5000000000000002 0.27922077922077926 0.58571428571428574 0.19090909090909094 2.5000000000000004 0.13392857142857145 3.5000000000000004
decision_type=2 10 10 8 10 10 10
left_child=1 5 3 -2 -3 -1 -4
right_child=2 4 6 -5 -6 -7 -8
leaf_value=-0.040514973844590407 0.036570221194765856 0.033714436021094661 0.1825736621812182 0.093587912227540246 0.13598128642967375 -0.011968130293374764 0.2935861560290694
leaf_weight=7003.6904950290918 1838.6629510298371 1091.338379368186 240.33463427424431 974.28008848428726 147.60388633608818 745.46576263010502 55.098138689994812
leaf_count=90449 23828 10116 1793 10664 868 8313 285
internal_value=0 -0.02621 0.070552 0.0563711 0.0460663 -0.0377785 0.204594
internal_weight=0 8988.1 3108.38 2812.94 1238.94 7749.16 295.433
internal_count=146316 109746 36570 34492 10984 98762 2078
is_linear=0
shrinkage=0.133747


Tree=4
num_leaves=8
num_cat=0
split_feature=25 34 37 19 25 24 20
split_gain=692.551 121.864 70.5946 37.7323 22.678 22.2532 13.3036
threshold=0.29166666666666669 2.5000000000000004 0.095454545454545472 0.58333333333333337 0.63333333333333341 153.50000000000003 0.41666666666666669
decision_type=10 10 8 10 10 10 8
left_child=2 3 5 -2 -3 -1 -4
right_child=1 4 6 -5 -6 -7 -8
leaf_value=-0.0090998946160597335 0.040827694163245672 0.091868182659187558 0.017703152634248806 0.081994492920270654 0.17198386201000579 -0.025922334043019843 -0.0037353519203151327
leaf_weight=1856.2183383479714 1207.3349184021354 104.32422431558371 920.79926075786352 605.93347355723381 204.97871481627226 5985.6676477789879 1172.8940124362707
leaf_count=24461 11716 732 10171 4545 1003 79481 14207
internal_value=0 0.0680185 -0.0161236 0.0546618 0.145614 -0.0219497 0.00567067
internal_weight=0 2122.57 9935.58 1813.27 309.303 7841.89 2093.69
internal_count=146316 17996 128320 16261 1735 103942 24378
is_linear=0
shrinkage=0.133747


Tree=5
num_leaves=8
num_cat=0
split_feature=45 40 5 40 3 5 27
split_gain=1583.26 745.781 101.883 52.1773 45.1557 16.9812 7.62326
threshold=1.0000000180025095e-35 1.5000000000000002 0.17424242424242428 1.5000000000000002 2.5000000000000004 0.095454545454545472 91.550000000000011
decision_type=2 2 8 2 10 8 10
left_child=2 6 4 -4 -1 -3 -2
right_child=1 5 3 -5 -6 -7 -8
leaf_value=0.12043470987831287 -0.045333597427948638 0.030488504510185338 0.13364450918874776 0.20080779699107629 0.031715667631152793 0.051549881319065578 -0.036666505314451155
leaf_weight=207.17156907171011 3384.1593228206038 1684.4364461675286 663.36141967028379 321.9547835290432 208.91505227982998 1193.5402210429311 4348.8394376933575
leaf_count=2175 44643 21845 3980 1686 2362 12205 57420
internal_value=0 -0.0188399 0.132358 0.15587 0.0762499 0.0392611 -0.0404734
internal_weight=0 10611 1401.4 985.316 416.087 2877.98 7733
internal_count=146316 136113 10203 5666 4537 34050 102063
is_linear=0
shrinkage=0.133747


Tree=6
num_leaves=8
num_cat=0
split_feature=45 40 31 40 3 5 44
split_gain=1114.29 569.986 71.4866 40.8332 24.4404 11.5192 6.89534
threshold=1.0000000180025095e-35 1.5000000000000002 0.2678571428571429 1.5000000000000002 1.5000000000000002 0.095454545454545472 995.50000000000011
decision_type=2 2 8 2 10 8 2
left_child=2 6 4 -4 -1 -3 -2
right_child=1 5 3 -5 -6 -7 -8
leaf_value=0.12056202833050025 -0.03664361608123675 0.025704056570628867 0.10791727410240681 0.16721051344448409 0.050983673565990442 0.042791857901532164 0.021433466373574579
leaf_weight=118.55632594972849 7441.2578243389726 1727.5647508427501 637.52027188241482 328.94853855669498 414.96751317381859 1241.8849643617868 34.763271182775497
leaf_count=1130 101587 21845 3471 1567 4035 12205 476
internal_value=0 -0.0166698 0.106561 0.128343 0.0667922 0.0328845 -0.0363624
internal_weight=0 10445.5 1499.99 966.469 533.524 2969.45 7476.02
internal_count=146316 136113 10203 5038 5165 34050 102063
is_linear=0
shrinkage=0.133747


Tree=7
num_leaves=8
num_cat=0
split_feature=45 42 40 42 3 42 39
split_gain=799.804 526.995 435.748 35.5312 34.9806 8.72923 6.06437
threshold=1.0000000180025095e-35 153.50000000000003 1.5000000000000002 152.50000000000003 3.5000000000000004 284.50000000000006 91.527777777777786
decision_type=2 2 2 2 10 2 10
left_child=1 3 6 -1 -3 -4 -2
right_child=2 4 5 -5 -6 -7 -8
leaf_value=0.11047198728379652 -0.037052340162025375 0.15001473905673632 0.068507851108166831 -0.05818533551945658 0.10154402408990494 0.026386780484864432 -0.029071852427004614
leaf_weight=22.472480081021786 3150.8289700597525 733.94445054233074 91.956965655088425 363.96546661108732 455.61609863489866 2955.5931602418423 4099.9718089178205
leaf_count=130 44514 4486 1010 3021 2566 33040 57549
internal_value=0 0.0875598 -0.014715 -0.0479124 0.131621 0.0277035 -0.0325533
internal_weight=0 1576 10298.4 386.438 1189.56 3047.55 7250.8
internal_count=146316 10203 136113 3151 7052 34050 102063
is_linear=0
shrinkage=0.133747


Tree=8
num_leaves=8
num_cat=0
split_feature=5 22 30 5 21 21 0
split_gain=221.096 36.713 19.774 17.8943 12.4258 6.98883 6.66558
threshold=0.17424242424242428 1.5000000000000002 146.50000000000003 0.78888888888888908 86.833333333333357 136.83333333333334 16.500000000000004
decision_type=10 10 10 10 10 10 2
left_child=2 6 5 -3 -4 -1 -2
right_child=1 3 4 -5 -6 -7 -8
leaf_value=-0.0035748933133380343 -0.052197851752886951 0.040031034140691056 -0.026581997649317034 0.082325685105706981 -0.012712992428716881 0.036808205655318782 0.019985512772449029
leaf_weight=2500.6977564841509 21.56863110512495 774.57184508442879 1575.5283885523677 239.76546496897936 4489.7993607856333 77.693475157022476 2123.4046729207039
leaf_count=33186 204 5325 22270 1087 62939 1051 20254
internal_value=0 0.0291801 -0.0121579 0.0501719 -0.0163297 -0.00231897 0.0192037
internal_weight=0 3159.31 8643.72 1014.34 6065.33 2578.39 2144.97
internal_count=146316 26870 119446 6412 85209 34237 20458
is_linear=0
shrinkage=0.133747


Tree=9
num_leaves=8
num_cat=0
split_feature=45 22 6 6 22 21 1
split_gain=541.691 28.2718 14.6034 10.8055 9.12891 9.10384 5.31387
threshold=1.0000000180025095e-35 1.0000000180025095e-35 1.5000000000000002 2.5000000000000004 1.0000000180025095e-35 138.83333333333334 93850.000000000015
decision_type=2 8 10 10 10 8 8
left_child=1 2 -1 4 -2 -3 -5
right_child=3 5 -4 6 -6 -7 -8
leaf_value=0.053904055157413096 -0.013257642083686346 0.074244155618557836 -0.0054428585562119394 -0.02962967433230361 -0.0033401345183611871 0.10238780404000125 0.0068895797296291616
leaf_weight=357.96354650706053 7050.6711124219 874.81342406570911 91.053190857172012 807.28320174664259 2194.6907161995769 306.44515661895275 74.981913916766644
leaf_count=3316 101333 4197 951 11331 22465 1637 1042
internal_value=0 0.0707683 0.0417599 -0.0122733 -0.0109104 0.0816919 -0.0264558
internal_weight=0 1630.28 449.017 10127.6 9245.36 1181.26 882.265
internal_count=146272 10101 4267 136171 123798 5834 12373
is_linear=0
shrinkage=0.133747


Tree=10
num_leaves=8
num_cat=0
split_feature=37 34 3 42 42 3 1
split_gain=97.8 33.1231 27.0257 31.087 18.9935 9.96422 5.75568
threshold=0.19090909090909094 3.5000000000000004 1.5000000000000002 188.50000000000003 153.50000000000003 6.5000000000000009 28750.000000000004
decision_type=10 10 10 2 2 10 10
left_child=2 4 3 -1 -2 -4 -3
right_child=1 6 5 -5 -6 -7 -8
leaf_value=-0.058751327736138961 -0.031458787046940384 0.1232783256756452 -0.011392394412818559 0.0076424039348712905 0.018516662573515391 -0.032385268448982527 0.061359757235172695
leaf_weight=132.34662405401468 140.7578592300415 44.42826434969902 5673.8089747130871 2239.9197481200099 2931.3319814801216 438.70531514286995 99.248122669756413
leaf_count=1303 908 190 81746 30293 25269 6143 420
internal_value=0 0.0191745 -0.00821073 0.00388587 0.0161966 -0.0129146 0.0817797
internal_weight=0 3215.77 8484.78 2372.27 3072.09 6112.51 143.676
internal_count=146272 26787 119485 31596 26177 87889 610
is_linear=0
shrinkage=0.133747


Tree=11
num_leaves=8
num_cat=0
split_feature=45 42 5 42 2 2 9
split_gain=380.931 299.042 37.3983 25.5062 10.0865 9.84511 9.55593
threshold=1.0000000180025095e-35 153.50000000000003 0.27922077922077926 152.50000000000003 142.50000000000003 169.50000000000003 193.16666666666671
decision_type=2 2 10 2 2 2 10
left_child=1 3 -3 -1 6 -6 -2
right_child=4 2 -4 -5 5 -7 -8
leaf_value=0.084571966659544459 -0.012842488844648271 0.12040917105956368 0.07184884431891933 -0.058045637771778895 0.0043786879190234052 -0.011117937942600936 -0.077921065954134935
leaf_weight=22.635761551558971 7024.93861887604 437.14503494650126 873.3843397796154 340.50789156556129 1369.9042924679816 1567.2213766090572 39.787337522953749
leaf_count=125 95586 3237 3818 2921 18653 21375 557
internal_value=0 0.0584286 0.0881875 -0.0487449 -0.0104888 -0.00387182 -0.0132305
internal_weight=0 1673.67 1310.53 363.144 10001.9 2937.13 7064.73
internal_count=146272 10101 7055 3046 136171 40028 96143
is_linear=0
shrinkage=0.133747


Tree=12
num_leaves=8
num_cat=0
split_feature=40 45 45 25 19 44 27
split_gain=356.468 205.894 87.1039 16.6414 12.2764 9.31728 8.41612
threshold=1.5000000000000002 1.0000000180025095e-35 1.0000000180025095e-35 0.91666666666666685 0.41666666666666669 192.50000000000003 191.58333333333334
decision_type=2 2 2 8 10 2 10
left_child=1 5 3 -2 -4 -1 -3
right_child=2 6 4 -5 -6 -7 -8
leaf_value=0.070309046157045252 0.067963861763673666 -0.024711684307901126 0.029539808874715821 0.12122836408875819 0.0032492234364114424 0.030335615166355273 -0.07889773157545972
leaf_weight=117.98952972143888 305.06608612835407 6794.9007424265146 2702.5246827676892 174.76548713445663 366.0308476537466 1110.2417413815856 51.708382237702608
leaf_count=729 1747 101158 31315 757 2896 6868 802
internal_value=0 -0.0160925 0.03476 0.0877417 0.026425 0.0342883 -0.0251433
internal_weight=0 8074.84 3548.39 479.832 3068.56 1228.23 6846.61
internal_count=146272 109557 36715 2504 34211 7597 101960
is_linear=0
shrinkage=0.133747


Tree=13
num_leaves=8
num_cat=0
split_feature=45 20 27 23 27 15 15
split_gain=207.487 13.1045 9.91869 7.99246 7.64359 3.97405 2.82084
threshold=1.0000000180025095e-35 0.58333333333333337 147.08333333333334 2.5000000000000004 29.708333333333339 187.50000000000003 5.5000000000000009
decision_type=2 10 8 10 8 10 10
left_child=1 2 -1 4 -2 -3 -5
right_child=3 5 -4 6 -6 -7 -8
leaf_value=0.041337316008766126 -0.027694024183757084 0.0097317212262490321 0.069431440187058727 0.039549997855863037 -0.0061824886545668598 0.082144536748457009 -0.022113676994931056
leaf_weight=1182.7721210345626 306.55839629098773 247.46568417549133 292.02486138790846 11.771679207682608 8746.8671252764761 13.510058201849459 770.35759571939707
leaf_count=6732 4276 1645 1630 176 120312 94 11407
internal_value=0 0.0420876 0.0469919 -0.0080529 -0.00692086 0.0140641 -0.0210522
internal_weight=0 1735.77 1474.8 9835.55 9053.43 260.976 782.129
internal_count=146272 10101 8362 136171 124588 1739 11583
is_linear=0
shrinkage=0.133747


Tree=14
num_leaves=8
num_cat=0
split_feature=40 45 45 41 25 33 5
split_gain=266.348 118.861 47.0506 14.7581 8.48603 7.3101 7.01746
threshold=1.5000000000000002 1.0000000180025095e-35 1.0000000180025095e-35 7932.5000000000009 0.63333333333333341 191.58333333333334 0.68333333333333346
decision_type=2 2 2 2 10 10 10
left_child=1 6 3 -2 -4 -3 -1
right_child=2 5 4 -5 -6 -7 -8
leaf_value=0.027730240328895726 0.083768562080562672 -0.020944510509511655 0.025108303650945209 0.0327993349204986 -0.0069212778265063998 -0.073248185590722326 0.00080389647894705499
leaf_weight=1057.4147414118052 338.85038585960865 6606.0962885506451 2963.1965151652694 154.44807358831167 152.33898910135031 48.041969604790211 212.36335799098015
leaf_count=6724 1719 101158 33110 785 1101 802 873
internal_value=0 -0.014184 0.0296447 0.0680468 0.0235217 -0.0213441 0.0232772
internal_weight=0 7923.92 3608.83 493.298 3115.54 6654.14 1269.78
internal_count=146272 109557 36715 2504 34211 101960 7597
is_linear=0
shrinkage=0.133747


Tree=15
num_leaves=8
num_cat=0
split_feature=5 8 28 12 17 0 12
split_gain=28.9514 18.1997 10.5291 9.45467 8.67039 6.84993 6.77913
threshold=0.14835164835164838 378.50000000000006 3.5000000000000004 198.50000000000003 1.5000000000000002 54.500000000000007 33.500000000000007
decision_type=10 10 10 10 10 2 8
left_child=1 6 4 -3 -2 -4 -1
right_child=2 3 5 -5 -6 -7 -8
leaf_value=-0.011493937634821554 0.011123118088681404 -0.015888376443409909 0.067266533100077297 0.053120626134911461 -0.0085180518781495674 0.0045287956835809943 0.0011900022959842951
leaf_weight=889.71914185211062 2808.2861879467964 2282.1568515747786 91.053558595478535 34.544560719281435 464.895144328475 50.347244583070278 4871.6348568163812
leaf_count=13126 23776 34416 395 518 4550 214 69277
internal_value=0 -0.00479791 0.00988873 -0.0148072 0.0083138 0.0455603 -0.000760829
internal_weight=0 8078.06 3414.58 2316.7 3273.18 141.401 5761.35
internal_count=146272 117337 28935 34934 28326 609 82403
is_linear=0
shrinkage=0.133747


Tree=16
num_leaves=8
num_cat=0
split_feature=42 42 37 8 8 0 6
split_gain=47.8902 36.9065 22.5529 16.9403 10.1995 9.61234 3.6202
threshold=153.50000000000003 152.50000000000003 0.13392857142857145 378.50000000000006 364.50000000000006 52.500000000000007 1.5000000000000002
decision_type=2 2 8 10 10 2 10
left_child=1 6 3 -2 -3 -4 -1
right_child=2 4 5 -5 -6 -7 -8
leaf_value=-0.00076513019786478807 0.0012599887890751842 -0.080479605233792689 0.014617514503418961 -0.013211172546253635 -0.030838403005538528 0.0015937045135883607 0.043796344138513785
leaf_weight=147.13739222660661 4631.0648252032697 237.83182633668184 2461.0624217949808 2099.5931458249688 116.94289263337851 1741.8429033979774 39.828812755644321
leaf_count=1886 68588 1903 23283 32546 1018 16507 541
internal_value=0 -0.0391481 0.00154646 -0.00324727 -0.0644396 0.00923563 0.00864534
internal_weight=0 541.741 10933.6 6730.66 354.775 4202.91 186.966
internal_count=146272 5348 140924 101134 2921 39790 2427
is_linear=0
shrinkage=0.133747


Tree=17
num_leaves=8
num_cat=0
split_feature=45 24 22 19 9 44 44
split_gain=114.459 9.20512 8.79267 7.56138 6.10703 5.70424 4.16831
threshold=1.0000000180025095e-35 139.50000000000003 1.0000000180025095e-35 0.41666666666666669 193.16666666666671 842.50000000000011 140.50000000000003
decision_type=2 10 10 10 10 2 2
left_child=1 5 -3 4 -2 -1 -5
right_child=3 2 -4 6 -6 -7 -8
leaf_value=0.055265171832928839 -0.0046977108645813639 0.0070794350415651188 0.03184524050235342 0.024457550811124027 -0.053748718291516936 0.014901303083269292 -0.021201058274026269
leaf_weight=356.20345211029053 8898.81059223786 357.74499648064375 974.52035230398178 35.497576773166656 44.668294467031956 82.300496555864811 717.74796361476183
leaf_count=2011 128495 3205 4419 327 747 466 6602
internal_value=0 0.0309165 0.0252506 -0.00605061 -0.00495641 0.0478824 -0.0189372
internal_weight=0 1770.77 1332.27 9696.72 8943.48 438.504 753.246
internal_count=146272 10101 7624 136171 129242 2477 6929
is_linear=0
shrinkage=0.133747


Tree=18
num_leaves=8
num_cat=0
split_feature=40 39 12 41 41 12 30
split_gain=160.936 7.059 9.69918 6.96519 12.437 7.24709 6.15889
threshold=1.5000000000000002 186.16666666666671 188.50000000000003 3232.5000000000005 2766.5000000000005 128.50000000000003 936.50000000000011
decision_type=2 10 10 2 2 8 10
left_child=1 6 -3 4 -2 -5 -1
right_child=3 2 -4 5 -6 -7 -8
leaf_value=-0.011012333272366948 0.026235533103697389 0.11391260358039643 0.0034268303840014913 0.012771715931788124 0.068197105829210722 0.027574726420906089 -0.051165464629522171
leaf_weight=7645.8695427551866 1038.787450119853 16.77666150778532 73.787859626114368 1462.3055328801274 146.16398060321808 1025.7307113036513 68.65335076674819
leaf_count=107607 10278 251 1167 14782 1465 10260 992
internal_value=0 -0.0109428 0.0257617 0.0230031 0.0315247 0.0189081 -0.0113851
internal_weight=0 7805.09 90.5645 3672.99 1184.95 2488.04 7714.52
internal_count=146802 110017 1418 36785 11743 25042 108599
is_linear=0
shrinkage=0.133747


Tree=19
num_leaves=8
num_cat=0
split_feature=28 21 2 24 41 2 21
split_gain=11.3304 8.85257 7.57141 6.84345 6.4049 5.74086 5.15345
threshold=1.5000000000000002 186.83333333333334 146.50000000000003 223.50000000000003 437.50000000000006 183.50000000000003 71.833333333333357
decision_type=10 10 2 8 2 2 10
left_child=1 3 4 -1 -2 -3 -4
right_child=2 5 6 -5 -6 -7 -8
leaf_value=0.0029156202744864638 0.068911139304175625 0.022332915911815632 -0.041955474815273251 -0.0043845727379193235 0.016482361346553301 0.1166918649109938 0.0029472388920142524
leaf_weight=3465.7748445421457 43.964889951050282 126.90033397078514 55.108768291771412 6770.8211065866053 762.61320039629936 12.113658256828783 233.26755590736866
leaf_count=45639 275 1759 347 92455 4721 160 1446
internal_value=0 -0.00144501 0.0128526 -0.00190731 0.019511 0.0319087 -0.00557627
internal_weight=0 10375.6 1094.95 10236.6 806.578 139.014 288.376
internal_count=146802 140013 6789 138094 4996 1919 1793
is_linear=0
shrinkage=0.133747


Tree=20
num_leaves=8
num_cat=0
split_feature=45 12 30 9 18 18 18
split_gain=68.2619 11.6043 10.9399 8.34858 6.60957 5.64158 5.56391
threshold=1.0000000180025095e-35 32.500000000000007 136.50000000000003 72.816666666666677 472.50000000000006 166.50000000000003 17.500000000000004
decision_type=2 10 10 10 10 8 8
left_child=2 5 6 -4 -3 -2 -1
right_child=1 4 3 -5 -6 -7 -8
leaf_value=0.10879847523875562 -0.023766179916479981 -0.0028007236874179561 -0.011632699824022822 0.021614314328582188 0.019094718518196319 -0.0086070053936675474 0.038520333617572199
leaf_weight=21.529019236564636 645.27037401124835 7334.1579073145986 149.14008011668921 1197.5422857925296 253.46699085459113 1444.6686001382768 416.68155477941036
leaf_count=128 9217 103566 857 6841 3567 20326 2300
internal_value=0 -0.00449932 0.0239579 0.0178826 -0.00205879 -0.013326 0.0423963
internal_weight=0 9677.56 1784.89 1346.68 7587.62 2089.94 438.211
internal_count=146802 136676 10126 7698 107133 29543 2428
is_linear=0
shrinkage=0.133747


Tree=21
num_leaves=8
num_cat=0
split_feature=31 2 2 12 39 8 12
split_gain=6.19959 10.4969 9.03614 7.20121 8.45109 7.57693 5.53112
threshold=0.21111111111111114 198.50000000000003 7.5000000000000009 192.50000000000003 107.52272727272729 249.50000000000003 75.500000000000014
decision_type=10 2 2 10 10 8 10
left_child=3 2 -2 5 -5 -1 -3
right_child=1 6 -4 4 -6 -7 -8
leaf_value=0.0025286224491860116 0.0480447436572215 0.15733341274457605 0.003117359454250096 -0.029094891755276946 0.028475448547947937 -0.0058381434386895123 0.029940501367101437
leaf_weight=3115.2029668390751 81.470269493758678 10.66127146035433 2828.5367004275322 53.598501659929752 253.29096491634846 5081.9331864975393 17.038770668208599
leaf_count=45305 651 85 22454 783 3786 73603 135
internal_value=0 0.00523405 0.0044145 -0.00189132 0.0181591 -0.00265157 0.0855269
internal_weight=0 2937.71 2910.01 8504.03 306.889 8197.14 27.7
internal_count=146802 23325 23105 123477 4569 118908 220
is_linear=0
shrinkage=0.133747


Tree=22
num_leaves=8
num_cat=0
split_feature=40 21 43 1 21 9 24
split_gain=119.23 7.94801 7.59685 5.62686 4.25206 5.49792 4.01235
threshold=1.5000000000000002 37.833333333333336 2.5000000000000004 3750.0000000000005 183.16666666666671 191.58333333333334 127.50000000000001
decision_type=2 8 2 8 10 10 8
left_child=4 3 -3 -2 6 -6 -1
right_child=1 2 -4 -5 5 -7 -8
leaf_value=-0.0025345162543369362 0.10571570827014716 0.02799984579475269 0.015383106259356055 -0.010828172438278371 0.036590501902602761 -0.0178548185849851 -0.011245229741958447
leaf_weight=1130.0861107409 6.4313214123249045 1584.063858628273 1938.2837943658233 192.4270439222455 78.424745108932257 54.298241693526506 6452.5953896939754
leaf_count=15960 67 16309 18455 1954 1074 856 92127
internal_value=0 0.0196089 0.0210811 -0.00615027 -0.00953478 0.0139284 -0.00995521
internal_weight=0 3721.21 3522.35 198.858 7715.4 132.723 7582.68
internal_count=146802 36785 34764 2021 110017 1930 108087
is_linear=0
shrinkage=0.133747


Tree=23
num_leaves=8
num_cat=0
split_feature=45 24 27 33 19 33 43
split_gain=50.623 7.76763 6.48791 5.45667 4.70031 3.91838 2.96584
threshold=1.0000000180025095e-35 136.50000000000003 72.916666666666671 34.225000000000009 1.0000000180025095e-35 18.550000000000004 2.5000000000000004
decision_type=2 10 10 8 8 8 2
left_child=1 5 -3 6 -5 -1 -2
right_child=3 2 -4 4 -6 -7 -8
leaf_value=0.082966707140574053 -0.0069204293175402793 -0.010478262797223243 0.018694645754659431 -0.0012949195273130197 -0.0079123372687374075 0.032142372144465484 -0.031498717492582276
leaf_weight=30.335777640342712 176.92288658022881 150.39066575467587 1200.9083251431584 6530.263866674155 2736.0599055290222 415.22731781005859 190.62339509278536
leaf_count=169 2642 869 6828 100422 30865 2260 2747
internal_value=0 0.0205474 0.015399 -0.00389865 -0.00325581 0.0359483 -0.0198853
internal_weight=0 1796.86 1351.3 9633.87 9266.32 445.563 367.546
internal_count=146802 10126 7697 136676 131287 2429 5389
is_linear=0
shrinkage=0.133747


Tree=24
num_leaves=8
num_cat=0
split_feature=40 45 42 42 45 42 18
split_gain=90.5276 34.5791 94.052 15.8513 36.553 15.3128 6.20125
threshold=1.5000000000000002 1.0000000180025095e-35 153.50000000000003 188.50000000000003 1.0000000180025095e-35 152.50000000000003 472.50000000000006
decision_type=2 2 2 2 2 2 10
left_child=1 2 -1 5 -5 -2 -3
right_child=3 6 -4 4 -6 -7 -8
leaf_value=-0.057503438577415113 0.031845070023897852 -0.013174610909952254 0.030167740838824019 0.057468282068408504 0.0141532150207937 -0.047621704571159128 0.012639801243774952
leaf_weight=276.84712932258844 63.979678481817245 6180.9750072844326 1023.9859179630876 391.88872127979994 3182.0744240060449 125.79641859233379 167.88331734761596
leaf_count=2344 619 99772 5242 1762 33503 901 2659
internal_value=0 -0.00840617 0.0114288 0.0169272 0.0189368 -0.0204982 -0.0124807
internal_weight=0 7649.69 1300.83 3763.74 3573.96 189.776 6348.86
internal_count=146802 110017 7586 36785 35265 1520 102431
is_linear=0
shrinkage=0.133747


Tree=25
num_leaves=8
num_cat=0
split_feature=42 42 33 33 12 1 24
split_gain=32.2282 38.0491 7.43741 7.30451 5.70121 7.84938 5.3253
threshold=153.50000000000003 152.50000000000003 140.06250000000003 153.07142857142858 32.500000000000007 46050.000000000007 207.50000000000003
decision_type=2 2 10 8 8 10 8
left_child=1 2 -1 -3 5 -2 -6
right_child=4 3 -4 -5 6 -7 -8
leaf_value=0.0053735831893755078 -0.016586791031744427 -0.047698255707733977 0.083853474887040022 -0.098471813860217472 0.0080393518687215063 0.0029038593231001265 0.00082378822731956388
leaf_weight=167.62086236849427 689.41138974949718 287.51126404106617 24.001479081809521 66.43487723171711 2506.6478983834386 785.93964653462172 6851.0729907229543
leaf_count=2163 9195 2512 305 476 32612 10398 89141
internal_value=0 -0.031739 0.0159696 -0.0576956 0.00154087 -0.00617119 0.00276354
internal_weight=0 545.568 191.622 353.946 10833.1 1475.35 9357.72
internal_count=146802 5456 2468 2988 141346 19593 121753
is_linear=0
shrinkage=0.133747


Tree=26
num_leaves=8
num_cat=0
split_feature=40 45 31 45 31 16 21
split_gain=67.5831 29.8822 21.145 8.33849 10.2072 7.45637 6.37779
threshold=1.5000000000000002 1.0000000180025095e-35 0.61250000000000016 1.0000000180025095e-35 0.88194444444444453 1.0000000180025095e-35 49.583333333333336
decision_type=2 2 10 2 8 8 8
left_child=1 2 -1 4 -2 -3 -5
right_child=3 5 -4 6 -6 -7 -8
leaf_value=0.020457453454735309 0.016452841694152488 -0.0085068755520304445 -0.020239901030646476 -0.0065027470449291773 0.056939715803647234 -0.019255439169939936 0.013875949652239096
leaf_weight=997.85272677987814 330.03827283531427 4744.2458704262972 293.67953814566135 297.6946060732007 173.10642901062965 1546.1830952093005 2997.6889623776078
leaf_count=6388 1782 81505 1198 3217 758 20926 31028
internal_value=0 -0.00735215 0.0111486 0.0145016 0.0306002 -0.0111612 0.0120159
internal_weight=0 7581.96 1291.53 3798.53 503.145 6290.43 3295.38
internal_count=146802 110017 7586 36785 2540 102431 34245
is_linear=0
shrinkage=0.133747


Tree=27
num_leaves=8
num_cat=0
split_feature=40 22 21 2 41 43 36
split_gain=54.2134 6.78306 5.71049 5.66643 5.1169 17.6551 4.91878
threshold=1.5000000000000002 3.5000000000000004 141.83333333333334 83.500000000000014 467.50000000000006 1.0000000180025095e-35 982.50000000000011
decision_type=2 10 8 2 2 2 10
left_child=4 2 -2 -3 5 -1 -6
right_child=1 3 -4 -5 6 -7 -8
leaf_value=0.13015159282083724 0.01486801975826532 0.0038402458194066128 0.0023293913911811262 0.090053488767878304 -0.0073169650486303306 0.0012648889241438466 -0.050655573941066914
leaf_weight=18.93611603975296 2885.435814730823 24.001751825213432 853.79145175218582 35.935642659664154 7132.8816040456295 353.8430642709136 46.444600556045771
leaf_count=296 28113 115 8115 167 104050 5132 713
internal_value=0 0.0127686 0.0120221 0.0572334 -0.00681614 0.0083688 -0.00761389
internal_weight=0 3799.16 3739.23 59.9374 7552.11 372.779 7179.33
internal_count=146701 36510 36228 282 110191 5428 104763
is_linear=0
shrinkage=0.133747


Tree=28
num_leaves=8
num_cat=0
split_feature=40 4 44 25 4 1 1
split_gain=40.5896 7.00043 4.04988 3.43782 4.49151 3.79654 2.11168
threshold=1.5000000000000002 3.5000000000000004 332.50000000000006 0.77500000000000013 1.5000000000000002 8850.0000000000018 22450.000000000004
decision_type=2 10 2 10 10 8 8
left_child=3 2 -2 4 -1 -5 -3
right_child=1 6 -4 5 -6 -7 -8
leaf_value=-0.0062550776921903462 0.017629567634006079 0.10182305427156181 0.0075462905488273575 0.028705206297246853 0.0071703852441317465 -0.025648979417188571 0.038256736878477582
leaf_weight=6766.0852904580534 979.35713136196136 13.76548597216606 2784.3984573408961 23.32060581445694 472.28033320605755 250.26712377369404 52.261967182159424
leaf_count=105238 9415 68 26774 151 3172 1630 253
internal_value=0 0.0109769 0.0101901 -0.00593936 -0.00537012 -0.0207001 0.05397
internal_weight=0 3829.78 3763.76 7511.95 7238.37 273.588 66.0275
internal_count=146701 36510 36189 110191 108410 1781 321
is_linear=0
shrinkage=0.133747


Tree=29
num_leaves=8
num_cat=0
split_feature=45 31 8 1 8 32 2
split_gain=39.6942 11.6616 8.41255 6.9171 5.83527 4.58225 4.47479
threshold=1.0000000180025095e-35 0.47222222222222227 720.50000000000011 30450.000000000004 671.50000000000011 0.61250000000000016 42.500000000000007
decision_type=2 8 10 10 10 10 2
left_child=2 5 6 -4 -3 -2 -1
right_child=1 4 3 -5 -6 -7 -8
leaf_value=0.0061763293754670398 -0.00019714881312890892 -0.015261298316292001 0.032598253213997189 -0.047846914247181072 0.08172439946482013 -0.0088388057161239795 0.02348112273471735
leaf_weight=345.07252864539623 6726.6219759061933 1477.8991503976285 26.103598043322563 59.203020326793194 9.8082888871431333 1313.9950920417905 1373.4649350643158
leaf_count=1958 98207 17492 153 337 73 20762 7719
internal_value=0 -0.00363928 0.017991 -0.0224553 -0.0145169 -0.00161763 0.0200466
internal_weight=0 9528.32 1803.84 85.3066 1487.71 8040.62 1718.54
internal_count=146701 136534 10167 490 17565 118969 9677
is_linear=0
shrinkage=0.133747


Tree=30
num_leaves=8
num_cat=0
split_feature=42 42 22 42 2 15 15
split_gain=40.5444 37.9988 9.85325 6.24259 9.28936 6.01161 5.3967
threshold=153.50000000000003 152.50000000000003 2.5000000000000004 499.50000000000006 120.50000000000001 189.50000000000003 192.50000000000003
decision_type=2 2 10 2 2 10 10
left_child=1 5 -3 4 -2 -1 -5
right_child=3 2 -4 6 -6 -7 -8
leaf_value=0.018178920960360674 0.034504568984007972 -0.065968603445882817 0.08582587862292132 0.00035384763588293611 -0.00617657863484577 -0.082760809399735749 0.016506218163765549
leaf_weight=176.63277630880475 242.0647339746356 336.52287555485964 6.4971619397401801 9992.5512450411916 166.86533050984144 9.8650872111320478 383.48387236148119
leaf_count=2269 3135 2941 28 131013 2161 119 5035
internal_value=0 -0.0362608 -0.0626326 0.0016039 0.0177956 0.0120305 0.000958217
internal_weight=0 529.518 343.02 10785 408.93 186.498 10376
internal_count=146701 5357 2969 141344 5296 2388 136048
is_linear=0
shrinkage=0.133747


Tree=31
num_leaves=8
num_cat=0
split_feature=45 42 16 16 23 24 7
split_gain=35.2199 111.021 21.3542 16.1271 5.84923 5.58187 5.53658
threshold=1.0000000180025095e-35 153.50000000000003 1.0000000180025095e-35 2.5000000000000004 5.5000000000000009 564.50000000000011 0.60769230769230786
decision_type=2 2 10 10 10 10 8
left_child=1 3 -3 -1 6 -6 -2
right_child=4 2 -4 -5 5 -7 -8
leaf_value=-0.053892199871324882 -0.0017637833920688269 0.056217906496910455 0.021676522276092156 0.15435345147750323 -0.018210806335451205 0.23943886993118713 -0.0095762583459702583
leaf_weight=348.3534082993865 7424.1605920530856 489.62130709737539 956.49132388830185 5.4963092207908621 1.7177728042006486 2.2351757176220417 2086.3642695508897
leaf_count=3075 104599 2972 4096 24 31 40 31864
internal_value=0 0.0169937 0.0334486 -0.0499764 -0.0034019 0.138509 -0.00348468
internal_weight=0 1799.96 1446.11 353.85 9514.48 3.95295 9510.52
internal_count=146701 10167 7068 3099 136534 71 136463
is_linear=0
shrinkage=0.133747


Tree=32
num_leaves=8
num_cat=0
split_feature=45 5 44 44 18 44 21
split_gain=26.2885 8.14287 6.50999 5.7299 5.24075 5.14813 5.08093
threshold=1.0000000180025095e-35 0.43650793650793657 929.50000000000011 836.50000000000011 67.500000000000014 985.50000000000011 136.83333333333334
decision_type=2 8 2 2 8 2 8
left_child=2 3 6 -2 -3 -4 -1
right_child=1 4 5 -5 -6 -7 -8
leaf_value=0.012494431339604302 -0.0029555705430265142 -0.046963046514364379 -0.025781897542285312 0.0063246003267268978 -0.010210191817229474 0.038049206741689705 0.029509877758521576
leaf_weight=1230.9251157604158 6571.2248196192086 73.103083677589893 111.80956503748894 1449.6162851415575 1393.2807561159134 26.538455061614513 434.44413181766868
leaf_count=6993 97408 716 642 21553 16857 150 2382
internal_value=0 -0.00295468 0.0146547 -0.0012705 -0.012119 -0.0129008 0.016986
internal_weight=0 9487.22 1803.72 8020.84 1466.38 138.348 1665.37
internal_count=146701 136534 10167 118961 17573 792 9375
is_linear=0
shrinkage=0.133747


Tree=33
num_leaves=8
num_cat=0
split_feature=40 45 5 45 8 5 31
split_gain=32.732 15.8829 11.8681 7.0776 8.51282 6.6083 5.74377
threshold=1.5000000000000002 1.0000000180025095e-35 0.72077922077922085 1.0000000180025095e-35 136.50000000000003 0.5277777777777779 0.41428571428571431
decision_type=2 2 10 2 8 10 10
left_child=1 2 -1 4 -2 -5 -3
right_child=3 6 -4 5 -6 -7 -8
leaf_value=0.013554735664599813 0.064499595583533825 -0.0071272753008383948 -0.020918875019742721 0.009105792414475582 0.016822495854067109 -0.017214252300249727 -0.024658993149326239
leaf_weight=1108.5676937922835 81.020427502691746 5769.4930472001433 210.68590754270554 3160.1879084035754 411.51617435365915 177.85191242396832 357.35198121517897
leaf_count=6798 407 98373 863 32766 2099 1238 4157
internal_value=0 -0.00529302 0.00799158 0.00991954 0.0249215 0.00768049 -0.00816389
internal_weight=0 7446.1 1319.25 3830.58 492.537 3338.04 6126.85
internal_count=146701 110191 7661 36510 2506 34004 102530
is_linear=0
shrinkage=0.133747


Tree=34
num_leaves=7
num_cat=0
split_feature=24 18 23 44 24 4
split_gain=3.90028 4.65893 4.29552 4.19829 4.04999 3.81649
threshold=835.50000000000011 372.50000000000006 5.5000000000000009 111.50000000000001 564.50000000000011 1.5000000000000002
decision_type=10 10 10 2 10 10
left_child=2 -2 3 -1 -4 -3
right_child=1 5 4 -5 -6 -7
leaf_value=0.021781981725646493 -0.11575083371686645 -0.037016027033604557 -0.016514749922830484 -0.00028076070201515566 0.19566072620034958 0.03448885426991067
leaf_weight=155.24588201195002 9.0416763201355916 44.121488846838474 1.6807863451540459 11032.29745497182 2.6601516157388687 17.108118668198586
leaf_count=2032 110 671 31 143699 38 120
internal_value=0 -0.0312501 8.61629e-05 2.26127e-05 0.1176 -0.0158347
internal_weight=0 70.2713 11191.9 11187.5 4.34094 61.2296
internal_count=146701 901 145800 145731 69 791
is_linear=0
shrinkage=0.133747


Tree=35
num_leaves=8
num_cat=0
split_feature=42 42 40 27 0 43 4
split_gain=27.7854 29.3627 23.5531 6.54566 5.98349 5.32303 3.72934
threshold=153.50000000000003 152.50000000000003 1.5000000000000002 146.22500000000002 55.500000000000007 1.5000000000000002 1.5000000000000002
decision_type=2 2 2 8 2 2 10
left_child=1 5 4 -3 -2 -1 -4
right_child=2 3 6 -5 -6 -7 -8
leaf_value=0.05548953146319896 -0.00051592168285753833 -0.044122495027714433 0.0083549881869375529 -0.09196651432104376 -0.0089102301165452421 0 0.021215410414001712
leaf_weight=37.573982499539852 4841.0298032313585 253.23904637619853 3216.8984760418534 69.753252543509007 2223.3844048604369 149.14751055836678 470.00692691653967
leaf_count=499 72573 2407 32328 562 33558 1889 2885
internal_value=0 -0.0305725 0.0013492 -0.0549392 -0.00316707 0.011355 0.0100165
internal_weight=0 509.714 10751.3 322.992 7064.41 186.721 3686.91
internal_count=146701 5357 141344 2969 106131 2388 35213
is_linear=0
shrinkage=0.133747


Tree=36
num_leaves=8
num_cat=0
split_feature=5 44 33 33 33 2 36
split_gain=5.55963 7.69686 11.6416 7.50725 12.5743 6.97117 5.82745
threshold=0.095454545454545472 995.50000000000011 112.05555555555557 116.05555555555557 112.52777777777779 158.50000000000003 917.50000000000011
decision_type=8 2 10 8 10 2 10
left_child=1 6 -3 4 -2 -5 -1
right_child=3 2 -4 5 -6 -7 -8
leaf_value=-0.0040425752962876416 0.0045114102451455041 0.12296080970802564 -0.040672149085374823 -0.0081308915234378481 0.044748368865132664 0.01102316108577164 -0.048074364325915171
leaf_weight=6724.3780003674328 2283.3853296376765 19.147165350615982 11.124444823712109 1589.8836507275701 147.30965010076761 429.06630199030042 53.256614297628403
leaf_count=102578 20011 282 162 16756 1280 4494 949
internal_value=0 -0.00409197 0.0617605 0.00198089 0.00699476 -0.00402768 -0.00440562
internal_weight=0 6807.91 30.2716 4449.64 2430.69 2018.95 6777.63
internal_count=146512 103971 444 42541 21291 21250 103527
is_linear=0
shrinkage=0.133747


Tree=37
num_leaves=8
num_cat=0
split_feature=41 1 2 39 41 27 24
split_gain=10.148 10.1857 8.86917 5.825 4.98052 6.82357 5.7272
threshold=10757.500000000002 5450.0000000000009 70.500000000000014 161.07142857142858 9944.5000000000018 45.083333333333336 118.50000000000001
decision_type=2 8 2 10 2 8 8
left_child=4 2 -2 -3 6 -6 -1
right_child=1 3 -4 -5 5 -7 -8
leaf_value=0.0063937054415276031 -0.0071126502684231829 0.0078544783119721302 0.082298784730746519 -0.027810928108138143 -0.069191387002454918 -0.011104312016616557 -0.003631498104131384
leaf_weight=1165.4944770000875 27.870252002030611 1425.1113882623613 58.053161561489105 85.134520102292299 38.293848615139723 529.50402656197548 7909.0354349426925
leaf_count=15286 374 18656 733 1129 503 6843 102988
internal_value=0 0.0083983 0.0529455 0.00578518 -0.00310583 -0.0152627 -0.0023369
internal_weight=0 1596.17 85.9234 1510.25 9642.33 567.798 9074.53
internal_count=146512 20892 1107 19785 125620 7346 118274
is_linear=0
shrinkage=0.133747


Tree=38
num_leaves=8
num_cat=0
split_feature=41 0 30 43 41 23 41
split_gain=7.57694 5.67847 10.7055 4.85379 3.89898 10.9336 7.0694
threshold=10757.500000000002 61.500000000000007 735.50000000000011 2.5000000000000004 9403.5000000000018 4.5000000000000009 8992.5000000000018
decision_type=2 2 8 2 2 10 2
left_child=4 3 -3 -2 6 -6 -1
right_child=1 2 -4 -5 5 -7 -8
leaf_value=-0.0025340798532458172 0.0022873068041536129 -0.023480437963166866 0.063758410442901814 0.018253808621353333 -0.011811686010727882 0.19102379111074733 0.018045658240436545
leaf_weight=8347.2481278963387 679.64993794634938 197.61464542150497 27.374955739825964 701.45204927399755 961.67082609981298 3.5297593511641017 307.92958518117666
leaf_count=108993 9204 2576 369 8743 12556 60 4011
internal_value=0 0.00721431 -0.0123255 0.010447 -0.00270074 -0.0107702 -0.00179284
internal_weight=0 1606.09 224.99 1381.1 9620.38 965.201 8655.18
internal_count=146512 20892 2945 17947 125620 12616 113004
is_linear=0
shrinkage=0.133747


Tree=39
num_leaves=8
num_cat=0
split_feature=40 45 34 44 5 9 2
split_gain=24.7692 10.992 8.94361 8.51996 6.0769 6.07301 5.37217
threshold=1.5000000000000002 1.0000000180025095e-35 4.5000000000000009 995.50000000000011 0.5634920634920636 29.708333333333339 112.50000000000001
decision_type=2 2 10 2 10 8 2
left_child=1 2 -1 5 -3 -2 -5
right_child=3 4 -4 6 -6 -7 -8
leaf_value=0.0068644214174315875 -0.023194013097690112 -0.0074692960397798125 -0.07771687077474905 0.025711673273512686 -0.036978590399319597 0.0079871308021177371 0.17904756503203573
leaf_weight=1291.7256459519267 113.12002120167017 5886.6897618249059 21.451715126633644 11.091051504015924 127.52891141176224 3756.7155799567699 7.1218984127044669
leaf_count=7532 1169 100701 87 98 1421 35440 64
internal_value=0 -0.00568779 0.00536818 0.00751575 -0.00811194 0.00705382 0.096104
internal_weight=0 7327.4 1313.18 3888.05 6014.22 3869.84 18.2129
internal_count=146512 109741 7619 36771 102122 36609 162
is_linear=0
shrinkage=0.133747


Tree=40
num_leaves=8
num_cat=0
split_feature=12 12 44 0 0 27 31
split_gain=5.2665 8.86941 6.63904 5.61877 8.89197 6.46679 5.41555
threshold=171.50000000000003 122.50000000000001 697.50000000000011 26.500000000000004 24.500000000000004 96.550000000000011 0.11805555555555557
decision_type=10 10 2 2 2 10 10
left_child=1 6 -3 4 -2 -5 -1
right_child=3 2 -4 5 -6 -7 -8
leaf_value=-0.0020978943607808591 0.0085651125254859444 -0.0039612504863502625 -0.01840967273407218 0.030832625893137053 0.05696329480846609 -0.0017634629337786782 0.005947951602290385
leaf_weight=4975.0555601492524 281.09317884594202 1706.7138149254024 863.81123721599579 120.40342872217298 90.328625205904245 1021.4450119771063 2137.659932333976
leaf_count=74818 3681 22117 11175 1580 1200 13318 18623
internal_value=0 -0.00211324 -0.00884531 0.00636315 0.0206374 0.00165274 0.000312751
internal_weight=0 9683.24 2570.53 1513.27 371.422 1141.85 7112.72
internal_count=146512 126733 33292 19779 4881 14898 93441
is_linear=0
shrinkage=0.133747


Tree=41
num_leaves=8
num_cat=0
split_feature=40 12 41 0 4 24 0
split_gain=18.4103 8.29047 6.97452 6.26938 5.04806 4.56727 1.57658
threshold=1.5000000000000002 162.50000000000003 83.500000000000014 18.500000000000004 4.5000000000000009 100.50000000000001 33.500000000000007
decision_type=2 8 2 2 10 8 2
left_child=4 2 -2 -3 5 -1 -6
right_child=1 3 -4 -5 6 -7 -8
leaf_value=0.0052485560077102878 -0.064038299005391111 0.079343946121882294 0.0035926241144414225 0.015191527064115829 -0.0095354296054176481 -0.005748528761953124 -0.094457711462334087
leaf_weight=747.3604791611433 26.24342829734087 27.414339773356915 2884.2889289557934 967.02346131205559 7.927608102560046 6511.7107016704977 13.606565356254576
leaf_count=11222 235 253 27250 9033 32 98432 55
internal_value=0 0.00656555 0.00293652 0.0171128 -0.00481417 -0.00460773 -0.0679042
internal_weight=0 3904.97 2910.53 994.438 7280.61 7259.07 21.5342
internal_count=146512 36771 27485 9286 109741 109654 87
is_linear=0
shrinkage=0.133747


Tree=42
num_leaves=8
num_cat=0
split_feature=42 45 3 42 40 38 44
split_gain=35.6828 41.955 24.1743 14.4512 11.886 5.79765 4.52739
threshold=153.50000000000003 1.0000000180025095e-35 2.5000000000000004 152.50000000000003 1.5000000000000002 0.26136363636363641 204.50000000000003
decision_type=2 2 10 2 2 8 2
left_child=3 2 -2 6 -3 -5 -1
right_child=1 4 -4 5 -6 -7 -8
leaf_value=0.050938861640688983 0.041264289621606144 -0.0061119988697444548 0.0066816496905880811 -0.033972634382507111 0.0038613449299710416 -0.072076378963220875 -0.013585943892171317
leaf_weight=20.638081967830658 643.82047125697136 5841.3139656856656 835.04320681840181 154.5765686146915 3362.7924154698849 155.07584090158343 163.6281149610877
leaf_count=267 3060 100486 4051 1419 33645 1510 2074
internal_value=0 0.000893115 0.0217975 -0.0358317 -0.0024619 -0.0534479 -0.00576211
internal_weight=0 10683 1478.86 493.919 9204.11 309.652 184.266
internal_count=146512 141242 7111 5270 134131 2929 2341
is_linear=0
shrinkage=0.133747


Tree=43
num_leaves=8
num_cat=0
split_feature=41 1 5 41 5 8 41
split_gain=5.71115 8.18324 5.38323 3.33293 3.59122 3.46402 3.31199
threshold=10757.500000000002 32150.000000000004 0.5277777777777779 10069.500000000002 0.84523809523809534 118.50000000000001 10822.500000000002
decision_type=2 8 10 2 10 8 2
left_child=3 2 -2 5 -5 -1 -3
right_child=1 6 -4 4 -6 -7 -8
leaf_value=0.0054447958715185688 0.024869315852006715 0.04188843831132244 -0.029143752489615177 -0.010153265310669188 -0.066686082347823 -0.0023243767574384852 -0.00092852399006526632
leaf_weight=1175.3167734444141 460.87585997581482 32.071341946721077 33.581980966031551 445.16702697053552 20.403117425739765 7905.0308798961341 1078.5866383388638
leaf_count=15430 6222 418 203 6050 133 104007 14049
internal_value=0 0.00673103 0.0210224 -0.00188567 -0.0129216 -0.00131186 0.000300896
internal_weight=0 1605.12 494.458 9545.92 465.57 9080.35 1110.66
internal_count=146512 20892 6425 125620 6183 119437 14467
is_linear=0
shrinkage=0.133747


Tree=44
num_leaves=8
num_cat=0
split_feature=42 42 40 33 42 14 1
split_gain=27.6655 11.78 9.3271 6.52243 5.70879 5.25412 3.88228
threshold=153.50000000000003 152.50000000000003 1.5000000000000002 29.708333333333339 235.50000000000003 1.0000000180025095e-35 81150.000000000015
decision_type=2 2 2 8 2 8 10
left_child=1 6 4 -4 -2 -3 -1
right_child=2 5 3 -5 -6 -7 -8
leaf_value=-0.014387302551575758 0.039629516733433831 -0.033820080952687626 -0.025960273974179712 0.0071794483578084527 -0.0024237582870821617 -0.072096040554588264 0.034735302475180502
leaf_weight=149.22728888317943 56.882326379418373 189.22335015982389 107.55013146996498 3659.0764427483082 6842.4740218855441 109.0621959194541 34.02873058617115
leaf_count=1905 857 1830 1133 34308 104944 1099 436
internal_value=0 -0.0318776 0.000854297 0.00620987 -0.00206178 -0.0482433 -0.00478528
internal_weight=0 481.542 10666 3766.63 6899.36 298.286 183.256
internal_count=146512 5270 141242 35441 105801 2929 2341
is_linear=0
shrinkage=0.133747


Tree=45
num_leaves=8
num_cat=0
split_feature=42 42 33 1 8 1 21
split_gain=5.64883 19.256 12.4668 12.0376 4.97754 7.47387 5.44502
threshold=153.50000000000003 152.50000000000003 153.07142857142858 90750.000000000015 12.500000000000002 87850.000000000015 18.166666666666668
decision_type=2 2 8 8 8 8 8
left_child=1 3 -3 -1 5 -2 -6
right_child=4 2 -4 -5 6 -7 -8
leaf_value=0.031745233772065326 0.051012805062882936 -0.022144020014874161 -0.095738135656882439 -0.069371115230952407 -0.032152748893013797 -0.069059098645811723 0.0011589617407823248
leaf_weight=168.4287822842598 67.244451951235533 242.34519513323903 49.816529300063848 22.601500686258078 87.200815618038177 9.272216681390999 10538.322782691568
leaf_count=2187 950 2532 450 285 1208 132 139121
internal_value=0 -0.0136333 -0.0352342 0.0191189 0.00112886 0.0348687 0.000876521
internal_weight=0 483.192 292.162 191.03 10702 76.5167 10625.5
internal_count=146865 5454 2982 2472 141411 1082 140329
is_linear=0
shrinkage=0.133747


Tree=46
num_leaves=8
num_cat=0
split_feature=40 42 42 42 33 33 33
split_gain=8.70743 7.35096 10.046 5.6751 5.11846 7.25585 4.4511
threshold=1.5000000000000002 153.50000000000003 152.50000000000003 10866.500000000002 172.08333333333334 134.05555555555557 188.12500000000003
decision_type=2 2 2 2 10 10 8
left_child=1 2 -1 -3 5 -2 -6
right_child=4 3 -4 -5 6 -7 -8
leaf_value=0.0064344849377364899 0.0040106887913129441 0.00011214825230868094 -0.041343960861850139 -0.010977339143865648 -0.038341722719823459 0.020997975770936629 0.012948182148759691
leaf_weight=128.8254853412509 3306.9980695620179 5954.2141509242356 192.87811252474785 955.37029070779681 85.141280949115753 522.95582911372185 43.732288643717766
leaf_count=1882 30748 91459 2235 14435 807 4899 400
internal_value=0 -0.00234547 -0.0220815 -0.00141453 0.00545525 0.00635112 -0.0205377
internal_weight=0 7231.29 321.704 6909.58 3958.83 3829.95 128.874
internal_count=146865 110011 4117 105894 36854 35647 1207
is_linear=0
shrinkage=0.133747


Tree=47
num_leaves=8
num_cat=0
split_feature=45 13 40 40 12 12 9
split_gain=13.9282 10.1171 7.61503 6.31806 5.10967 4.99636 4.17433
threshold=1.0000000180025095e-35 1.0000000180025095e-35 1.5000000000000002 2.5000000000000004 95.500000000000014 192.50000000000003 11.16666666666667
decision_type=2 10 2 2 8 10 10
left_child=3 2 -2 4 -1 -5 -3
right_child=1 6 -4 5 -6 -7 -8
leaf_value=0.017505252680409027 -0.0032273650439064621 0.072042838739514337 0.005176247454296133 0.050759856514967533 0.0026812744419766246 -0.07071286145089202 -0.01587004859815809
leaf_weight=736.72906689345837 5460.4464499689639 8.3522261381149274 2979.8675439879298 96.616387434303761 979.70627730712295 5.0300907641649237 924.80317474901676
leaf_count=4231 96591 89 30545 498 5610 25 9276
internal_value=0 -0.00172219 -0.00025334 0.0110645 0.00908535 0.0434231 -0.0149287
internal_weight=0 9373.47 8440.31 1818.08 1716.44 101.646 933.155
internal_count=146865 136501 127136 10364 9841 523 9365
is_linear=0
shrinkage=0.133747


Tree=48
num_leaves=8
num_cat=0
split_feature=44 2 44 36 36 44 36
split_gain=5.06826 9.78223 9.3708 7.04992 6.05946 9.89898 9.63304
threshold=693.50000000000011 195.50000000000003 836.50000000000011 142.50000000000003 456.50000000000006 530.50000000000011 474.50000000000006
decision_type=2 2 2 10 10 2 10
left_child=4 3 -3 -2 5 -1 -6
right_child=1 2 -4 -5 6 -7 -8
leaf_value=-0.003184717206301862 0.0054082503123305137 -0.0049459994160115893 0.07698257625366639 -0.0080862751251257019 0.041414783672745654 0.0093852255405757947 0.0061331061158671971
leaf_weight=4110.7909767664969 913.19997843727469 45.421876769512892 50.769667118787766 2804.9712823517621 151.75227591022849 1539.0501367710531 1566.3670321293175
leaf_count=54228 11956 602 654 36752 1973 20236 20464
internal_value=0 -0.00364746 0.0381296 -0.00475585 0.00235672 0.000230546 0.00930991
internal_weight=0 3814.36 96.1915 3718.17 7367.96 5649.84 1718.12
internal_count=146865 49964 1256 48708 96901 74464 22437
is_linear=0
shrinkage=0.133747


Tree=49
num_leaves=8
num_cat=0
split_feature=45 42 42 37 2 42 30
split_gain=10.4059 25.0468 8.8243 8.02396 11.1035 5.80378 5.62324
threshold=1.0000000180025095e-35 153.50000000000003 84.500000000000014 0.61250000000000016 185.50000000000003 235.50000000000003 762.50000000000011
decision_type=2 2 2 10 2 2 10
left_child=1 2 -1 6 -5 -3 -2
right_child=3 5 -4 4 -6 -7 -8
leaf_value=0.07262723519194518 -0.0014817846737412265 0.10823758205261701 -0.030327002720313155 -0.03150507177238069 0.068187908548106829 0.015786996736145843 0.016555161506935166
leaf_weight=14.242038324475287 8763.6656285300851 11.290953189134596 293.8647504709661 258.97821473330259 20.185607276856899 1503.5623239055276 318.96218505874276
leaf_count=72 129227 53 3046 2316 181 7193 4777
internal_value=0 0.0095065 -0.0251147 -0.0015345 -0.0238264 0.0166005 -0.000839911
internal_weight=0 1822.96 308.107 9361.79 279.164 1514.85 9082.63
internal_count=146865 10364 3118 136501 2497 7246 134004
is_linear=0
shrinkage=0.133747


Tree=50
num_leaves=8
num_cat=0
split_feature=21 24 15 39 27 24 39
split_gain=3.24389 7.01988 6.52898 4.40982 7.39023 3.83482 2.99067
threshold=171.16666666666671 193.50000000000003 188.50000000000003 114.04166666666667 111.55000000000001 249.50000000000003 115.04545454545456
decision_type=10 10 10 10 10 10 10
left_child=3 2 -2 4 -1 -5 -3
right_child=1 6 -4 5 -6 -7 -8
leaf_value=-0.00018576843808157815 -0.0047749105639157451 0.093323913002987272 0.054343615886570745 0.013780596810607034 -0.020866839327861441 0.0024230188431714613 -0.027794026234745601
leaf_weight=7167.0259190350771 150.37267177551985 2.3296287208795539 41.249365407973528 676.4875690639019 322.11609961465001 2568.6790005788207 244.1097086854279
leaf_count=94368 2012 28 532 8851 4178 33697 3199
internal_value=0 -0.0110314 0.00791716 0.000692106 -0.0010862 0.00481258 -0.0259631
internal_weight=0 438.061 191.622 10734.3 7489.14 3245.17 246.439
internal_count=146865 5771 2544 141094 98546 42548 3227
is_linear=0
shrinkage=0.133747


Tree=51
num_leaves=8
num_cat=0
split_feature=2 0 41 0 36 36 21
split_gain=3.66867 8.31281 7.20043 8.66859 5.62921 5.59258 5.38747
threshold=140.50000000000003 63.500000000000007 437.50000000000006 60.500000000000007 1104.5000000000002 892.50000000000011 191.16666666666671
decision_type=2 2 2 2 8 10 10
left_child=2 5 3 -1 -3 -2 -4
right_child=1 4 6 -5 -6 -7 -8
leaf_value=0.025645339263180182 0.00098452142321735041 0.029659705998859358 -0.0020122278936233282 -0.02855560175180814 -0.029638697401573287 0.050294469799740178 -0.044260127726215563
leaf_weight=314.99501509964466 3036.932227846235 299.22959852591157 7338.3118402287364 61.370961721986532 29.721101775765419 40.570835780352354 53.328903965651989
leaf_count=3917 39758 3936 96795 771 375 537 776
internal_value=0 0.00385734 -0.00140534 0.0165916 0.0240385 0.00167289 -0.00233205
internal_weight=0 3406.45 7768.01 376.366 328.951 3077.5 7391.64
internal_count=146865 44606 102259 4688 4311 40295 97571
is_linear=0
shrinkage=0.133747


Tree=52
num_leaves=7
num_cat=0
split_feature=45 31 24 29 40 40
split_gain=7.82711 7.1498 9.21041 5.49043 5.38118 4.68286
threshold=1.0000000180025095e-35 0.23611111111111113 663.50000000000011 4.5000000000000009 1.5000000000000002 2.5000000000000004
decision_type=2 8 10 10 2 2
left_child=3 4 -3 5 -2 -1
right_child=1 2 -4 -5 -6 -7
leaf_value=0.0069613513379787805 -0.001774883352273403 -0.0088873326390586909 0.038229965823662261 -0.10821153963798548 0.0062080400848989565 0.036555926600068997
leaf_weight=1714.5743746943772 4564.6371258534491 2461.844576086849 74.92172971367836 5.9337438121438018 2252.6344908475876 101.45842587202787
leaf_count=9789 83062 28451 658 52 24330 523
internal_value=0 -0.00139319 -0.00745543 0.00818544 0.000855144 0.00866976
internal_weight=0 9354.04 2536.77 1821.97 6817.27 1816.03
internal_count=146865 136501 29109 10364 107392 10312
is_linear=0
shrinkage=0.133747


Tree=53
num_leaves=7
num_cat=0
split_feature=45 13 1 35 2 1
split_gain=5.85505 6.01554 8.19638 5.37457 4.8729 3.77347
threshold=1.0000000180025095e-35 1.0000000180025095e-35 91650.000000000015 4.5000000000000009 140.50000000000003 97450.000000000015
decision_type=2 10 10 10 2 10
left_child=3 4 -3 5 -2 -1
right_child=1 2 -4 -5 -6 -7
leaf_value=0.0085436434470527577 -0.0022271953952772245 -0.015429074445426192 0.029412183072126966 -0.10682739071523724 0.0047478220058737594 -0.030472826457921785
leaf_weight=1775.3540461994708 5847.6394210383296 836.10196918994188 77.961253181099892 6.099586557596921 2581.3010583631694 43.704718172550201
leaf_count=10060 88536 8576 789 56 38600 248
internal_value=0 -0.00120909 -0.0115077 0.00707009 -8.39644e-05 0.00755491
internal_weight=0 9343 914.063 1825.16 8428.94 1819.06
internal_count=146865 136501 9365 10364 127136 10308
is_linear=0
shrinkage=0.133747


Tree=54
num_leaves=8
num_cat=0
split_feature=16 32 41 2 2 8 21
split_gain=8.98548 5.64997 6.69198 5.64496 4.9519 5.00242 4.38788
threshold=1.5000000000000002 0.47222222222222227 4326.5000000000009 198.50000000000003 45.500000000000007 539.50000000000011 97.583333333333357
decision_type=10 8 2 2 2 10 10
left_child=1 2 -1 -3 5 -2 -6
right_child=4 3 -4 -5 6 -7 -8
leaf_value=0.0048667744052185383 -0.047757349812610865 0.0057259084003503319 -0.0037372376476601833 0.055289801920416631 0.0054774867532885038 0.0091501652697780402 -0.018394059516984529
leaf_weight=2746.8120990507305 118.40629409253597 3700.6086336262524 3926.0849132500589 40.666840698570013 249.70010589808226 33.406834118068218 297.44568146765232
leaf_count=36330 662 53430 52410 560 1409 186 1661
internal_value=0 0.00213784 -0.000186669 0.00629784 -0.0135081 -0.0348868 -0.00740728
internal_weight=0 10414.2 6672.9 3741.28 698.959 151.813 547.146
internal_count=146648 142730 88740 53990 3918 848 3070
is_linear=0
shrinkage=0.133747


Tree=55
num_leaves=8
num_cat=0
split_feature=44 32 44 24 12 44 44
split_gain=5.04695 8.07143 8.06101 6.27666 6.11452 6.06723 5.48351
threshold=428.50000000000006 0.47222222222222227 484.50000000000006 322.50000000000006 11.500000000000002 488.50000000000006 308.50000000000006
decision_type=2 8 2 8 8 2 2
left_child=1 6 3 -2 -3 -4 -1
right_child=2 4 5 -5 -6 -7 -8
leaf_value=-0.0024718767918401087 0.0039445603339063754 -0.038740251153335514 -0.045422419425159698 0.029687288743199761 0.0070890640809744467 0.0020304159211829874 -0.015168838506933634
leaf_weight=1681.58990059793 345.36672774329782 52.605844292789698 47.263865105807781 343.66687838733196 1375.6057978160679 6317.9942388981581 965.26434258371592
leaf_count=21274 4579 771 615 4481 19379 83248 12301
internal_value=0 -0.00274818 0.00315946 0.0168971 0.00532924 0.00166041 -0.00712877
internal_weight=0 4075.07 7054.29 689.034 1428.21 6365.26 2646.85
internal_count=146648 53725 92923 9060 20150 83863 33575
is_linear=0
shrinkage=0.133747


Tree=56
num_leaves=8
num_cat=0
split_feature=42 16 44 42 44 44 18
split_gain=10.7723 7.54588 7.34339 4.92492 4.28686 3.76014 3.67418
threshold=153.50000000000003 1.5000000000000002 711.50000000000011 4077.5000000000005 836.50000000000011 244.50000000000003 60.500000000000007
decision_type=2 10 2 2 2 2 10
left_child=2 3 5 -2 -4 -1 -3
right_child=1 6 4 -5 -6 -7 -8
leaf_value=-0.057371330663710432 0.0064461112409286651 -0.11391531003832235 0.03179596951276193 0.00032142442946327538 -0.013532643802523106 -0.021920824372593652 -0.010907367082883923
leaf_weight=73.202793318778276 3800.3094805665314 5.180106855928897 62.527321614325047 6200.9259665608406 87.206795692443848 245.51445486396551 663.49530512094498
leaf_count=835 51992 27 725 85487 1019 2817 3746
internal_value=0 0.00173007 -0.0189611 0.00265495 0.00512011 -0.0304302 -0.0119971
internal_weight=0 10669.9 468.451 10001.2 149.734 318.717 668.675
internal_count=146648 141252 5396 137479 1744 3652 3773
is_linear=0
shrinkage=0.133747


Tree=57
num_leaves=8
num_cat=0
split_feature=42 32 42 42 26 2 2
split_gain=8.2514 5.193 6.88087 4.51106 5.95908 3.92619 3.92531
threshold=153.50000000000003 0.47222222222222227 4288.5000000000009 152.50000000000003 0.36666666666666675 4.5000000000000009 198.50000000000003
decision_type=2 8 2 2 8 2 2
left_child=3 2 -2 5 -5 -1 -3
right_child=1 6 -4 4 -6 -7 -8
leaf_value=0.13942815520743168 0.0045006457800154465 0.0050361831637600503 -0.0040799500551341157 -0.010729104675568786 -0.05165018210005809 -0.0035390970558030815 0.045644105245088884
leaf_weight=2.2739648856222621 2775.5092274658382 3678.2803214602172 4193.495496943593 160.46792979538441 110.60933792591095 188.78250044956803 42.275608342140913
leaf_count=28 35085 52033 53585 1694 1272 2402 549
internal_value=0 0.00149252 -0.000654181 -0.0167331 -0.0277938 -0.00066472 0.00552783
internal_weight=0 10689.6 6969 462.134 271.077 191.056 3720.56
internal_count=146648 141252 88670 5396 2966 2430 52582
is_linear=0
shrinkage=0.133747


end of trees

feature_importances:
cat__postalAddress_clean=38
cat__same_address=30
cat__sex=25
hist_default_avg=23
cat__shopID=23
price=20
cat__residentialAddress_clean=17
price_lst_06_sum=15
income=14
price_lst_01_sum=14
price_lst_03_avg=14
price_lst_09_avg=13
age=11
hist_price_sum=10
default_lst_09_avg=10
price_lst_06_avg=9
price_lst_12_sum=9
default_lst_03_sum=8
hist_trans_count=7
price_lst_03_sum=7
default_lst_06_sum=7
hist_price_avg=6
default_lst_06_avg=6
default_lst_12_sum=6
price_lst_12_avg=6
hist_default_sum=5
price_lst_01_avg=5
price_lst_09_sum=5
late_lst_09_avg=5
default_lst_12_avg=5
cat__geo_risk_rank=5
default_lst_03_avg=4
late_lst_06_sum=4
hist_late_sum=3
default_lst_09_sum=3
default_lst_01_avg=2
late_lst_03_avg=2
hist_late_avg=1
late_lst_01_avg=1
late_lst_03_sum=1
late_lst_06_avg=1
late_lst_09_sum=1
late_lst_12_sum=1
late_lst_12_avg=1

parameters:
[boosting: gbdt]
[objective: binary]
[metric: auc,average_precision,binary_logloss]
[tree_learner: serial]
[device_type: cpu]
[linear_tree: 0]
[data: ]
[valid: ]
[num_iterations: 300]
[learning_rate: 0.133747]
[num_leaves: 8]
[num_threads: 0]
[deterministic: 1]
[force_col_wise: 0]
[force_row_wise: 0]
[histogram_pool_size: -1]
[max_depth: 3]
[min_data_in_leaf: 27]
[min_sum_hessian_in_leaf: 0.001]
[bagging_fraction: 0.475203]
[pos_bagging_fraction: 1]
[neg_bagging_fraction: 1]
[bagging_freq: 9]
[bagging_seed: 22734]
[feature_fraction: 0.412138]
[feature_fraction_bynode: 1]
[feature_fraction_seed: 5052]
[extra_trees: 0]
[extra_seed: 5559]
[early_stopping_round: 15]
[first_metric_only: 0]
[max_delta_step: 0]
[lambda_l1: 0.428921]
[lambda_l2: 1.22075]
[linear_lambda: 0]
[min_gain_to_split: 0]
[drop_rate: 0.1]
[max_drop: 50]
[skip_drop: 0.5]
[xgboost_dart_mode: 0]
[uniform_drop: 0]
[drop_seed: 23992]
[top_rate: 0.2]
[other_rate: 0.1]
[min_data_per_group: 100]
[max_cat_threshold: 32]
[cat_l2: 10]
[cat_smooth: 10]
[max_cat_to_onehot: 4]
[top_k: 20]
[monotone_constraints: ]
[monotone_constraints_method: basic]
[monotone_penalty: 0]
[feature_contri: ]
[forcedsplits_filename: ]
[refit_decay_rate: 0.9]
[cegb_tradeoff: 1]
[cegb_penalty_split: 0]
[cegb_penalty_feature_lazy: ]
[cegb_penalty_feature_coupled: ]
[path_smooth: 0]
[interaction_constraints: ]
[verbosity: 1]
[saved_feature_importance_type: 0]
[max_bin: 255]
[max_bin_by_feature: ]
[min_data_in_bin: 3]
[bin_construct_sample_cnt: 200000]
[data_random_seed: 2213]
[is_enable_sparse: 1]
[enable_bundle: 1]
[use_missing: 1]
[zero_as_missing: 0]
[feature_pre_filter: 0]
[pre_partition: 0]
[two_round: 0]
[header: 0]
[label_column: ]
[weight_column: ]
[group_column: ]
[ignore_column: ]
[categorical_feature: ]
[forcedbins_filename: ]
[objective_seed: 29849]
[num_class: 1]
[is_unbalance: 0]
[scale_pos_weight: 1]
[sigmoid: 1]
[boost_from_average: 1]
[reg_sqrt: 0]
[alpha: 0.9]
[fair_c: 1]
[poisson_max_delta_step: 0.7]
[tweedie_variance_power: 1.5]
[lambdarank_truncation_level: 30]
[lambdarank_norm: 1]
[label_gain: ]
[eval_at: ]
[multi_error_top_k: 1]
[auc_mu_weights: ]
[num_machines: 1]
[local_listen_port: 12400]
[time_out: 120]
[machine_list_filename: ]
[machines: ]
[gpu_platform_id: -1]
[gpu_device_id: -1]
[gpu_use_dp: 0]
[num_gpu: 1]

end of parameters

pandas_categorical:null
