tree
version=v3
num_class=1
num_tree_per_iteration=1
label_index=0
max_feature_idx=75
objective=binary sigmoid:1
feature_names=age income price hist_trans_count hist_default_sum hist_default_avg hist_late_sum hist_late_avg hist_price_sum hist_price_avg default_lst_01_sum defualted_payment_lst_01_sum money_lost_lst_01_sum late_lst_01_sum price_lst_01_sum late_payment_first_lst_01_sum default_lst_01_avg defualted_payment_lst_01_avg money_lost_lst_01_avg late_lst_01_avg price_lst_01_avg late_payment_first_lst_01_avg default_lst_03_sum defualted_payment_lst_03_sum money_lost_lst_03_sum late_lst_03_sum price_lst_03_sum late_payment_first_lst_03_sum default_lst_03_avg defualted_payment_lst_03_avg money_lost_lst_03_avg late_lst_03_avg price_lst_03_avg late_payment_first_lst_03_avg default_lst_06_sum defualted_payment_lst_06_sum money_lost_lst_06_sum late_lst_06_sum price_lst_06_sum late_payment_first_lst_06_sum default_lst_06_avg defualted_payment_lst_06_avg money_lost_lst_06_avg late_lst_06_avg price_lst_06_avg late_payment_first_lst_06_avg default_lst_09_sum defualted_payment_lst_09_sum money_lost_lst_09_sum late_lst_09_sum price_lst_09_sum late_payment_first_lst_09_sum default_lst_09_avg defualted_payment_lst_09_avg money_lost_lst_09_avg late_lst_09_avg price_lst_09_avg late_payment_first_lst_09_avg default_lst_12_sum defualted_payment_lst_12_sum money_lost_lst_12_sum late_lst_12_sum price_lst_12_sum late_payment_first_lst_12_sum default_lst_12_avg defualted_payment_lst_12_avg money_lost_lst_12_avg late_lst_12_avg price_lst_12_avg late_payment_first_lst_12_avg cat__sex cat__residentialAddress_clean cat__postalAddress_clean cat__geo_risk_rank cat__shopID cat__same_address
feature_infos=[7:90] [0:100000] [3:200] [1:14] [0:10] [0:1] [0:11] [0:1] [3:1808] [3:200] [0:1] [0:4] [0:200] [0:1] [3:200] [0:4] [0:1] [0:4] [0:200] [0:1] [3:200] [0:4] [0:3] [0:12] [0:490.5] [0:3] [3:597] [0:12] [0:1] [0:4] [0:200] [0:1] [3:200] [0:4] [0:6] [0:24] [0:822.25] [0:6] [3:1120] [0:23] [0:1] [0:4] [0:200] [0:1] [3:200] [0:4] [0:9] [0:28] [0:970] [0:9] [3:1460] [0:28] [0:1] [0:4] [0:200] [0:1] [3:200] [0:4] [0:10] [0:30] [0:970] [0:11] [3:1732] [0:30] [0:1] [0:4] [0:200] [0:1] [3:200] [0:4] [1:3] [1:13260] [1:13261] [0:5] [100:999] [0:1]
tree_sizes=6574 6639 6664 6726 6681 6714 6661 6722

Tree=0
num_leaves=62
num_cat=0
split_feature=75 5 70 52 70 70 60 70 42 52 22 50 5 52 26 32 46 74 38 9 74 14 71 50 0 6 65 53 71 2 0 2 54 74 50 2 0 38 45 74 7 26 57 32 36 0 38 0 71 30 57 42 26 38 30 36 1 14 14 50 2
split_gain=12317.3 5642.98 1444.3 626.171 466.361 416.542 320.222 234.366 166.56 139.163 111.168 101.397 64.6038 34.0372 33.7639 25.344 19.4786 18.9445 18.4719 28.9484 16.1611 16.1592 19.2663 15.9425 15.2037 14.471 14.7076 13.7759 14.7593 20.1413 16.264 14.4203 19.6377 13.531 13.1961 13.4 13.0427 13.0004 12.9621 12.9135 14.112 12.7779 17.9104 12.3167 11.9398 11.7076 11.6438 13.477 11.6171 14.0947 17.876 11.7222 11.5758 12.3507 11.5135 11.4594 12.1101 11.4416 11.3526 12.1003 11.2839
threshold=1.0000000180025095e-35 0.37980769230769235 1.5000000000000002 0.18333333333333338 1.5000000000000002 2.5000000000000004 4.1250000000000009 2.5000000000000004 0.52083333333333337 0.69047619047619058 1.5000000000000002 241.50000000000003 0.095454545454545472 0.23611111111111113 371.50000000000006 112.83333333333336 2.5000000000000004 917.50000000000011 133.50000000000003 69.7638888888889 463.50000000000006 58.500000000000007 5430.5000000000009 580.50000000000011 16.500000000000004 2.5000000000000004 0.31666666666666671 1.1833333333333336 2655.5000000000005 117.50000000000001 34.500000000000007 135.50000000000003 8.2678571428571441 360.50000000000006 115.50000000000001 167.50000000000003 20.500000000000004 211.50000000000003 1.3666666666666669 411.50000000000006 0.19090909090909094 273.50000000000006 1.8819444444444446 92.583333333333357 190.12500000000003 29.500000000000004 298.50000000000006 44.500000000000007 4343.5000000000009 10.958333333333334 1.5277777777777779 28.341666666666672 226.50000000000003 214.50000000000003 40.145833333333336 23.125000000000004 39050.000000000007 14.500000000000002 136.50000000000003 344.50000000000006 176.50000000000003
decision_type=2 2 2 2 2 2 2 2 2 2 2 2 2 2 2 2 2 2 2 2 2 2 2 2 2 2 2 2 2 2 2 2 2 2 2 2 2 2 2 2 2 2 2 2 2 2 2 2 2 2 2 2 2 2 2 2 10 2 2 2 2
left_child=1 3 6 11 9 8 34 10 37 -3 -6 18 20 45 15 33 24 -12 19 -1 -7 22 -14 -16 -8 26 43 31 30 -30 -29 48 55 -15 57 58 -23 -4 -34 -24 -41 -18 -43 -13 -10 -5 47 -45 -26 -50 51 -51 53 -20 -40 -33 -57 -2 -36 -60 -48
right_child=2 4 5 13 7 12 16 -9 44 -11 17 25 21 14 23 -17 41 -19 52 -21 -22 36 39 -25 27 -27 -28 28 29 -31 -32 32 38 -35 35 -37 -38 -39 54 40 -42 42 -44 46 -46 -47 60 -49 49 50 -52 -53 -54 -55 -56 56 -58 -59 59 -61 -62
leaf_value=-2.050562383105873 -2.3215017893437317 -1.0664884165358375 -2.388128107469301 -2.0950812939299399 -1.4509764446504785 -2.3177947420588021 -2.3925589767627882 -0.7339613646619314 -2.3398996171986317 -0.61158432469999147 -1.1688886468548914 -2.2719085804458334 -2.1815554015610878 -1.8218807440655391 -1.41479517888438 -1.9622148584400436 -2.1464805834380316 -1.4660569050245944 -2.083830225437973 -1.8487647942746501 -2.2501553826026708 -2.3923042497086588 -2.1315518420480197 -1.7708173901119166 -2.2208724204281607 -2.3001202137971708 -1.977871064358752 -2.0532196478818801 -2.0342326671454556 -2.1502765896621887 -2.2374949785337588 -2.0872759622759069 -2.1892571229592659 -1.6294049918124238 -2.2834281351166963 -2.3142732580070127 -2.1738072896455432 -2.4030698231081633 -1.9899821482620903 -1.7215664960623858 -2.0643719109289504 -1.746531532905752 -2.121932830303046 -1.9161422172788081 -2.2781277517637486 -1.8150067678936692 -2.1717301974822218 -2.1707884934142152 -2.204575242824057 -2.1009831842473052 -1.9596333427683705 -2.2497235541361622 -1.9125665889193031 -2.2913672117901789 -2.2705001962662474 -2.099192923225115 -1.7591876683974887 -2.2233085613138863 -2.221761915122912 -2.2781797800413277 -2.3311874203625402
leaf_weight=109.10144001245499 71.081241220235825 70.585325583815575 4866.1721823737025 13.141764365136622 189.60507832467556 304.24424294382334 11.901975274085997 40.91304000467062 2588.5143169015646 93.480097465217113 179.93472341448069 80.007722675800323 46.368112005293369 34.300831519067287 39.342640489339828 22.068245820701122 19.340709820389748 20.001930668950081 157.20525674521923 60.253749825060368 463.26785702258348 14.712163880467413 18.100920729339123 11.901975274085997 215.22738620638847 64.634337946772575 17.522352486848831 37.111020125448704 197.12646547704935 137.86454692482948 79.925070069730282 40.830387398600578 134.47579007595778 92.075003162026405 1306.2417863309383 432.35578235238791 210.76414547860622 8556.1977803707123 37.358977943658829 15.290732122957708 13.224416971206663 17.191742062568668 12.397890910506247 19.010099396109581 172.99190450459719 28.101886063814163 173.73577795922756 28.349843882024288 144.97267104685307 94.554581344127655 35.044704973697662 41.078345216810703 19.258057214319706 17.191742062568665 10.248923152685164 10.248923152685167 16.034605577588081 434.58740271627903 416.73443980515003 386.07032295316458 25.95291830599308
leaf_count=1320 860 854 58875 159 2294 3681 144 495 31318 1131 2177 968 561 415 476 267 234 242 1902 729 5605 178 219 144 2604 782 212 449 2385 1668 967 494 1627 1114 15804 5231 2550 103520 452 185 160 208 150 230 2093 340 2102 343 1754 1144 424 497 233 208 124 124 194 5258 5042 4671 314
internal_value=-2.30247 -1.69291 -2.34834 -2.02109 -1.13433 -2.37795 -2.23053 -1.26197 -2.38714 -0.80331 -1.31919 -2.1217 -2.24102 -1.69971 -1.65954 -1.72006 -2.13526 -1.19653 -2.03375 -1.97751 -2.27703 -2.15454 -2.0738 -1.49145 -2.14102 -2.20005 -2.18146 -2.13852 -2.10627 -2.08158 -2.17793 -2.15737 -2.11149 -1.67946 -2.27098 -2.27773 -2.18844 -2.39766 -2.15165 -1.96979 -1.87293 -1.99255 -1.89731 -2.19293 -2.33601 -1.89997 -2.16766 -2.06496 -2.17914 -2.15099 -2.10615 -2.14534 -2.0838 -2.10391 -2.04845 -2.00496 -1.88448 -2.23722 -2.27021 -2.2488 -2.19274
internal_weight=0 1607.68 21609.9 1013.16 594.52 17269.8 4340.01 430.455 16183.9 164.065 389.542 772.223 1085.97 240.932 199.689 148.444 1292.93 199.937 363.01 169.355 767.512 318.46 92.9842 51.2446 1244 409.213 344.579 1232.1 452.027 334.991 117.036 780.075 249.198 126.376 3047.07 2541.4 225.476 13422.4 182.084 46.6161 28.5151 48.9303 29.5896 327.056 2761.51 41.2437 247.049 47.3599 530.878 315.65 170.678 135.633 193.655 174.397 47.6079 67.1139 26.2835 505.669 2109.05 802.805 199.689
internal_count=280905 19451 261454 12258 7193 208945 52509 5208 195806 1985 4713 9343 13139 2915 2416 1796 15643 2419 4392 2049 9286 3853 1125 620 15051 4951 4169 14907 5469 4053 1416 9438 3015 1529 36866 30748 2728 162395 2203 564 345 592 358 3957 33411 499 2989 573 6423 3819 2065 1641 2343 2110 576 812 318 6118 25517 9713 2416
is_linear=0
shrinkage=1


Tree=1
num_leaves=62
num_cat=0
split_feature=75 72 5 46 47 31 38 52 50 50 2 9 38 72 2 2 2 72 9 14 48 32 1 39 1 38 14 72 66 34 27 74 74 14 14 56 57 39 27 1 38 2 48 2 44 7 14 32 1 14 18 14 2 2 9 38 63 74 1 54 2
split_gain=3638.01 1604.05 475.306 36.3345 29.4566 26.2716 19.8126 18.7473 45.9432 15.9074 16.8707 13.2461 12.9022 12.9681 12.5837 10.4911 12.3554 10.4655 12.0778 10.311 10.3073 11.1677 9.52152 9.27248 16.2811 9.0256 9.01942 10.6209 9.89039 9.0123 11.147 11.8047 11.1952 13.7777 8.86013 15.3879 15.4761 14.2911 9.23251 8.76504 9.54062 9.24971 8.94824 15.2486 9.27921 8.65247 8.55266 12.5917 11.6019 14.0501 8.38425 9.17073 9.55178 8.22977 8.82943 12.5992 8.24043 12.5144 9.35058 22.0581 8.22335
threshold=1.0000000180025095e-35 37.500000000000007 0.13392857142857145 1.5000000000000002 6.5000000000000009 0.58333333333333337 190.50000000000003 0.15476190476190479 440.50000000000006 219.50000000000003 156.50000000000003 114.53571428571429 188.50000000000003 9255.5000000000018 168.50000000000003 36.500000000000007 32.500000000000007 1173.5000000000002 81.527777777777786 160.50000000000003 92.125000000000014 148.41666666666671 96350.000000000015 4.5000000000000009 95750.000000000015 118.50000000000001 145.50000000000003 1994.5000000000002 8.5156250000000018 3.5000000000000004 9.5000000000000018 296.50000000000006 392.50000000000006 192.50000000000003 52.500000000000007 114.05555555555557 2.3095238095238098 7.5000000000000009 3.5000000000000004 97650.000000000015 586.50000000000011 8.5000000000000018 9.1250000000000018 68.500000000000014 73.225000000000009 0.30384615384615393 19.500000000000004 113.83333333333336 29550.000000000004 101.50000000000001 181.50000000000003 47.500000000000007 27.500000000000004 38.500000000000007 86.045454545454561 677.50000000000011 9.5000000000000018 168.50000000000003 80850.000000000015 33.341666666666676 124.50000000000001
decision_type=2 2 2 2 2 2 2 2 2 2 2 2 2 2 2 2 2 2 2 2 2 2 10 2 10 2 2 2 2 2 2 2 2 2 2 2 2 2 2 10 2 2 2 2 2 2 2 2 10 2 2 2 2 2 2 2 2 2 10 2 2
left_child=1 4 6 5 -1 9 -2 8 12 22 39 -10 13 17 -12 16 -9 -3 25 -20 21 -17 -4 -8 -25 -19 28 -28 45 30 31 -22 -33 34 37 36 38 -34 -36 40 42 -42 43 -11 -45 -16 -14 48 49 -48 51 52 -7 54 -5 -56 -55 -58 -59 -60 -37
right_child=2 7 3 53 -6 50 23 15 11 10 14 -13 46 -15 26 20 -18 18 19 -21 29 -23 -24 24 -26 -27 27 -29 -30 -31 -32 32 33 -35 35 60 -38 -39 -40 -41 41 -43 -44 44 -46 -47 47 -49 -50 -51 -52 -53 -54 56 55 -57 57 58 59 -61 -62
leaf_value=-0.08601665589731787 -0.044016307384775098 0.26348216542838132 0.051726560811421476 0.21251465640263617 0.15317717575085349 0.16733364733934245 -0.057460340730662723 0.33514772211023708 0.028434348806304868 -0.023981159947580735 0.11399410536606204 0.2263229034140643 0.4922399736110204 0.2769962882783587 0.033966544286015123 0.39032426969966322 0.17270586044584763 0.42121937587962482 0.57461459537591975 0.30839816817140858 0.41221478101851844 0.55336095768289562 0.19126691431437973 -0.077236536586039795 0.013561980319355786 0.21131709758360667 -0.057093073802617349 0.11873629216136239 -0.019730399831073324 0.40645654805940884 0.1939755707919526 0.23382347651612312 0.3326061627033241 0.15394782694373865 0.34607173883924924 0.43033736829991193 0.39256824996541428 0.54247362895266515 0.18450681268524624 0.11009845254102461 0.1629390384474593 -0.039056724117782285 0.0088811988689554422 0.33560838027587692 0.1044048941354304 0.22532415445725254 0.18328534068553978 0.34231202170230446 0.1448812302132991 0.50319105657450747 0.17725880658961216 -0.040486253553342379 0.00017768742199598587 0.077848945464901148 0.044321017410052503 0.24570687221645787 0.23478504896087671 -0.028437572385163128 -0.057802874109590487 0.34924405173773104 0.31954482478584884
leaf_weight=579.95567814260721 5282.8311251923442 23.730118788778782 729.73357825726271 41.805816426873207 27.651636734604836 20.426240205764771 8570.0769813656807 230.79678319394588 33.017072707414627 36.423687607049942 139.26703149080276 39.672234699130058 11.277038410305975 54.203021369874477 50.530229434370995 428.57955016195774 30.553208664059639 46.716924071311951 47.480024971067905 12.205157428979872 130.38075040280819 27.342651963233948 26.438129425048828 2408.6202745586634 106.53876055032015 17.25261440128088 21.424838185310364 93.904591880738735 180.04474074393511 161.49267290532589 29.280183508992195 63.1612793430686 44.690920792520046 20.976691447198391 26.680235758423805 96.565529927611351 44.797027572989464 34.547574050724506 79.091965928673744 42.589746795594692 11.829091176390646 295.34270948916674 1363.9305458441377 12.887165471911429 34.374879598617554 16.40915571898222 18.491971947252754 80.954204745590687 55.232924550771713 13.209646835923193 10.334832161664961 499.62263278663158 128.42034336924553 457.72718551754951 81.616316683590412 20.258776843547821 12.305699579417704 121.76775204390287 15.515864349901678 11.775651089847086 77.711144909262657
leaf_count=5558 66836 229 8500 470 157 246 109751 1369 376 440 1627 445 124 520 574 2761 181 456 437 124 753 170 306 31122 1375 174 251 1106 2125 801 160 366 269 125 171 558 243 200 465 503 142 3514 16064 153 413 192 204 844 612 143 121 5982 1531 5161 910 228 138 1368 175 130 456
internal_value=0 0.249672 -0.0375315 0.0284284 -0.0749451 0.0190761 -0.0555752 0.349306 0.30663 0.0280068 0.018511 0.137847 0.338525 0.380026 0.0555609 0.361858 0.316669 0.41666 0.444634 0.523602 0.371042 0.40072 0.0567794 -0.061077 -0.0733676 0.367187 0.0328471 0.0855232 0.00793096 0.354059 0.34066 0.34738 0.329617 0.343481 0.353018 0.33424 0.277549 0.427158 0.226972 0.0081316 0.00560064 -0.0308925 0.0133877 0.0857902 0.170971 0.0827804 0.290752 0.275705 0.21172 0.32309 -0.0222492 -0.0256238 0.0238805 0.0738588 0.123506 0.0857352 0.0621745 0.0172963 -0.000912522 0.118542 0.382128
internal_weight=0 2587.7 20844.8 4476.71 607.607 3713.93 16368.1 1980.09 453.443 3055.13 2298.96 72.6893 380.754 201.588 501.581 1526.65 261.35 147.385 123.655 59.6852 1265.3 455.922 756.172 11085.2 2515.16 63.9695 362.314 115.329 246.984 809.376 647.883 618.603 488.222 425.061 404.084 324.846 150.569 79.2385 105.772 1797.38 1754.79 307.172 1447.62 83.6857 47.262 66.9394 179.166 167.889 86.9345 31.7016 658.804 648.469 148.847 762.773 143.681 101.875 619.092 161.365 149.059 27.2915 174.277
internal_count=280905 19451 261454 52370 5715 43790 209084 13736 4688 35910 27104 821 3867 1940 5875 9048 1550 1420 1191 561 7498 2931 8806 142248 32497 630 4248 1357 2891 4567 3766 3606 2853 2487 2362 1893 879 469 636 21229 20726 3656 17070 1006 566 766 1927 1803 959 347 7880 7759 1777 8580 1608 1138 6972 1811 1673 305 1014
is_linear=0
shrinkage=0.228474


Tree=2
num_leaves=62
num_cat=0
split_feature=75 70 72 70 52 41 70 52 35 27 38 72 70 26 3 53 12 14 13 9 24 26 2 54 2 33 72 32 72 14 54 12 3 14 70 2 0 14 31 38 54 0 14 38 9 32 9 9 26 0 26 2 14 32 72 72 72 51 0 24 26
split_gain=1839.46 848.917 679.168 279.686 66.4998 59.5112 45.8523 20.2837 20.0849 13.8517 13.8365 12.7331 11.59 10.5056 10.4008 10.008 9.63183 9.50304 9.17826 11.4645 9.93452 9.12904 19.4225 11.5095 11.4268 10.0422 9.28117 9.05833 8.95038 11.8839 10.5875 9.24644 8.73996 8.57297 8.51513 8.35808 10.7585 8.60754 8.21616 8.05207 8.52161 8.04761 9.91598 20.0407 8.01967 7.98363 7.88104 9.33909 8.57147 10.212 12.9611 12.6684 11.1744 8.76104 8.6601 8.16936 10.2873 7.61878 11.7031 7.52548 7.37393
threshold=1.0000000180025095e-35 1.5000000000000002 72.500000000000014 2.5000000000000004 0.13392857142857145 0.29166666666666669 1.5000000000000002 0.47222222222222227 6.5000000000000009 7.5000000000000009 380.50000000000006 12521.500000000002 2.5000000000000004 218.50000000000003 6.5000000000000009 1.5857142857142861 142.25000000000003 136.50000000000003 1.0000000180025095e-35 127.05555555555557 95.125000000000014 188.50000000000003 20.500000000000004 22.267857142857146 169.50000000000003 1.5833333333333337 1835.5000000000002 156.16666666666671 1835.5000000000002 128.50000000000003 70.550000000000011 34.625000000000007 4.5000000000000009 114.50000000000001 1.5000000000000002 172.50000000000003 55.500000000000007 199.50000000000003 1.0000000180025095e-35 666.50000000000011 14.763888888888891 26.500000000000004 121.50000000000001 174.50000000000003 105.52777777777779 93.833333333333357 57.062500000000007 29.708333333333339 174.50000000000003 42.500000000000007 48.500000000000007 129.50000000000003 39.500000000000007 51.166666666666679 5345.5000000000009 3096.5000000000005 8147.5000000000009 8.5000000000000018 57.500000000000007 11.875000000000002 382.50000000000006
decision_type=2 2 2 2 2 2 2 2 2 2 2 2 2 2 2 2 2 2 2 2 2 2 2 2 2 2 2 2 2 2 2 2 2 2 2 2 2 2 2 2 2 2 2 2 2 2 2 2 2 2 2 2 2 2 2 2 2 2 2 2 2
left_child=2 4 8 5 14 10 16 11 13 15 -3 21 28 -1 17 -5 27 46 19 20 34 25 33 26 -25 -8 38 -4 29 31 59 -9 45 -23 44 37 -37 -19 -24 40 -34 -17 43 -43 -15 -28 47 -2 49 50 51 -49 -52 54 -51 -54 -57 58 -16 -30 -38
right_child=1 3 6 9 -6 -7 7 12 -10 -11 -12 -13 -14 18 57 41 -18 35 -20 -21 -22 22 23 24 -26 -27 32 -29 30 -31 -32 -33 39 -35 -36 36 60 -39 -40 -41 -42 42 -44 -45 -46 -47 -48 48 -50 53 52 -53 55 -55 -56 56 -58 -59 -60 -61 -62
leaf_value=-0.10261989843051796 0.0087711830916787116 -0.064146622046519233 0.2748445416314641 0.045217435516138722 0.097537944385237649 -0.031310990284599806 0.1913069180264958 0.17284631478199536 0.11620298904687434 0.20441962272405798 -0.080782535233603583 0.040644949037446171 0.29807911246816549 -0.013815116159903797 -0.093944970528359123 -0.0014273790663561887 0.15794459036962608 0.066166427050534063 -0.10076563147149227 -0.091652896937707284 0.18394468450875895 0.39145698113988692 0.29573878507695561 0.17261152819737413 0.33891878768043771 0.29938887861012908 0.20632229648877434 0.39664029488142349 0.11935324026923784 0.25074359669655633 0.17360883684876416 0.026336082723808604 -0.040709247717469671 0.19425677351514323 -0.030076825257415229 -0.039985197614975404 0.043551597743936722 0.25402710214319918 0.13210642553445873 0.1718728432660363 0.15079595988063921 0.082692561343016405 0.050483755712182277 0.45009381387908054 0.22533733883364124 0.10649763867567009 0.024916360541786479 0.14394501711873792 -0.12084209694643375 -0.037891291217790946 -0.00081632583044076164 0.48222238331165485 0.014169232560302784 0.14388214088851409 0.083290056625034303 0.36515518392972535 0.078094733318349943 0.093711396461439195 0.076674955881934265 0.2498798353713938 0.27266383546481615
leaf_weight=248.75600381195545 124.55390857160091 8064.099856570363 477.86868288367987 1022.9353669434786 1499.6419310569763 2580.2257662117481 217.56765415519476 53.837307512760162 32.241329841315746 31.517188936471939 3933.1987814381719 36.446569584310055 105.44765277206898 13.325949601829054 80.584492608904839 16.348920881748199 37.447802826762199 776.3356007784605 87.618004247546196 65.861499816179276 17.139603286981583 26.571306116878986 30.061164043843746 124.11428555101156 27.763904973864555 61.984033182263374 60.120096378028393 38.753967121243477 27.112730428576469 50.786690920591354 163.84546922147274 40.336475491523743 48.617169380187988 25.677058108150959 101.42062696069479 85.261182963848114 30.124941863119602 12.798835083842276 40.518608339130878 19.877870321273804 15.663545049726961 17.15549619495869 20.624879620969296 14.79522220045328 14.711976483464239 160.79238301515579 1551.3601990044117 14.710395731031896 9.6287505105137807 58.051915995776653 31.262497030198574 10.540523417294024 11.807289429008959 44.790146119892597 63.853892855346203 15.962551839649679 12.209607139229773 22.913525864481926 27.635446533560753 477.73145799338818 9.7374286204576475
leaf_count=2429 1514 109985 2356 12146 15444 31474 1577 271 168 344 54306 273 437 142 991 172 162 9418 948 661 133 193 231 726 164 435 449 205 143 255 816 202 409 186 1118 1091 385 156 315 164 97 171 215 145 148 1259 19293 173 121 696 383 124 141 540 764 191 146 280 340 2381 125
internal_value=0 -0.0293046 0.163825 -0.0543669 0.0582465 -0.0628339 0.218116 0.200332 -0.0574165 0.0554394 -0.0696076 0.175359 0.224523 -0.067794 0.0385382 0.0510132 0.276075 0.0414272 -0.0386438 -0.012626 0.0226763 0.180987 0.163929 0.150334 0.204215 0.215876 0.128204 0.284399 0.214776 0.160944 0.226258 0.111053 0.110262 0.297882 0.000388234 0.0607142 0.00536922 0.0694145 0.20389 0.0463226 0.00580924 0.135465 0.178712 0.258108 0.111276 0.134246 0.0323401 0.061132 0.0847918 0.0926979 0.152093 0.292817 0.100045 0.0577014 0.0252157 0.179421 0.245589 -0.0240629 -0.0497562 0.243081 0.103104
internal_weight=0 20194.7 2950.02 15700.9 4493.77 14577.5 2368.94 1814.87 581.075 1123.38 11997.3 895.776 919.098 548.834 2994.12 1091.86 554.07 2862.99 300.078 212.46 146.598 859.329 579.777 527.529 151.878 279.552 375.651 516.623 813.65 144.96 668.69 94.1738 305.071 52.2484 129.459 914.258 125.124 789.134 70.5798 84.1586 64.2807 68.9245 52.5756 31.9507 28.0379 220.912 1948.73 397.371 272.818 263.189 96.4929 25.2509 71.2419 166.696 121.906 39.9794 28.1722 131.133 108.22 504.844 39.8624
internal_count=280727 261274 19453 208958 52316 195765 13706 10983 5747 13193 164291 6478 4505 5579 36872 12849 2723 35261 3150 2202 1541 6205 4193 3814 890 2012 2924 2561 4068 728 3340 473 2378 379 1408 11175 1601 9574 546 670 506 703 531 316 290 1708 24086 4793 3279 3158 1158 297 861 2000 1460 478 337 1611 1331 2524 510
is_linear=0
shrinkage=0.228474


Tree=3
num_leaves=62
num_cat=0
split_feature=75 72 64 52 34 8 37 1 72 43 8 30 72 20 8 42 11 42 63 52 39 2 8 66 66 38 20 23 1 66 20 20 71 1 1 30 44 51 36 56 1 72 74 13 56 1 1 1 1 1 38 38 8 72 20 74 71 12 39 11 74
split_gain=1025.58 349.895 175.777 21.2028 14.9181 12.9946 12.3162 17.2731 11.4922 11.1627 12.3478 11.6386 15.9822 11.9774 10.025 9.90575 9.57068 8.74091 12.5416 10.6483 8.50956 13.3728 8.41721 9.82353 14.9765 8.52804 8.2276 8.15236 7.95015 9.06744 8.41763 9.62231 13.8592 11.176 10.8309 9.45556 17.796 7.86848 10.0384 7.65937 8.76498 13.321 7.62674 7.54725 7.53218 7.29528 7.1349 7.69588 6.94768 6.92617 8.19517 6.89659 7.59699 8.84351 6.89322 7.98946 9.03003 6.8745 6.83767 9.29234 6.81058
threshold=1.0000000180025095e-35 37.500000000000007 0.19090909090909094 0.47222222222222227 2.5000000000000004 672.50000000000011 2.5000000000000004 99150.000000000015 12382.500000000002 0.36666666666666675 536.50000000000011 63.541666666666679 2749.5000000000005 159.50000000000003 939.50000000000011 66.387500000000017 3.5000000000000004 58.145833333333336 9.5000000000000018 0.30952380952380959 5.5000000000000009 76.500000000000014 346.50000000000006 0.76136363636363646 3.3839285714285716 348.50000000000006 184.50000000000003 5.5000000000000009 96950.000000000015 7.5916666666666677 122.50000000000001 165.50000000000003 1880.5000000000002 29950.000000000004 80850.000000000015 49.791666666666679 69.083333333333357 3.5000000000000004 117.12500000000001 115.52777777777779 82450.000000000015 1137.5000000000002 240.50000000000003 1.0000000180025095e-35 104.94444444444446 22550.000000000004 17050.000000000004 29550.000000000004 94550.000000000015 28750.000000000004 547.50000000000011 817.50000000000011 503.50000000000006 11330.500000000002 17.500000000000004 932.50000000000011 12595.500000000002 145.25000000000003 1.5000000000000002 2.5000000000000004 439.50000000000006
decision_type=2 2 2 2 2 2 2 10 2 2 2 2 2 2 2 2 2 2 2 2 2 2 2 2 2 2 2 2 10 2 2 2 2 8 10 2 2 2 2 2 8 2 2 2 2 10 10 10 10 10 2 2 2 2 2 2 2 2 2 2 2
left_child=1 4 6 27 -1 9 16 14 17 11 15 28 -13 57 51 58 22 18 19 44 -21 -22 54 25 49 -24 -26 -3 30 -30 35 37 33 -33 -35 -4 -37 38 -32 40 41 -27 -38 -34 -7 -20 -39 -48 -5 50 -25 52 -8 -54 -2 -56 -57 -14 59 -11 -60
right_child=2 3 5 48 -6 8 7 -9 -10 10 -12 12 13 -15 -16 -17 -18 -19 45 20 21 -23 23 24 26 39 -28 -29 29 -31 31 32 43 34 -36 36 42 46 -40 -41 -42 -43 -44 -45 -46 -47 47 -49 -50 -51 -52 -53 53 -55 55 56 -58 -59 60 -61 -62
leaf_value=-0.055532925088375866 -0.048514886838024567 0.13173755631304598 0.019712540174683973 0.17475131677875441 0.16357309504837431 0.17830711579107614 -0.068232303536121863 0.20463063593124337 0.27685087310108264 0.21768101904047216 -0.066814299707473337 -0.019014195365189314 0.1148558053670054 0.025301863186221442 -0.15825686849847312 -0.063913438812633741 0.08895521227058778 0.24200621798844299 0.094337628254842681 0.32405517820785906 0.28368884837339392 -0.013636252009242242 -0.12909418465752345 0.3381999125349664 -0.036568549219474882 -0.11516472068271648 0.082890693285781455 0 0.25055466902042395 0.049914902345925639 -0.0094768302601766861 -0.013909000276497384 0.017182848296515431 0.24840353564450168 -0.011308983458575693 0.32819644483441279 -0.077264812445494407 -0.13124035790438793 0.14764087690153999 -0.033601907795544166 -0.021803449806374785 -0.052333069473128491 0.082029320097344843 -0.097083936090622255 0.011794821110299497 -0.067855226746482353 0.065934678254202989 -0.051184453734609593 0.10024134104749508 0.039467495538237238 0.046157439934950174 -0.16774723976807618 -0.042538739433997358 0.043949856637691721 -0.028787330795857435 0.0030181598768987575 -0.15134688653182038 0.28763477590631659 0.035332638546833529 -0.012648817252013597 -0.0077501273857234123
leaf_weight=531.29671563953161 845.96651288121939 1138.9979591593146 1412.1942918822169 1352.0441966205835 16.217616483569145 17.082819387316704 679.31086824834347 12.775807753205298 12.95470794290304 19.071375735104084 142.8745559155941 90.123207695782185 144.12108835577965 89.8036829829216 49.769176617264748 96.500934973359108 33.112473100423813 12.386021614074705 18.624867491424084 14.15676900744438 12.698350340127947 18.952405914664268 60.544869214296341 10.489820502698423 341.29748456925154 202.33592524379492 32.37206020206213 25.007382944226265 14.532826468348501 62.350186713039875 177.89884907007217 21.238337926566601 241.23140352964401 33.370232097804546 10.587472774088381 13.732241861522196 18.403118476271629 47.162855200469494 23.625773474574089 2371.3598072230816 392.57816065102816 1466.9348679855466 87.731773048639297 34.027787089347839 79.814727522432804 58.210810609161854 33.955058939754963 187.67642741650343 74.312220424413681 47.471282675862312 10.463021911680697 27.125437833368778 597.24663205444813 67.882714442908764 7746.878129824996 608.5202903598547 20.015981048345566 13.533924050629137 310.03359249979258 16.361397691071033 496.30906061828136
leaf_count=5621 11647 7362 15659 5948 78 184 9758 170 138 217 1686 977 1517 954 700 1096 387 117 203 140 122 195 847 123 4101 2844 381 119 151 658 2025 245 2705 383 120 145 200 526 270 33313 5519 20690 963 383 917 617 379 2084 325 568 124 378 8474 962 105970 8326 273 143 3613 188 5799
internal_value=0 0.117018 -0.0236059 0.152094 -0.048825 0.018592 -0.0346377 -0.0548739 0.069639 0.0153142 -0.00431947 0.0230315 0.0628097 0.0928061 -0.0573038 0.00516575 -0.0325872 0.057355 0.0462522 0.0863257 0.17698 0.106147 -0.0328779 -0.0405217 -0.0078693 -0.0437211 -0.0259954 0.128905 0.01745 0.0896875 0.015041 -0.0037266 0.0254326 0.119809 0.185135 0.0250059 0.0866391 -0.0249514 0.00894827 -0.042531 -0.0527656 -0.060008 0.0537126 0.00273719 0.0423421 -0.0275505 -0.0505395 -0.0329103 0.170937 0.0898988 0.198638 -0.0535543 -0.051159 -0.0336095 -0.0287791 -0.0267769 -0.0019109 0.130751 0.0131762 0.110938 0.00875866
internal_weight=0 3137.88 19707.8 2590.36 547.514 4083.33 15624.5 1434.11 244.881 3838.45 1081.15 2757.3 337.582 247.459 1421.33 938.276 14190.3 231.927 219.541 142.705 45.8075 31.6508 14157.2 4935.85 442.094 4493.75 373.67 1164.01 2419.72 76.883 2342.84 810.774 340.455 65.196 43.9577 1532.06 119.867 470.319 201.525 4433.21 2061.85 1669.27 106.135 275.259 96.8975 76.8357 268.794 221.631 1426.36 68.4241 20.9528 1371.57 1344.44 665.129 9221.38 8375.41 628.536 157.655 841.775 35.4328 806.343
internal_count=280727 19453 261274 13754 5699 45719 215555 20442 2633 43086 12599 30487 3591 2614 20272 10913 195113 2495 2378 1558 457 317 194726 68510 5297 63213 4482 7481 26896 809 26087 9120 3836 748 503 16967 1308 5284 2295 62366 29053 23534 1163 3088 1101 820 2989 2463 6273 815 247 19572 19194 9436 126216 114569 8599 1660 9817 405 9412
is_linear=0
shrinkage=0.228474


Tree=4
num_leaves=62
num_cat=0
split_feature=75 70 72 70 70 64 57 36 72 53 38 20 51 7 71 1 26 36 72 30 71 71 70 3 74 32 74 1 48 20 38 38 71 50 38 3 74 45 1 26 1 48 47 72 72 1 20 20 0 50 6 72 1 32 7 1 56 3 20 0 74
split_gain=623.344 484.023 201.445 169.181 32.6468 23.9499 17.3057 16.884 10.8066 10.3984 13.6696 10.3741 13.6687 9.55307 9.34717 9.68279 9.30602 10.7393 9.17217 10.676 9.2534 8.77567 8.57135 8.27055 7.67203 7.8132 7.86498 7.65998 9.53162 9.0826 10.1726 12.837 7.95126 7.41348 8.50759 7.40752 7.36322 7.33283 9.04137 7.3105 7.23042 7.17736 7.09406 6.98181 9.13246 7.39064 6.96762 6.91322 7.49287 7.06498 10.3679 7.39789 6.94208 10.3849 6.8738 8.73732 6.76518 6.65923 6.5993 11.3399 7.20326
threshold=1.0000000180025095e-35 1.5000000000000002 37.500000000000007 2.5000000000000004 1.5000000000000002 0.19090909090909094 1.3875000000000002 4.1250000000000009 9942.5000000000018 1.3095238095238098 198.50000000000003 56.500000000000007 8.5000000000000018 0.70714285714285718 11403.500000000002 94550.000000000015 277.50000000000006 139.12500000000003 8767.5000000000018 13.04166666666667 1880.5000000000002 570.50000000000011 2.5000000000000004 2.5000000000000004 730.50000000000011 142.41666666666671 722.50000000000011 66050.000000000015 233.25000000000003 58.500000000000007 188.50000000000003 219.50000000000003 692.50000000000011 536.50000000000011 547.50000000000011 1.5000000000000002 947.50000000000011 0.45000000000000007 94850.000000000015 194.50000000000003 68050.000000000015 145.12500000000003 7.5000000000000009 7500.5000000000009 3323.5000000000005 56450.000000000007 192.50000000000003 46.500000000000007 46.500000000000007 366.50000000000006 1.5000000000000002 4014.5000000000005 53650.000000000007 26.166666666666668 0.45804195804195807 67650.000000000015 140.06250000000003 4.5000000000000009 5.5000000000000009 43.500000000000007 782.50000000000011
decision_type=2 2 2 2 2 2 2 2 2 2 2 2 2 2 2 10 2 2 2 2 2 2 2 2 2 2 2 8 2 2 2 2 2 2 2 2 2 2 8 2 8 2 2 2 2 8 2 2 2 2 2 2 10 2 2 8 2 2 2 2 2
left_child=2 7 9 5 -4 23 18 -2 14 22 -11 12 21 33 15 -8 17 -10 19 43 -20 -5 36 -3 25 26 27 29 40 32 -31 -32 -9 57 -35 -34 -1 -25 58 -26 -29 -12 -18 44 -6 -45 -27 49 -49 50 52 -51 -23 -54 55 56 -36 -13 59 -39 -61
right_child=1 3 4 11 6 -7 8 24 16 10 41 13 -14 -15 -16 -17 42 -19 20 -21 -22 47 -24 37 39 46 -28 28 -30 30 31 -33 35 34 54 -37 -38 38 -40 -41 -42 -43 -44 45 -46 -47 -48 48 -50 51 -52 -53 53 -55 -56 -57 -58 -59 -60 60 -62
leaf_value=-0.054993485862843479 0.03473979111170096 -0.043853846012347632 0.16064301936777481 -0.077603802202592609 0.093360152711396666 -0.025642602852719524 0.12178929860975896 -0.11356179824675423 0.1629362596600212 -0.095949830496203536 0.20362932986451301 0.034223957543095145 0.25929202166617893 -0.058139786245335952 0.040931236034535128 0.012611799698191333 0.16135024108638765 0.014971360976054771 -0.05026510617922194 0.1308126125085253 0.060599777623831994 0.015287653403471317 0.081819643550722979 -0.066140525416006957 -0.0096982980818113382 0.0093693180235779761 0.25848834480779742 -0.10147785646728087 0.22923361139879703 0.015761767046426754 0.3160906794899101 0.11682773380166997 0.23052747148292582 0.22447678214414457 0.046170946034431164 0.053126719789456218 -0.18834657273041133 -0.1129462885052305 -0.011320820639439913 0.055276711446418526 0.051172218968198187 0.032225744536628728 0.29482856373394245 0.22200735885148606 0.024557696748174328 0.054697215758691554 0.15618456214054199 0.24660886350780034 0.069810783952092337 0.10415326338087801 0.23967177935007428 -0.068907796885162131 -0.063772276898450525 0.15216056773499179 0.19281843251965722 -0.049895393026280828 0.21376683695830942 -0.043026052103300662 -0.054594635039748381 0.16100460885227491 -0.066056999764775165
leaf_weight=393.89208167791367 3015.8553940020502 4665.3264054507017 604.54512280225754 19.987566947937012 207.42239218950272 2307.0944015309215 789.53924539685249 13.192049555480478 98.223016560077667 28.125993967056274 20.686118237674236 554.50312149524689 20.334475815296173 58.202247761189938 100.27173954248428 46.076493851840496 53.607337109744549 35.814280018210411 47.333414174616337 235.99240151792765 212.51011795550585 83.389208666980267 21.931844942271709 2565.7048661634326 118.30853635817766 144.22407131642103 12.878789678215979 16.458610542118549 14.84341313689947 49.976032428443432 17.874376095831394 350.08925448358059 13.116566978394983 19.246345072984695 58.240032188594341 175.22511392831802 22.97069163620472 19.647339858114719 291.28498883545399 364.02355431765318 319.2090552598238 35.094404399394989 40.349583655595779 30.707615815103054 201.27748659998178 27.232615105807781 18.869944609701633 23.806322172284126 29.218011282384396 18.916530460119247 19.142175287008286 37.954370856285095 13.687876388430594 61.295569516718388 17.628897547721863 37.235844925045967 16.274463810026646 64.139649115502834 3624.9304897263646 26.637464288622141 9.3300099670886976
leaf_count=4642 36954 68471 2721 231 1300 28412 3711 127 481 180 140 6403 198 697 465 218 272 157 280 1112 1257 934 250 38724 1094 1356 120 157 122 454 164 3345 116 216 650 1644 272 298 4261 3470 3003 191 174 192 1265 172 176 265 323 219 221 406 159 681 205 418 182 722 54920 402 141
internal_value=0 -0.0193614 0.0887345 -0.0397218 0.113609 -0.0468939 0.100182 0.0449097 0.119032 -0.0411085 0.0320587 0.0442413 0.0787199 0.0304549 0.107895 0.115842 0.16423 0.123967 0.0772907 0.0909174 0.0401512 0.0662638 -0.0552382 -0.0512645 0.0636994 0.0739321 0.0816442 0.0791302 0.0516976 0.0945205 0.113857 0.127002 0.0540038 0.0372729 0.0831963 0.0662499 -0.0626519 -0.0565415 -0.0503211 0.0392344 0.0434112 0.0977872 0.220296 0.0705275 0.0596665 0.145244 0.0270399 0.0765528 0.151501 0.0591294 0.0815704 -0.0100716 0.061541 0.1119 0.0611095 0.0392117 0.0844808 0.026105 -0.0533915 0.0238992 0.100557
internal_weight=0 19307.3 3253.6 14663.2 2730.9 13510 2126.36 4644.14 1163.88 522.701 83.9065 1153.2 327.732 825.471 935.887 835.616 227.994 134.037 962.476 702.633 259.844 307.398 438.795 11202.9 1628.29 1145.96 982.863 969.984 350.511 619.473 417.94 367.964 201.534 767.268 148.626 188.342 416.863 6537.54 3971.83 482.332 335.668 55.7805 93.9569 466.64 408.7 57.9402 163.094 287.41 53.0243 234.386 177.515 56.8709 158.373 74.9834 129.379 111.75 74.5145 618.643 3680.55 55.6148 35.9675
internal_count=280513 261061 19452 208759 13777 195629 11056 52302 5478 5675 511 13130 3637 9493 4394 3929 1084 638 5578 4041 1537 3439 5164 167217 15348 10784 9252 9132 3282 5850 3963 3509 1887 8796 1671 1760 4914 98746 60022 4564 3160 331 446 2929 2565 364 1532 3208 588 2620 1995 625 1774 840 1455 1250 832 7125 55761 841 543
is_linear=0
shrinkage=0.228474


Tree=5
num_leaves=62
num_cat=0
split_feature=75 5 42 3 0 22 62 9 11 2 71 38 23 30 74 71 26 71 0 60 42 71 14 2 26 1 71 1 2 38 50 1 9 74 1 3 0 71 71 38 74 71 1 74 71 9 0 74 74 1 74 31 57 2 1 26 24 57 71 60 26
split_gain=365.68 70.0664 53.2946 12.827 12.5409 12.0316 8.13416 8.05904 8.07572 8.05006 7.98668 10.4105 7.80198 7.64448 9.05539 8.40423 10.6622 8.85346 8.412 9.84905 7.85692 7.49863 9.90606 10.3394 12.1058 8.23376 7.17161 7.12173 10.9182 7.06342 10.0799 11.3157 9.35593 8.48274 8.83111 6.99709 13.1449 8.4725 6.98833 11.0283 6.96532 6.90488 8.50654 8.94681 6.79119 8.63387 6.73603 9.10393 7.80096 6.63464 6.44979 6.2245 9.1722 32.5263 6.96591 7.46003 7.21396 6.50996 6.33721 9.84681 7.61881
threshold=1.0000000180025095e-35 0.095454545454545472 4.6937500000000005 3.5000000000000004 16.500000000000004 2.5000000000000004 672.50000000000011 126.05555555555557 3.5000000000000004 196.50000000000003 9765.5000000000018 282.50000000000006 3.5000000000000004 70.895833333333357 712.50000000000011 3888.5000000000005 83.500000000000014 3616.5000000000005 54.500000000000007 211.87500000000003 99.062500000000014 4477.5000000000009 52.500000000000007 7.5000000000000009 132.50000000000003 73650.000000000015 423.50000000000006 3550.0000000000005 118.50000000000001 765.50000000000011 813.50000000000011 50450.000000000007 132.53571428571431 833.50000000000011 26650.000000000004 2.5000000000000004 59.500000000000007 981.50000000000011 4296.5000000000009 91.500000000000014 332.50000000000006 4021.5000000000005 75250.000000000015 730.50000000000011 4343.5000000000009 107.52272727272729 24.500000000000004 304.50000000000006 605.50000000000011 90750.000000000015 979.50000000000011 0.41666666666666669 0.5277777777777779 96.500000000000014 44250.000000000007 511.50000000000006 193.12500000000003 0.73214285714285732 4021.5000000000005 5.1250000000000009 371.50000000000006
decision_type=2 2 2 2 2 2 2 2 2 2 2 2 2 2 2 2 2 2 2 2 2 2 2 2 2 8 2 8 2 2 2 8 2 2 10 2 2 2 2 2 2 2 10 2 2 2 2 2 2 8 2 2 2 2 8 2 2 2 2 2 2
left_child=2 3 26 21 -3 6 13 8 -7 29 11 12 -11 15 -15 16 -4 -18 19 46 -16 22 23 24 -2 44 -1 28 -23 51 31 32 -31 34 -32 37 -37 -28 -25 -40 -36 42 43 -27 -24 -46 47 -17 -48 -20 -44 54 53 -53 55 58 -56 -54 60 -60 -6
right_child=1 4 5 -5 9 7 -8 -9 -10 10 -12 -13 -14 14 20 18 17 -19 49 -21 -22 27 25 38 -26 41 35 -29 -30 30 33 -33 -34 -35 40 36 -38 -39 39 -41 -42 -43 50 -45 45 -47 48 -49 -50 -51 -52 52 57 -55 56 -57 -58 -59 59 -61 -62
leaf_value=-0.050634479288566736 -0.025096176517054387 -0.11323983551750433 0.23031081263094891 -0.033164910105767796 -0.0072911979480994845 0.14734308340604008 0.032548437825925952 0.2190007635644331 0.054536671355113669 0.35140464361431345 -0.056685425163282427 0.048058220261810669 0.084497470865815993 0.079028334605594122 -0.057064555974654763 -0.06077396296570118 0.097783238797152852 0.22163942700043535 0.038215909213515281 0.19373796945455043 0.081322106036716482 -0.024720249586225436 0.00098202867999643852 -0.038304454852419879 0.29210398052728748 -0.12455199902980478 0.15957247721220202 -0.025725564300419248 0.089408566469027742 0.093623604825694137 -0.12886870396879246 0.025787198921334711 0.39741167380925219 0.1616992611300605 0.14115890066011327 0.029244888642545808 -0.064425584728255367 0.041221922333763643 -0.093207697406749224 0.16064455841391928 -0.019995583255230036 -0.088347354956583218 -0.0039732244589096334 0.033400026341977841 -0.022227734710864536 0.15239249155548437 0.13283553753564814 0.07479365302060198 0.065653863922880432 0.14077869348054148 -0.1583518041599335 0.29998417308671621 -0.14736318504541418 -0.10066822916166526 -0.0006606637827083772 -0.13805541003790886 0.068298242072415832 -0.011762656959923987 0.17974584844939828 0.031775843954969192 0.059684683518332074
leaf_weight=58.006712730973959 13.669120192527773 43.467602595686913 40.203354693949223 4823.4518830291927 471.68348190560937 139.58449794352055 166.60160693153739 48.674296990036964 79.7630425542593 12.817143782973291 18.686596021056175 53.175632115453482 11.810199968516825 201.54116772115231 59.175993725657463 32.517868712544441 452.62789185345173 33.059707351028919 295.42103902995586 50.113331124186516 32.913541108369827 109.99894977360964 2055.561273984611 936.1738821528852 10.696428682655094 67.696742236614227 33.535978451371193 5204.0118617936969 71.637288015335798 10.850440695881845 23.955685123801231 21.64522361010313 11.895405516028402 17.203359369188547 20.429898843169212 411.2047161757946 95.923005498945713 558.01028364524245 13.952872373163698 22.645316787064075 41.102808631956577 78.043890852481127 637.23432599753141 24.945313401520252 24.601967941969633 34.573293667286634 208.58645424246788 115.38400033861399 169.22058137878776 37.395025432109833 14.062018126249312 20.18351212143898 18.537684038281441 21.14853809773922 1974.4935102239251 14.457691691815851 82.026282265782356 907.08570475131273 23.88253977149725 913.61514031141996 108.55397828295827
leaf_count=479 199 522 178 73032 5233 577 845 202 330 137 204 595 128 869 261 159 2125 154 1381 212 144 1580 29657 13447 158 969 247 74897 1035 123 267 244 134 194 236 3775 868 4130 202 324 486 1118 9156 354 351 501 990 551 796 179 197 216 226 229 21625 158 779 10771 268 9892 1217
internal_value=0 -0.0154635 0.0667258 -0.0235861 0.00824732 0.0879057 0.0813877 0.133586 0.114007 0.00936859 0.0746181 0.106971 0.229104 0.0860562 0.051932 0.0929866 0.11625 0.106508 0.079416 0.0962403 -0.00688315 -0.0186214 -0.0110117 -0.0306912 0.114599 -0.00430815 0.0270596 -0.0241686 0.0201021 0.00801193 0.0572653 0.14785 0.259128 0.0171476 -0.0119707 0.0312279 0.0113835 0.0481301 -0.0344331 0.0624659 0.0332457 -0.0237141 -0.016816 -0.0814897 0.00321284 0.0792561 0.0866975 0.0445405 0.102992 0.0500629 -0.00748823 0.00640491 -0.00983292 0.094756 0.0107956 0.0224587 0.00207733 -0.0146016 0.0240607 0.0356811 0.00518142
internal_weight=0 18985.7 3319.46 14143 4842.71 2162.78 1894.76 268.022 219.348 4799.24 96.4896 77.803 24.6273 1728.16 293.631 1434.53 525.891 485.688 908.638 575.822 92.0895 9319.5 3933.86 997.138 24.3655 2936.72 1156.68 5385.65 181.636 4702.75 147.083 44.3911 22.7458 102.692 85.4884 1098.67 507.128 591.546 972.772 36.5982 61.5327 821.982 743.938 92.6421 2114.74 59.1753 525.709 147.902 377.807 332.816 651.296 4555.67 966.955 41.3321 3588.71 1532.19 2056.52 925.623 1517.74 937.498 580.237
internal_count=280513 261061 19452 207177 53884 9953 8844 1109 907 53362 1064 860 265 7999 1274 6725 2457 2279 4268 2708 405 134145 56633 14330 357 42303 9499 77512 2615 52298 1684 501 257 1183 989 9020 4643 4377 13973 526 722 11794 10676 1323 30509 852 2496 710 1786 1560 9353 50614 11442 445 39172 16768 22404 10997 16610 10160 6450
is_linear=0
shrinkage=0.228474


Tree=6
num_leaves=62
num_cat=0
split_feature=70 75 70 65 75 54 74 38 74 73 74 32 66 0 64 64 74 74 54 2 65 29 38 12 38 32 74 25 64 9 2 29 9 0 8 32 2 14 0 32 32 8 0 44 0 7 38 14 2 70 38 2 69 2 48 38 38 24 9 14 12
split_gain=292.115 220.881 102.834 22.6562 20.5034 10.7221 10.3889 12.1918 10.6981 10.3499 9.25147 10.9068 9.24711 16.2738 8.88639 8.52285 8.2284 8.2055 8.19707 9.93664 13.7654 30.2743 10.2897 7.85715 7.8456 10.131 23.2387 7.75048 7.3816 7.28287 7.2606 7.01727 6.97686 6.82282 8.61268 7.29106 7.48066 8.03706 9.00709 7.33089 7.25618 7.33694 6.80204 8.72715 11.4532 7.69819 12.7925 7.5217 9.77897 6.56294 6.51594 6.39288 6.21194 6.18168 6.07888 6.06348 7.64404 8.58444 6.99625 9.6068 7.29813
threshold=1.5000000000000002 1.0000000180025095e-35 2.5000000000000004 1.267857142857143 1.0000000180025095e-35 0.51388888888888895 463.50000000000006 765.50000000000011 120.50000000000001 4.5000000000000009 585.50000000000011 126.83333333333336 27.765625000000004 56.500000000000007 0.81666666666666676 0.5634920634920636 423.50000000000006 705.50000000000011 10.765625000000002 41.500000000000007 1.1547619047619049 1.5833333333333337 574.50000000000011 57.250000000000007 626.50000000000011 120.83333333333336 336.50000000000006 1.0000000180025095e-35 0.27922077922077926 100.52777777777779 108.50000000000001 2.4166666666666674 89.050000000000011 28.500000000000004 206.50000000000003 162.16666666666671 68.500000000000014 192.50000000000003 21.500000000000004 173.16666666666671 43.416666666666679 36.500000000000007 63.500000000000007 55.708333333333336 68.500000000000014 0.19090909090909094 372.50000000000006 112.50000000000001 95.500000000000014 2.5000000000000004 488.50000000000006 183.50000000000003 0.31666666666666671 12.500000000000002 206.62500000000003 533.50000000000011 503.50000000000006 83.875000000000014 107.52272727272729 116.50000000000001 13.125000000000002
decision_type=2 2 2 2 2 2 2 2 2 2 2 2 2 2 2 2 2 2 2 2 2 2 2 2 2 2 2 2 2 2 2 2 2 2 2 2 2 2 2 2 2 2 2 2 2 2 2 2 2 2 2 2 2 2 2 2 2 2 2 2 2
left_child=4 3 5 15 14 33 8 10 -4 49 11 29 16 -14 -1 -2 51 18 28 20 22 -22 23 -20 55 26 -26 30 42 32 -13 -16 -8 34 40 -36 37 38 -37 -40 41 -3 -6 52 45 46 -45 48 -47 -5 -46 -10 -44 -35 -51 56 58 -58 59 60 -21
right_child=1 2 6 9 17 -7 7 -9 12 -11 -12 27 13 -15 31 -17 -18 -19 19 24 21 -23 -24 -25 25 -27 -28 -29 -30 -31 -32 -33 -34 53 35 36 -38 -39 39 -41 -42 -43 43 44 50 47 -48 -49 -50 54 -52 -53 -54 -55 -56 -57 57 -59 -60 -61 -62
leaf_value=0.061532222990881763 0.020917998591264773 -0.026061510162282156 0.14652854882499572 0.050399654258173048 0.03475950668594404 -0.022931405212535706 0.058688085029652726 0.27697170597987664 -0.01124312212804547 0.11591443044368979 0.033507872454380735 0.14440707856296428 0 0.25018444419198543 0.17481721384040039 0.11187275870659297 -0.10356554268560844 0.023081873343965657 0.13207734710085878 0.0060031313835284443 0.32032165359591908 0.056185505474894683 -0.080714607170715838 -0.057535773512025858 0.4259156835863861 0.051175070785948233 0.0414722838925893 0.064950811544428458 -0.023399830802208282 -0.021689771422437297 0.40530111750762515 0.085998045834414061 0.21781938608954238 -0.064629526679089111 -0.061488471185353388 -0.036178242926769903 -0.044561017332458125 -0.11682508268991929 0.33389357670984726 0.046052308495393851 -0.022864627299318929 -0.11176643997779587 0.09223667400863976 0.11417468282530051 -0.063515864224747656 0.20643950391668631 -0.091380307947001152 0.23841490294088208 -0.047102738419793989 0.16161784925178407 0.10747233016515498 0.099414478569290837 0.32666466716927683 -0.033829372441354665 0.032170866268057707 -0.019321635343956891 0.27894839162714063 0.0434731535094093 0.0080142071412267982 0.13661430907859917 0.086538449514616977
leaf_weight=510.65394476801157 1495.7007208354771 104.4933741800487 26.989821940660477 818.47701186686754 2011.9594799801707 2681.6281877532601 59.926939621567726 12.042867809534071 304.48476713895798 190.56051130592823 544.01673768460751 12.919538751244547 42.585125058889389 19.680762648582458 74.734741494059563 55.730921655893326 46.488327942788601 1548.1618706397712 52.609560549259186 138.37503968179226 40.129085183143616 53.190952636301517 24.093454290181398 13.83326483517885 14.524609468877314 55.293828971683979 19.203832998871803 15.5083746984601 102.29248674958944 37.326256051659584 12.110509507358072 138.37478971481323 19.469366103410721 362.64369099214673 1765.2010819725692 10.190722402185203 71.121405113488436 7.94374656677246 11.904613874852659 8.3907797299325448 873.06989984214306 108.47923238575459 14.337226241827013 46.520694248378277 46.412481836974621 14.657944008708002 23.193213656544685 30.37908411026001 15.971357271075247 56.230416856706142 14.934357039630411 29.493463128805161 11.493220709264277 6808.6425182968378 30.536830991506577 76.311418421566486 15.311502091586588 18.316126480698586 200.09458511322737 71.656251348555088 103.76512007415295
leaf_count=2885 10686 1634 301 3552 23979 34074 649 123 3577 810 5957 147 397 176 321 235 549 17050 488 1240 332 428 216 128 127 487 171 176 915 409 132 587 213 5776 28800 165 1148 128 192 135 13448 1694 171 553 551 178 272 355 194 239 174 342 133 108822 126 696 139 161 1771 632 893
internal_value=0 -0.0184308 -0.0298795 0.042077 0.0422973 -0.0358322 0.0345391 0.0519191 0.00800969 0.0672501 0.0478147 0.0967471 -0.000445554 0.0807447 0.0781966 0.0242491 -0.0139473 0.0368407 0.0434173 0.0620722 0.109653 0.171265 0.0450626 0.0916897 0.0496682 0.113336 0.211795 0.198894 0.0362118 0.060229 0.277345 0.117678 0.09932 -0.0392402 -0.048522 -0.0579395 -0.000253938 0.0799673 0.133862 0.220815 -0.0322001 -0.0701 0.0389742 0.0775045 0.060061 0.0982556 0.0448906 0.157643 0.0736695 0.056898 -0.0205791 -0.00119886 0.202139 -0.035398 0.117047 0.040427 0.0488603 0.154378 0.0417312 0.0630221 0.0408251
internal_weight=0 16644 13996.8 2647.24 5500.79 12813.7 1183.04 713.321 469.722 1095.8 701.278 157.261 442.732 62.2659 723.763 1551.43 380.467 4777.02 3228.86 896.709 183.856 93.32 90.5363 66.4428 712.852 89.0223 33.7284 40.5384 2332.15 116.723 25.03 213.11 79.3963 10132.1 2960.79 1874.75 109.551 38.4299 30.4861 20.2954 1086.04 212.973 2229.86 217.9 192.069 130.722 69.7139 61.0084 30.6293 905.244 61.3468 333.978 25.8304 7171.29 86.7672 623.83 547.519 33.6276 513.891 313.796 242.14
internal_count=281039 224812 209164 15648 56227 196016 13148 7806 5342 4727 7683 1726 5041 573 3793 10921 4468 52434 35384 7909 1592 760 832 616 6317 785 298 455 27475 1271 279 908 862 161942 47344 30568 1768 620 492 327 16776 3328 26560 2581 2277 1552 825 727 372 3917 725 3919 304 114598 365 5532 4836 300 4536 2765 2133
is_linear=0
shrinkage=0.228474


Tree=7
num_leaves=62
num_cat=0
split_feature=70 52 70 4 70 65 52 38 0 37 54 8 14 26 65 74 57 14 14 28 36 14 14 14 18 26 3 74 36 11 71 2 71 74 2 9 15 1 1 45 73 1 71 1 48 1 74 0 71 45 55 18 44 9 0 74 1 14 8 74 71
split_gain=171.8 77.901 40.7299 20.7462 14.7214 15.154 13.71 10.1135 9.01038 7.93278 7.90322 10.677 7.86571 8.967 8.14004 8.50552 9.36551 14.1602 8.73443 7.71895 8.97906 7.63366 7.49776 7.3492 6.92755 9.16891 7.52763 7.45566 6.83511 9.81424 8.07055 6.77517 8.28695 9.87797 7.17605 7.02893 7.24792 11.5183 15.258 9.16383 7.6027 6.76919 6.38733 6.30892 6.28536 6.27632 16.7976 9.04454 6.23543 7.04233 7.75201 6.72507 7.66847 7.51155 7.40214 6.17479 8.95131 9.46903 8.51662 6.28487 10.0524
threshold=1.5000000000000002 0.21111111111111114 2.5000000000000004 2.5000000000000004 2.5000000000000004 0.73863636363636376 0.69047619047619058 407.50000000000006 48.500000000000007 1.0000000180025095e-35 23.015625000000004 413.50000000000006 67.500000000000014 350.50000000000006 0.6515151515151516 503.50000000000006 1.2361111111111114 24.500000000000004 61.500000000000007 0.58333333333333337 293.12500000000006 90.500000000000014 93.500000000000014 95.500000000000014 9.8750000000000018 206.50000000000003 2.5000000000000004 932.50000000000011 79.125000000000014 2.5000000000000004 3433.5000000000005 123.50000000000001 10773.500000000002 172.50000000000003 14.500000000000002 189.16666666666671 3.5000000000000004 60050.000000000007 71650.000000000015 3.4500000000000006 1.5000000000000002 91050.000000000015 11148.500000000002 87250.000000000015 203.12500000000003 99450.000000000015 356.50000000000006 40.500000000000007 9092.5000000000018 1.4500000000000002 0.2678571428571429 155.50000000000003 31.708333333333339 42.071428571428577 41.500000000000007 979.50000000000011 66050.000000000015 45.500000000000007 166.50000000000003 950.50000000000011 6621.5000000000009
decision_type=2 2 2 2 2 2 2 2 2 2 2 2 2 2 2 2 2 2 2 2 2 2 2 2 2 2 2 2 2 2 2 2 2 2 2 2 2 8 8 2 2 10 2 10 2 10 2 2 2 2 2 2 2 2 2 2 10 2 2 2 2
left_child=6 2 24 4 19 7 -1 9 28 -6 -7 -12 13 14 15 -4 18 -18 43 20 23 -14 -23 -3 26 -26 27 31 -8 -30 -31 34 -33 -34 -2 36 -36 -38 39 -39 -40 -10 48 -17 -25 -28 -47 -48 51 -50 -51 52 -21 -54 -53 58 57 -57 59 -29 -61
right_child=1 3 12 -5 5 10 8 -9 41 -11 11 -13 21 -15 -16 16 17 -19 -20 42 -22 22 -24 44 25 -27 45 55 29 30 -32 32 33 -35 35 -37 37 38 40 -41 -42 -43 -44 -45 -46 46 47 -49 49 50 -52 54 53 -55 -56 56 -58 -59 -60 60 -62
leaf_value=0.028361517281495916 -0.051599587639663429 0.0077819337547521388 0.0062956744247874485 0.059200967822356163 0.16080488405564725 -0.021160931904786101 0.03938043083888574 0.26615160165562973 0.026544183344456889 -0.043488552699939668 0.083522889183368088 -0.02650760750025655 -0.049277370517992615 -0.1094041587064607 0.24598455691088075 0.060765779189846179 -0.00074214553002520552 0.30573576813231718 0.24534111997103572 -0.068312526675680302 0.16538386955769957 0.17915010977298285 0.014039713151346151 -0.015169963150842306 0.15919776562593463 -0.0014375447654812101 -0.0333426614728329 0.0033897422182246045 0.21902924139583194 -0.0099186039358579968 0.13513928239820708 -0.028123665173432538 0.07427969583580897 -0.087759969357153841 -0.013569936163434429 -0.084307287633819936 -0.010739573942869122 0.091956041858631016 0.19435445181702216 0.4239466200510088 -0.022675117884143128 0.1629795422645173 -0.032412890822043551 -0.087906166876072722 -0.10442552127735782 0.27331456757943678 0.12596106346208158 -0.13890305820823692 0.19556284377577846 0.094647996467913234 -0.070784547910378207 0.058730529805740748 0.17547831136053144 0.030362419197365806 -0.12883957437797103 -0.14352141095708343 -0.12982152280931181 0.053066080891618621 -0.017684685754663608 0.16635386386408674 0.011987600871875902
leaf_weight=5222.4207943305373 269.95643785595894 1055.1079086586833 119.67576923966408 461.03590107709169 23.267383880913258 109.21510940045118 57.424481108784676 24.333488672971725 204.35506196320057 16.253332920372486 165.97254315018654 62.518317587673664 102.13472630828619 16.381415836513042 11.727471470832823 103.87840116769075 11.834066160023211 21.178638361394405 11.602168783545492 38.760471619665623 15.636969193816183 14.448091089725493 495.71049627661705 1121.1662175729871 21.365530237555504 120.59317165985703 6563.3260673619807 54.60753995552659 47.970828615128994 28.493553891777992 61.684832766652107 1489.1187199167907 20.844744969159365 224.15652027353644 2198.0163082405925 68.474076341837645 99.391040161252022 8.5201911106705666 11.027469296008347 10.446538493037224 30.524208180606365 20.819585844874382 96.788710810244083 16.74303275346756 42.619887448847294 12.401995446532963 10.097721520811321 17.86346746981144 22.550775021314621 51.999091297388077 19.880460485816002 16.389708653092384 19.21909823268652 456.54160516709089 30.10707426071167 15.907377373427151 34.813409499824047 58.051870256662369 110.55608758702874 53.240771517157555 38.797410499304533
leaf_count=53751 4073 10761 1424 2236 194 894 388 207 1202 144 1242 514 1189 185 102 1149 126 221 133 312 135 164 5693 11701 272 1524 105765 797 237 165 360 22395 310 3389 33204 1025 1450 134 166 151 465 124 679 176 374 184 151 263 180 385 150 126 159 3287 226 232 518 865 1675 765 571
internal_value=0 -0.0146656 -0.023439 0.0137355 0.00752691 0.0485805 0.0315794 0.150485 0.0713264 0.0758798 0.0289913 0.0531908 0.0226433 0.0521078 0.0613488 0.0532106 0.0867657 0.195652 0.0586435 0.00198351 -0.00473654 0.00746781 0.0189639 -0.00599055 -0.0271386 0.0227637 -0.0277655 -0.0208426 0.107332 0.134988 0.0888842 -0.0234352 -0.0346032 -0.0736528 -0.0162286 -0.0122631 -0.0101336 0.0366788 0.114966 0.282791 0.0350241 0.0396756 0.0220078 0.0394551 -0.018521 -0.0327841 0.0561454 -0.040925 0.0301409 0.0845199 0.04801 0.0208364 0.0284387 0.0364864 -0.0616533 0.0103882 -0.034935 0.00949438 0.0297884 0.0658888 0.10221
internal_weight=0 16316.8 12467.4 3849.36 3388.33 401.56 5643.17 63.8542 420.748 39.5207 337.706 228.491 925.314 313.021 296.64 284.912 165.236 33.0127 132.224 2986.77 2234.53 612.293 510.159 2218.89 11542.1 141.959 11400.1 4796.45 195.574 138.149 90.1784 4430.48 1734.12 245.001 2696.36 2426.4 2357.93 159.909 60.5184 18.9667 41.5517 225.175 752.237 120.621 1163.79 6603.69 40.3632 27.9612 655.448 94.4303 71.8796 561.018 514.521 475.761 46.4968 365.974 108.773 73.9592 257.202 146.646 92.0382
internal_count=281039 224812 190906 33906 31670 3195 56227 545 2476 338 2650 1756 10562 3516 3331 3229 1805 347 1458 28475 22971 7046 5857 22836 180344 1796 178548 72185 1150 762 525 66762 26094 3699 40668 36595 35570 2366 916 285 631 1326 5504 1325 12075 106363 598 414 4825 715 535 4110 3758 3446 352 5423 1615 1097 3808 2133 1336
is_linear=0
shrinkage=0.228474


end of trees

feature_importances:
income=36
cat__shopID=33
price=30
price_lst_06_sum=30
price_lst_01_sum=27
cat__residentialAddress_clean=24
age=23
cat__postalAddress_clean=22
cat__sex=19
hist_price_avg=16
price_lst_03_sum=16
price_lst_03_avg=14
price_lst_01_avg=10
default_lst_09_avg=10
hist_price_sum=9
price_lst_09_sum=9
hist_trans_count=8
money_lost_lst_09_avg=8
cat__same_address=8
money_lost_lst_06_sum=7
late_payment_first_lst_09_avg=7
money_lost_lst_03_avg=6
money_lost_lst_06_avg=6
money_lost_lst_09_sum=6
hist_late_avg=5
money_lost_lst_01_sum=5
default_lst_12_avg=5
defualted_payment_lst_12_avg=5
money_lost_lst_12_avg=5
hist_default_avg=4
defualted_payment_lst_01_sum=4
money_lost_lst_03_sum=4
late_payment_first_lst_06_sum=4
price_lst_06_avg=4
late_payment_first_lst_06_avg=4
price_lst_09_avg=4
money_lost_lst_01_avg=3
late_payment_first_lst_03_sum=3
late_lst_03_avg=3
late_payment_first_lst_09_sum=3
defualted_payment_lst_09_avg=3
money_lost_lst_12_sum=3
hist_late_sum=2
late_lst_01_sum=2
default_lst_03_sum=2
defualted_payment_lst_03_sum=2
defualted_payment_lst_03_avg=2
default_lst_06_sum=2
late_lst_06_sum=2
default_lst_09_sum=2
defualted_payment_lst_09_sum=2
late_payment_first_lst_12_sum=2
cat__geo_risk_rank=2
hist_default_sum=1
late_payment_first_lst_01_sum=1
late_lst_03_sum=1
default_lst_03_avg=1
late_payment_first_lst_03_avg=1
defualted_payment_lst_06_sum=1
defualted_payment_lst_06_avg=1
late_lst_06_avg=1
late_lst_09_avg=1
price_lst_12_sum=1
late_payment_first_lst_12_avg=1

parameters:
[boosting: gbdt]
[objective: binary]
[metric: auc,average_precision,binary_logloss]
[tree_learner: serial]
[device_type: cpu]
[linear_tree: 0]
[data: ]
[valid: ]
[num_iterations: 300]
[learning_rate: 0.228474]
[num_leaves: 62]
[num_threads: 0]
[deterministic: 1]
[force_col_wise: 0]
[force_row_wise: 0]
[histogram_pool_size: -1]
[max_depth: 17]
[min_data_in_leaf: 121]
[min_sum_hessian_in_leaf: 0.001]
[bagging_fraction: 0.886089]
[pos_bagging_fraction: 1]
[neg_bagging_fraction: 1]
[bagging_freq: 2]
[bagging_seed: 22734]
[feature_fraction: 0.697018]
[feature_fraction_bynode: 1]
[feature_fraction_seed: 5052]
[extra_trees: 0]
[extra_seed: 5559]
[early_stopping_round: 15]
[first_metric_only: 0]
[max_delta_step: 0]
[lambda_l1: 0.233218]
[lambda_l2: 0.420758]
[linear_lambda: 0]
[min_gain_to_split: 0]
[drop_rate: 0.1]
[max_drop: 50]
[skip_drop: 0.5]
[xgboost_dart_mode: 0]
[uniform_drop: 0]
[drop_seed: 23992]
[top_rate: 0.2]
[other_rate: 0.1]
[min_data_per_group: 100]
[max_cat_threshold: 32]
[cat_l2: 10]
[cat_smooth: 10]
[max_cat_to_onehot: 4]
[top_k: 20]
[monotone_constraints: ]
[monotone_constraints_method: basic]
[monotone_penalty: 0]
[feature_contri: ]
[forcedsplits_filename: ]
[refit_decay_rate: 0.9]
[cegb_tradeoff: 1]
[cegb_penalty_split: 0]
[cegb_penalty_feature_lazy: ]
[cegb_penalty_feature_coupled: ]
[path_smooth: 0]
[interaction_constraints: ]
[verbosity: 1]
[saved_feature_importance_type: 0]
[max_bin: 255]
[max_bin_by_feature: ]
[min_data_in_bin: 3]
[bin_construct_sample_cnt: 200000]
[data_random_seed: 2213]
[is_enable_sparse: 1]
[enable_bundle: 1]
[use_missing: 1]
[zero_as_missing: 0]
[feature_pre_filter: 0]
[pre_partition: 0]
[two_round: 0]
[header: 0]
[label_column: ]
[weight_column: ]
[group_column: ]
[ignore_column: ]
[categorical_feature: ]
[forcedbins_filename: ]
[objective_seed: 29849]
[num_class: 1]
[is_unbalance: 0]
[scale_pos_weight: 1]
[sigmoid: 1]
[boost_from_average: 1]
[reg_sqrt: 0]
[alpha: 0.9]
[fair_c: 1]
[poisson_max_delta_step: 0.7]
[tweedie_variance_power: 1.5]
[lambdarank_truncation_level: 30]
[lambdarank_norm: 1]
[label_gain: ]
[eval_at: ]
[multi_error_top_k: 1]
[auc_mu_weights: ]
[num_machines: 1]
[local_listen_port: 12400]
[time_out: 120]
[machine_list_filename: ]
[machines: ]
[gpu_platform_id: -1]
[gpu_device_id: -1]
[gpu_use_dp: 0]
[num_gpu: 1]

end of parameters

pandas_categorical:null
