tree
version=v3
num_class=1
num_tree_per_iteration=1
label_index=0
max_feature_idx=75
objective=binary sigmoid:1
feature_names=age income price hist_trans_count hist_default_sum hist_default_avg hist_late_sum hist_late_avg hist_price_sum hist_price_avg default_lst_01_sum defualted_payment_lst_01_sum money_lost_lst_01_sum late_lst_01_sum price_lst_01_sum late_payment_first_lst_01_sum default_lst_01_avg defualted_payment_lst_01_avg money_lost_lst_01_avg late_lst_01_avg price_lst_01_avg late_payment_first_lst_01_avg default_lst_03_sum defualted_payment_lst_03_sum money_lost_lst_03_sum late_lst_03_sum price_lst_03_sum late_payment_first_lst_03_sum default_lst_03_avg defualted_payment_lst_03_avg money_lost_lst_03_avg late_lst_03_avg price_lst_03_avg late_payment_first_lst_03_avg default_lst_06_sum defualted_payment_lst_06_sum money_lost_lst_06_sum late_lst_06_sum price_lst_06_sum late_payment_first_lst_06_sum default_lst_06_avg defualted_payment_lst_06_avg money_lost_lst_06_avg late_lst_06_avg price_lst_06_avg late_payment_first_lst_06_avg default_lst_09_sum defualted_payment_lst_09_sum money_lost_lst_09_sum late_lst_09_sum price_lst_09_sum late_payment_first_lst_09_sum default_lst_09_avg defualted_payment_lst_09_avg money_lost_lst_09_avg late_lst_09_avg price_lst_09_avg late_payment_first_lst_09_avg default_lst_12_sum defualted_payment_lst_12_sum money_lost_lst_12_sum late_lst_12_sum price_lst_12_sum late_payment_first_lst_12_sum default_lst_12_avg defualted_payment_lst_12_avg money_lost_lst_12_avg late_lst_12_avg price_lst_12_avg late_payment_first_lst_12_avg cat__sex cat__residentialAddress_clean cat__postalAddress_clean cat__geo_risk_rank cat__shopID cat__same_address
feature_infos=[7:90] [0:100000] [3:200] [1:14] [0:10] [0:1] [0:11] [0:1] [3:1808] [3:200] [0:1] [0:4] [0:200] [0:1] [3:200] [0:4] [0:1] [0:4] [0:200] [0:1] [3:200] [0:4] [0:3] [0:12] [0:490.5] [0:3] [3:597] [0:12] [0:1] [0:4] [0:200] [0:1] [3:200] [0:4] [0:6] [0:24] [0:822.25] [0:6] [3:1120] [0:23] [0:1] [0:4] [0:200] [0:1] [3:200] [0:4] [0:9] [0:28] [0:970] [0:9] [3:1460] [0:28] [0:1] [0:4] [0:200] [0:1] [3:200] [0:4] [0:10] [0:30] [0:970] [0:11] [3:1732] [0:30] [0:1] [0:4] [0:200] [0:1] [3:200] [0:4] [1:3] [1:13260] [1:13261] [0:5] [100:999] [0:1]
tree_sizes=8975 9092 9092 9123

Tree=0
num_leaves=86
num_cat=0
split_feature=75 5 72 70 72 70 40 5 70 64 8 0 41 71 50 47 73 70 14 13 1 72 9 8 8 24 32 14 54 57 0 1 74 33 7 54 74 2 2 0 8 9 73 72 72 26 72 71 71 0 41 2 3 27 45 14 14 57 1 8 26 14 72 23 72 1 74 8 60 9 1 73 32 74 74 8 14 1 1 2 0 60 2 26 38
split_gain=4640.54 2135.35 553.874 506.825 171.878 134.238 95.3869 93.3805 87.5863 52.3854 38.7691 28.5396 18.2144 16.8035 16.1101 16.0832 13.8106 13.4578 12.287 11.3008 11.2625 11.1394 10.8501 12.9635 10.8432 15.6331 11.9238 15.3166 13.6246 11.8672 16.7151 16.3093 10.8312 10.5687 10.5508 10.4657 10.2733 9.07425 10.3954 8.9656 8.80904 13.3076 10.164 8.3724 8.07896 10.0496 8.93677 8.00555 7.96818 9.41524 7.7534 9.97998 7.52127 7.33554 11.1836 10.6584 11.0917 12.0195 8.2156 14.7652 10.0579 7.30408 7.17774 7.17559 9.62816 7.03677 8.4286 11.1284 8.02557 10.2587 7.01882 13.1787 14.3215 7.3277 7.77786 11.8102 7.36825 9.21939 17.8996 7.13222 6.97991 6.85956 8.87628 6.72924 6.7206
threshold=1.0000000180025095e-35 0.37980769230769235 147.50000000000003 1.5000000000000002 37.500000000000007 2.5000000000000004 0.18333333333333338 0.17424242424242428 1.5000000000000002 0.17424242424242428 284.50000000000006 70.500000000000014 0.70833333333333337 12053.500000000002 928.50000000000011 3.5000000000000004 1.0000000180025095e-35 2.5000000000000004 56.500000000000007 1.0000000180025095e-35 97350.000000000015 11395.500000000002 97.527777777777786 278.50000000000006 700.50000000000011 180.12500000000003 133.16666666666671 196.50000000000003 11.017857142857144 1.4142857142857144 26.500000000000004 20850.000000000004 300.50000000000006 2.4166666666666674 0.6515151515151516 88.041666666666671 384.50000000000006 135.50000000000003 154.50000000000003 49.500000000000007 115.50000000000001 123.06250000000001 2.5000000000000004 257.50000000000006 12728.500000000002 339.50000000000006 10888.500000000002 423.50000000000006 494.50000000000006 19.500000000000004 2.2916666666666674 196.50000000000003 1.5000000000000002 4.5000000000000009 1.0833333333333337 132.50000000000003 152.50000000000003 0.15476190476190479 42650.000000000007 288.50000000000006 266.50000000000006 195.50000000000003 12591.500000000002 2.5000000000000004 12315.500000000002 96050.000000000015 773.50000000000011 544.50000000000011 94.125000000000014 137.06250000000003 64050.000000000007 3.5000000000000004 40.583333333333336 677.50000000000011 511.50000000000006 22.500000000000004 35.500000000000007 30350.000000000004 27950.000000000004 164.50000000000003 70.500000000000014 203.12500000000003 149.50000000000003 242.50000000000003 539.50000000000011
decision_type=2 2 2 2 2 2 2 2 2 2 2 2 2 2 2 2 2 2 2 2 10 2 2 2 2 2 2 2 2 2 2 10 2 2 2 2 2 2 2 2 2 2 2 2 2 2 2 2 2 2 2 2 2 2 2 2 2 2 8 2 2 2 2 2 2 10 2 2 2 2 8 2 2 2 2 2 2 10 8 2 2 2 2 2 2
left_child=1 2 12 7 -3 9 10 40 11 -5 43 20 -1 16 17 18 -9 -10 -7 44 -6 48 23 -17 26 36 28 32 37 30 -30 -31 -28 -24 52 -34 -26 -18 -39 63 70 42 53 -4 46 -46 50 -45 -12 -50 51 -11 -20 55 -55 58 57 -57 59 -42 -60 84 -8 -15 -65 68 67 -67 -43 -70 73 72 -72 74 76 -76 -2 78 -78 -74 -51 82 -25 -53 -54
right_child=3 4 6 5 8 15 62 13 14 19 21 -13 -14 39 -16 22 24 -19 34 -21 -22 -23 33 81 25 -27 27 -29 29 31 -32 -33 35 -35 -36 -37 -38 38 -40 -41 41 65 -44 47 45 -47 -48 -49 49 80 -52 83 61 54 -56 56 -58 -59 60 -61 -62 -63 -64 64 -66 66 -68 -69 69 -71 71 -73 79 -75 75 -77 77 -79 -80 -81 -82 -83 -84 -85 -86
leaf_value=-2.3792706639035437 -2.3852108688758502 -1.874204949948405 -2.3256298000845836 -2.408722165619237 -0.54881821002700271 -2.1922340193468672 -1.4526832487299206 -2.3643854025532702 -1.1225690357741955 -2.3303516404775011 -2.3185626250801978 -2.0605286323643326 -2.0886388963118852 -2.397393289724274 -2.1870409694673407 -2.2203185830767569 -2.2523771742577239 -0.58974925474902085 -2.1711692414357024 -2.3880821492703919 -2.0020339207881976 -2.3458320718635037 -2.3032605299742759 -1.7184389792217178 -1.5754633872086523 -2.3626557630056233 -2.4411745949933454 -1.7637484720681749 -1.9699042034469421 -2.2005908813585813 -2.1998029710879767 -1.9589933479443178 -2.2632118387560443 -1.9563983635652158 -2.4456217691617419 -1.9842482683460465 -2.0332355217635052 -1.839963112432923 -2.1976811287497142 -2.4401898624911209 -2.1298040669153444 -2.2505846532834717 -2.3298072836229675 -2.1509095562252671 -2.3120636240932653 -1.9300425967253119 -2.4130689136876486 -1.7106632265705328 -2.3936082197977888 -1.9210448428394578 -2.2091199322543429 -2.3663234121602486 -2.3358752465190786 -2.0080327368066264 -2.4326863795444216 -2.2520579353059866 -2.2494164923598383 -1.9085846159032098 -2.3758638597713464 -2.3198865300387843 -2.2314493822909185 -2.0731909790814864 -2.1127066757183566 -2.3561499247013216 -1.8893140935417916 -1.8582888096851828 -2.3838457122977545 -2.3974021994476922 -1.7814123691537378 -2.3812578337888728 -2.2664961081428445 -2.3271171360747407 -1.9209161563080106 -2.338849521337377 -1.7078470115255335 -2.1873754495385884 -2.2156680719034627 -2.3239436358676819 -1.5822616936544367 -2.2407084201454968 -2.4053160347512295 -2.339036933556657 -2.2259862103377372 -1.9568599966181863 -2.2032849723654766
leaf_weight=150.26243783533573 20.167235881090164 15.951952971518038 1.3224416971206654 5270.8393416926265 54.220109581947327 97.695380374789238 66.8659583106637 13.472374789416788 139.93086207658052 514.34716757386923 4.1326303035020819 1.5703995153307904 14.216248244047163 5.207114182412627 1.3224416971206654 14.298900850117208 58.352739885449409 12.480543516576288 33.556958064436913 245.39558742195368 1.2397890910506237 5.8683350309729567 29.341675154864788 10.992796607315542 5.8683350309729638 4.1326303035020819 14.381553456187246 2.8928412124514571 29.176369942724705 26.200876124203205 79.594459645450115 95.79437043517828 41.987523883581161 5.5377246066927901 27.688623033463955 10.166270546615122 13.55502739548683 7.5213871523737934 18.018268123269081 16.034605577588081 50.170131884515285 308.70748367160559 334.24713894724846 4.6285459399223319 10.579533576965334 6.03364024311304 71.246546432375908 81.743427403271198 2.3969255760312072 47.111985459923744 39.838556125760078 3.0581464245915395 147.70020704716444 3.0581464245915404 30.250853821635246 12.728501334786417 53.228278309106827 15.703995153307913 89.016856737434864 56.451729945838451 48.269121944904327 7.1907767280936232 2.4795781821012488 3.9673250913619977 5.9509876370429993 9.1744392737746221 3.4714094549417487 2.4795781821012488 3.636714667081832 2.1489677578210831 19.836625456809998 20.249888487160206 24.961087033152584 44.219144247472286 2.8928412124514606 20.745804123580456 14.794816486537458 18.018268123269081 2.3142729699611655 7.0254715159535399 1.2397890910506237 1.4877469092607487 3.8020198792219153 6.3642506673932076 29.093717336654663
leaf_count=1818 244 193 16 63771 656 1182 809 163 1693 6223 50 19 172 63 16 173 706 151 406 2969 15 71 355 133 71 50 174 35 353 317 963 1159 508 67 335 123 164 91 218 194 607 3735 4044 56 128 73 862 989 29 570 482 37 1787 37 366 154 644 190 1077 683 584 87 30 48 72 111 42 30 44 26 240 245 302 535 35 251 179 218 28 85 15 18 46 77 352
internal_value=-2.30247 -1.61772 -1.99359 -2.35703 -0.991319 -2.38936 -1.72453 -2.22979 -0.928763 -2.39888 -1.8518 -0.602252 -2.3519 -2.12958 -1.06783 -2.24594 -2.11605 -1.05983 -2.26898 -2.34088 -0.570378 -2.02501 -2.12989 -2.02076 -2.1075 -1.93506 -2.11981 -2.22084 -2.09823 -2.06541 -2.13345 -2.00834 -2.25459 -2.23567 -2.30031 -2.19946 -1.8444 -2.19204 -2.06788 -2.31109 -2.26724 -2.27701 -2.29749 -1.74005 -2.32285 -2.15376 -2.32774 -1.73027 -1.9896 -1.96227 -2.31656 -2.32511 -2.28061 -2.26727 -2.3797 -2.25527 -2.17527 -2.04904 -2.28296 -2.22954 -2.3245 -2.30186 -1.47041 -2.17691 -2.06024 -2.23434 -2.06947 -1.97393 -2.24365 -1.97719 -2.21697 -2.15332 -2.08594 -2.25615 -2.20946 -2.09017 -2.26619 -2.19591 -2.06903 -1.98297 -1.93753 -1.87292 -1.8243 -2.08321 -2.31304
internal_weight=0 608.984 382.268 8246.33 226.716 6576.09 217.79 1670.24 210.764 6167.7 148.444 57.0303 164.479 452.275 153.734 408.387 421.115 152.411 342.926 896.863 55.4599 60.7497 65.4609 30.5815 407.643 23.556 384.087 69.4282 314.658 230.766 108.771 121.995 66.5353 34.8794 245.23 52.1538 19.4234 83.8924 25.5397 31.16 1217.97 1022.74 693.125 87.6944 651.468 16.6132 634.855 86.372 54.8813 50.7487 563.608 523.77 217.542 358.878 33.309 325.569 81.6608 28.4325 243.908 106.622 137.286 183.985 69.3455 15.1254 9.91831 329.619 15.1254 11.654 314.493 5.78568 195.225 72.0731 51.8232 123.152 78.9332 23.6386 55.2946 35.1274 17.1091 31.9866 48.3518 16.2826 14.7948 9.4224 176.794
internal_count=107139 7368 4625 99771 2743 79563 2635 20208 2550 74622 1796 690 1990 5472 1860 4941 5095 1844 4149 10851 671 735 792 370 4932 285 4647 840 3807 2792 1316 1476 805 422 2967 631 235 1015 309 377 14736 12374 8386 1061 7882 201 7681 1045 664 614 6819 6337 2632 4342 403 3939 988 344 2951 1290 1661 2226 839 183 120 3988 183 141 3805 70 2362 872 627 1490 955 286 669 425 207 387 585 197 179 114 2139
is_linear=0
shrinkage=1


Tree=1
num_leaves=86
num_cat=0
split_feature=75 72 5 41 41 3 25 8 9 74 8 72 1 9 63 1 71 71 14 24 26 7 1 32 24 30 2 2 32 71 7 71 74 9 74 71 2 14 48 69 26 54 14 32 42 26 8 11 52 0 42 2 0 31 2 1 71 74 32 1 1 15 8 0 74 2 0 72 71 1 2 2 55 8 71 1 71 71 46 0 71 9 1 6 1
split_gain=1123.07 202.256 140.393 32.009 31.2258 15.6317 15.2116 11.4105 21.5431 18.0376 13.5488 14.9296 11.5758 13.0165 8.64323 8.4466 9.03343 8.68751 9.68749 8.3825 9.66004 8.59956 8.28985 8.25395 11.2114 13.4083 10.0806 9.82319 7.84757 7.47337 9.12435 9.17902 8.71334 8.90075 7.3068 9.77827 7.27919 7.23749 8.32557 7.2151 9.21103 9.14599 9.70039 7.8921 11.1118 7.60579 7.07805 7.42823 7.03516 10.4966 9.45697 8.60966 8.28381 7.01179 8.21208 6.85364 6.68447 6.68404 6.63353 8.14994 6.60808 7.09336 6.93675 7.39797 6.88086 7.09504 6.58534 6.42705 6.41097 6.95226 6.69851 8.10243 6.57612 7.09206 8.30612 6.40355 6.33871 6.25908 6.23859 6.16537 9.05198 8.6264 6.09898 6.0656 6.56719
threshold=1.0000000180025095e-35 37.500000000000007 0.14835164835164838 0.77500000000000013 0.45000000000000007 2.5000000000000004 1.0000000180025095e-35 136.50000000000003 66.062500000000014 806.50000000000011 68.500000000000014 10571.500000000002 17850.000000000004 122.05555555555557 12.500000000000002 27950.000000000004 611.50000000000011 3794.5000000000005 68.500000000000014 57.125000000000007 339.50000000000006 0.58571428571428574 4050.0000000000005 53.166666666666679 50.375000000000007 25.958333333333339 62.500000000000007 138.50000000000003 150.16666666666671 11467.500000000002 0.90833333333333344 11403.500000000002 316.50000000000006 77.690476190476204 959.50000000000011 5377.5000000000009 123.50000000000001 98.500000000000014 11.875000000000002 0.84523809523809534 408.50000000000006 35.020833333333336 186.50000000000003 100.16666666666667 48.525000000000006 376.50000000000006 939.50000000000011 1.5000000000000002 0.69047619047619058 64.500000000000014 141.16666666666671 116.50000000000001 16.500000000000004 0.41666666666666669 142.50000000000003 81650.000000000015 8442.5000000000018 896.50000000000011 148.41666666666671 10450.000000000002 87250.000000000015 1.0000000180025095e-35 529.50000000000011 35.500000000000007 503.50000000000006 120.50000000000001 46.500000000000007 9072.5000000000018 262.50000000000006 94850.000000000015 63.500000000000007 83.500000000000014 0.35416666666666669 260.50000000000006 1335.5000000000002 68050.000000000015 5324.5000000000009 852.50000000000011 4.5000000000000009 60.500000000000007 6789.5000000000009 79.050000000000011 69650.000000000015 1.5000000000000002 50850.000000000007
decision_type=2 2 2 2 2 2 2 2 2 2 2 2 8 2 2 10 2 2 2 2 2 2 8 2 2 2 2 2 2 2 2 2 2 2 2 2 2 2 2 2 2 2 2 2 2 2 2 2 2 2 2 2 2 2 2 10 2 2 2 8 10 2 2 2 2 2 2 2 2 8 2 2 2 2 2 8 2 2 2 2 2 2 10 2 10
left_child=1 3 5 60 7 29 23 8 10 -10 11 56 66 15 22 16 -14 18 -17 -16 21 -21 -8 24 26 -26 -4 -27 -15 30 31 34 -33 -34 -2 55 -18 -7 68 41 45 42 -24 44 -43 -41 57 -48 52 50 -50 -51 -6 54 -47 75 -3 -25 59 -5 61 62 -1 -64 -65 -66 -9 -28 70 72 -39 -72 73 -70 -75 -36 -53 -42 -54 80 -19 -81 -74 -31 -85
right_child=2 4 6 58 48 37 14 12 9 -11 -12 -13 13 28 19 17 36 79 -20 20 -22 -23 39 46 25 27 67 -29 -30 83 -32 32 33 -35 35 -37 -38 38 -40 40 77 43 -44 -45 -46 53 47 -49 49 51 -52 76 78 -55 -56 -57 -58 -59 -60 -61 -62 -63 63 64 65 -67 -68 -69 69 -71 71 -73 82 74 -76 -77 -78 -79 -80 81 -82 -83 -84 84 -86
leaf_value=-0.028167765930937377 -0.037692575399240209 0.43405022393911336 -0.072314220350850653 -0.11279929873822558 -0.063763600812984753 -0.084025850121377227 -0.13378934834289435 -0.10041841803480023 0.59710831165352929 0 -0.066729322387927087 -0.1260397138316576 -0.12839874628332845 0.40488780831175974 -0.010164543355251741 0.15767286538953398 0.1371204534066908 0.25404013260551972 -0.14027219406647379 0.56905666206838146 0.012194665274212115 0.041068301920023843 -0.11881665362079946 0.046229327578229618 0.015375032239452899 0.65197855125690507 0.074744449509421593 0.039821768406514454 0.17487161186480585 -0.097612335473819034 -0.07285363494399566 0.55944734027234788 0.32841349139975978 -0.1588777685362163 0.094579717564181875 -0.056963776082036968 0.58580730732589015 -0.11165459792564802 0.036115617914657346 0.012319285006553696 0.12483464302838591 0.56342560439313283 0.19015246812008743 -0.008677255238772932 -0.080381702673780989 0.089796513582654017 0.41550135787985326 -0.077048222421621099 0.39899617034615248 -0.0042839825244275868 0.11799381515894999 0.52774984724643881 0.30790217619105026 -0.0025997805384375483 0.38671650491476744 -0.088003433336474701 0.089909145986747332 -0.03014614463279704 -0.054078197663891311 0.28616086388206097 -0.19656156193519211 -0.12219179889158764 -0.077138629343789109 0.009410327327840376 0.61108853991236212 0 0.13337559336852048 0.28820926585335893 0.015704975390836366 -0.0074058731224423508 0.31461237818220344 0.020056401128434324 -0.077275492443007715 -0.13098299078972953 -0.055925103015522781 0.34948296308269444 0.023756279658568098 -0.094085224805748074 -0.026779006474075887 -0.063739806654858275 0.0040059395264337213 0.5089849801503965 -0.1415365861503857 -0.087604835207330117 0.20435875329719114
leaf_weight=66.431532002985477 1815.7821327745914 15.729701675474649 20.166239209473133 2.7570731192827251 3.3599705770611754 1759.9133783057332 31.001430362462997 13.94374454021454 19.183464087545875 4.1572033092379561 10.444943964481352 4.3716616779565802 1.6673661768436421 26.806135289371014 15.181896209716799 10.498201489448549 6.4212338998913747 15.379217661917208 16.335102014243603 5.4289665967226046 7.5474143996834746 3.5929291397333145 85.664644464850426 641.58525583148003 6.6035845205187789 5.8947362601757032 36.721687935292721 2.8091723546385765 23.725211530923843 246.61816704273224 483.91494965553284 1.5559745952486972 2.3733457997441292 4.6803329735994339 30.969239041209221 37.279487431049347 5.2151459157466888 15.015038028359411 56.259460285305977 503.00418658554554 8.1960477381944639 2.7518797963857677 5.727611616253852 15.169410556554793 2.1703304201364517 21.470120050013069 4.7796895354986182 2.0914730355143547 201.68648080527782 10.364488549530508 10.708651006221769 3.2727511972188941 385.08229128271341 19.409338794648647 8.5388546809554082 7.6527257040143004 6.6894731149077407 85.162198685109615 4.8507013022899619 28.885562397539616 19.477332398295403 41.821104623377323 4.6548999845981589 4.2098889350891096 3.1032666563987732 1.7843783274292944 14.796484537422655 12.559412725269793 77.743522711098194 126.93647254258394 6.3687414824962607 30.476637400686741 402.97313701361418 112.41747166961432 882.64620865881443 7.9657023176550856 3.0723002851009369 74.306566745042801 3.2377225384116164 1.7323098778724659 23.407365567982197 4.9030192643404007 139.63792484253645 8.9852020815014857 8.2103006392717344
leaf_count=855 23165 124 236 26 20 22743 380 119 153 33 82 34 18 230 178 88 54 128 143 60 88 43 1045 7457 76 64 422 32 202 3158 6260 20 30 60 398 479 44 194 710 5993 100 32 68 181 26 253 53 24 988 55 54 18 2168 236 99 98 52 991 44 269 250 535 60 54 40 23 125 148 1001 1631 82 392 5243 1442 11330 102 16 909 17 14 193 40 1815 117 107
internal_value=0 0.244529 -0.0432953 -0.00596905 0.297174 -0.0608829 0.0243849 0.210903 0.309344 0.499259 0.172154 0.265322 0.171596 0.202803 -0.000731215 0.135733 0.316079 0.0952559 -0.0195675 0.127944 0.246005 0.40371 -0.00632015 0.0492243 0.125285 0.315556 0.076013 0.498377 0.307186 -0.045707 -0.0410545 -0.0329072 0.209959 0.0322446 -0.0342233 0.0395834 0.391671 -0.0720068 -0.0604826 -0.000664983 0.00997841 -0.0609182 -0.0957658 0.0904588 0.325593 0.0221371 0.0400982 0.274841 0.327749 0.370095 0.386119 0.146702 0.301336 0.117342 0.192291 0.11708 0.347149 0.0371646 0.204189 0.245936 -0.0623217 -0.038055 0.0069164 0.163571 0.283678 0.448447 0.0191522 0.138023 -0.0635696 -0.0662468 0.0247351 0.0840534 -0.0708285 -0.0587814 -0.0646652 0.160577 0.347051 -0.0696562 0.304885 0.162304 0.11094 0.371664 -0.0942975 -0.0871738 0.0552838
internal_weight=0 1024.17 7893.91 177.976 846.192 6266.38 1627.54 225.407 60.5764 23.3407 37.2358 26.7908 164.831 136.09 809.162 85.559 13.3037 72.2552 26.8333 31.7512 16.5693 9.0219 777.41 818.373 84.7548 15.3075 69.4473 8.70391 50.5313 2655.99 2392.17 1908.26 8.60965 7.05368 1899.65 83.8672 11.6364 3610.39 1850.47 746.409 634.925 111.484 91.3923 20.0916 4.92221 552.423 733.619 6.87116 620.785 229.105 212.395 16.7095 391.68 49.4183 30.009 46.5877 22.4192 726.747 36.4933 31.6426 141.482 122.005 80.184 13.7524 9.09753 4.88764 28.7402 49.2811 1794.22 1742.35 51.8604 36.8454 1615.42 1072.81 995.064 38.9349 6.34505 82.5026 388.32 45.4219 38.7866 6.63533 542.611 263.814 17.1955
internal_count=107139 7368 99771 2156 5212 80577 19194 1876 478 186 292 210 1398 1154 9691 722 116 606 231 369 191 103 9322 9503 978 172 806 96 432 33994 30612 24352 110 90 24242 1077 98 46583 23840 8942 7590 1352 1113 239 58 6581 8525 77 3336 1131 1042 89 2205 588 352 598 176 8448 339 295 1817 1567 1032 177 117 63 244 570 23130 22462 668 474 20831 13773 12772 500 34 1009 2185 375 321 54 7058 3382 224
is_linear=0
shrinkage=0.258794


Tree=2
num_leaves=86
num_cat=0
split_feature=75 70 70 72 42 48 35 22 32 53 71 5 48 26 74 71 46 74 2 72 74 0 32 2 71 48 0 12 72 0 66 50 26 41 36 24 40 54 26 71 44 24 72 14 72 66 2 42 33 8 3 25 72 73 36 71 36 0 54 51 24 4 41 73 44 44 8 72 38 57 72 26 0 45 5 9 3 23 72 2 71 0 71 71 0
split_gain=553.014 309.695 98.0731 78.3362 32.8495 32.5662 29.1897 25.2526 20.9685 16.1805 14.7832 12.9324 11.8179 13.9575 15.914 13.4717 11.5501 13.1974 11.547 10.7032 11.4037 10.3843 10.2917 12.3655 10.5127 10.2904 10.9361 9.87225 9.62854 11.4837 9.60762 15.7164 9.27253 9.02888 10.2557 8.63397 9.90475 10.1874 13.9151 11.3715 9.84695 8.59146 22.6568 9.38335 9.20881 8.49423 8.41595 8.31596 8.33543 8.23952 8.1456 8.70739 7.86009 7.73284 7.71051 7.7621 7.67947 7.59586 7.54345 10.2305 7.46708 7.41486 7.78592 7.39053 9.0993 8.85393 7.88132 7.36308 7.26919 7.87021 9.60632 7.72307 7.32637 10.2696 10.0885 8.70027 8.55406 7.20833 7.65932 7.66493 8.0706 7.01938 6.99425 8.94649 6.93817
threshold=1.0000000180025095e-35 1.5000000000000002 2.5000000000000004 72.500000000000014 1.2708333333333337 3.1250000000000004 6.5000000000000009 1.5000000000000002 176.16666666666671 0.35416666666666669 4629.5000000000009 0.37980769230769235 8.8750000000000018 170.50000000000003 415.50000000000006 2395.5000000000005 1.5000000000000002 495.50000000000006 181.50000000000003 8767.5000000000018 733.50000000000011 25.500000000000004 72.416666666666671 27.500000000000004 5210.5000000000009 30.125000000000004 41.500000000000007 181.50000000000003 11521.500000000002 62.500000000000007 3.5386904761904767 666.50000000000011 158.50000000000003 1.2250000000000003 16.125000000000004 189.12500000000003 0.36666666666666675 23.515625000000004 186.50000000000003 1292.5000000000002 124.55000000000001 20.125000000000004 9442.5000000000018 116.50000000000001 1500.5000000000002 3.3839285714285716 159.50000000000003 75.520833333333357 2.8333333333333335 162.50000000000003 6.5000000000000009 1.0000000180025095e-35 10192.500000000002 1.5000000000000002 33.125000000000007 6673.5000000000009 10.125000000000002 59.500000000000007 66.729166666666671 8.5000000000000018 17.125000000000004 3.5000000000000004 3.183333333333334 3.5000000000000004 91.550000000000011 154.08333333333334 467.50000000000006 5494.5000000000009 440.50000000000006 1.9444444444444446 7615.5000000000009 479.50000000000006 33.500000000000007 1.1833333333333336 0.58571428571428574 133.05555555555557 3.5000000000000004 6.5000000000000009 1021.5000000000001 174.50000000000003 8499.5000000000018 53.500000000000007 10576.500000000002 12660.500000000002 59.500000000000007
decision_type=2 2 2 2 2 2 2 2 2 2 2 2 2 2 2 2 2 2 2 2 2 2 2 2 2 2 2 2 2 2 2 2 2 2 2 2 2 2 2 2 2 2 2 2 2 2 2 2 2 2 2 2 2 2 2 2 2 2 2 2 2 2 2 2 2 2 2 2 2 2 2 2 2 2 2 2 2 2 2 2 2 2 2 2 2
left_child=3 4 5 6 -2 49 57 8 10 32 68 -9 15 14 18 -11 17 -4 54 -19 28 -18 23 -15 47 -26 -27 61 29 -21 31 45 -6 34 -25 36 81 38 -38 -40 52 42 44 -43 -34 -7 53 48 -24 67 -16 -52 58 -33 55 -14 -46 63 59 -37 -55 -13 -63 -1 -65 66 -66 -3 72 70 71 -70 73 76 75 -75 -5 78 -23 80 -80 -32 -22 -84 -74
right_child=1 2 16 7 9 30 -8 11 -10 12 -12 27 13 22 50 -17 21 19 -20 20 82 77 24 33 25 26 -28 -29 -30 -31 35 46 41 -35 -36 40 37 -39 39 -41 -42 43 -44 -45 56 -47 -48 -49 -50 -51 51 -53 -54 60 -56 -57 -58 -59 -60 -61 -62 62 -64 64 65 -67 -68 -69 69 -71 -72 -73 84 74 -76 -77 -78 -79 79 -81 -82 -83 83 -85 -86
leaf_value=-0.030246499561628417 0.041770190921270857 -0.036520359196849761 -0.0040069271460786895 0.10307145358280227 -0.11225132673209827 -0.017836045669301151 0.43957062399299374 -0.14670083727480118 0.38641426388053901 -0.067845857846144469 0.11217581933127004 0.23625643578690822 0.41639754722829436 -0.11478881141319844 -0.092643115766302062 0.50752531285085456 -0.061399895408836468 0.054816584097570342 0.48164055689747942 0.48599377426623036 -0.058366663725883887 -0.065024257362409937 0.060274873984569037 -0.12162683509953066 -0.056968271118568774 0.077149616658006265 0.21430311440306818 -0.029325274841870554 0.069955067772216897 -0.046366433309380853 -0.034111484549428299 -0.092222100704133059 0.081339742765036985 0.081520090139681797 0.44016398243879773 0.53469164516424872 -0.0087755479125681112 -0.02926668514183264 0.53319260224982945 0.12472994177615462 -0.031060816388403224 -0.018136078741857325 -0.067413293087698417 0.31587453027263629 0.021149412263145272 0.30179585603443276 -0.07865571848111591 -0.13730942111752598 0.34062893537634598 -0.083918644654008501 0.48521441894285033 -0.12487294548672179 -0.084242823324792965 0.57402656946869735 -0.0032889781740157633 -0.080036860857229206 0.72376743680024802 -0.12702953050677734 -0.021479140330568254 -0.0033745050191930043 -0.023239659427871127 0.36352535571055061 0.049551933996637001 -0.040308835837852532 0.34963941845247559 -0.13211339527514745 0.0086686740804524723 -0.078964625335100472 -0.074197852405307768 0.31500727408446266 0.21790642003547744 0.26914408081221691 0.29023164964354897 0.3837319210849105 0.0090923619651396888 -0.012104396601941765 -0.19095696325289541 0.0044212844794717506 0.58827652312779677 -0.048312770575664812 0.1109782005478155 -0.089995126243634371 0.25490866179465727 -0.16594916935541068 0.14551464157059948
leaf_weight=98.502581559121609 1128.4971840456128 559.20132517069578 172.12314085662365 30.588689066469669 2.8729577288031569 65.562578402459621 8.1477356031537038 4.2124179750680915 25.583642430603504 3.0895720645785314 335.03947845846415 240.07923486083746 5.1335265934467342 4.4018462002277365 59.168508403003216 7.9330335408449173 6.2852418124675777 158.47476273030043 4.2021615654230109 15.2838446199894 14.314878813922407 1.8605627343058646 159.30630531907082 1.5437948256731058 14.088979281485079 65.982275113463402 110.39732172340155 7.2634856402873984 9.6999727115035039 2.7027150169014922 396.35744849592447 1.0953503549098957 2.9985941722989109 10.501093864440916 20.515858843922615 7.3394613713026065 46.10973883420229 185.3193539455533 4.5067664161324528 26.55569189786911 21.765639625489712 9.8954113423824328 4.3104389235377303 10.150146059691904 1.4069385156035412 4.326393410563468 2.1757192760705939 11.750172749161718 5.920617200434207 3328.1768745779991 1.8478611633181565 1.6085265055298803 3.4871570542454711 6.9435405507683736 22.402683086693287 2.1361577436327934 10.488334223628042 32.441524624824524 3.2624832913279525 2.940092071890831 1.3387474492192266 72.443921640515327 6.7159077972173682 18.07250602543354 14.783429615199571 3.5190225169062606 6.7797819748520842 557.14494682103395 28.37839908152819 8.2773687690496427 14.603936284780501 3.3849661648273459 102.1827729344368 21.312547281384472 9.8008915930986387 4.0395339578390113 6.5842625498771659 5.0612486451864234 9.9514612108469027 1.6367816254496563 4.5059229433536521 249.26916877925396 14.401999406516554 2.8479918986558905 37.696186549961567
leaf_count=1238 13942 7674 2070 193 34 831 58 23 156 34 1979 1067 54 49 595 87 66 1901 41 184 171 20 1660 17 159 670 1178 33 115 33 4986 15 34 101 221 90 556 2226 55 326 262 114 52 114 16 54 29 115 59 46451 19 18 40 93 222 24 121 398 39 36 18 321 29 208 177 45 81 7704 177 47 97 21 596 120 44 24 46 53 104 19 45 3129 171 36 229
internal_value=0 -0.0305838 -0.0585496 0.162589 0.0672799 -0.0677956 0.00671138 0.192122 0.160513 0.118861 0.14975 0.250801 0.105314 0.0985118 0.0093363 0.355299 0.0618462 0.0493404 0.148406 0.0914254 0.184223 0.214655 0.119545 0.24915 0.10527 0.147517 0.16451 0.256821 0.301329 0.406587 -0.0261675 0.0580828 0.27174 0.303037 0.392874 -0.0335561 -0.0387449 0.00346906 0.0815872 0.210513 0.0832048 0.304554 0.42686 0.160542 0.564824 0.00813429 0.316165 0.0585476 0.0740397 -0.0774028 -0.0671351 0.245466 0.221106 0.409957 0.0757019 0.27802 0.657379 -0.0174212 0.303437 0.398655 0.485517 0.263601 0.339102 0.00858853 0.096015 0.192236 0.253079 -0.057835 0.19572 0.104751 0.0562259 -0.0241554 0.217886 0.143427 0.24071 0.3222 0.04359 0.290951 0.361829 0.415328 0.470262 -0.0559434 0.0697432 0.174136 0.253825
internal_weight=0 7574.58 5892.03 1140.43 1682.55 5472.88 182.247 958.188 627.473 554.053 601.889 330.715 511.93 500.908 96.4994 11.0226 419.151 389.849 33.8745 217.726 59.2514 29.3012 404.408 36.9626 367.446 190.469 176.38 326.503 27.6865 17.9866 1028.36 81.4423 42.1228 32.5607 22.0597 946.913 908.118 262.492 77.1722 31.0625 38.7948 39.2499 19.2043 20.0456 14.8939 69.889 11.5534 176.977 165.227 4444.52 62.6249 3.45639 17.0292 9.37764 29.6724 7.26968 11.8953 174.099 13.542 10.2796 8.28229 319.239 79.1598 141.657 43.1547 25.0822 21.5632 1116.35 266.85 54.6447 46.3673 31.7634 212.205 72.3259 35.153 25.3521 37.173 23.016 17.9547 16.0942 14.4574 645.627 31.5649 17.25 139.879
internal_count=106759 99352 79602 7407 19750 74614 2205 5202 3729 5808 3573 1473 5323 5202 973 121 4988 4681 341 2611 710 307 4229 388 3841 2007 1848 1450 332 217 12785 1040 485 339 238 11745 11278 3163 937 381 467 451 223 228 171 885 155 1834 1719 61829 632 37 205 126 300 78 137 2147 165 126 111 1417 350 1749 511 303 258 15378 1594 342 295 198 1252 427 188 144 239 241 188 168 149 8115 378 207 825
is_linear=0
shrinkage=0.258794


Tree=3
num_leaves=86
num_cat=0
split_feature=75 70 70 24 41 72 42 4 1 1 44 8 8 65 8 65 26 2 15 26 72 44 51 74 72 1 74 29 35 25 12 14 12 2 0 42 54 45 71 14 71 3 3 74 1 9 1 71 2 26 27 32 57 14 2 1 9 1 2 72 1 72 71 70 70 2 2 74 8 1 8 74 14 0 8 26 36 26 71 38 2 0 13 12 14
split_gain=291.334 173.956 56.5601 44.429 21.333 18.7701 14.3098 13.1856 13.1853 9.87967 9.20118 9.16519 8.70179 7.48428 12.2636 7.44312 7.01653 12.3974 10.7916 9.56377 7.53727 7.53623 6.85613 6.74703 10.3316 8.27747 9.04439 8.70186 7.793 6.7237 6.70241 6.62124 7.79399 12.7711 8.46087 7.73591 19.9392 7.85058 6.60186 6.57596 6.54884 11.0913 8.17883 6.74817 9.27852 10.4396 10.5175 8.72884 10.3415 8.00242 6.52648 6.45163 18.323 11.8507 10.3681 8.56346 8.14325 6.42208 6.38538 6.36668 6.31425 6.10043 5.93784 5.85604 7.25702 5.72836 8.57117 5.71266 6.10651 5.67687 8.84986 5.59686 5.59607 5.58723 7.30214 14.4965 8.60369 7.10035 6.20982 5.55463 5.53216 5.40023 5.38323 8.00572 5.32206
threshold=1.0000000180025095e-35 1.5000000000000002 2.5000000000000004 11.875000000000002 0.29166666666666669 37.500000000000007 1.2708333333333337 3.5000000000000004 27050.000000000004 42650.000000000007 55.708333333333336 816.50000000000011 256.50000000000006 0.38750000000000007 443.50000000000006 0.36931818181818188 128.50000000000003 64.500000000000014 2.5000000000000004 156.50000000000003 2703.5000000000005 120.08333333333336 10.500000000000002 905.50000000000011 2564.5000000000005 25450.000000000004 962.50000000000011 1.5833333333333337 6.5000000000000009 1.5000000000000002 175.50000000000003 189.50000000000003 131.12500000000003 78.500000000000014 47.500000000000007 34.020833333333336 33.017857142857146 0.70833333333333337 331.50000000000006 199.50000000000003 12948.500000000002 2.5000000000000004 6.5000000000000009 824.50000000000011 69650.000000000015 140.69047619047623 68050.000000000015 12182.500000000002 71.500000000000014 472.50000000000006 4.5000000000000009 127.83333333333336 2.1547619047619051 191.50000000000003 168.50000000000003 33450.000000000007 63.062500000000007 99750.000000000015 63.500000000000007 12382.500000000002 93050.000000000015 6557.5000000000009 262.50000000000006 1.5000000000000002 2.5000000000000004 139.50000000000003 60.500000000000007 920.50000000000011 40.500000000000007 5250.0000000000009 276.50000000000006 996.50000000000011 91.500000000000014 62.500000000000007 494.50000000000006 264.50000000000006 214.62500000000003 230.50000000000003 8213.5000000000018 446.50000000000006 161.50000000000003 47.500000000000007 1.0000000180025095e-35 71.750000000000014 127.50000000000001
decision_type=2 2 2 2 2 2 2 2 8 10 2 2 2 2 2 2 2 2 2 2 2 2 2 2 2 8 2 2 2 2 2 2 2 2 2 2 2 2 2 2 2 2 2 2 10 2 8 2 2 2 2 2 2 2 2 8 2 10 2 2 10 2 2 2 2 2 2 2 2 8 2 2 2 2 2 2 2 2 2 2 2 2 2 2 2
left_child=3 6 4 5 69 63 39 13 10 82 -8 59 67 14 -5 -11 17 18 72 29 21 30 57 73 28 26 -26 80 -25 -18 62 32 35 -34 -35 36 -17 -37 -14 40 42 -42 43 44 45 46 -2 58 -49 -47 61 53 54 56 -53 -55 -22 60 -46 -12 -4 -20 -21 -1 -65 66 -41 -7 -69 70 -3 -45 -6 -15 75 77 -77 -75 -76 -19 -27 -43 83 84 -10
right_child=1 2 22 7 16 12 8 -9 9 15 11 -13 38 23 -16 31 19 79 50 20 51 -23 -24 24 25 27 -28 -29 -30 -31 -32 -33 33 34 -36 37 -38 -39 -40 65 41 81 -44 71 47 49 -48 48 -50 -51 -52 52 -54 55 -56 -57 -58 -59 -60 -61 -62 -63 -64 64 -66 -67 -68 68 -70 -71 -72 -73 -74 74 78 76 -78 -79 -80 -81 -82 -83 -84 -85 -86
leaf_value=0.080696814765709307 0.033412552514221955 0.032629511939541396 0.041947319154675491 0.48943272984684277 -0.0449726894857524 0.10351093339846998 -0.057707212023959488 0.24472151109529275 0.10504175852822949 0.19935262594292871 0.1915224530190037 -0.10781055160728623 0.27454575735203851 0.13229613569898793 0.046833253196036422 0.072373673632410637 -0.17732880818659594 -0.026446893949266814 0.3219224762204636 0.10521887972314597 0.11686864746503679 -0.13183590969906878 0.22415819649582353 -0.19040825293067531 -0.19110482909111823 -0.06968181469185554 0.21648449340959336 0.30265540614667397 0.11546471676715858 0.098076894050012561 0.3148136315368717 -0.07884039843375984 -0.049630976933701165 0.56206666018496598 0.1220968114461731 0.33651192634606814 0.49026059424355845 -0.017401688552408909 0.02194606210993633 -0.01210504152080568 -0.036905047788218077 0.085699595429266875 -0.084046833858794801 -0.01769132393435854 0.050902624023595959 0.16439671056379754 0.19996094001217488 -0.094874150842557001 0.37522706835106251 -0.048598915087059658 0.63984533050662062 0.11543285868686763 -0.15054312137177564 -0.084797843664933398 -0.074956849136724388 0.33853006887545806 -0.037005741435014845 0.37246961697384445 -0.037030136892565554 -0.070598651937523141 -0.07917007021725006 -0.050044779386489546 -0.054096651294480901 -0.074799205588562692 0.17777909701790517 -0.038289435623180122 0.59112274182741753 -0.040991777919087931 0.33000290432210638 -0.063944460605381254 -0.070433743129580395 0.27342784996548475 0.33061017221880001 0.18952308702823953 -0.11805865459031328 0.52318126601472592 0.086751037491464247 -0.11007920674737166 0.23249242724517044 0.31448033756884547 0.24612615785873135 0.48922362939610892 -0.12537296335347634 -0.14140877711150837 -0.05345546037263621
leaf_weight=23.633257336914539 495.70863439142704 105.82822844386101 397.11787700280547 8.9446070641279238 12.491412855684755 168.21336860209703 12.53036794066429 93.831729203462601 45.051089927554131 29.280786581337452 126.13359581679106 6.5569391921162596 5.6374806351959696 502.48042395710945 7.9887424409389487 190.03190739452839 39.524581238627434 68.222776152193546 5.8110110461711866 15.946276940405367 22.667963862419128 66.5398885384202 11.92448043823242 14.639870606362821 8.5318839699029905 10.359398663043978 3.9096734076738349 17.662452563643456 6.8494970649480811 5.5630250871181479 1.9986564740538586 18.638760939240456 6.8866498246789005 5.7464057207107526 7.4491556286811829 2.6663647964596739 6.3675094470381728 88.099513448774815 141.55188719928265 2.1369196176528922 8.785752512514593 5.0712147355079633 42.255877807736397 210.17279603332281 77.151448726654053 82.61226511746645 25.305215142667294 3.8283904492855054 6.7739005982875824 12.565114632248877 2.6635755002498636 105.75330008193851 25.754715994000435 3.5709816291928265 21.735607951879501 8.5279796347022057 392.21436100080609 2.084442898631095 182.15774902701378 5.4108486250042906 29.242930829524994 3.8599516972899437 132.4209815710783 102.99866565316916 6.4845055453479281 2.5484673231840134 2.6093554273247719 2.9808838218450573 13.526806525886057 4010.8854799680412 113.72978705912828 2.7701210603117934 1.5169442221522338 24.730552695691589 6.9020481631159765 14.374613076448442 5.0342300385236731 5.1894971728324881 3.8028951287269592 1.6099046915769566 3.5987320542335501 5.1931818947196007 21.225988425314426 15.262622795999048 18.655628249049187
leaf_count=313 5951 1551 4526 57 163 997 125 402 420 275 1253 59 48 2374 61 1832 489 815 68 193 293 844 111 81 37 50 18 76 31 75 20 175 68 55 73 24 56 811 967 25 106 63 518 2526 911 966 302 46 81 148 33 1359 333 45 268 105 5029 24 2143 55 327 46 1684 1394 82 30 30 17 86 59459 1701 33 19 121 39 74 22 25 18 22 17 63 206 145 176
internal_value=0 -0.023956 -0.0462956 0.113253 -0.0538856 0.0501744 0.0466439 0.152681 0.0789218 0.0564186 0.145224 0.164459 0.0830161 0.138598 0.306912 0.0766051 -0.0184707 0.0470127 0.192343 -0.0260853 -0.0192948 -0.0602603 0.0425475 0.133152 0.0516388 0.122307 -0.0488926 0.19011 -0.0895552 -0.139971 -0.0271353 0.0644352 0.0736726 0.224555 0.359916 0.0616725 0.0903367 -0.000376479 0.0350239 0.0297597 0.0279577 0.172481 0.025246 0.0296165 0.0395545 0.0570401 0.0422286 -0.000301138 0.212222 0.135427 0.352858 -0.00376602 0.0414001 -0.0201874 0.0820399 0.215241 -0.028034 0.0364996 -0.0105238 0.17961 0.0332434 0.184338 -0.0356425 -0.0313798 -0.0568762 0.250727 0.38182 0.120324 0.262919 -0.0617195 -0.0206789 -0.0115049 0.0247045 0.14238 0.219928 0.260783 0.428616 0.132891 0.0177798 -0.010493 0.0269823 0.335011 -0.0147644 0.0164437 0.0577258
internal_weight=0 7382.85 5609.21 1203.86 5168.84 465.027 1773.64 738.831 605.994 455.362 150.632 138.101 331.91 644.999 16.9333 355.167 938.394 96.1756 26.3429 842.218 797.131 216.906 440.37 628.066 65.5515 44.0621 12.4416 31.6206 21.4894 45.0876 150.366 325.886 307.248 20.0822 13.1956 287.165 196.399 90.7659 147.189 1167.65 1160.35 19.0501 1141.3 1099.05 886.103 616.191 521.014 269.911 10.6023 95.1774 12.3345 580.225 153.244 426.981 127.489 12.099 414.882 428.445 259.309 131.544 426.361 9.67096 148.367 133.116 109.483 7.29474 4.74628 184.721 16.5077 4230.44 219.558 212.943 14.0084 562.514 60.0338 49.3289 19.4088 29.92 10.7049 69.8327 13.9581 10.2644 100.195 78.9693 63.7067
internal_count=106759 99352 79602 7407 74614 3904 19750 3503 5808 4316 1492 1367 2115 3101 118 3369 11903 1166 329 10737 10173 2741 4988 2983 310 198 55 143 112 564 1897 3094 2919 196 128 2723 1888 835 1015 13942 13857 232 13625 13107 10548 7367 6253 3181 127 1114 147 7432 1960 5472 1627 150 5322 4877 3054 1308 4853 114 1877 1789 1476 85 55 1100 103 62711 3252 2559 182 2673 299 242 96 146 57 837 67 126 947 741 596
is_linear=0
shrinkage=0.258794


end of trees

feature_importances:
cat__residentialAddress_clean=27
income=26
price=25
cat__postalAddress_clean=25
age=20
hist_price_sum=20
cat__shopID=18
price_lst_01_sum=15
price_lst_03_sum=15
hist_price_avg=10
cat__sex=10
price_lst_03_avg=9
money_lost_lst_03_sum=7
defualted_payment_lst_06_avg=7
hist_trans_count=6
money_lost_lst_06_avg=6
money_lost_lst_09_avg=6
hist_default_avg=5
price_lst_06_avg=5
cat__geo_risk_rank=5
money_lost_lst_01_sum=4
money_lost_lst_06_sum=4
money_lost_lst_09_sum=4
late_payment_first_lst_09_avg=4
cat__same_address=4
hist_late_avg=3
late_lst_03_sum=3
price_lst_06_sum=3
late_payment_first_lst_06_avg=3
hist_default_sum=2
late_lst_01_sum=2
late_payment_first_lst_01_sum=2
defualted_payment_lst_03_sum=2
late_payment_first_lst_03_sum=2
late_payment_first_lst_03_avg=2
defualted_payment_lst_06_sum=2
default_lst_06_avg=2
default_lst_09_sum=2
price_lst_09_sum=2
late_payment_first_lst_09_sum=2
money_lost_lst_12_sum=2
defualted_payment_lst_12_avg=2
money_lost_lst_12_avg=2
hist_late_sum=1
defualted_payment_lst_01_sum=1
default_lst_03_sum=1
defualted_payment_lst_03_avg=1
money_lost_lst_03_avg=1
late_lst_03_avg=1
defualted_payment_lst_09_sum=1
default_lst_09_avg=1
defualted_payment_lst_09_avg=1
late_lst_09_avg=1
late_payment_first_lst_12_sum=1
default_lst_12_avg=1
late_payment_first_lst_12_avg=1

parameters:
[boosting: gbdt]
[objective: binary]
[metric: auc,average_precision,binary_logloss]
[tree_learner: serial]
[device_type: cpu]
[linear_tree: 0]
[data: ]
[valid: ]
[num_iterations: 300]
[learning_rate: 0.258794]
[num_leaves: 86]
[num_threads: 0]
[deterministic: 1]
[force_col_wise: 0]
[force_row_wise: 0]
[histogram_pool_size: -1]
[max_depth: 10]
[min_data_in_leaf: 14]
[min_sum_hessian_in_leaf: 0.001]
[bagging_fraction: 0.338141]
[pos_bagging_fraction: 1]
[neg_bagging_fraction: 1]
[bagging_freq: 2]
[bagging_seed: 22734]
[feature_fraction: 0.980316]
[feature_fraction_bynode: 1]
[feature_fraction_seed: 5052]
[extra_trees: 0]
[extra_seed: 5559]
[early_stopping_round: 15]
[first_metric_only: 0]
[max_delta_step: 0]
[lambda_l1: 0.180908]
[lambda_l2: 1.73662]
[linear_lambda: 0]
[min_gain_to_split: 0]
[drop_rate: 0.1]
[max_drop: 50]
[skip_drop: 0.5]
[xgboost_dart_mode: 0]
[uniform_drop: 0]
[drop_seed: 23992]
[top_rate: 0.2]
[other_rate: 0.1]
[min_data_per_group: 100]
[max_cat_threshold: 32]
[cat_l2: 10]
[cat_smooth: 10]
[max_cat_to_onehot: 4]
[top_k: 20]
[monotone_constraints: ]
[monotone_constraints_method: basic]
[monotone_penalty: 0]
[feature_contri: ]
[forcedsplits_filename: ]
[refit_decay_rate: 0.9]
[cegb_tradeoff: 1]
[cegb_penalty_split: 0]
[cegb_penalty_feature_lazy: ]
[cegb_penalty_feature_coupled: ]
[path_smooth: 0]
[interaction_constraints: ]
[verbosity: 1]
[saved_feature_importance_type: 0]
[max_bin: 255]
[max_bin_by_feature: ]
[min_data_in_bin: 3]
[bin_construct_sample_cnt: 200000]
[data_random_seed: 2213]
[is_enable_sparse: 1]
[enable_bundle: 1]
[use_missing: 1]
[zero_as_missing: 0]
[feature_pre_filter: 0]
[pre_partition: 0]
[two_round: 0]
[header: 0]
[label_column: ]
[weight_column: ]
[group_column: ]
[ignore_column: ]
[categorical_feature: ]
[forcedbins_filename: ]
[objective_seed: 29849]
[num_class: 1]
[is_unbalance: 0]
[scale_pos_weight: 1]
[sigmoid: 1]
[boost_from_average: 1]
[reg_sqrt: 0]
[alpha: 0.9]
[fair_c: 1]
[poisson_max_delta_step: 0.7]
[tweedie_variance_power: 1.5]
[lambdarank_truncation_level: 30]
[lambdarank_norm: 1]
[label_gain: ]
[eval_at: ]
[multi_error_top_k: 1]
[auc_mu_weights: ]
[num_machines: 1]
[local_listen_port: 12400]
[time_out: 120]
[machine_list_filename: ]
[machines: ]
[gpu_platform_id: -1]
[gpu_device_id: -1]
[gpu_use_dp: 0]
[num_gpu: 1]

end of parameters

pandas_categorical:null
